GIS
48
0.0
35
ORG-AFF:Employment-1
ORG-AFF:Employment
GEN-AFF:Citizen-Resident-Religion-Ethnicity-1
GEN-AFF:Citizen-Resident-Religion-Ethnicity
ORG-AFF:Membership
PHYS:Near
ORG-AFF:Ownership
GEN-AFF:Org-Location
PHYS:Located-1
PHYS:Located
PART-WHOLE:Geographical
ORG-AFF:Membership-1
ART:User-Owner-Inventor-Manufacturer
ART:User-Owner-Inventor-Manufacturer-1
PART-WHOLE:Subsidiary
PART-WHOLE:Subsidiary-1
PER-SOC:Business
PART-WHOLE:Geographical-1
PHYS:Near-1
GEN-AFF:Org-Location-1
PER-SOC:Family
PER-SOC:Family-1
PER-SOC:Lasting-Personal
ORG-AFF:Student-Alum
ORG-AFF:Investor-Shareholder
ORG-AFF:Founder
ORG-AFF:Student-Alum-1
PART-WHOLE:Artifact-1
PER-SOC:Business-1
PART-WHOLE:Artifact
ORG-AFF:Ownership-1
ORG-AFF:Sports-Affiliation-1
ORG-AFF:Sports-Affiliation
ORG-AFF:Investor-Shareholder-1
ORG-AFF:Founder-1
1153
21 0
2 0 1 2 3 4 5 6 7 8 9 10 11 12 13 14 15 16 17 18 19 20 21 22 23 24 25 26 27 28 29 30 31 32 33 34
1 0 1 2 3 4 5 6 7 8 9 10 11 12 13 14 15 16 17 18 19 20 21 22 23 24 25 26 27 28 31 32 33 34
1 0 1 2 3 4 5 6 7 8 9 10 11 12 13 14 15 16 17 18 19 20 21 22 23 24 25 27 28 29 30 31 32 34
1 0 1 2 3 4 5 6 7 8 9 10 11 12 13 14 15 16 17 18 19 20 21 22 23 24 25 27 28 29 31 32 33 34
1 0 1 2 3 4 5 6 7 8 9 10 11 12 13 14 15 16 17 18 19 20 21 22 23 24 25 27 29 30 31 32 33 34
1 0 1 2 3 4 5 6 7 8 9 10 11 12 13 14 15 16 17 18 19 20 21 22 24 25 28 30 31 32 33 34
3 0 1 2 3 4 5 6 7 8 9 10 11 12 13 14 15 16 17 18 19 20 21 22 25 26 27 28 30 31 32 33 34
1 0 1 2 3 4 5 6 7 8 9 10 11 12 13 14 15 16 17 18 19 20 21 22 25 27 30 31 32 33 34
1 0 1 2 3 4 5 6 7 8 9 10 11 12 13 14 15 16 17 18 20 22 23 24 25 26 27 29 30 31 32 33 34
1 0 1 2 3 4 5 6 7 8 9 10 11 12 13 14 15 16 17 18 20 22 23 24 25 31 32 33
1 0 1 2 3 4 5 6 7 8 9 10 11 12 13 14 15 16 17 18 20 22 23 24 25 32 33
1 0 1 2 3 4 5 6 7 8 9 10 11 12 13 14 15 16 17 19 20 21 22 23 24 25 27 28 29 30 31 33
1 0 1 2 3 4 5 6 7 8 9 10 11 12 13 14 15 16 17 19 20 21 22 24 25 32 33
1 0 1 2 3 4 5 6 7 8 9 10 11 12 13 14 15 16 17 19 20 22 23 24 25 28 31 32 34
1 0 1 2 3 4 5 6 7 8 9 10 11 12 13 14 15 16 17 19 20 22 23 25 27 28 29 31 32
2 0 1 2 3 4 5 6 7 8 9 10 11 12 13 14 15 16 17 20 22 23 24 28 32 33 34
1 0 1 2 3 4 5 6 7 8 9 10 12 13 14 15 16 17 18 20 22 23 24 25 29 32
1 0 1 2 3 4 5 6 7 8 9 10 12 13 14 15 16 17 20 22 23 24 32
1 0 1 2 3 4 5 6 7 8 9 10 12 13 14 16 20 24 28 32 33
1 0 1 2 3 4 5 6 8 9 10 11 12 13 15 16 20 22 24 28 30
1 0 1 2 3 4 5 7 8 9 10 11 12 13 14 15 16 17 18 19 20 21 22 23 24 25 26 28 29 31 32 33 34
1 0 1 2 3 4 5 7 8 9 10 11 12 13 14 15 16 17 20 21 23 24 25 28 30 32 33 34
1 0 1 2 3 4 5 7 8 9 10 11 12 13 14 15 16 17 20 22 24 29 31 32 33 34
1 0 1 2 3 4 5 7 8 9 10 11 12 13 14 15 17 18 19 20 29 33
1 0 1 2 3 4 5 7 8 9 10 11 12 13 16 17 18 20 22 24 28 34
1 0 1 2 3 4 5 7 8 9 10 11 12 13 17 18 20 22 24 28 34
1 0 1 2 3 4 5 7 8 9 10 11 12 14 15 20 24 26 32
1 0 1 2 3 4 5 7 8 9 10 12 14 15 17 19 20 21 22 24 25 29 31 34
1 0 1 2 3 4 5 7 9 10 12 13 15 16 20 25 32 33
1 0 1 2 3 4 5 7 9 10 12 18 20 29 32 33
1 0 1 2 3 4 5 8 9 10 11 12 13 14 15 16 17 18 20 22 23 24 25 32
1 0 1 2 3 4 5 8 9 10 11 12 13 14 15 16 17 18 20 22 24 25 32
1 0 1 2 3 4 6 7 9 10 11 12 14 15 16 18 19 20 24
1 0 1 2 3 4 6 8 9 12 13 16 20 21 22 24 28 29 31 33
1 0 1 2 3 4 7 8 9 10 14 16 20 22 33 34
1 0 1 2 3 4 8 9 12 17
2 0 1 2 3 5 6 7 8 9 10 11 12 13 14 15 16 17 19 20 22 27 32
1 0 1 2 3 5 6 8 9 10 11 12 13 14 15 16 17 18 20 22 24 28 32
1 0 1 2 3 5 7 8 9 10 11 12 13 16 17 18 19 20 21 22 28 29 30 31 33
1 0 1 2 3 5 9 12 16 33
2 0 1 2 3 6 7 8 9 13 16 17 28
1 0 1 2 4 5 6 7 8 9 10 12 14 15 16 17 19 20 22 24 30 33
2 0 1 2 4 5 6 8 9 10 11 12 13 15 20 22 23 32 33 34
1 0 1 2 4 5 7 8 9 10 12 13 15 16 17 25 33
1 0 1 2 4 5 8 9 10 12 13 17 18 29 33
2 0 1 2 4 8 9 10 13 17 18 19 20 25
1 0 1 2 4 8 9 12 13 15 17 20
1 0 1 2 4 8 9 16 20 22
1 0 1 2 4 9 10 11 12 13 14 15 16 17 20 22 24 27
1 0 1 2 4 9 11 12 13 14 20 22 27
1 0 1 2 4 9 11 12 16 17 22 28
1 0 1 2 7 8 9 10 11 12 13 16 17 31 32
2 0 1 2 8 10 13 14 32
1 0 1 2 10 12 14 15 16 20 22 24
2 0 1 3 4 5 6 7 8 9 10 11 12 13 14 16 17 20 22 23 32
1 0 1 3 4 5 6 7 8 9 10 11 12 13 15 16 20 22 24 28 31 32
1 0 1 3 4 5 6 7 8 9 10 12 13 14 15 16 17 19 20 21 22 23 24 25 32
1 0 1 3 4 5 6 7 8 9 10 12 13 15 16 22 32
1 0 1 3 4 5 6 7 8 9 10 12 13 15 17 23
1 0 1 3 4 5 6 7 9 10 13 15 16 20 23 24
1 0 1 3 4 5 6 8 9 10 11 12 13 16 20 25
1 0 1 3 4 5 6 8 9 10 12 13 14 15 16 17 20 22 24 32
1 0 1 3 4 5 7 8 9 10 11 12 13 14 15 16 17 18 20 21 22 24 25 32 33 34
1 0 1 3 4 5 7 8 9 10 11 12 13 14 15 16 17 18 20 21 23 24 25 28
1 0 1 3 4 5 7 8 9 10 11 12 13 14 15 16 17 18 20 22 23 24 25 28 32 33
1 0 1 3 4 5 7 8 9 10 11 12 13 14 15 16 17 18 20 22 23 24 34
1 0 1 3 4 5 7 8 9 10 11 12 13 14 15 16 17 18 20 22 24 25 27 30 31 32 34
1 0 1 3 4 5 7 8 9 10 11 12 13 14 16 17 19 20 21
1 0 1 3 4 5 7 8 9 10 11 12 13 15 17 18 20 22 33 34
1 0 1 3 4 5 7 8 9 10 11 13 14 16 18 20 22 30
1 0 1 3 4 5 7 8 9 10 12 13 15 16 33
1 0 1 3 4 5 7 8 9 10 12 15 16 19 20 28 29 34
1 0 1 3 4 5 7 9 10 11 12 13 14 16 17 19 20 22 23
1 0 1 3 4 5 7 9 10 11 12 13 20 24
1 0 1 3 4 5 8 9 10 11 12 13 15 16 17 20 22 23 24 33 34
1 0 1 3 4 5 8 9 10 12 17
2 0 1 3 4 5 8 9 11 12 13 16 20 22 23 24 32
1 0 1 3 4 5 8 9 14 16 20 22 23 30
2 0 1 3 4 5 9 12 16 20 22
1 0 1 3 4 6 7 8 9 10 12 13 15 16 20 24 28 32 33
1 0 1 3 4 7 8 9 10 12 13 15 16 17 18 20 21 22 24 32 33
1 0 1 3 4 7 8 9 10 12 13 15 16 17 18 20 21 22 32 33
2 0 1 3 4 7 8 9 10 12 13 16 20 25 33
1 0 1 3 4 7 12
1 0 1 3 4 8 9 10 11 12 16 20
1 0 1 3 4 8 9 10 11 12 16 20 24
1 0 1 3 4 8 9 11 12 13 14 15 16 17 22 23 24 26 28
1 0 1 3 4 9 11 13 15 16 17 20 31
1 0 1 3 5 6 9 11 12 16 22 23
2 0 1 3 5 6 9 12 14 16 20 28 31
1 0 1 3 5 8 9 12 16 20 29
1 0 1 3 5 8 9 12 20
1 0 1 3 5 8 9 22 24 33
1 0 1 3 5 9 10 11 12 15 16 17 20 24
1 0 1 3 5 9 15 20 22
1 0 1 3 5 9 20 22
1 0 1 3 5 9 23 25
1 0 1 3 8 9 11 16 20
1 0 1 3 8 9 12 13 20
1 0 1 3 8 9 13 14 15 20 30 32 33
1 0 1 3 8 9 17 28
2 0 1 3 9 11 12 16 20 22
1 0 1 3 12
1 0 1 4 5 6 7 8 9 12 14 15 17 20 24 25 26
1 0 1 4 5 7 8 9 10 11 12 13 14 15 17
1 0 1 4 5 8 9 10 11 12 13 16 17 22 24 26 31 33
1 0 1 4 5 8 9 10 13 17 18 22
2 0 1 4 5 8 9 13 16 17
1 0 1 4 5 8 9 16
2 0 1 4 5 8 10 11 12 13 16 17 34
1 0 1 4 5 9 10 17 20
1 0 1 4 6 7 8 10 15 18 19 20 21
2 0 1 4 6 8 10 12 15 16 17 20 22 32 33
1 0 1 4 8 9 12 22 32
1 0 1 4 8 9 22
1 0 1 4 9 12 15
1 0 1 4 11 13 15 16
1 0 1 4 13 15 16
1 0 1 4 14 15
3 0 1 4 14 15 24
1 0 1 4 15
1 0 1 4 15 16
1 0 1 5 7 8 10 11 12 13 16 17 19 20 25 28
1 0 1 5 7 9 10 12 15 16 32 34
1 0 1 5 8 9
2 0 1 5 8 9 10 11 12 13 14 16 18 30 33 34
1 0 1 5 8 9 10 12 13 16 17 26
1 0 1 5 8 9 10 12 15 16 17 19 20 25
2 0 1 5 8 9 12 13 22
1 0 1 5 8 10 11 12 13 16 17 20 21 34
1 0 1 5 9 10 12 15 20 24
1 0 1 5 9 10 12 25
1 0 1 5 9 12 16
1 0 1 5 9 15 21
1 0 1 6 7 9 10 12 16 17 20 24 31
1 0 1 6 9 12 17 20 24 27
1 0 1 7 8 14 16 20
1 0 1 7 9 10 16
1 0 1 8
1 0 1 8 9 12 13 15 17
1 0 1 8 9 12 16
2 0 1 8 12 13 14 15 16 20 32 33
1 0 1 9
1 0 1 9 11 12 16 20 22
3 0 1 9 12
1 0 1 9 12 13 17 19 20
1 0 1 9 12 15 16 20 31
1 0 1 9 12 16
1 0 1 9 19
1 0 1 9 20 26
1 0 1 9 22
2 0 1 14 15
1 0 1 17 18
1 0 1 18
1 0 1 20
3 0 2
1 0 2 3 4 8 9 10 12 15 20 22 23 31
2 0 2 3 5 7 9 11 12 15 20 22
1 0 2 3 6 9 12 17 20 22 25
1 0 2 4 7 8 10 11 12 15 17 19 26 31 32
1 0 2 4 9 12 13 22 32
2 0 2 4 10 12 19
2 0 2 5 8 10 15 17 18
1 0 2 6 8 9 11 12 15 16 20 22 27 31
1 0 2 6 12 20 22
1 0 2 7 8 10 12
1 0 2 7 12
10 0 2 8
3 0 2 8 9
1 0 2 8 9 10 12 13 16 17 20 22
1 0 2 8 10 12
2 0 2 8 10 12 15 17 19
2 0 2 8 12 15
1 0 2 8 12 15 16 20
2 0 2 8 12 15 17
2 0 2 8 12 15 17 19
2 0 2 8 12 17 19
1 0 2 8 13 16 28
2 0 2 8 13 16 30 31
1 0 2 8 15 17
2 0 2 8 16 22 28
2 0 2 8 17
7 0 2 8 18
6 0 2 8 18 31
2 0 2 8 19
4 0 2 8 31
1 0 2 9 12 14
1 0 2 9 12 16 17 19
2 0 2 9 12 16 30 33
1 0 2 9 14 15
1 0 2 9 15
2 0 2 10 12
1 0 2 10 12 17
2 0 2 12
2 0 2 12 15 17
1 0 2 12 16 20 22 26
2 0 2 15
1 0 2 16 20 27
1 0 2 16 30 33
2 0 2 19
1 0 2 20
1 0 3 4 5 7 8 9 10 11 13 16 18
1 0 3 4 5 7 8 9 10 12 13 17 24 33
1 0 3 4 9 20 32
1 0 3 5 8 9 10 12 13 15 20
1 0 3 5 8 9 12 13 14 20 22 33
1 0 3 5 9 11 16 20 21
1 0 3 8 9
1 0 3 8 9 12 16 34
1 0 3 8 9 12 17
1 0 3 8 9 17 22 32
2 0 3 8 13 16 18
1 0 3 9 10 11 12 13
1 0 3 9 12 13 17 22
1 0 3 9 16 22 23
1 0 3 11
1 0 4
1 0 4 5 9
1 0 4 7 10 31
1 0 4 7 31
2 0 4 8
1 0 4 8 9 12 20 21
1 0 4 8 9 20 21
2 0 4 9
1 0 4 9 12
2 0 4 9 12 15 16
1 0 4 9 20
1 0 4 9 22
1 0 4 11 13 15 16
1 0 4 13
2 0 4 15
4 0 4 15 19 33
1 0 4 16
2 0 5 7 9 12 20
2 0 5 8 10 15
2 0 5 8 11 16 20 21 22
2 0 5 8 33 34
1 0 5 9 12
1 0 5 9 12 13 16 24
1 0 5 9 12 13 22
2 0 5 9 12 13 30
1 0 5 9 12 16 23 32
1 0 5 9 12 32
1 0 5 9 13 16 17 20 22 24
2 0 5 10
2 0 5 11 12 15 33
3 0 5 12
1 0 5 12 15
1 0 6 8 9 12 20
1 0 6 8 9 12 20 22 33
2 0 7 8 10 11 14
1 0 7 9 10 12 16 19 22 31
1 0 7 9 12 16 23 32
1 0 7 10
1 0 7 10 11
1 0 7 10 11 12 15
1 0 7 10 25 31 33
1 0 7 11
2 0 7 11 14
2 0 7 11 15 30 33 34
2 0 7 12 14
1 0 7 12 15
2 0 7 12 33
2 0 7 14
1 0 7 19
18 0 8
1 0 8 9
1 0 8 9 10 12 17 18
1 0 8 9 11 12
1 0 8 9 12
1 0 8 9 12 13 17 22 24
1 0 8 9 13
1 0 8 9 31
2 0 8 9 33
2 0 8 10 13 17
1 0 8 10 14 30
1 0 8 10 15 19
1 0 8 10 19
2 0 8 11 13
2 0 8 11 13 16
3 0 8 11 15 26 30 31 33 34
1 0 8 11 15 34
4 0 8 11 26 30 31 33 34
2 0 8 11 33 34
1 0 8 11 34
1 0 8 12 15
2 0 8 13 16 21
4 0 8 16
2 0 8 16 20 31 33
2 0 8 16 22 28
1 0 8 17
1 0 8 17 22
1 0 8 18
1 0 9
3 0 9 12
1 0 9 12 13 23 33
3 0 9 12 14
1 0 9 12 16
1 0 9 12 16 20
2 0 9 12 22
1 0 9 13 20 33
2 0 9 16
1 0 9 17
2 0 9 19 22
1 0 9 20
1 0 9 20 22
5 0 11
2 0 11 12
1 0 11 12 15
1 0 11 15
2 0 11 15 26 30 31 33 34
1 0 11 15 26 31 33 34
1 0 11 15 30 31 33 34
1 0 11 17
2 0 11 30 31
1 0 11 30 33 34
1 0 11 33
1 0 11 34
2 0 12
4 0 12 15
4 0 12 15 17
1 0 12 15 19
1 0 12 16 24
2 0 13 16
2 0 13 18 21 22 28
4 0 14
3 0 14 15
2 0 15
6 0 15 19
4 0 16
2 0 16 20
1 0 16 20 31
2 0 16 28
1 0 19
2 0 20
3 0 26
1 0 30 31
2 0 30 33 34
2 0 30 34
1 0 31
1 0 31 33
1 0 32
2 0 33
35 1
2 1 2 3 4 5 6 7 8 9 10 11 12 13 14 15 16 17 20 21 22 23 25 27 28 29 32
1 1 2 3 4 5 6 8 9 10 12 14 15 16 20 22
2 1 2 3 4 9 12 13 17 22 33
1 1 2 3 5 9 10 12
1 1 2 3 8 9 10 13 15 16 17 18 20 21
2 1 2 5 7 8 9 10 12 13 17 26 33
1 1 2 5 8 9 10 12 14 15 20 22
1 1 2 8 9 12 17 27 33
2 1 2 8 13 20
2 1 2 9 10 22
2 1 2 9 12
7 1 3
3 1 3 4
1 1 3 4 5 6 7 8 9 10 12 14 16 20 22 24 28 31 32
1 1 3 4 5 6 7 9 12 14 20 23
1 1 3 4 5 6 8 9 10 11 12 16 20 31
1 1 3 4 5 6 8 9 10 12 23 24
2 1 3 4 5 6 9 12 16 20 22 23 24
2 1 3 4 5 6 9 12 16 20 22 23 25 28 32
2 1 3 4 5 7 8 9 10 11 12 13 14 16 17 18 20 25 32 33
2 1 3 4 5 7 8 9 12 16 17 20 22 24 32
2 1 3 4 5 7 9 10 12 13 14 17
2 1 3 4 5 7 9 10 12 13 17 20 24 32 33
2 1 3 4 5 7 9 10 12 14 17 23 24
2 1 3 4 5 7 9 10 12 16 17 28 29
1 1 3 4 5 8 9 12 17 20 22 23 24 32 33 34
1 1 3 4 5 8 9 13 20 24
1 1 3 4 5 9 10 13 16
2 1 3 4 5 9 12 16 20 22 23 24 25
2 1 3 4 5 9 22 23
1 1 3 4 6 9 10 12 14 16 20 25
1 1 3 4 6 9 10 12 16 20 21 22 25
1 1 3 4 6 9 12 16 20 21 22 25
1 1 3 4 6 9 12 25
7 1 3 4 6 9 14 16 23 24 25 32
1 1 3 4 6 14 16 25
2 1 3 4 6 15 25
1 1 3 4 6 16 23 24 25 32
1 1 3 4 6 16 25
3 1 3 4 6 25
3 1 3 4 6 25 32
1 1 3 4 7 8 9 12 16 17 20
1 1 3 4 7 9 10 12 13 25
2 1 3 4 7 9 10 12 14 16 20
1 1 3 4 8 9 10 12 16 20
1 1 3 4 8 9 12
1 1 3 4 8 9 12 16 17 22
8 1 3 4 9
1 1 3 4 9 10 11 12
1 1 3 4 9 10 12 13 20
1 1 3 4 9 10 13 16
2 1 3 4 9 10 14
1 1 3 4 9 10 16 17 20 24
1 1 3 4 9 12
1 1 3 4 9 12 25
2 1 3 4 9 16 20
2 1 3 4 9 16 20 28
1 1 3 4 16 23 24 25
2 1 3 4 19 24 25 34
1 1 3 4 20
4 1 3 4 25
1 1 3 5
1 1 3 5 6 8 9 10 12 13 14 20 22 34
2 1 3 5 6 9 24
2 1 3 5 7 8 9 10 11 12 13 14 16 17 20 22 23 32 33
4 1 3 5 7 9 10
1 1 3 5 7 9 10 12 16 24 33
1 1 3 5 7 9 10 14
1 1 3 5 7 9 10 14 17 32
1 1 3 5 7 9 10 14 32
1 1 3 5 7 9 10 17
2 1 3 5 7 9 12
2 1 3 5 8 9
1 1 3 5 8 9 10 11 12 13 14 15 16 17 20 22 24 32 33
1 1 3 5 8 9 10 12 22 23 24 32
1 1 3 5 8 9 10 15 20 31 32
2 1 3 5 8 9 12 13 20 34
1 1 3 5 8 9 12 13 22 30 33 34
1 1 3 5 8 9 12 15 17 20 22 33
1 1 3 5 8 9 12 17 24 33
10 1 3 5 9
1 1 3 5 9 10 12
1 1 3 5 9 10 12 13 16
1 1 3 5 9 12 16 17 20 22 23 32
2 1 3 5 9 20 34
1 1 3 5 9 23
9 1 3 5 9 25
4 1 3 7 9 10
2 1 3 7 9 10 12
1 1 3 7 9 10 14
1 1 3 7 9 11 12
1 1 3 7 10
1 1 3 8 9 10 12 23
1 1 3 8 12 17
1 1 3 8 19
13 1 3 9
2 1 3 9 10
1 1 3 9 10 11 13 19 20 25 32
4 1 3 9 10 12
2 1 3 9 10 12 13 18 25
1 1 3 9 10 14
2 1 3 9 10 14 17 25
2 1 3 9 10 17
7 1 3 9 12
1 1 3 9 12 16
2 1 3 9 12 16 20
2 1 3 9 12 16 20 21 22 24 25 32
3 1 3 9 12 22
1 1 3 9 20
1 1 3 9 25
4 1 3 10
1 1 3 20
35 1 4
2 1 4 5 6 8 9 12 16 17 20 22 24 29 31 33
1 1 4 5 7 8 9 10 12 17 18
2 1 4 5 7 8 9 12 13 15 16 17 20 22 24
1 1 4 5 7 8 9 12 13 17 18 24 25 32 33
1 1 4 5 8 9 11 12 20 22
1 1 4 5 8 9 12 20 23 33
2 1 4 5 9
1 1 4 5 9 10 12 14 16 20 22
1 1 4 5 9 10 13 14 23 24
1 1 4 5 9 10 14 23 24
11 1 4 5 9 12
2 1 4 5 9 12 16 20 22 24
1 1 4 5 9 12 20 23 33
1 1 4 5 9 12 24 25
1 1 4 5 9 33
2 1 4 6 9 32
1 1 4 6 13 14 15
2 1 4 6 14 15 24
1 1 4 6 14 16 23 25 32
1 1 4 6 14 24
1 1 4 6 14 24 25
1 1 4 6 15 25
1 1 4 6 23 24
1 1 4 6 23 25 32
1 1 4 6 24 25
2 1 4 6 25
3 1 4 6 32
1 1 4 7 9 13 14 15 31
3 1 4 8
1 1 4 8 9
1 1 4 8 9 15 16 17 24 31 32
1 1 4 8 9 25
1 1 4 8 10
2 1 4 8 12 13 16
1 1 4 8 17 33
15 1 4 9
1 1 4 9 10 12 13 17 20 23
1 1 4 9 10 12 16 20
1 1 4 9 10 12 17 20 23
1 1 4 9 10 14
1 1 4 9 10 19
5 1 4 9 12
1 1 4 9 12 22
1 1 4 9 12 25 28
2 1 4 9 13 28
1 1 4 9 14 19 25
1 1 4 9 15
3 1 4 9 16
1 1 4 9 19
2 1 4 9 20
1 1 4 9 23
1 1 4 10 12 14 15 19 25
1 1 4 10 25
2 1 4 11 14 15 19 25
1 1 4 12
1 1 4 12 13 14
2 1 4 12 16
1 1 4 12 24
2 1 4 13 14
1 1 4 13 14 15
2 1 4 14
7 1 4 14 15
2 1 4 14 15 24
1 1 4 14 16
2 1 4 14 19
2 1 4 15
2 1 4 16
1 1 4 16 24
3 1 4 19
1 1 4 23
1 1 4 24
2 1 4 24 25
1 1 4 25
1 1 4 34
1 1 5 7
1 1 5 7 8 9 12 32 33
1 1 5 7 9
2 1 5 7 9 10
1 1 5 8 9
1 1 5 8 9 10 12 20
1 1 5 8 9 11 12 13 16
1 1 5 8 9 12
1 1 5 8 9 12 13 16 17 20 22
2 1 5 8 9 12 17
1 1 5 8 9 12 22
1 1 5 8 9 12 24 33
1 1 5 8 9 16 20
12 1 5 9
1 1 5 9 10 12
2 1 5 9 10 12 15
2 1 5 9 10 12 17
3 1 5 9 10 17
1 1 5 9 10 20
3 1 5 9 12
1 1 5 9 12 13
1 1 5 9 12 15 16 20 22 23 32
2 1 5 9 12 16 20 22
1 1 5 9 12 20
1 1 5 9 13
2 1 5 9 15
1 1 5 9 16
1 1 5 9 16 32
2 1 5 9 24 32
1 1 5 9 25
1 1 5 10
1 1 5 10 25
2 1 5 11 16 28
1 1 5 14 16
4 1 6
1 1 6 9 12
1 1 6 12 16 20 22 24
2 1 6 13 15
1 1 6 14 24
4 1 6 24
2 1 6 24 33
1 1 6 25
1 1 7 9
3 1 7 9 10
1 1 7 9 10 11
1 1 7 9 10 12 14
2 1 7 9 10 17
2 1 7 9 10 20
1 1 7 9 11 12
1 1 7 9 16
3 1 7 10
1 1 7 14 15 22
1 1 8
1 1 8 9
1 1 8 9 10 12
1 1 8 9 10 21
1 1 8 9 11
1 1 8 9 11 12 16
1 1 8 9 12
1 1 8 9 12 16
1 1 8 9 15 17
2 1 8 9 16
2 1 8 9 22
2 1 8 10
1 1 8 12
2 1 8 13
63 1 9
3 1 9 10
1 1 9 10 11 12
1 1 9 10 12
1 1 9 10 12 17 22
4 1 9 10 13
1 1 9 10 16
4 1 9 10 17
1 1 9 11 12
1 1 9 11 20
10 1 9 12
1 1 9 12 13 24
1 1 9 12 13 32
2 1 9 12 14 28 31
3 1 9 12 16
1 1 9 12 16 17 20
2 1 9 12 16 20
2 1 9 12 20 21 24
1 1 9 12 22 32
1 1 9 12 28
2 1 9 12 32
1 1 9 12 34
1 1 9 13
2 1 9 14
2 1 9 14 15 23
8 1 9 16
1 1 9 16 20 22
1 1 9 16 28
2 1 9 17
1 1 9 17 19
1 1 9 18 22
4 1 9 20
1 1 9 22
4 1 9 23
1 1 9 24
1 1 9 32
2 1 10
1 1 10 17 20
2 1 12
1 1 12 14 24
1 1 12 16 20
1 1 12 24
5 1 13
2 1 13 14
1 1 13 24
2 1 14 15
2 1 14 25
4 1 15
2 1 15 18
1 1 15 19
2 1 15 19 24
1 1 15 25
5 1 16
4 1 19
1 1 20
1 1 22
1 1 24
1 1 24 25 32
1 1 25
1 2 3
1 2 3 4 7 9 10 15 20
9 2 3 4 16 20 21 22 28
1 2 3 8 9 11 17 34
2 2 3 8 11 17 34
2 2 3 8 16 28
1 2 3 16 20 21 22 28
1 2 3 16 20 22 28
2 2 4 5 9 10 13 14 15 19 27
1 2 4 8 9 10 17
2 2 4 10 12 13 16 32
1 2 5 8 9 10 17 29
1 2 5 8 9 11 13 17 20 22 33
1 2 5 8 10 15 18
1 2 5 9 12 19 20
1 2 5 9 31
7 2 8
2 2 8 10
2 2 8 13 16
1 2 8 13 17
2 2 8 16 20
2 2 8 17 19
9 2 8 18
2 2 8 20
1 2 8 20 26
1 2 9
1 2 9 12 20
1 2 10
1 2 12
1 2 13
2 2 17 19
5 3
1 3 4 5 13
2 3 4 6 9 12
2 3 4 7 9 11 34
1 3 4 8 9
1 3 4 8 9 10 11 26
1 3 4 8 9 12 15 16 20
1 3 4 8 9 15 16 17 26
1 3 4 8 9 20
2 3 4 9 10 12 20
2 3 4 9 16 24
2 3 4 9 20 21
2 3 4 9 22
2 3 4 16 20 21 22 28
1 3 4 24 25
1 3 5
11 3 5 7 9
3 3 5 7 9 10
3 3 5 7 9 10 11 14
3 3 5 7 9 10 11 14 33
2 3 5 7 9 10 12 17
1 3 5 7 9 10 13 14 17
2 3 5 7 9 10 14
2 3 5 7 9 10 14 17
3 3 5 7 9 10 17
2 3 5 7 9 10 17 18
2 3 5 7 9 10 18
1 3 5 7 9 14
1 3 5 8 9
2 3 5 8 9 10 12 13 17 23 24 26 33
1 3 5 8 9 10 12 32
1 3 5 8 9 22
23 3 5 9
5 3 5 9 10
1 3 5 9 12 14
2 3 5 9 12 20
1 3 5 9 13 17 21
2 3 5 9 16
2 3 5 9 17
1 3 5 9 20
2 3 5 9 20 22
2 3 5 9 22
1 3 5 9 22 23
2 3 5 10
1 3 5 12 13 15 16 22
1 3 5 13 21
1 3 6 9 16
1 3 7 8 14
3 3 7 9
3 3 7 9 10
2 3 7 9 10 14
1 3 7 9 11
1 3 7 9 11 14 33
1 3 7 9 13 17
1 3 7 9 14
1 3 7 9 16 20
1 3 7 9 17
2 3 7 9 23
3 3 7 10
1 3 7 11 14 33
1 3 7 11 33
1 3 7 14
2 3 8 9
3 3 8 9 12
1 3 8 9 12 13
1 3 8 9 12 17 18
1 3 8 9 12 25
2 3 8 9 13 15 20
3 3 8 9 16
2 3 8 12 33
1 3 8 17 18 20
1 3 8 22
64 3 9
11 3 9 10
3 3 9 10 12
2 3 9 10 13
4 3 9 10 17
1 3 9 10 32
11 3 9 12
2 3 9 12 15 16 20 24 33
3 3 9 12 16
1 3 9 12 17
4 3 9 12 20
2 3 9 12 20 21
2 3 9 12 20 22
1 3 9 12 22
1 3 9 13 23
1 3 9 16 24
5 3 9 20
1 3 9 20 24
2 3 9 20 32
2 3 9 22
3 3 9 23
3 3 9 25
1 3 9 29
1 3 9 32
9 3 10
1 3 10 14
2 3 10 17
1 3 12 32
1 3 16
1 3 16 20
2 3 16 20 21 22 28
1 3 16 20 22
1 3 16 20 22 28
2 3 23
9 4
2 4 5 6 8 9 13 24
1 4 5 6 9 10 12 20
1 4 5 6 9 10 12 20 25
1 4 5 7 9 10
1 4 5 7 9 10 17 19
1 4 5 8 9 10 12 13
1 4 5 8 9 12 14 16 23 32
6 4 5 9
1 4 5 9 20
1 4 5 13
1 4 6 9 12 20
2 4 6 15 19 25 32
2 4 6 19
1 4 7 8 9 10 11 12 18
1 4 8 9 12
1 4 8 9 12 16 17 20
1 4 8 9 17
1 4 8 9 19 20
2 4 8 9 24
7 4 9
2 4 9 10 12
1 4 9 10 14 24
7 4 9 12
1 4 9 12 15
1 4 9 12 24
1 4 9 13
1 4 9 13 25
1 4 9 13 32
2 4 9 15
1 4 9 16
3 4 9 20
1 4 9 20 25
1 4 9 24
1 4 9 24 33
1 4 11 12
2 4 11 16
1 4 12 16 32
1 4 12 20
1 4 13 15 16
3 4 14
1 4 14 15
1 4 14 15 19
1 4 14 15 24
1 4 15
2 4 15 16
3 4 15 19
3 4 15 19 33
2 4 15 25
1 4 16 20 22 28
1 4 20
1 4 24 25
2 4 32
5 5
1 5 6 8 9 10 17 22
2 5 6 9 10 12
1 5 6 9 13
1 5 7 8 9 12 16 20 32
5 5 7 9
4 5 7 9 10
1 5 7 9 10 14
1 5 7 9 10 15 19
2 5 7 9 11 12 14 15 16
1 5 7 9 14
11 5 7 10
7 5 7 10 13
1 5 7 10 15 17
1 5 7 34
5 5 8 9
2 5 8 9 10 12
1 5 8 9 10 17
1 5 8 9 10 18
4 5 8 9 12
2 5 8 9 12 13 20 24
1 5 8 9 12 20
1 5 8 9 13
1 5 8 9 17
1 5 8 9 27
21 5 8 10
1 5 8 10 12 17 18
2 5 8 10 13
1 5 8 10 13 17
1 5 8 10 13 17 19
2 5 8 10 17
4 5 8 10 17 18
2 5 8 12 17
1 5 8 12 18
78 5 9
8 5 9 10
1 5 9 10 12 17
1 5 9 10 13 20
1 5 9 10 15
1 5 9 10 16 18
5 5 9 10 17
1 5 9 10 32
1 5 9 11 13 16 20
30 5 9 12
1 5 9 12 13
1 5 9 12 13 16 24
2 5 9 12 14
2 5 9 12 14 17
1 5 9 12 14 20
1 5 9 12 16
2 5 9 12 16 24
2 5 9 12 17
1 5 9 12 20
1 5 9 12 22
2 5 9 13
2 5 9 14
2 5 9 16 20 22
4 5 9 17
1 5 9 17 18
2 5 9 22 33
1 5 9 24
1 5 9 32
58 5 10
2 5 10 12 13 27 29 31 33
10 5 10 12 17
11 5 10 13
2 5 10 13 18
1 5 10 14
3 5 10 14 15 17
3 5 10 14 15 17 18
3 5 10 14 17
48 5 10 17
15 5 10 17 18
4 5 10 18
1 5 12 14
5 5 12 17
1 5 12 18
2 5 13
4 5 17
1 5 24
1 5 32
1 6 8 9 12 13 16
1 6 8 9 12 13 17 20
1 6 8 14 16 20
1 6 9
2 6 9 12
1 6 9 12 31
1 6 11 18
1 6 12 14
1 6 12 24 31
1 6 24 30
17 7
1 7 8 9 10
1 7 8 9 12 16 20
1 7 8 10 17
1 7 8 11 12 15
1 7 8 13 20 27
1 7 8 17 18
7 7 9
3 7 9 10
1 7 9 10 11
1 7 9 12
1 7 9 12 17
2 7 9 14
1 7 9 15
9 7 10
1 7 10 11 14
1 7 10 14
2 7 10 26
2 7 11
1 7 11 14
5 7 14
12 8
14 8 9
2 8 9 10 12 20
2 8 9 11 12 24
5 8 9 12
1 8 9 12 13 14
1 8 9 12 13 15 16 28
1 8 9 12 15
1 8 9 12 15 20
1 8 9 12 17
1 8 9 12 18
1 8 9 12 20
1 8 9 12 22 24
1 8 9 13 20 33
2 8 9 14 20
1 8 9 14 32
1 8 9 15 17 20
1 8 9 16
1 8 9 16 22
1 8 9 16 22 33
1 8 9 16 23
1 8 9 17
1 8 9 20 22
3 8 9 22
11 8 10
1 8 10 12 13 15
2 8 10 13
1 8 10 13 17
1 8 10 17
2 8 10 17 18
2 8 10 18
2 8 10 18 33
3 8 10 19
2 8 11
2 8 11 13 16 18 20 28
2 8 11 16 20 22 28 33
1 8 12
1 8 12 15 17
1 8 12 20 26
1 8 12 22
12 8 13
1 8 13 16 19 28
1 8 13 16 20
14 8 13 18
2 8 13 20
2 8 15 17
1 8 16 20
2 8 16 22
8 8 17
2 8 17 18
1 8 17 20
3 8 18
1 8 18 33
6 8 20
1 8 20 33
2 8 22
192 9
40 9 10
10 9 10 12
2 9 10 12 16
6 9 10 12 17
1 9 10 12 17 29
3 9 10 12 22
1 9 10 12 31
1 9 10 12 32
1 9 10 13
1 9 10 15
9 9 10 17
1 9 10 18
2 9 10 29
2 9 11
1 9 11 12
1 9 11 12 13
91 9 12
1 9 12 13
1 9 12 13 23 33
5 9 12 15
1 9 12 15 23
3 9 12 16
1 9 12 16 17 20
1 9 12 16 20
2 9 12 16 20 21
4 9 12 17
2 9 12 17 22
7 9 12 20
4 9 12 20 22
1 9 12 20 27
1 9 12 21
1 9 12 23
3 9 12 24
2 9 12 28
3 9 12 32
1 9 13
1 9 13 16 17 20
1 9 13 25
3 9 14
2 9 14 15 23
1 9 15
2 9 15 17
2 9 15 20
6 9 16
4 9 16 20
2 9 16 20 22
1 9 16 22
1 9 16 22 24
1 9 16 22 32
1 9 16 25
2 9 16 28
1 9 16 32
7 9 17
2 9 17 18
2 9 17 20
1 9 17 20 22
17 9 20
2 9 20 21
7 9 20 22
2 9 20 24
1 9 20 28
2 9 22
1 9 22 32
2 9 23
1 9 24
1 9 25
1 9 31
2 9 32
66 10
1 10 11 12
2 10 12 20 22
5 10 13
2 10 13 14 15
2 10 13 14 17 29
1 10 14
1 10 15
2 10 15 17 18
2 10 15 17 19
25 10 17
2 10 18
1 10 22
1 11 12 20 31
2 11 13 16
2 11 22 26
1 11 26
2 11 34
168 12
2 12 13
1 12 13 17 24
6 12 15
2 12 16 20 22
9 12 17
2 12 18
1 12 20
1 12 20 27 31
2 12 27
5 12 29
1 12 32
1 12 33
47 13
2 13 16 20
1 13 17
2 13 17 32
2 13 20 21
2 13 20 34
1 13 31 33
1 14
4 14 15
3 14 15 24
5 15 17
1 15 17 18
2 15 17 24
13 15 19
2 15 19 33
2 15 24
12 16
3 16 20
1 16 20 21
2 16 20 21 22
1 16 20 21 22 28
11 16 20 22
2 16 20 22 28
2 16 20 28
2 16 22
1 16 22 32
1 16 28
12 17
37 20
9 20 21
2 20 21 34
4 20 22
7 22
2 24
3 25
7 27 29
1 29
3 33
3396
hmet=poss-1:CNN:PERSON
hmet=U.S:PERSON
hmet=CNN:PERSON
wm2=Ryan
wm2=Chilcote
hm2=Ryan_Chilcote
hm12=CNN:Ryan_Chilcote
ethm=poss-1:ORGANIZATION:Ryan_Chilcote
hmhm=poss-1:CNN:Ryan_Chilcote
hmet=poss-1:cnn:PERSON
hmet=u.s:PERSON
ethm=poss-1:GPE:minister
hm12=U.S:forces
hmhm=U.S:forces
wm2=ambassador
hm2=ambassador
ethm=poss-1:GPE:ambassador
ethm=GPE:president
ethm=GPE:officials
wm2=CEO
ethm=ORGANIZATION:employees
not_a_relative
ml12=NOM:NOM
bm1f=.
am2f=,
#wb=1
am2f=.
ml12=NAM:NOM
wbnull
#wb=0
chpbnull
bm1f=,
#wb=2
wbo=to
chpbo=to
ml12=PRO:NOM
#wb=4
ml12=NAM:NAM
am2f=and
wbo=,
chpbo=,
am2f=in
#wb=9
chpbf=be
bm1f=that
bm1f=of
ml12=NOM:NAM
am2f=of
bm1f=in
wbf=,
chpbf=,
wbf=is
am2f=is
bm1f=by
bm1f=as
wbl=of
chpbl=of
bm1f=for
ml12=PRO:PRO
am2f=who
chpbl=be
wbl=and
chpbl=and
#wb=7
ml12=NOM:PRO
wbf='re
wm1=that
hm1=that
bm1f=from
wbo=in
chpbo=in
am2f=for
bm1f=on
wbfl=,
chpbfl=,
wbo=that
wbo=you
chpbf=have
wbf=had
bm1f="
ml12=NAM:PRO
wbf=for
chpbf=for
am2f='s
wbo=and
chpbo=and
bm1f=and
ml12=PRO:NAM
wbo=be
chpbo=GPE
bm1f=--
bm1f=was
wbo=a
wbo=the
bm1f=to
#wb=3
#wb=6
#wb=5
am2f=to
chpbo=be
bm1f=is
am2f=as
bm1f=)
bm1f=with
bm1f=when
#wb=8
bm1f='s
wbo=for
chpbo=for
chpbo=PERSON
wm1=you
hm1=you
wbf='s
chpbl=,
wbl=,
wbf=and
chpbf=and
bm1f=00
chpbf=to
wbf=to
am2f=have
bm1f=said
bm1f=but
wm1=they
hm1=they
am2f=at
bm1f=-
chpbo=have
#wb=11
wbo=uh
chpbo=uh
bm1f=''
am2f=had
am2f=back
am2f=will
wbo=I
wbf=--
chpbf=--
bm1f=_
#wb=10
bm1f=at
wbo=have
wbo=was
wbfl=to
chpbfl=to
bm1f=And
wbfl=with
chpbfl=with
am2f=when
am2f=has
wbl=with
chpbl=with
chpbo=know
wbo=know
bm1f=how
wm2=3rd
wm2=Infantry
et1sub2=Government:ORGANIZATION
et12=ORGANIZATION:ORGANIZATION
et12+m1<m2=ORGANIZATION:ORGANIZATION:false
hm12+m1<m2=ORGANIZATION:ORGANIZATION:false
wm2=division
wm2=7th
am2f=was
chpbo=ORGANIZATION
wbo=said
wbl=by
chpbl=by
wbo=been
am2f=with
wbo=but
chpbo=but
wm2=-
wbf=have
am2f=since
chpbo=say
am2f=by
bm1f=:
wbf=also
am2f=said
am2f=because
am2f=reports
chpbo=that
chpbf=say
wbl=for
chpbl=for
bm1f=while
bm1f=if
wbl=get
wbf=took
bm1f=If
am2f=last
wm2='s
bm1f=time
am2f=this
am2f=say
chpbf=want
et12sub=ORGANIZATION:Government
et1sub2sub=Government:Government
am2f=remain
wm2=Marines
wm2=in
hmet=US:PERSON
hmet=poss-1:Iraq:PERSON
hmet=poss-1:country:PERSON
am2f=are
wm1=we
hm1=we
bm1f=where
bm1f=the
bm1f=after
wm1=Russia
hm1=Russia
wm1=city
hm1=city
chpbfl=have
wbfl=have
wm1=state
wm1=American
country_et2=PERSON
hmet=Iraq:PERSON
etet=poss-1:GPE:PERSON
hmet=where:PERSON
et1sub2=State-or-Province:PERSON
et1sub2sub=State-or-Province:Individual
wm2=women
hm2=women
et1sub2sub=State-or-Province:Group
etet=of:GPE:PERSON
bm1f=WOODRUFF
wbo=held
chpbo=hold
wbf=has
hm1=state
wm1=country
hm1=country
wm1=iraq
hm1=iraq
wbl=have
wm1=Virginia
hm1=Virginia
wm1=Iraq
hm1=Iraq
wm1=where
hm1=where
hmet=that:PERSON
wm2=he
hm2=he
wm1=new
wm2=people
hm2=people
wm1=New
wbl=are
et12sub=GPE:Group
et1sub2sub=Nation:Group
et12+m1>m2=GPE:PERSON:false
hm12+m1>m2=GPE:PERSON:false
et1sub2=Population-Center:PERSON
et1sub2sub=Population-Center:Individual
et1sub2sub=Population-Center:Group
et12=GPE:PERSON
et12+m1<m2=GPE:PERSON:false
hm12+m1<m2=GPE:PERSON:false
etet=GPE:PERSON
et1sub2=Nation:PERSON
et12sub=GPE:Individual
wm1=Turkey
hm1=Turkey
et12+m1>m2=GPE:PERSON:true
hm12+m1>m2=GPE:PERSON:true
et1sub2sub=Nation:Individual
nationality_et2=PERSON
wbo=no
bm1f=a
wm1=our
hm1=our
wm1=american
hm1=american
wm1=nation
hm1=nation
bm1f=an
hm1=American
chpbl=send
wm1=Iraqi
hm1=Iraqi
chpbl=have
wm1=iraqi
hm1=iraqi
cpp=have_and
hmet=our:PERSON
wm1=US
hm1=US
hmet=we:PERSON
am2f=-
wbo=are
wbo=years
am2f=on
wbf=that
bm1f=between
chpbo=I
am2f=into
chpbo=the
wbo=there
wm2=forces
hm2=forces
bm1f=have
chpbf=that
bm1f=think
wm1=Republican
bm1f=still
bm1f=As
hm1=Auburn
wm1=Auburn
wm1=France
hm1=France
chpbf=on
wbf=on
#wb=18
wbo=may
wbo=only
wbl=--
chpbl=--
chpbo=year
am2f=before
wm2=Division
wm2=militia
wm2=Cavalry
hm2=7th_Cavalry
et12=GPE:ORGANIZATION
et12+m1<m2=GPE:ORGANIZATION:false
hm12+m1<m2=GPE:ORGANIZATION:false
etet=GPE:ORGANIZATION
wm2=authority
wm1=We
hm1=We
wm1=countries
hm1=countries
wbfl=and
chpbfl=and
chpbfl=by
wbfl=by
chpbo=fire
wbo=about
#wb=16
wbo=by
chpbo=by
wbo=going
chpbf=take
#wb=17
wm1=village
hm1=village
wm1=its
hm1=its
wm1=Air
wm1=Force
hm1=British
wm1=British
chpbo=they
wbo=they
wm1=court
hm1=court
am2f="
chpbo=go
wm1=Bank
wm1=Toyota
wm1=Army
am2f=would
hm1=Toyota
wm1=organization
hm1=organization
wm1=company
hm1=company
wm1=regime
hm1=regime
wm1=U.S.
wm1=companies
hm1=companies
wm1=government
hm1=government
wm1=u.s.
wm2=reporter
hm2=reporter
wm2=minister
hm2=minister
ethm=GPE:troops
hmet=iraq:PERSON
ethm=GPE:minister
wm2=judge
hm2=judge
ethm=GPE:judge
wm2=inspectors
hm2=inspectors
hmet=home:PERSON
hmet=court:PERSON
wm2=employees
hm2=employees
hm12=where:he
hmhm=where:he
wbo=Monday
wbo=Iraq
wbo=n't
wbo=do
wbo=it
wbo=all
am2f=go
wbo=if
chpbo=if
wm1=home
hm1=home
wm1=washington
wm1=South
wm1=Washington
wm2=officers
hm2=officers
wm2=troops
hm2=troops
et12=ORGANIZATION:PERSON
et12+m1<m2=ORGANIZATION:PERSON:false
hm12+m1<m2=ORGANIZATION:PERSON:false
et1sub2=Government:PERSON
et12sub=ORGANIZATION:Individual
etet=ORGANIZATION:PERSON
et12+m1>m2=ORGANIZATION:PERSON:false
hm12+m1>m2=ORGANIZATION:PERSON:false
et1sub2=Non-Governmental:PERSON
et1sub2sub=Non-Governmental:Individual
et1sub2sub=Government:Individual
wm1=North
wm2=she
hm2=she
wm2=leaders
hm2=leaders
wm2=President
hm2=President
wm2=him
hm2=him
wm2=her
hm2=her
wm1=York
chpbo=there
ethm=GPE:forces
wbo=come
be
wm1=Infantry
bm1f=until
chpbo=come
wm1=police
hm1=police
wm1=Division
wbo=even
chpbl=get
wm1=their
hm1=their
wbo=these
wm2=jordan
hm2=jordan
wbo=state
wm1=whose
hm1=whose
bm1f=saying
wbo=turn
wm1=U.N.
hm1=U.N
hmet=U.N:PERSON
hmet=Army:PERSON
wm2=Secretary
wm1=coalition
hm1=coalition
hm1=Army
et1sub2sub=Government:Group
et12+m1>m2=ORGANIZATION:PERSON:true
hm12+m1>m2=ORGANIZATION:PERSON:true
et12sub=ORGANIZATION:Group
etet=poss-1:ORGANIZATION:PERSON
wm1=European
et1sub2=Sports:PERSON
et1sub2sub=Sports:Individual
et1sub2=Commercial:PERSON
et1sub2sub=Commercial:Group
et1sub2sub=Non-Governmental:Group
chpbfl=use
hm1=Air_Force
hm1=U.S
wm1=Indonesia
hm1=Indonesia
hm1=North
wm1=China
hm1=China
wm1=Israel
hm1=Israel
wm1=Korea
chpbo=about
wm2=officials
hm2=officials
wm2=I
hm2=I
wm1=CNN
hm1=CNN
wm1=cnn
hm1=cnn
et12+m1>m2=ORGANIZATION:ORGANIZATION:true
hm12+m1>m2=ORGANIZATION:ORGANIZATION:true
etet=poss-1:ORGANIZATION:ORGANIZATION
hm1=U.S._Army
hm12=U.S._Army:7th_Cavalry
et12+m1>m2=GPE:ORGANIZATION:true
hm12+m1>m2=GPE:ORGANIZATION:true
et12sub=GPE:Government
wm1=Britain
hm1=Britain
et1sub2=State-or-Province:ORGANIZATION
wm2=president
hm2=president
wm2=attorney
hm2=attorney
wm2=manager
hm2=manager
hmet=they:PERSON
wm2=lawyer
hm2=lawyer
hm1=u.s
wm2=leader
hm2=leader
et1sub2=Educational:PERSON
et1sub2sub=Educational:Group
et1sub2sub=Educational:Individual
ethm=ORGANIZATION:he
et1sub2sub=Commercial:Individual
hmet=poss-1:company:PERSON
et1sub2=Media:PERSON
et1sub2sub=Media:Individual
et1sub2sub=Sports:Group
ethm=ORGANIZATION:him
wm1=White
hmet=company:PERSON
hmet=companies:PERSON
wm2=CNN
hm2=CNN
ethm=PERSON:CNN
ethm=PERSON:Army
wm2=News
wm2=ITV
hm2=ITV_News
ethm=PERSON:ITV_News
hm12=secretary:state
hmhm=secretary:state
wm2=cnn
hm2=cnn
ethm=PERSON:cnn
wm1=ceo
wm1=Secretary
hm1=Secretary
wm2=State
hm2=State
hm12=Secretary:State
ethm=PERSON:State
am2f=Colin
hmet=Secretary:ORGANIZATION
hmhm=Secretary:State
wm1=executives
hm1=executives
hmet=of:executive:ORGANIZATION
wm1=director
hm1=director
hmet=professor:ORGANIZATION
ethm=PERSON:army
ethm=of:PERSON:company
chpbl=run
hmet=director:ORGANIZATION
wm1=governor
hm1=governor
wbfl=of
chpbfl=of
wbo=-
wbo=--
chpbo=--
am2f=where
am2f=were
wbf=in
chpbf=in
chpbo=-
wbo=more
wm2=we
hm2=we
wbl=-
chpbl=-
wbo="
chpbo="
etet=of:PERSON:GPE
wm2=Pennsylvania
hm2=Pennsylvania
et12+m1>m2=PERSON:GPE:true
hm12+m1>m2=PERSON:GPE:true
etet=poss-1:PERSON:GPE
ethm=PERSON:countries
wm2=Iraqi
et12sub=PERSON:Religious
et1sub2sub=Individual:Religious
am2f=that
bm1f=now
bm1f=because
wbo=one
wm1=I
hm1=I
wm1=he
hm1=he
wbf=of
chpbf=of
wbo=with
chpbo=with
wbfl=in
chpbfl=in
wbl=from
chpbl=from
wbl=in
chpbl=in
wbl=on
chpbl=on
chpbo=q
#wb=14
chpbfl=from
wm1=who
hm1=who
wbf='m
chpbf='m
am2f=(
wm1=Saddam
hm1=Saddam
wm1=Hussein
et12=PERSON:ORGANIZATION
et12+m1>m2=PERSON:ORGANIZATION:false
et12+m1<m2=PERSON:ORGANIZATION:false
hm12+m1>m2=PERSON:ORGANIZATION:false
hm12+m1<m2=PERSON:ORGANIZATION:false
etet=PERSON:ORGANIZATION
et1sub2=Group:ORGANIZATION
et12sub=PERSON:Government
wm2=regime
hm2=regime
et1sub2=Individual:ORGANIZATION
et1sub2sub=Individual:Government
et12sub=PERSON:Non-Governmental
et1sub2sub=Individual:Non-Governmental
ethm=poss-1:PERSON:regime
et12+m1>m2=PERSON:ORGANIZATION:true
hm12+m1>m2=PERSON:ORGANIZATION:true
etet=poss-1:PERSON:ORGANIZATION
bm1f=?
wm1=-
wm1=one
hm1=one
am2f=or
wbo=them
wbo=he
wm1=Greg
wm1=leaders
hm1=leaders
bm1f=like
wm1=leader
hm1=leader
wm1=representatives
hm1=representatives
am2f=_
am2f=)
wbfl=from
wm2=United
wm2=States
am2f=--
chpbo=them
hm1=Saddam_Hussein
wm1=members
hm1=members
wm1=people
hm1=people
hmet=who:ORGANIZATION
wm2=group
hm2=group
bm1f=(
et1sub2sub=Group:Non-Governmental
hm12=Saddam_Hussein:regime
hmet=poss-1:Saddam_Hussein:ORGANIZATION
hmhm=poss-1:Saddam_Hussein:regime
cpp=,_of
wbf=was
wm1=He
hm1=He
wbl=to
chpbl=to
wm2=Baghdad
wm2=there
hm2=there
hm2=London
wbf=are
wm2=London
wm2=New
wm2=York
wm2=West
wm1=forces
hm1=forces
wbo=ph
chpbo=ph
wbo=of
wbo=out
am2f=after
wbo=)
chpbo=)
wbo='s
chpbo=of
wbo=as
et1sub2=Individual:GPE
et12sub=PERSON:State-or-Province
et1sub2sub=Individual:State-or-Province
et12sub=PERSON:Population-Center
et1sub2sub=Individual:Population-Center
et1_country=PERSON
et1sub2sub=Individual:Nation
et1sub2sub=Group:Population-Center
ethm=PERSON:there
hmet=he:GPE
cpp=be_in
bm1f=are
wbo=his
wbf=(
chpbf=(
chpbf=come
et12=PERSON:GPE
et12+m1>m2=PERSON:GPE:false
et12+m1<m2=PERSON:GPE:false
hm12+m1>m2=PERSON:GPE:false
hm12+m1<m2=PERSON:GPE:false
etet=PERSON:GPE
et1sub2=Group:GPE
et12sub=PERSON:Nation
et1sub2sub=Group:Nation
wm2=East
wm2=Virginia
wm2=new
wm2=york
wm2=here
hm2=here
hm2=New_York
wm1=groups
wm2=Middle
chpbl=out-of
wbl=were
am2f=died
bm1f='m
et1_nationality=PERSON
et1sub2sub=Group:State-or-Province
hmet=she:GPE
et12sub=PERSON:GPE-Cluster
ethm=PERSON:New_York
hmet=leaders:GPE
ethm=PERSON:London
wm1=civilians
hm1=civilians
et12sub=PERSON:County-or-District
wbo=lives
et1sub2sub=Individual:County-or-District
wm2=Texas
hm2=Texas
am2f=but
wm2=home
hm2=home
am2f=a
bm1f=believe
wbf=from
chpbf=from
hm2=United_States
wm2=state
hm2=state
wm2=Iran
hm2=Iran
ethm=PERSON:here
ethm=PERSON:home
wbf=spent
chpbf=spend
wm1=sister
hm1=sister
wbo=19
bm1f=were
wm1=You
hm1=You
wm1=she
hm1=she
wm1=i
hm1=i
wbo=family
chpbf=live
ethm=PERSON:state
wm1=rest
hm1=rest
wm2=countries
hm2=countries
wbf=lives
hmet=of:members:ORGANIZATION
et1sub2sub=Group:Media
hmet=of:member:ORGANIZATION
ethm=of:PERSON:group
hmet=secretary:ORGANIZATION
wm1=chairman
hm1=chairman
wbo=France
wm2=Security
wm2=Council
hmet=head:ORGANIZATION
wm1=chief
hm1=chief
hmet=chairman:ORGANIZATION
ethm=of:PERSON:regime
hm12=members:regime
hmhm=of:members:regime
wm2=Joint
wm2=Chiefs
wm2=Staff
hm2=Joint_Chiefs_of_Staff
ethm=PERSON:Joint_Chiefs_of_Staff
hmet=spokesman:ORGANIZATION
hmet=people:ORGANIZATION
wm1=Officials
hm1=Officials
wm2=USCF
hm2=USCF
hmet=member:ORGANIZATION
ethm=PERSON:USCF
wm2=NCA
hm2=NCA
hmet=of:president:ORGANIZATION
hmet=of:leader:ORGANIZATION
wm2=Association
wm2=one
hm2=one
wbo=is
wbo=on
chpbo=on
chpbo=otherName
wbo=up
wbo=at
wm1=John
chpbf=position
am2f=?
chpbfl=at
wbfl=at
et12=PERSON:FACILITY
et12+m1>m2=PERSON:FACILITY:false
et12+m1<m2=PERSON:FACILITY:false
hm12+m1>m2=PERSON:FACILITY:false
hm12+m1<m2=PERSON:FACILITY:false
etet=PERSON:FACILITY
et1sub2=Individual:FACILITY
et12sub=PERSON:Building-Grounds
et1sub2sub=Individual:Building-Grounds
wm1=units
hm1=units
wm1=his
hm1=his
chpbo=at
wbf=who
wbo=actually
wm1=head
hm1=head
wm2=Republican
wm2=company
hm2=company
etet=of:PERSON:ORGANIZATION
ethm=PERSON:company
et12sub=PERSON:Commercial
wm2=Party
hmet=I:ORGANIZATION
hmet=he:ORGANIZATION
et1sub2sub=Individual:Commercial
et12sub=PERSON:Media
hmet=poss-1:Saddam:ORGANIZATION
hmet=of:head:ORGANIZATION
et12sub=PERSON:Sports
et1sub2sub=Individual:Sports
bm1f=be
chpbo=one
wm2=groups
hm2=groups
chpbf=like
wbf=would
wm2=American
am2f=called
wbfl=for
chpbfl=for
wbo=some
wm2=press
wm2=Nations
hm2=United_Nations
ethm=PERSON:United_Nations
chpbfl=head
hm2=U.N
wm2=National
wm1=official
hm1=official
wm2=church
hm2=church
ethm=PERSON:church
wm1=Jeff
wm1=Richard
wbl=left
wbl=at
bm1f=then
chpbl=at
wm2=Central
wm2=Center
wm1=officials
hm1=officials
wm1=president
hm1=president
wbo=working
wbo=other
bm1f=what
wbo=while
chpbo=while
wm2=and
relative_et2=ORGANIZATION
chpbfl=leave
wm1=spokesman
hm1=spokesman
bm1f=become
wm1=member
hm1=member
et12sub=PERSON:Educational
wm2=of
am2f=just
wm2=government
hm2=government
chpbo=board
wm2=force
wm1=someone
hm1=someone
wbo=board
hm2=force
wm2=Union
wm2=European
hmet=one:ORGANIZATION
wm2=Department
wm2=department
hm2=department
wm2=Guard
hm2=Republican_Guard
wm2=parliament
hm2=parliament
wm2=Foreign
et12+m1>m2=ORGANIZATION:ORGANIZATION:false
hm12+m1>m2=ORGANIZATION:ORGANIZATION:false
et1sub2sub=Group:Government
wm2=party
hm2=party
wm2=Court
wm2=Relations
wm1=secretary
hm1=secretary
et1sub2=Indeterminate:ORGANIZATION
wm2=for
wm2=Strategic
wm2=Studies
et1sub2sub=Individual:Educational
hmet=his:ORGANIZATION
wm2=imclone
hm2=imclone
wm2=U.N.
am2f=such
wm2=province
#wb=13
hmet=forces:GPE
wm2=Washington
hm2=Washington
chpbo=who
chpbo=LOCATION
wbo=not
wbo=back
#wb=15
chpbf=with
wbf=with
wbo=had
chpbo=as
wbo=who
hmet=troops:GPE
wm1=Karl
wm1=Penhaul
hm1=Karl_Penhaul
wbf=coming
cpp=come_into
wbf=going
ethm=PERSON:court
wbo=positions
wbo=himself
chpbo=shoot
wbo=head
am2f=right
wm2=office
hm2=office
wm2=center
hm2=center
wm2=North
wm2=Korea
wm2=Al
wbo=east
wm1=troops
hm1=troops
hm1=man
chpbo=time
chpbf=go
wbf='ve
chpbf='ve
bm1f=say
wbo=time
wm2=court
hm2=court
wbo=part
wbo=right
wbl=into
chpbl=into
wm2=River
hm2=China
wm2=China
wm2=board
hm2=board
chpbo=part
hm12=I:company
hmhm=I:company
wm2=firm
hm2=firm
bm1f=since
ethm=PERSON:one
wm2=police
hm2=police
et1sub2sub=Group:Commercial
et12sub=PERSON:Medical-Science
et1sub2sub=Individual:Medical-Science
hmet=He:ORGANIZATION
ethm=PERSON:companies
wm2=companies
hm2=companies
et1sub2sub=Individual:Media
hmet=groups:GPE
cpp=in_GPE_and
wm2=Spain
hm2=Spain
wm2=states
am2f=which
wm2=Russia
hm2=Russia
wm1=Most
hm1=Most
hm1=groups
chpbf=work
wm2=County
wm2=Richmond
hm2=Richmond
am2f=may
cpp=of_GPE_,
wbo=u.s.
am2f=could
am2f=also
wbo=could
wbf=could
wbo=has
bm1f=But
wbo=war
wbo=like
chpbo=like
chpbo=a
chpbf=report
wbo=power
chpbo=power
am2f=charged
wm2=marines
hm2=marines
wm1=Milam
hm1=Greg_Milam
ethm=PERSON:Washington
wbo=Iraqi
wbo=News
wm1=Ryan
wm1=Chilcote
hm1=Ryan_Chilcote
wm1=Tim
wm1=Ewart
hm1=Tim_Ewart
chpbfl=enter
wm1=Kelly
am2f=today
bm1f=reports
bm1f=says
hmet=president:GPE
wm1=jim
wbo=$
wm1=executive
hm1=executive
wm1=mike
wm1=mark
wm1=professor
hm1=professor
wbl=been
hm12=you:there
hmhm=you:there
hm12=people:there
hmhm=people:there
hm12=I:there
hmhm=I:there
wm2=store
hm2=store
ethm=PERSON:store
wm2=Atlanta
hmet=officials:GPE
hmet=minister:GPE
wm1=ministers
hm1=ministers
ethm=PERSON:hospitals
wbf=first
ethm=PERSON:Spain
wm2=Seoul
hm2=Seoul
ethm=PERSON:Seoul
wm1=officer
hm1=officer
et1sub2sub=Group:GPE-Cluster
hmet=ministers:GPE
wbo=worked
wbo=currently
wm2=place
hm2=place
ethm=PERSON:place
cpp=spend_in
ethm=PERSON:Israel
wm1=correspondent
hm1=correspondent
wbf=now
ethm=PERSON:U.N
wm1=both
hm1=both
wm2=Germany
hm2=Germany
wm2=south
chpbf=run
wm2=house
am2f=during
wm2=Israel
hm2=Israel
wm2=France
hm2=France
wbf=should
wm2=Moscow
hm2=Moscow
wm2=hotel
hm2=hotel
wbf=do
wbo=run
hm12=I:here
hmhm=I:here
chpbf=make
wbo=get
wbo=will
wbo=already
chpbfl=take
wbo=allowed
chpbf=allow
chpbfl=run
wbf=already
bm1f=whether
wm1=team
hm1=team
wbo=work
wbf=said
wbf=can
chpbo=get
chpbfl=get
chpbo=work
wm1=her
hm1=her
wbf=did
wm1=Marinello
wm1=him
hm1=him
chpbf=start
chpbl=the
wbo=United
wm2=University
wm2=school
hm2=school
wm1=Martin
wbf=work
wm1=minister
hm1=minister
hm1=Putin
wm1=CEO
hm1=CEO
wbf=works
wbf=go
wm1=Putin
wm2=hospitals
hm2=hospitals
wm2=International
wbo=she
wm1=husband
hm1=husband
wm1=O
wm1='
bm1f=woman
wm2=north
wm2=university
cpp=go_to
ethm=PERSON:school
wbo=still
wbo=retired
wm2=USA
cpp=of_GPE_and
bm1f=captured
wbo=charge
chpbfl=work
chpbf=sell
wbl=got
chpbo=charge
wbf=used
wm2=coalition
hm2=coalition
wm2=navy
hm2=navy
wm2=army
hm2=army
wm2=aol
etet=of:ORGANIZATION:ORGANIZATION
wm2=Ministry
wm2=network
hm2=network
wm2=military
hm2=military
wm2=service
hm2=service
wm2=Army
hm2=Army
wm2=agency
wm2=industry
hm2=industry
wm2=Office
wm1=Erdogan
hm1=Erdogan
cpp=work_for
wm1=commander
hm1=commander
wm2=ITN
wm2=airline
hm2=airline
wm2=news
am2f=I
hm1=ceo
hmet=her:ORGANIZATION
hmet=she:ORGANIZATION
wm2=Foundation
wm2=million
bm1f=out
et12=PERSON:PERSON
et12+m1<m2=PERSON:PERSON:false
hm12+m1<m2=PERSON:PERSON:false
etet=PERSON:PERSON
et12+m1>m2=PERSON:PERSON:false
hm12+m1>m2=PERSON:PERSON:false
et12sub=PERSON:Group
et12+m1>m2=PERSON:PERSON:true
hm12+m1>m2=PERSON:PERSON:true
chpbl=include
wbl=including
cpp=,_include
wbfl=as
chpbfl=as
et1sub2=Group:PERSON
et1sub2sub=Group:Group
wm1=which
hm1=which
am2f=over
wm2=them
hm2=them
bm1f=into
wbo=an
bm1f=outside
am2f=the
wm2=David
et1sub2=Region-General:PERSON
et1sub2sub=Region-General:Group
ethm=GPE:people
chpbf=there
ethm=GPE:he
et1sub2=Celestial:PERSON
am2f=live
wm1=neighborhood
hm1=neighborhood
wm2=they
hm2=they
wbf=there
wm2=families
hm2=families
wm1=world
hm1=world
et12=LOCATION:PERSON
et12+m1>m2=LOCATION:PERSON:false
et12+m1<m2=LOCATION:PERSON:false
hm12+m1>m2=LOCATION:PERSON:false
hm12+m1<m2=LOCATION:PERSON:false
etet=LOCATION:PERSON
et12sub=LOCATION:Group
et12sub=LOCATION:Individual
hmet=city:PERSON
wm2=children
hm2=children
wbl=that
wbo=place
am2f=he
bm1f=inside
ethm=GPE:them
hmet=which:PERSON
wm1=london
hm1=london
ethm=PERSON:Alabama
hm12=Saddam:hometown
hmet=poss-1:Saddam:GPE
ethm=poss-1:PERSON:hometown
hmhm=poss-1:Saddam:hometown
am2f=we
wm1=women
hm1=women
wm1=group
hm1=group
wbo=also
chpbfl=be
bm1f=about
wbo=would
wbo=first
wm1=some
hm1=some
wbl=a
chpbl=a
wm1=father
hm1=father
wm1=friends
hm1=friends
et1sub2=Individual:PERSON
et1sub2sub=Individual:Group
ethm=PERSON:group
cpp=be_from
et12=PERSON:LOCATION
et12+m1>m2=PERSON:LOCATION:false
et12+m1<m2=PERSON:LOCATION:false
hm12+m1>m2=PERSON:LOCATION:false
hm12+m1<m2=PERSON:LOCATION:false
etet=PERSON:LOCATION
et12sub=PERSON:Region-General
et1sub2=Group:LOCATION
et1sub2sub=Group:Region-General
ethm=PERSON:area
wm2=City
hm2=Baghdad
wm2=baghdad
hm2=baghdad
et12+m1>m2=ORGANIZATION:GPE:false
hm12+m1>m2=ORGANIZATION:GPE:false
etet=ORGANIZATION:GPE
et12=ORGANIZATION:GPE
et12+m1<m2=ORGANIZATION:GPE:false
hm12+m1<m2=ORGANIZATION:GPE:false
wm2=area
hm2=area
wm2=Bank
wm2=iraq
hm2=iraq
wm2=Iraq
hm2=Iraq
wm2=city
hm2=city
hm2=West_Bank
wbfl=around
chpbfl=around
wm2=suburbs
hm2=suburbs
et1sub2=Government:GPE
wbo=live
wbo=from
chpbo=from
#wb=12
chpbf=move
ethm=PERSON:Iraq
et1sub2=Individual:LOCATION
et1sub2sub=Individual:Region-General
ethm=PERSON:Baghdad
wm2=Chamchamal
hm2=Chamchamal
hmet=they:GPE
ethm=PERSON:city
ethm=PERSON:town
hmet=I:GPE
et12sub=PERSON:Region-International
relative_et2=GPE
ethm=PERSON:baghdad
wbl=around
chpbl=around
hmet=we:LOCATION
wm2=beach
hmet=I:LOCATION
wbo=away
ethm=PERSON:suburbs
wm2=Boston
hm2=Boston
ethm=PERSON:Boston
wm2=town
hm2=town
wm2=capital
hm2=capital
wm2=South
wbo=were
wm1=son
hm1=son
wbo=way
wm1=journalists
hm1=journalists
am2f=there
wbo=few
bm1f=got
wm1=brother
hm1=brother
wbf=close
chpbf=close
chpbo=live
wm2=Egypt
hm2=Egypt
bm1f=against
chpbo=way
wm1=Cheney
bm1f=or
wbo=based
chpbf=base
hmet=two:GPE
wm2=world
hm2=world
hm2=new_york
wm2=country
hm2=country
hmet=we:GPE
et12sub=ORGANIZATION:Nation
hmet=that:GPE
et1sub2sub=Government:Nation
wbo=new
wbo=second
wm1=two
hm1=two
wm2=Florida
hm2=Florida
hm2=Middle_East
et1sub2=Non-Governmental:GPE
et1sub2sub=Non-Governmental:Nation
etet=of:ORGANIZATION:GPE
wbfl=is
chpbo=call
wbo=women
chpbo=woman
wbo=men
wbo=here
wbl=as
wbl=up
wbo=when
chpbo=when
wbo=us
chpbo=see
wbo=see
wbo=which
chpbo=which
am2f=got
chpbo=he
hmet=people:GPE
wm1=Judy
ethm=PERSON:country
et1sub2sub=Group:Region-International
hmet=He:GPE
hmet=members:GPE
hmet=family:GPE
ethm=PERSON:United_States
hmet=people:LOCATION
ethm=PERSON:iraq
chpbf=arrive
wbl=come
chpbl=come
chpbf=join
wbf=joins
ethm=PERSON:world
hmet=who:GPE
wbo=injured
hmet=men:GPE
hmet=women:GPE
cpp=join_from
ethm=PERSON:california
hmet=i:GPE
et12sub=PERSON:Celestial
wbf=live
hm2=chicago
ethm=PERSON:chicago
et1sub2sub=Individual:GPE-Cluster
et1sub2sub=Group:Celestial
hmet=you:GPE
cpp=live_in
cpp='m_in
cpp='m_from
chpbfl=out-of
ethm=PERSON:Indiana
hmet=You:GPE
ethm=PERSON:Wisconsin
wbo=down
hmet=terrorists:GPE
wm1=officers
hm1=officers
wm2=hometown
hm2=hometown
hmet=some:GPE
ethm=PERSON:region
wm2=Minneapolis
hm2=Minneapolis
ethm=PERSON:Minneapolis
hmet=They:GPE
et12sub=PERSON:Continent
et1sub2sub=Group:Continent
wbf=still
hm12=he:home
hmhm=he:home
wbfl=within
chpbfl=within
hmet=friends:GPE
wm2=earth
hm2=earth
ethm=PERSON:West_Bank
hm12=people:Iraq
hmhm=people:Iraq
wbo=such
wbfl=was
wm2=california
hm2=california
wbf=out
wm2=Indiana
hm2=Indiana
wm2=Illinois
hm2=Illinois
wm2=Wisconsin
hm2=Wisconsin
hmet=one:GPE
am2f=all
wm2=part
hm2=part
bm1f=``
wm2=Jordan
hm2=Jordan
wm2=region
hm2=region
wm2=neighborhood
hm2=neighborhood
wm2=Carolina
wbl=inside
chpbl=inside
wm1=terrorists
hm1=terrorists
chpbf=remain
wm1=everybody
hm1=everybody
ethm=PERSON:part
bm1f=killed
wbo=our
bm1f=give
wm1=They
hm1=They
wbf='ll
wbf=am
chpbf=am
bm1f=claimed
wm1=men
hm1=men
wm1=family
hm1=family
wm1=parents
hm1=parents
wm1=friend
hm1=friend
chpbo=out
wm1=bombers
bm1f=people
wm1=Sharif
hm1=Sharif
wbo=married
wm1=daughter
hm1=daughter
bm1f=told
wm1=kid
hm1=kid
chpbo=family
wbo=lived
wbf=came
wbo=living
hm1=bombers
wm1=Kurds
hm1=Kurds
hmet=Kurds:GPE
bm1f=put
wm2=chicago
wm2=Arizona
hm2=Arizona
wm2=Alabama
hm2=Alabama
wm2=Connecticut
hm2=Connecticut
hmet=of:rest:GPE
wm2=Fairfax
hm2=West_Virginia
wm1=parts
wm2=district
hm2=district
chpbf=transfer
ethm=PERSON:forces
hmet=of:members:PERSON
et12sub=PERSON:Individual
et1sub2sub=Group:Individual
hmet=I:PERSON
etet=of:PERSON:PERSON
wm1=students
hm1=students
wm2=Congress
ethm=PERSON:party
hmet=members:ORGANIZATION
wm2=charities
hm2=charities
ethm=of:PERSON:charities
hm2=Security_Council
wm2=parties
hm2=parties
wbo=over
chpbo=over
wm1=hussein
wm1=saddam
wm2=Gulf
bm1f=up
wbo=Baghdad
wbo=now
bm1f=among
wbo=30
wm1=elements
hm1=elements
wm1=bomber
hm1=bomber
am2f=if
wm2=al
hm1=saddam_hussein
wm2=team
hm2=team
wm2=organization
hm2=organization
am2f=from
#wb=20
wbo=year
chpbo=force
am2f=made
wbo=day
chpbo=day
wm1=3rd
wm2=House
bm1f=John
chpbl=leave
wbo=remain
chpbo=remain
chpbo=serve
cpp=be_on
wbfl='s
cpp=have_in
wm1=Iraqis
hm1=Iraqis
bm1f=know
bm1f=once
wm1=Marines
hm1=Marines
bm1f=also
chpbf=plan
chpbf=who
chpbo=leave
wbo=left
#wb=19
wbl=through
chpbl=through
wbl=leave
am2f=did
wm1=most
hm1=most
wbo=together
chpbo=before
wbo=before
wm1=Brigade
wbfl=representing
chpbfl=represent
ethm=PERSON:them
wm2=the
hm2=3rd_Infantry_Division
et1sub2=Sports:ORGANIZATION
et12sub=ORGANIZATION:Sports
et1sub2sub=Sports:Sports
et12sub=ORGANIZATION:Non-Governmental
hmet=which:ORGANIZATION
etet=ORGANIZATION:ORGANIZATION
wm2=Supreme
wm2=committee
hm2=committee
et12sub=GPE:Non-Governmental
et1sub2sub=Nation:Non-Governmental
country_et2=ORGANIZATION
et1sub2=Nation:ORGANIZATION
et12+m1>m2=GPE:ORGANIZATION:false
hm12+m1>m2=GPE:ORGANIZATION:false
wm2=administration
hm2=administration
bm1f=uh
wbo=ex
ethm=PERSON:imclone
ethm=PERSON:team
et1sub2sub=Group:Sports
et1sub2sub=Path:Building-Grounds
chpbfl=outside
wm2=Kirkuk
hm2=Kirkuk
wbfl=outside
wbo=just
wm2=station
hm2=station
wbo=taken
wbf=will
wm2=Persian
hm2=Persian_Gulf
hmet=We:GPE
wbo=sent
chpbf=send
wm2=west
wm2=Jerusalem
hm2=Jerusalem
hm2=Japan
et12sub=ORGANIZATION:Population-Center
wm2=Japan
wm1=unit
hm1=unit
et1sub2sub=Government:Population-Center
et12=FACILITY:LOCATION
et12+m1>m2=FACILITY:LOCATION:false
et12+m1<m2=FACILITY:LOCATION:false
hm12+m1>m2=FACILITY:LOCATION:false
hm12+m1<m2=FACILITY:LOCATION:false
etet=FACILITY:LOCATION
et12sub=FACILITY:Population-Center
et1sub2sub=Building-Grounds:Population-Center
et1sub2=Building-Grounds:LOCATION
et12sub=FACILITY:Region-General
chpbf=locate
et12=FACILITY:GPE
et12+m1>m2=FACILITY:GPE:false
et12+m1<m2=FACILITY:GPE:false
hm12+m1>m2=FACILITY:GPE:false
hm12+m1<m2=FACILITY:GPE:false
etet=FACILITY:GPE
et1sub2=Building-Grounds:GPE
bm1f=through
wm1=National
wbo=troops
wbo=saddam
wbo=hussein
wbf=where
wm1=David
wbf=at
chpbf=at
wbf=today
wbo=west
wbo=possibly
wbo=fire
wbo=or
chpbo=or
wbo=(
chpbo=(
chpbo=kill
chpbo=close
wbo=forces
wbo=far
wm1=checkpoint
hm1=checkpoint
wbo=baghdad
wm1=hospital
hm1=hospital
wbl=between
chpbl=between
wm1=hills
hm1=hills
wm1=compound
hm1=compound
wm1=streets
hm1=streets
bm1f=control
wm1=site
hm1=site
bm1f=down
wm1=street
hm1=street
wm1=field
hm1=field
bm1f=near
wbo=between
chpbo=between
bm1f=hit
bm1f=In
wm1=town
hm1=town
wm1=area
hm1=area
wm1=airport
hm1=airport
wm1=baghdad
hm1=baghdad
wbo=southern
et12sub=PERSON:Land-Region-Natural
et1sub2sub=Group:Land-Region-Natural
hmet=forces:LOCATION
wbo=north
wm2=Karbala
hm2=Karbala
ethm=PERSON:Karbala
wm2=Kut
chpbl=near
wbo=U.S.
wbo=CNN
hm12=they:Baghdad
wm2=hospital
hm2=hospital
ethm=PERSON:hospital
hmet=troops:LOCATION
hmet=you:FACILITY
hm12=troops:Iraq
hmhm=troops:Iraq
et12sub=PERSON:Water-Body
ethm=PERSON:Persian_Gulf
et1sub2sub=Group:Water-Body
cpp=be_to
hmhm=they:Baghdad
ethm=PERSON:capital
hmet=he:FACILITY
hmet=man:FACILITY
chpbo=unit
hmet=units:GPE
wbo=south
hm12=forces:baghdad
hmhm=forces:baghdad
et1sub2sub=Individual:Water-Body
hmet=they:LOCATION
ethm=PERSON:center
et1sub2sub=Individual:Land-Region-Natural
wbo=ten
hmet=he:LOCATION
wm1=gary
wm1=tuchman
hm1=gary_tuchman
wm2=courthouse
et1sub2sub=Individual:Region-International
wbfl=over
chpbo=head
wbo=kilometers
et12sub=PERSON:Boundary
ethm=PERSON:border
wbl=along
chpbl=along
wbo=resistance
chpbo=kilometer
chpbo=south
ethm=PERSON:airport
ethm=PERSON:outskirts
hm12=forces:Baghdad
hm12=forces:city
hmhm=forces:city
hmhm=forces:Baghdad
chpbf=fight
cpp=get_to
wm1=reporters
hm1=reporters
et1sub2sub=Group:Boundary
hmet=bomber:FACILITY
hm2=beach
wbf=blew
chpbf=blow
chpbo=up
wbo=next
hm12=troops:Baghdad
hmhm=troops:Baghdad
hm12=troops:city
hmhm=troops:city
wbf=come
wbf=the
hm2=courthouse
ethm=PERSON:courthouse
wm2=outskirts
hm2=outskirts
chpbfl=over
hm2=washington
wm2=mosque
wm2=san
wbo=100
hm2=mosque
wm2=airport
bm1f=found
wbo=3rd
wbf=just
wm2=border
hm2=border
hm2=airport
wm2=Gaza
wm2=highway
wm2=washington
wbo=two
et1sub2=Group:FACILITY
et12sub=PERSON:Path
et1sub2sub=Group:Building-Grounds
et1sub2sub=Group:Path
et12sub=PERSON:Airport
et1sub2sub=Group:Airport
wm1=man
hmet=who:FACILITY
wbo=killed
wm2=room
hm2=room
wbf=get
hmet=forces:FACILITY
wbo=control
wbf=back
wm1=guys
hm1=guys
wbo=final
wm2=streets
hm2=streets
wbo=assault
wm2=palace
wbo=small
chpbo=try
ethm=PERSON:office
hmet=We:FACILITY
chpbf=open
wbf=opened
wbo=arrested
am2f=than
wbf=were
wbo=so
wbo=under
chpbo=under
wbo=into
chpbo=into
bm1f=see
wbo=off
wm1=anyone
hm1=anyone
wm2=base
hm2=base
chpbf=get
chpbo=assault
wbo=fighting
chpbo=fight
wbo=against
chpbo=against
wm1=soldiers
hm1=soldiers
wbl=near
chpbo=mile
wbl=outside
chpbl=outside
wbo=miles
wbo=close
wbo=very
wbo=their
chpbf=be-out
hm12=base:border
wbfl=near
et12sub=FACILITY:Boundary
hmet=base:LOCATION
ethm=FACILITY:border
hmhm=base:border
etet=of:LOCATION:GPE
et1sub2sub=Path:Population-Center
ethm=LOCATION:Baghdad
wm1=outskirts
hm1=outskirts
et1sub2=Path:FACILITY
ethm=of:LOCATION:city
et1sub2=Path:LOCATION
hmet=bridge:LOCATION
ethm=FACILITY:Baghdad
ethm=of:LOCATION:Baghdad
hmet=of:outskirts:GPE
wm1=suburbs
hm1=suburbs
hm12=suburbs:Baghdad
et1sub2=Airport:LOCATION
et1sub2sub=Region-General:Nation
et12sub=FACILITY:Water-Body
et1sub2=Boundary:GPE
et1sub2sub=Boundary:Nation
hmet=border:GPE
ethm=FACILITY:city
wm1=bridges
hm1=bridges
et1sub2sub=Airport:Population-Center
ethm=FACILITY:center
et1sub2sub=Airport:Region-General
ethm=of:LOCATION:baghdad
hmet=of:suburbs:GPE
et1sub2sub=Building-Grounds:Boundary
etet=of:LOCATION:LOCATION
et1sub2=Land-Region-Natural:GPE
et1sub2=Water-Body:GPE
et1sub2sub=Building-Grounds:Path
wm2=junction
hm2=junction
wm1=road
hm1=road
et1sub2sub=Path:Path
wm1=complex
hm1=complex
hmet=road:GPE
et1sub2sub=Land-Region-Natural:Population-Center
et12sub=FACILITY:Airport
wm1=fields
hm1=fields
hmet=fields:GPE
et1sub2=Water-Body:LOCATION
wm2=edge
hm2=edge
et1sub2sub=State-or-Province:Nation
ethm=FACILITY:town
wm1=it
hm1=it
et12=GPE:FACILITY
et12+m1<m2=GPE:FACILITY:false
hm12+m1<m2=GPE:FACILITY:false
et12sub=GPE:Building-Grounds
et12+m1>m2=GPE:FACILITY:false
hm12+m1>m2=GPE:FACILITY:false
etet=GPE:FACILITY
et1sub2=Population-Center:FACILITY
wm2=complex
hm2=complex
wm1=base
hm1=base
et12sub=FACILITY:Nation
et1sub2=Path:GPE
et1sub2=Airport:GPE
hmet=base:GPE
et1sub2sub=Building-Grounds:Nation
wm1=store
hm1=store
wm1=section
hm1=section
wm1=bridge
hm1=bridge
wm1=Center
et12sub=GPE:Nation
et1sub2=Nation:GPE
et1sub2sub=Nation:Nation
et12=GPE:GPE
et12+m1<m2=GPE:GPE:false
hm12+m1<m2=GPE:GPE:false
et12+m1>m2=GPE:GPE:false
hm12+m1>m2=GPE:GPE:false
etet=GPE:GPE
chpbfl=near
et12=LOCATION:GPE
et12+m1>m2=LOCATION:GPE:false
et12+m1<m2=LOCATION:GPE:false
hm12+m1>m2=LOCATION:GPE:false
hm12+m1<m2=LOCATION:GPE:false
et1_country=LOCATION
etet=LOCATION:GPE
et1_country=GPE
et1sub2=Region-General:GPE
et12=GPE:LOCATION
et12+m1>m2=GPE:LOCATION:false
et12+m1<m2=GPE:LOCATION:false
hm12+m1>m2=GPE:LOCATION:false
hm12+m1<m2=GPE:LOCATION:false
etet=GPE:LOCATION
et12sub=LOCATION:Population-Center
et1sub2=Population-Center:LOCATION
et12sub=GPE:Region-General
et1sub2sub=Population-Center:Region-General
et1sub2sub=Region-General:Population-Center
et12=FACILITY:FACILITY
et12+m1>m2=FACILITY:FACILITY:false
et12+m1<m2=FACILITY:FACILITY:false
hm12+m1>m2=FACILITY:FACILITY:false
hm12+m1<m2=FACILITY:FACILITY:false
etet=FACILITY:FACILITY
et12sub=FACILITY:Building-Grounds
et12sub=LOCATION:Region-General
et12sub=LOCATION:Nation
et1sub2=Region-General:LOCATION
et1sub2sub=Region-General:Region-General
et1sub2=Building-Grounds:FACILITY
et1sub2=Region-General:FACILITY
et12sub=LOCATION:Building-Grounds
et1sub2sub=Population-Center:Building-Grounds
et12+m1>m2=GPE:LOCATION:true
hm12+m1>m2=GPE:LOCATION:true
et1sub2sub=Region-General:Building-Grounds
ethm=FACILITY:area
et12sub=LOCATION:State-or-Province
et12sub=LOCATION:Land-Region-Natural
et1sub2sub=Building-Grounds:Building-Grounds
et12sub=FACILITY:Subarea-Facility
et12sub=FACILITY:Path
hm2=highway
bm1f=along
et1sub2=State-or-Province:GPE
et1sub2=Population-Center:GPE
et12=LOCATION:FACILITY
et12+m1<m2=LOCATION:FACILITY:false
hm12+m1<m2=LOCATION:FACILITY:false
et12sub=GPE:Population-Center
et12=LOCATION:LOCATION
et12+m1>m2=LOCATION:LOCATION:false
et12+m1<m2=LOCATION:LOCATION:false
hm12+m1>m2=LOCATION:LOCATION:false
hm12+m1<m2=LOCATION:LOCATION:false
et12+m1>m2=LOCATION:FACILITY:false
hm12+m1>m2=LOCATION:FACILITY:false
etet=LOCATION:FACILITY
etet=LOCATION:LOCATION
et12sub=LOCATION:Water-Body
et1sub2sub=Population-Center:Population-Center
wm1=border
hm1=border
chpbo=west
wm1=and
et12sub=GPE:Path
wbo=along
et1sub2sub=Population-Center:Path
wm1=Palestinians
hm1=Palestinians
wbo=reportedly
wm1=palace
hm1=palace
nationality_et2=GPE
etet=poss-1:GPE:LOCATION
hmet=poss-1:city:LOCATION
ethm=GPE:city
wbo=50
wbo=15
chpbo=take
wbo=this
am2f=says
wm2=exchange
wbf=may
ethm=PERSON:station
wbf='d
wm2=guard
chpbl=own
chpbfl=own
chpbf=own
et12=ORGANIZATION:LOCATION
et12+m1>m2=ORGANIZATION:LOCATION:false
et12+m1<m2=ORGANIZATION:LOCATION:false
hm12+m1>m2=ORGANIZATION:LOCATION:false
hm12+m1<m2=ORGANIZATION:LOCATION:false
etet=ORGANIZATION:LOCATION
et12sub=ORGANIZATION:Region-General
et1sub2=Educational:GPE
et1sub2=Media:GPE
et1sub2sub=Educational:Population-Center
et1sub2sub=Media:Nation
et1sub2=Non-Governmental:LOCATION
et12sub=ORGANIZATION:Address
et1sub2sub=Non-Governmental:Address
et1sub2sub=Non-Governmental:Region-General
et1sub2=Sports:GPE
et1sub2sub=Sports:Nation
cpp=in_GPE_,
bm1f=so
wbo=people
wm1=United
am2f=known
bm1f=At
hm12=forces:Iraq
hmhm=forces:Iraq
et1sub2=Entertainment:GPE
wm1=force
hm1=force
cpp=send_to
hmet=force:GPE
wm2=Najaf
hm2=Najaf
hm2=Virginia
hm2=states
wbo=went
chpbf=continue
et1_country=ORGANIZATION
ethm=ORGANIZATION:Iraq
chpbf=operate
et1sub2sub=Building-Grounds:Region-General
wm2=germany
hm2=germany
wm1=office
hm1=office
hmet=office:GPE
et1sub2sub=Commercial:Population-Center
wm2=Maryland
hm2=Maryland
et1sub2=Commercial:GPE
hmet=court:GPE
wm1=school
hm1=school
wm1=authority
hm1=authority
et1sub2sub=Commercial:Nation
hmet=government:GPE
et12sub=ORGANIZATION:State-or-Province
et1sub2sub=Non-Governmental:Population-Center
ethm=ORGANIZATION:country
wm1=for
hmet=area:PERSON
hmet=here:PERSON
et1sub2sub=Subarea-Facility:Group
chpbo=fact
et1sub2sub=Region-General:Individual
wm2=journalists
hm2=journalists
ethm=FACILITY:people
hmet=there:PERSON
wm1=DC
hm1=Washington_DC
hmet=Washington_DC:PERSON
wbo=today
chpbo=troop
bm1f=meeting
wbo=last
chpbo=die
wbo=died
wbo=talks
chpbo=talk
wbo=days
wbo=four
chpbo=injure
wbo=2001
wbo=President
chpbo=President
wm2=saddam
wm2=hussein
wbo=including
chpbo=include
chpbo=this
wbo=take
chpbf=day
bm1f=When
wbo=Israel
wbo=recently
am2f=like
wbl=out
wbo=we
am2f=near
chpbl=as
chpbl=take
wbo=members
wbo='
wbf=-
chpbf=-
wbo=known
wbo=her
chpbo=us
wbo=moved
wbo=then
chpbf=meet
wbo=British
wbo=killing
wbo=found
wbo=well
chpbo=find
hm1=washington
wm1=courtroom
hm1=courtroom
wm1=hotel
hm1=hotel
bm1f=across
bm1f=around
wm1=Here
hm1=Here
wm1=room
hm1=room
bm1f=over
wm1=headquarters
hm1=headquarters
wm1=building
hm1=building
wm1=capital
hm1=capital
wm1=mall
hm1=mall
wm1=center
hm1=center
wm1=there
hm1=there
hm1=Washington
wm2=Iraqis
hm2=Iraqis
wm2=members
hm2=members
wm2=you
hm2=you
wbl=take
wm1=chicago
am2f=out
chpbo=it
et1sub2sub=Airport:Group
et1sub2=Subarea-Facility:PERSON
et1_relative=FACILITY
et1sub2sub=Subarea-Facility:Individual
wm2=iraqis
hm2=iraqis
ethm=FACILITY:troops
et12=FACILITY:ORGANIZATION
et12+m1>m2=FACILITY:ORGANIZATION:false
et12+m1<m2=FACILITY:ORGANIZATION:false
hm12+m1>m2=FACILITY:ORGANIZATION:false
hm12+m1<m2=FACILITY:ORGANIZATION:false
wbfl=that
wm2=Hussein
et12=FACILITY:PERSON
et1sub2=Building-Grounds:PERSON
et12sub=FACILITY:Group
et1sub2sub=Building-Grounds:Group
et12+m1>m2=FACILITY:PERSON:false
et12+m1<m2=FACILITY:PERSON:false
hm12+m1>m2=FACILITY:PERSON:false
hm12+m1<m2=FACILITY:PERSON:false
etet=FACILITY:PERSON
et1sub2=Airport:PERSON
et12sub=FACILITY:Individual
et1sub2sub=Building-Grounds:Individual
et1sub2=Path:PERSON
et1sub2sub=Path:Group
wm2=soldiers
hm2=soldiers
wm1=york
hm1=new_york
am2f='re
wm2=Bush
hm2=Bush
wm1=here
hm1=here
wm1=Saint
wm1=Petersburg
hm1=Saint_Petersburg
hm1=New_York
wm1=states
hm1=states
wm1=Baghdad
hm1=Baghdad
am2f=killed
et1sub2=Land-Region-Natural:PERSON
hmet=capital:PERSON
hmet=Baghdad:PERSON
hmet=center:PERSON
wm2=brother
hm2=brother
wm2=child
hm2=child
wm2=husband
hm2=husband
chpbo='
wm2=friend
hm2=friend
cpp=,_ORGANIZATION_,
wm2=desert
ethm=PERSON:desert
wbo=Karbala
ethm=PERSON:base
et1sub2sub=Individual:Airport
ethm=PERSON:Najaf
wm1=Woodruff
hm1=Judy_Woodruff
hm12=Judy_Woodruff:Washington
hmet=Judy_Woodruff:GPE
hmhm=Judy_Woodruff:Washington
hmet=soldiers:FACILITY
wbo=ITV
et1sub2=Indeterminate:FACILITY
et1sub2sub=Indeterminate:Building-Grounds
hm12=people:here
hmhm=people:here
chpbf=kill
hmet=Iraqis:FACILITY
wbo=attack
wm2=Kuwait
hm2=Kuwait
ethm=PERSON:Kuwait
hmet=people:FACILITY
wbo=baby
hmet=baby:FACILITY
wbf=arrived
hm12=they:there
hmhm=they:there
wm1=marines
hm1=marines
wm1=pilot
hm1=pilot
hm12=pilot:base
hmet=pilot:FACILITY
hmhm=pilot:base
ethm=PERSON:washington
wbo=press
wm2=prison
hm2=prison
ethm=PERSON:prison
chpbf=expect
wm2=kuwait
hmet=who:LOCATION
wbo=through
chpbo=through
hmet=marines:GPE
hmet=sailors:GPE
wbo=cnn
et1sub2sub=Individual:Celestial
hmet=person:LOCATION
cpp=be_at
chpbf=head
wbo=serving
wm2=stock
hm12=they:home
wbo=joining
wbfl=were
wm2=sea
hm2=sea
ethm=PERSON:sea
wm2=china
hm2=china
ethm=PERSON:china
wm1=powell
wm2=jerusalem
hm2=jerusalem
ethm=PERSON:jerusalem
hm2=new_york_stock_exchange
ethm=PERSON:new_york_stock_exchange
wm1=luster
chpbo=arrive
et1sub2=Indeterminate:LOCATION
hmet=you:LOCATION
wm2=london
hm2=london
ethm=PERSON:london
hmet=woman:FACILITY
ethm=PERSON:florida
wbf=died
chpbf=die
wm1=Yasser
wm1=Arafat
hm1=Yasser_Arafat
hm12=Yasser_Arafat:hospital
cpp=die_in
hmet=Yasser_Arafat:FACILITY
hmhm=Yasser_Arafat:hospital
wm2=jail
hm2=jail
ethm=PERSON:jail
wm2=park
hm12=he:prison
hmhm=he:prison
ethm=PERSON:compound
bm1f=leader
wbo=buried
chpbo=bury
ethm=PERSON:Jerusalem
hmet=him:FACILITY
hm12=him:compound
hmhm=him:compound
et1sub2=Indeterminate:GPE
wbo=probably
hmet=officials:FACILITY
wbo=heading
wm1=babies
hm1=babies
chpbo=baby
wbf=returned
et12sub=PERSON:Special
ethm=PERSON:road
chpbf=wait
cpp=,_in
wbo=Republican
wbo=Guard
hm2=north
ethm=PERSON:north
hm2=Kut
chpbf=injure
ethm=PERSON:Kut
ethm=PERSON:bridge
wbo=inside
wm1=fighters
hm1=fighters
wbo=meeting
wm1=diplomats
hm1=diplomats
et1sub2sub=Indeterminate:Nation
chpbf=find
wbo=trip
ethm=PERSON:Paris
cpp=take_to
chpbo=meet
hmet=president:FACILITY
wbo=sentenced
wm2=Afghanistan
hm2=Afghanistan
ethm=PERSON:Afghanistan
wm1=children
hm1=children
wbo=9
relative_et2=LOCATION
wbf=want
wm2=Beijing
hm2=Beijing
ethm=PERSON:Beijing
wbo=conference
chpbo=conference
wbo=arrived
chpbf=face
wm2=Pentagon
hm2=Pentagon
ethm=PERSON:Pentagon
hm12=who:there
et1sub2sub=Indeterminate:Population-Center
hmhm=who:there
et1sub2sub=Group:Special
wbl=reached
ethm=PERSON:Pakistan
wbo=suicide
wbo=bomb
hmet=members:FACILITY
wbf=really
wm2=temple
hm2=temple
wbl=enter
chpbl=enter
ethm=PERSON:temple
bm1f=took
chpbfl=live
hmet=her:GPE
hm12=he:hospital
hmhm=he:hospital
wbo=getting
hmet=He:FACILITY
wm1=George
chpbo=trip
wbo=hours
cpp=arrive_in
wm1=Americans
wbo=months
chpbf=serve
cpp=go_into
et1sub2sub=Indeterminate:Region-General
wm2=Rwanda
hm2=Rwanda
ethm=PERSON:Rwanda
chpbf=pour
wm1=Refugees
hm1=Refugees
hm2=desert
wbl=across
chpbl=across
wm2=florida
hm2=florida
wm2=texas
hm2=texas
wm2=virginia
wm2=asia
hm2=asia
wm2=.
hm2=virginia
wm2=planet
wm2=d.c.
hm2=d.c
hm2=planet
wm2=los
wm2=angeles
hm2=los_angeles
wm2=gaza
hm2=gaza
wm2=mars
hm2=mars
wm2=California
hm2=California
wm2=compound
hm2=compound
wm2=Pakistan
hm2=Pakistan
chpbf=cross
wm2=Umm
wm2=Qasr
hm2=Umm_Qasr
wbfl=inside
chpbfl=inside
wm2=Singapore
hm2=Singapore
wm2=street
hm2=street
wbo=located
wm2=road
hm2=road
wbo=after
chpbf=fire
hm2=saddam_hussein_international_airport
hm2=house
bm1f=get
wm2=location
hm2=location
chpbo=build
wbfl=on
chpbfl=on
wm2=building
hm2=building
wm2=buildings
hm2=buildings
wm2=apartment
hm2=apartment
wbl=off
wbf=all
wbo=during
chpbo=during
wm2=international
wbl=over
wbf=here
am2f=Tuesday
wm2=Basra
hm2=Basra
wm2=benton
wm2=harbor
hm2=benton_harbor
wm2=Strip
hm2=Gaza_Strip
wm2=territory
hm2=territory
wm1=ridge
wbfl=into
chpbfl=into
chpbo=join
wbfl=are
am2f=until
wbo=being
et12=PERSON:VEH
et1sub2=Group:VEH
et12+m1>m2=PERSON:VEH:false
et12+m1<m2=PERSON:VEH:false
hm12+m1>m2=PERSON:VEH:false
hm12+m1<m2=PERSON:VEH:false
etet=PERSON:VEH
wm2=checkpoint
hm2=checkpoint
wbo=what
chpbo=what
et12sub=PERSON:Subarea-Facility
chpbf=drive
ethm=PERSON:checkpoint
et1sub2sub=Individual:Subarea-Facility
hm12=I:home
hmet=they:FACILITY
et1sub2sub=Group:Subarea-Facility
chpbl=use
chpbo=after
wbo=able
chpbo=able
relative_et2=FACILITY
wm1=pilots
hm1=pilots
wbl=use
wbfl=get
wm2=air
wm1=person
hm1=person
ethm=PERSON:building
hmet=we:FACILITY
ethm=PERSON:room
wm1=enemy
hm1=enemy
wbl=be
wm1=sailors
hm1=sailors
hmet=she:FACILITY
et12sub=PERSON:Subarea-Vehicle
et1sub2sub=Group:Subarea-Vehicle
wbl=down
chpbo=control
wbo=seen
wbo=fly
chpbf=fly
wm1=bush
hm1=bush
et12+m1>m2=ORGANIZATION:FACILITY:false
hm12+m1>m2=ORGANIZATION:FACILITY:false
hmet=i:FACILITY
chpbo=month
ethm=PERSON:house
wbo=ready
chpbo=ready
hmet=troops:FACILITY
et1sub2=Government:FACILITY
et1sub2sub=Government:Building-Grounds
wbo=fought
wbo=Army
wm1=Airborne
chpbl=secure
wbo=moving
hm2=palace
wbo=arms
cpp=take_control_of
wbo=city
chpbfl=seize
etet=seize:PERSON:FACILITY
chpbo=fly
wbo=came
wbo=Wednesday
wbo=holding
am2f=within
bm1f=arrested
hmet=I:FACILITY
ethm=PERSON:apartment
hmhm=I:home
wbf=up
chpbf=up
bm1f=take
et1sub2sub=Individual:Path
wbo=planning
bm1f=Then
wm1=gunman
hm1=gunman
wbf=ran
wbo=apparently
chpbf=arrest
chpbo=car
chpbfl=make
bm1f=day
wbo=coming
et12=ORGANIZATION:FACILITY
et12sub=ORGANIZATION:Building-Grounds
et12+m1<m2=ORGANIZATION:FACILITY:false
hm12+m1<m2=ORGANIZATION:FACILITY:false
etet=ORGANIZATION:FACILITY
wbf=went
chpbf=stay
wbo=stay
chpbo=move
wbo=got
bm1f=which
wm1=wife
hm1=wife
wm2=bridge
hm2=bridge
wm2=field
hm2=field
wbo=night
chpbo=night
wm1=your
hm1=your
wm1=mother
hm1=mother
wbo=old
wm1=couple
hm1=couple
wm1=them
hm1=them
bm1f=let
am2f=while
wbl=has
bm1f=before
wbo=million
chpbf=hold
chpbo=out-of
am2f=once
wm1=Bush
hm1=Bush
wbo=taking
chpbl=over
chpbo=hit
chpbf=capture
wm2=Saddam
chpbf=leave
wbo=home
hmet=police:GPE
chpbo=home
wm2=schools
hm2=schools
chpbf=PERSON
chpbo=war
chpbo=her
chpbf='s
wbo=life
am2f=next
chpbo=speak
wm2=camp
hm2=camp
wbo=took
wbo=business
wm1=She
hm1=She
chpbo=look
wm2=3
wbo=lot
bm1f=Do
wm1=waksal
chpbf=need
wm1=Toefting
wbo=former
chpbo=do
wbo=doing
wbo=go
wm2=Airport
wm2=headquarters
hm2=headquarters
wm2=Paris
hm2=Paris
wbf=such
chpbf=such-as
wbf=when
chpbf=when
wbo=morning
chpbo=morning
am2f=early
wm1=Jessica
wm1=Lynch
bm1f=MALE
wm1=woman
hm1=woman
wbf=got
chpbf=have_to
wbo=accused
chpbf=give
wbo=five
wbo=birth
wbf=gave
wm1=Giuliani
hm1=Giuliani
chpbo=marry
wm1=families
hm1=families
wm1=baby
hm1=baby
chpbf=travel
wbf=travel
wbo=um
wbo=meet
chpbo=um
bm1f=So
chpbo=turn
wm1=my
hm1=my
bm1f=though
chpbo=attack
wbf=found
chpbf=did
et1sub2sub=Group:Educational
ethm=PERSON:schools
wbo=news
wm1=Garner
chpbo=have_to
chpbf=return
cpp=return_to
et1sub2sub=Population-Center:State-or-Province
et1sub2sub=Population-Center:Nation
ethm=LOCATION:Iraq
ethm=of:LOCATION:Iraq
ethm=FACILITY:Iraq
et1sub2sub=Subarea-Facility:Building-Grounds
hmet=of:center:GPE
ethm=FACILITY:there
et1sub2sub=Path:Region-General
hmet=bridges:LOCATION
ethm=FACILITY:outskirts
ethm=FACILITY:baghdad
hmet=of:parts:GPE
ethm=GPE:california
wm2=maryland
hm2=maryland
et12sub=LOCATION:Celestial
hm12=washington:d.c
hmet=washington:GPE
ethm=GPE:d.c
hmhm=washington:d.c
hmet=of:part:LOCATION
et1sub2sub=Land-Region-Natural:Celestial
et1sub2sub=Region-International:Celestial
ethm=of:LOCATION:world
ethm=GPE:florida
et12sub=GPE:Celestial
et1sub2sub=Nation:Celestial
ethm=GPE:world
hmet=of:part:GPE
et12sub=FACILITY:State-or-Province
et1sub2sub=Building-Grounds:State-or-Province
wm1=heart
hm1=heart
ethm=of:LOCATION:capital
hmet=of:heart:GPE
hm12=center:city
hmet=headquarters:GPE
hmet=complex:LOCATION
etet=of:FACILITY:GPE
wm1=BAGHDAD
hm1=BAGHDAD
hm12=BAGHDAD:Iraq
hmet=BAGHDAD:GPE
hmhm=BAGHDAD:Iraq
ethm=of:LOCATION:country
et12sub=LOCATION:Continent
wm1=courthouse
wm1=sites
hm1=sites
bm1f=off
wm1=coast
hm1=coast
wm1=edge
hm1=edge
et1sub2=Subarea-Facility:GPE
et1sub2sub=Subarea-Facility:Population-Center
etet=of:GPE:LOCATION
wm1=areas
hm1=areas
ethm=FACILITY:New_York
et1sub2=County-or-District:GPE
hm1=courthouse
hmet=center:GPE
et12sub=FACILITY:County-or-District
et1sub2sub=Building-Grounds:County-or-District
wm2=what
wbl=or
chpbl=or
et1sub2sub=Airport:Nation
et1_country=FACILITY
wm1=homes
hm1=homes
et1sub2sub=Path:Nation
wm1=house
hm1=house
wm1=part
hm1=part
hm1=parts
wm1=county
et12+m1>m2=GPE:GPE:true
hm12+m1>m2=GPE:GPE:true
wm1=Japan
hm1=Japan
et12sub=GPE:State-or-Province
ethm=GPE:Iraq
country_et2=GPE
et1sub2=Subarea-Facility:FACILITY
etet=of:FACILITY:FACILITY
ethm=LOCATION:city
et1sub2=Land-Region-Natural:LOCATION
et1sub2=Nation:LOCATION
et1sub2sub=Land-Region-Natural:Land-Region-Natural
et1sub2sub=Region-General:State-or-Province
et1sub2=Region-International:GPE
et1sub2sub=Land-Region-Natural:Water-Body
hmet=part:GPE
et1sub2sub=Nation:Region-General
wm2=Shandong
et12sub=LOCATION:Path
et1sub2=Airport:FACILITY
wm1=Fallujah
hm1=Fallujah
country_et2=LOCATION
hmet=Japan:LOCATION
et12sub=GPE:County-or-District
et1sub2=State-or-Province:LOCATION
et1sub2sub=Population-Center:County-or-District
et12sub=GPE:GPE-Cluster
et1sub2=Region-International:LOCATION
hmet=area:LOCATION
bm1f=protect
wbfl=has
wbl=if
chpbl=if
wm2=students
hm2=students
ethm=ORGANIZATION:students
hmet=group:PERSON
wm1=Party
et12=GPE:WEA
et1sub2=Nation:WEA
et12+m1>m2=GPE:WEA:false
et12+m1<m2=GPE:WEA:false
hm12+m1>m2=GPE:WEA:false
hm12+m1<m2=GPE:WEA:false
et12sub=GPE:Underspecified
et1sub2sub=Nation:Underspecified
etet=GPE:WEA
wm2=plane
hm2=plane
et12sub=PERSON:Air
et1sub2sub=Group:Air
ethm=PERSON:plane
et12=PERSON:WEA
et1sub2=Group:WEA
et12+m1>m2=PERSON:WEA:false
et12+m1<m2=PERSON:WEA:false
hm12+m1>m2=PERSON:WEA:false
hm12+m1<m2=PERSON:WEA:false
etet=PERSON:WEA
et12sub=PERSON:Projectile
et1sub2sub=Group:Projectile
country_et2=WEA
wm2=weapons
hm2=weapons
et12sub=GPE:Exploding
et1sub2sub=Nation:Exploding
et12sub=PERSON:Land
et12+m1>m2=GPE:WEA:true
hm12+m1>m2=GPE:WEA:true
nationality_et2=WEA
wm2=guns
hm2=guns
et12sub=PERSON:Underspecified
et1sub2sub=Group:Underspecified
et12sub=PERSON:Shooting
et1sub2sub=Group:Shooting
et1sub2sub=Group:Land
hmet=they:WEA
wm2=tanks
hm2=tanks
hmet=We:VEH
hmet=Iraqi:WEA
et1sub2=Individual:VEH
hm12=they:them
et12=ORGANIZATION:VEH
et12+m1<m2=ORGANIZATION:VEH:false
hm12+m1<m2=ORGANIZATION:VEH:false
et1sub2sub=Individual:Land
etet=ORGANIZATION:VEH
et1sub2=Individual:WEA
wm2=arms
hm2=arms
ethm=PERSON:arms
ethm=PERSON:weapons
et1sub2sub=Individual:Air
et12sub=PERSON:Water
et12=ORGANIZATION:WEA
et12+m1>m2=ORGANIZATION:WEA:false
et12+m1<m2=ORGANIZATION:WEA:false
hm12+m1>m2=ORGANIZATION:WEA:false
hm12+m1<m2=ORGANIZATION:WEA:false
etet=ORGANIZATION:WEA
wbl=using
et1sub2sub=Individual:Shooting
hmet=he:VEH
et1sub2sub=Individual:Water
et1sub2=Government:VEH
et1sub2=Government:WEA
et1sub2sub=Group:Water
wm2=deck
hm2=deck
et12sub=ORGANIZATION:Air
et12+m1>m2=ORGANIZATION:VEH:true
hm12+m1>m2=ORGANIZATION:VEH:true
et1sub2=Commercial:VEH
hmet=man:VEH
et12sub=ORGANIZATION:Land
et12+m1>m2=ORGANIZATION:VEH:false
hm12+m1>m2=ORGANIZATION:VEH:false
ethm=GPE:weapons
et12sub=GPE:Nuclear
et1sub2sub=Nation:Nuclear
et12+m1>m2=PERSON:FACILITY:true
hm12+m1>m2=PERSON:FACILITY:true
etet=poss-1:PERSON:FACILITY
ethm=poss-1:PERSON:house
et12sub=PERSON:Exploding
hmet=They:WEA
hmet=they:VEH
hmet=Iraq:WEA
hmet=Iraqis:WEA
ethm=PERSON:guns
wbf=mostly
chpbf=fight-back
wm2=planes
hm2=planes
et12=GPE:VEH
et1sub2=Nation:VEH
et12+m1>m2=GPE:VEH:true
et12+m1<m2=GPE:VEH:false
hm12+m1>m2=GPE:VEH:true
hm12+m1<m2=GPE:VEH:false
etet=GPE:VEH
ethm=PERSON:tanks
et1sub2sub=Government:Air
et12sub=GPE:Air
et1sub2sub=Nation:Air
nationality_et2=VEH
hm12=North_Korea:weapons
etet=have:GPE:WEA
hmet=their:WEA
country_et2=VEH
et12sub=GPE:Water
et1sub2sub=Nation:Water
hmet=men:VEH
et1sub2sub=Individual:Exploding
hm12=it:weapons
hmhm=it:weapons
chpbf=admit
hmet=North_Korea:WEA
hmhm=North_Korea:weapons
et12sub=PERSON:Chemical
wm2=weapon
hm2=weapon
ethm=PERSON:car
hmet=he:WEA
ethm=have:GPE:weapons
et12sub=GPE:Projectile
et1sub2sub=Nation:Projectile
ethm=GPE:missiles
hmet=have:they:WEA
chpbl=build
etet=have:PERSON:WEA
hmet=we:VEH
et1sub2=Sports:VEH
et1sub2sub=Sports:Land
ethm=PERSON:ship
et1sub2sub=Individual:Subarea-Vehicle
wm2=vehicle
hm2=vehicle
ethm=PERSON:vehicle
wm1=IT
hm1=IT
wm2=WEAPONS
hm2=WEAPONS
hm12=IT:WEAPONS
wbfl=HAS
bm1f=SAYS
chpbfl=HAS
hmet=IT:WEA
ethm=GPE:WEAPONS
hmhm=IT:WEAPONS
et12sub=ORGANIZATION:Underspecified
et1sub2sub=Government:Underspecified
et12+m1>m2=PERSON:WEA:true
hm12+m1>m2=PERSON:WEA:true
wm2=rifle
hm2=rifle
ethm=PERSON:rifle
wm2=cars
hm2=cars
wbo=use
ethm=PERSON:missiles
etet=take:PERSON:VEH
et1sub2sub=Commercial:Land
hmet=They:VEH
wbo=weapons
chpbf=use
chpbo=use
wm1=Malaysia
hm1=Malaysia
hm1=North_Korea
et12+m1>m2=ORGANIZATION:FACILITY:true
hm12+m1>m2=ORGANIZATION:FACILITY:true
et1sub2=Commercial:FACILITY
wbl=had
cpp=have_with
et12+m1>m2=GPE:FACILITY:true
hm12+m1>m2=GPE:FACILITY:true
etet=poss-1:GPE:FACILITY
et1sub2=Nation:FACILITY
country_et2=FACILITY
et1sub2sub=Nation:Building-Grounds
et12sub=GPE:Airport
et1sub2sub=Nation:Airport
et1sub2=State-or-Province:FACILITY
wm2=it
hm2=it
chpbl=produce
wbfl=had
wm2=missiles
hm2=missiles
wm2=ship
hm2=ship
wm2=car
hm2=car
hmet=it:WEA
cpp=take_over
chpbl=make
et12=WEA:PERSON
et12+m1>m2=WEA:PERSON:false
et12+m1<m2=WEA:PERSON:false
hm12+m1>m2=WEA:PERSON:false
hm12+m1<m2=WEA:PERSON:false
etet=WEA:PERSON
et12sub=WEA:Group
et1sub2=Underspecified:PERSON
wm1=weapons
hm1=weapons
et1sub2sub=Underspecified:Group
hmet=weapons:PERSON
et12=VEH:ORGANIZATION
et12sub=VEH:Government
et12+m1>m2=VEH:ORGANIZATION:false
et12+m1<m2=VEH:ORGANIZATION:false
hm12+m1>m2=VEH:ORGANIZATION:false
hm12+m1<m2=VEH:ORGANIZATION:false
et12=VEH:PERSON
et12sub=VEH:Group
et12+m1<m2=VEH:PERSON:false
hm12+m1<m2=VEH:PERSON:false
etet=VEH:PERSON
et12+m1>m2=VEH:PERSON:false
hm12+m1>m2=VEH:PERSON:false
et1sub2=Land:ORGANIZATION
et1sub2sub=Land:Government
etet=VEH:ORGANIZATION
et1sub2=Land:PERSON
et1sub2sub=Land:Group
etet=of:FACILITY:PERSON
et1sub2=Water:PERSON
et12sub=VEH:Individual
et1sub2sub=Water:Individual
wm1=submarine
hm1=submarine
et1sub2sub=Water:Group
et12=VEH:GPE
et12sub=VEH:Nation
et12+m1>m2=VEH:GPE:false
et12+m1<m2=VEH:GPE:false
hm12+m1>m2=VEH:GPE:false
hm12+m1<m2=VEH:GPE:false
etet=VEH:GPE
et1sub2=Land:GPE
chpbfl=carry
et1sub2=Building-Grounds:ORGANIZATION
wm2=crew
hm2=crew
wbo=used
wbo=``
chpbo=``
wm2=wife
hm2=wife
wm2=founder
hm2=founder
hmet=it:PERSON
et12sub=ORGANIZATION:Educational
et1sub2=Media:ORGANIZATION
et1sub2=Non-Governmental:ORGANIZATION
et12sub=ORGANIZATION:Media
et1sub2sub=Non-Governmental:Non-Governmental
et12sub=ORGANIZATION:Commercial
et1sub2=Commercial:ORGANIZATION
et1sub2sub=Commercial:Commercial
wbo=embark
wbo=strip
chpbf=embark
chpbo=strip
cpp=embark_on_war_that_strip_her_of
etet=poss-1:GPE:GPE
wm2=parks
hm2=parks
et1sub2=Population-Center:ORGANIZATION
etet=poss-1:GPE:ORGANIZATION
et12=LOCATION:ORGANIZATION
et12+m1>m2=LOCATION:ORGANIZATION:true
et12+m1<m2=LOCATION:ORGANIZATION:false
hm12+m1>m2=LOCATION:ORGANIZATION:true
hm12+m1<m2=LOCATION:ORGANIZATION:false
et1sub2sub=Nation:Government
et12sub=GPE:Media
et1sub2sub=Nation:Media
wbo=Japan
hmet=poss-1:country:ORGANIZATION
et1sub2sub=Population-Center:Government
et12sub=GPE:Commercial
et1sub2sub=Nation:Commercial
et12sub=ORGANIZATION:Entertainment
et1sub2sub=Commercial:Entertainment
wm2=cabinet
hm2=cabinet
ethm=PERSON:cabinet
wm2=workers
wm2=co
hm2=co-workers
hm12=you:co-workers
cpp=go_to_lot_with_friend_,_neighbor_,
ethm=PERSON:co-workers
hmhm=you:co-workers
et12sub=PERSON:Indeterminate
et1sub2sub=Group:Indeterminate
wbo=neighbors
chpbo=neighbor
cpp='ve_get
hmet=poss-1:Saddam:PERSON
relative_et2=PERSON
etet=poss-1:PERSON:PERSON
et1sub2sub=Individual:Individual
hmet=his:PERSON
hmet=who:PERSON
etet=have:PERSON:PERSON
hmet=she:PERSON
et1sub2=Indeterminate:PERSON
hmet=you:PERSON
wbo=friends
et1sub2sub=Indeterminate:Group
chpbo=friend
wbo=parties
chpbo=lot
ethm=PERSON:you
hmet=he:PERSON
hmet=people:PERSON
ethm=PERSON:members
wbo=friendship
chpbo=friendship
hm1=Toefting
ethm=PERSON:board
hm1=European
et1sub2=Continent:GPE
hmet=European:GPE
et1sub2sub=Nation:Population-Center
hmet=poss-1:Baghdad:FACILITY
hm12=Iraq:city
hmet=poss-1:Iraq:GPE
ethm=poss-1:GPE:city
hmhm=poss-1:Iraq:city
wbo=New
et1sub2sub=State-or-Province:State-or-Province
hmet=states:GPE
wm2=mother
hm2=mother
hm12=baby:mother
hmet=poss-1:baby:PERSON
ethm=poss-1:PERSON:mother
hmhm=poss-1:baby:mother
wm2=family
hm2=family
wm2=sister
hm2=sister
ethm=PERSON:family
wm2=parents
hm2=parents
ethm=PERSON:parents
hm12=you:family
hmhm=you:family
hmet=your:PERSON
cpp=travel_to_meet-up_with
ethm=PERSON:brother
ethm=poss-1:PERSON:family
wm2=daughter
hm2=daughter
ethm=PERSON:daughter
ethm=of:PERSON:family
ethm=PERSON:children
hmet=family:PERSON
cpp=give_to
ethm=have:PERSON:children
ethm=poss-1:PERSON:son
wm1=B
hm1=B
wm2=kid
hm2=kid
hmet=poss-1:B:PERSON
hmet=my:PERSON
hmet=mother:PERSON
ethm=poss-1:PERSON:wife
et1_relative=PERSON
wm2=son
hm2=son
hmet=her:PERSON
wm2=old
ethm=PERSON:son
ethm=poss-1:PERSON:father
ethm=PERSON:wife
hmet=wife:PERSON
wm2=father
hm2=father
hmet=brother:PERSON
hmet=of:friend:PERSON
chpbo=meet-up
hmet=have:I:PERSON
wm2=friends
hm2=friends
ethm=PERSON:friends
hm12=you:friends
hmhm=you:friends
cpp=go_to_lot_with
cpp=travel_to_meet-up_with_family_or
am2f=stock
wbo=stock
wm1=founder
hm1=founder
hmet=founder:ORGANIZATION
et12=VEH:VEH
et12+m1>m2=VEH:VEH:false
et12+m1<m2=VEH:VEH:false
hm12+m1>m2=VEH:VEH:false
hm12+m1<m2=VEH:VEH:false
etet=VEH:VEH
et12sub=VEH:Water
et1sub2=Subarea-Vehicle:VEH
wm2=shareholders
hm2=shareholders
ethm=ORGANIZATION:shareholders
19.894142059652697
20.72058774371081
19.66522278721687
11.263565901674223
11.263565901674223
11.263565901674223
11.263565901674223
11.263565901674223
11.263565901674223
21.33387017170563
21.787665309382398
24.246522424126145
16.125150776767345
16.125150776767345
24.076255897003588
24.076255897003588
24.618555878488543
28.192623467626987
26.111451724481896
38.304413072859965
32.6452047482073
4.5867717981741345
6.518413995330402
-10.23148716436139
0.5707492938777028
0.10745529873590343
1.1842897361467486
-27.040705657483354
-3.360595082229451
2.340444565563331
11.2868924500802
8.35196875874237
-13.214428003388543
6.882164591257756
-2.233224169473843
-10.249632193713666
-6.915993333300151
1.429503750354769
-2.6385069313791645
-32.74035958591659
-15.604840026999275
-31.416680301966437
-74.59828319427831
-6.567693252455132
-37.838006297867814
-21.822803901600416
-18.12919656286057
-78.76178303365569
-52.44008195168474
-33.94896979724674
-49.095221879045155
-63.4710286382119
-25.062278089183717
-21.95068743137275
-28.517994247690687
-43.31212232632197
-0.8527733634562096
0.7806419989703168
-28.15484605678518
4.530743251992681
5.76215490510265
3.8405424260417416
-6.907504945218069
-7.111708804909199
4.240896426948279
9.025749895382692
6.926393003901031
-9.972427844201334
9.555243564695367
7.001258311131944
-9.018603040173192
-18.45015592111397
-13.860545816188095
1.2958395982188753
-30.158741992086785
-40.14766349132054
2.1746934752217926
-28.146269443485355
-39.5796656142955
-24.735097833912064
-31.194817045715517
-41.90560403624328
-11.547743613289626
-23.583115203380558
-79.59701776739942
-4.758963066051762
-66.57976482844717
-70.13729015755924
-35.64900111251541
-20.80553848781539
-18.09410063912305
12.38311996118552
7.596672094141113
-9.981494335286873
-6.657737264871296
-2.376503613249615
-4.411172188161405
-32.132867442901144
-17.232282804407898
-41.51858212493481
10.920272933179874
-11.259103054063306
-34.80830039976535
5.529256575023813
-12.95447381473883
-17.516126911883248
-17.833291989504623
-8.928061919388114
-16.471233177553692
-46.612027642617576
-22.48844642444558
7.405039923019395
-48.803649109235934
-3.697808519731078
-53.88410947363343
2.7482480559990066
-41.40155252477272
-52.48231266538601
6.55234338598633
-26.171254995359632
-8.79046629609876
1.9249594045414153
-66.97102339730787
-4.7693074415290155
-6.478659811792745
9.472545276329509
3.8266877472882572
10.304270020225713
-0.9248309968745407
-2.3811561853602896
-13.292004680576172
-1.2442572025443188
-14.811336583017216
8.89379884274781
10.543482425467516
0.04365736308349977
1.3307747235511616
-3.7590688541159456
-14.291508327839017
0.5602789415352811
-13.259969502015593
-1.1674381861888996
-59.58445431543317
-32.507210653196395
-7.17663905451696
-29.0647247556785
5.1597730778267525
-33.28601345963664
-41.374689094056464
-58.98762229347646
-7.676077952691894
-34.0786614341381
-56.88207340135201
-47.6374988761338
-30.99338388969531
-20.07457555570981
-23.46943800941602
-25.78777698399113
8.968307733663915
-22.961872188376315
6.805183213886558
3.2110535099912516
-10.232498375689103
-33.51784856331239
0.9472420898948943
-1.066826280187466
12.613416738242272
12.092132541054593
-19.37895541831013
4.030381981375976
-4.533945709277878
-7.791156013381576
-54.20062931982186
-8.53471375804426
-21.941695139516042
-28.81910393684582
-44.93998362380369
-0.336433299134689
-22.904018081418496
-26.398650821831705
-24.936707878369432
-110.31663194593996
-34.3142013719615
-47.74152189544615
-19.763579799360365
-23.36712819254421
-33.19447160809695
-43.00769593196923
-104.17468883102543
-53.942204066393614
-11.024574519845393
0.041407807744010316
-9.227613924038685
-4.900841508919313
-8.616374634855546
8.595004277395944
-16.707953352292094
5.742217793842549
-15.348349862860461
11.321308570687833
7.163747813945773
-10.178934198492076
6.505435349840103
-1.7182993590880362
-12.806266001276606
-11.464619249632584
-4.081170139967614
-4.688340791426382
-1.4169148692235158
-19.186745252134838
1.0135395111448489
-11.32507793989827
-18.53797114366901
-2.678158608550573
-17.905781813056265
-12.043532294013826
-10.981220162444028
-14.671468922355348
-38.41225338823352
-65.13651547466871
-2.771213978948264
2.9285997313984073
-38.89515796269556
13.802295296663281
-8.269272305855225
0.1427628577381035
-28.547879599063176
-3.9559639062152265
-16.594870716136995
-24.219240467345195
-41.58872984615031
3.580666936959297
3.9542711702267463
-5.584684324197822
5.885043562078499
9.959312585624186
-69.52604891669726
-12.993794491891219
8.46279385432337
3.779649917663291
2.823427438790134
5.212702135971892
-4.738777288030088
5.212257996468013
-41.43544405125123
-4.037184488869163
-41.07005799492265
-0.09090100075344543
-20.914108532582556
-43.583706026445924
-3.864906597868542
-23.10763299913327
-6.118034525287942
-25.449654014270973
13.017715968094759
-14.737766565580614
4.564614371894214
-6.82548695750673
-6.405358620497848
-21.797391722047614
1.4737441075129722
-21.58857463905998
-4.135734200343395
-7.890176309646718
-9.472392977267578
-7.721228712388436
5.323003029442442
-1.2597423167377326
-24.630935996166055
5.987675093536175
-2.7278665605807726
5.959032698341625
-38.62714327976493
6.97496591024006
9.150058653908069
-4.235327177565788
-12.846368787150395
-8.048015120319196
-12.61200007711919
-3.9647625105295714
-13.521485655030208
-0.6513533620006622
-0.4484706994179932
-18.9566248879576
-9.626929577622745
-27.971972918539823
13.017715968094759
-14.737766565580614
4.564614371894214
-6.82548695750673
-6.405358620497848
-21.797391722047614
1.4737441075129722
-21.58857463905998
-4.135734200343395
-7.890176309646718
-9.472392977267578
-7.721228712388436
5.323003029442442
-1.2597423167377326
-24.630935996166055
5.987675093536175
-2.7278665605807726
5.959032698341625
-38.62714327976493
6.97496591024006
9.150058653908069
-4.235327177565788
-12.846368787150395
-8.048015120319196
-12.61200007711919
-3.9647625105295714
-13.521485655030208
-0.6513533620006622
-0.4484706994179932
-18.9566248879576
-9.626929577622745
-27.971972918539823
13.095140593906182
-15.19631888995399
4.77555750474367
1.2870174592062167
-6.269038994444088
-34.31198809592716
1.8551114314837704
-21.35704320129691
-3.9823959611070583
-10.391534453426312
-16.092202833465713
-11.028815525833945
5.189837589760607
1.0136619916678313
-24.427202009283274
6.215598363125727
-1.5213322056433225
7.0896578319051216
-36.04212769926804
5.609446739270355
8.197645115200997
-3.909657079314263
-13.799221430515452
-7.800972735836601
-12.427266670912722
-2.5883574336920883
3.4746500791537427
-0.4483852817424181
-0.17518567943047758
-18.452000893551016
-8.87222564597952
-27.31681224829738
-7.859495352028444
7.148697272080816
-19.50133098425806
14.211095324794451
-2.3092510144154503
4.828440178716067
2.9913909050790015
-15.946757844151367
-3.4872908309876025
8.053307953907854
-0.08765039442649547
-11.804331757837144
4.181527297806378
2.3493404463253786
2.3504916421341178
12.03181477732281
-8.096463645457732
-12.56285509875626
-26.695987169237597
-20.903053338762643
1.9948443992783242
7.292732254024497
4.031053894875399
14.71266823325799
-12.237456653307369
13.652760847090239
-20.02865764009776
-27.957265018586842
2.0470021468153616
-13.701263589242105
-18.24124828283865
2.612331572458083
-6.822451743975621
8.051911116883963
-0.8939933798878634
5.192214349096464
-68.77566744322137
-18.74244908956304
1.8652633196196353
12.574629239892065
-13.753625458818428
-29.205759928754237
13.188568143211894
-7.624758752888097
-28.47102253216779
-28.80322646741386
-4.8738839776716905
-13.470614414814394
-51.63906599920361
-0.949763227121661
-13.670196813770254
-40.71828030400539
-8.232382130972958
1.8796990704514476
-36.33538063133541
-43.86513584977055
5.11601737833011
-6.205312623450916
-37.29758006438883
-16.551915303190015
-35.350477964088114
-14.973655992067384
-8.596735866652129
-2.0203601903021697
2.212618717253491
-11.852326709340586
-17.71027199914451
-3.7833002905651862
1.1288700909956983
-2.0465229234271085
-12.504257755721044
9.46956029064014
-21.65404618563869
5.019814225139452
5.84516005889108
-5.4621729934012055
-30.52481414796112
-14.825694831584554
6.8602132833434535
-7.240355549870342
-6.043610658037414
-7.555790888104905
5.724466897154869
0.4438231153089966
2.077916769346457
-6.586566329660024
-8.489166258026504
-9.372184642153835
-4.868609397180311
-14.232906354855048
-13.36671917750206
6.348955655019118
-5.0405852103017335
-7.684809405854135
-0.8075735251915626
11.792005638157871
3.559710117136718
-7.871800205504439
7.913577213189694
-17.17157107025452
8.242352937446462
8.028108471527165
-6.334658124673081
-21.355923996419953
-9.07846164075339
7.859827198408552
-4.6251491107087706
-1.607188813383637
-10.462394072457275
7.599137715934571
7.389732359264186
1.8682021084587874
0.03274106151740255
-22.919829952880736
-1.596876093779039
-14.725566688485113
-1.7663896925902223
1.099175363161153
-3.9339188933148814
2.2053055039395564
-14.925072533596401
-2.9941462503632335
-41.61663244718886
-2.066019467037387
10.32696891152667
-1.6252044917266555
-34.24912871335133
12.401480429030427
-23.861039382531157
-17.553680602140673
-36.09024792002601
4.147398754094757
-34.01560178405927
-15.153275642520416
9.513531856206768
-60.60633145414717
1.7101133992812563
-21.481736833768757
-7.831677967815333
-48.89387956900637
13.685724870421968
-66.92254746514242
-51.59498779896689
-35.09862502570432
-15.146579266169738
-33.59782671873644
-0.04183647568531712
5.534857513894837
-9.756408592356609
-13.568270390921736
4.397114957504911
12.66306673749219
-33.88742971981336
-6.253375693203527
8.5055084673716
11.840876886418439
-7.566793629846794
-9.5678759141533
7.757407763039911
-14.858675460639827
-25.00251410458596
-17.015266267533004
0.3109734862723561
-0.7126794376213881
-33.52105039322369
5.246529802501421
-18.039923532213702
-58.73426284518728
-36.02250067485529
-19.328683905987077
-31.65835837552898
-5.511176072372413
6.065801929166757
8.41447092133389
-57.229699276307706
0.45175434545595605
-8.04556124525938
-0.8240282955825209
-37.03982133288348
-3.8882245389542374
2.658585710550942
12.901829399222738
12.03852936902829
-23.583240785665684
-72.56819925658712
-69.86300785497455
-10.096881536233617
-2.33031807885811
-10.291979695982098
3.739463993266415
7.377188417339503
-10.790141378141675
-54.27309674429197
-17.51941782739675
-55.35143283177567
-20.141277646855016
-45.270966081751396
-29.495147762403278
-4.148400977739661
-26.877600678041322
-0.3635242607215359
2.9922740519532662
-25.48520538867369
7.730128820958193
2.640061828424189
-5.64081652466804
10.505377168355393
4.861489913070065
-7.268391817762481
9.856496135255696
3.7348821823059524
-15.906547466327153
6.29222106357224
15.232430618265509
-17.452688150871275
-13.365042604016228
-7.222182874831654
11.044715572536271
-5.860472197503185
10.98013443680445
-17.791560867507663
18.344348462481204
-3.2391482566698557
-15.907325095697379
-9.36173136738837
-31.244908317275865
-11.218820717763693
-39.06549131349511
-2.3596358914062034
3.145730875150611
-22.611593614194877
6.671294730903012
0.6968844860290715
-0.7081705053734026
-17.780092341716255
-2.8017008117809823
8.383058908783767
5.14140937080522
-4.056527822233662
-9.959373361887513
2.7209577136563663
4.7099147726164095
-23.63445350396879
-2.918167384050471
-1.7341731332047021
-3.584942057179787
7.129879902320341
4.2814712380664215
-2.3039446063220796
-2.782064978398398
5.122618715198549
-22.619594927243394
-10.56486123141634
-2.4348314594473273
-1.560680895585822
3.1837402931422445
-21.32438422496149
1.7169624895585582
1.382308869376112
0.19079518361389836
-14.963436466153443
-1.122313087171957
8.832769094648718
5.564959043762648
-2.473050768526609
-8.62731555122648
2.1485624927966422
5.2057122315256965
-22.829607245698856
-1.954081835510229
0.14783716305064543
-5.889401110755955
3.2545775359638784
5.760611637476806
-0.8467312932162618
-12.221268600404063
7.027053035665677
-21.137795158621913
-9.86128461289823
-1.0027618612789324
5.360825927044379
1.5357979249533806
-26.777233858162834
-19.193504589365098
0.9823803124834738
5.309504069641915
-20.460069656418288
6.227776647283866
-16.430256569829716
12.841888533277471
-2.651025663562391
18.338786637973246
-22.255031546837735
-45.175405470781044
-8.766534639307045
-23.671277384725148
-7.931634661939572
-9.450914954735044
10.664862273566284
2.7890825817232443
-21.25499048077093
-8.584178576572263
38.33276604613212
-11.297165561056206
-0.8974166423423352
-24.32307978462853
-46.92429767981047
17.69503592443704
-17.863070552539558
-15.176384517353108
11.495327567424724
21.718983931819405
-0.2448367413083942
-3.2402342689892816
8.767598731645464
-5.743769941900556
5.994108873850399
-3.839805367580007
21.041881398547776
2.492152742282532
-26.539575796626625
-2.6180878255455733
-7.84905510280946
15.169251784027589
16.66657849035292
-6.560561144747175
10.879418238232622
-8.062457133882445
2.8049163249105877
-26.267561473931234
11.323729719804966
-14.093093494918943
15.667396829171288
0.8241983775866617
-13.554690075262439
0.2736774495519485
10.284719031514907
-1.5907406657994099
3.220304543188588
-8.154289884107856
2.8195491996766497
-0.30194014974541816
-5.065155387143657
-18.532561488207826
-6.4267420147769005
-13.703321170958692
6.435818201450522
0.3579376482594121
-13.41754338203414
-6.240255143603136
17.76141222175255
-0.06854924476705193
0.28047193151848293
7.109523607875974
-26.562710576534457
14.772145577563021
-6.877025905847148
2.515048678739932
12.253834958877764
-6.991283948049491
-1.6872384280159274
8.898950882631125
-41.529922195028014
-36.95121494197515
17.794688049988682
3.139457853345117
30.492139265681818
-28.72341317162562
2.401066380521869
31.14930754953354
18.996226745382906
-4.4412189248465985
-0.98797101467999
16.70256547901662
-21.601870160741374
2.0381572254713296
4.517718982683496
-18.371112394993276
-3.163866893750134
2.1172898610624316
16.71254885783761
7.819028761026674
-13.076602717722517
7.25038643242093
16.88102611455227
-2.3233066334692585
-19.9479079914565
25.462302850563677
2.788053939607777
5.442448846216681
-20.890183178121625
8.11456443455195
5.227004193270745
-21.937521015319728
-17.857465748748435
0.8351377549671828
-6.771075498988547
6.751820598976039
26.684009567304166
-50.845247816050986
12.157594960024545
-43.03952508525151
-0.3166361328806193
1.572615931697337
7.971562853123839
5.206835169277957
-36.08479653807295
13.120168215262876
10.378344340635842
-50.99851513293284
-60.138041310363505
5.2242747144444115
-5.614091723305387
-26.433011616092536
-9.63121174822464
-23.917492627447952
-6.481602644596169
-22.456259173437747
-43.47464162926803
-24.038123088267763
-7.098395362434676
-43.59245857431415
-17.360376748890662
-19.207845076713483
-48.6013938198707
-42.6319836395204
-19.257819338396526
-2.0818443468597065
-45.317175387195334
7.580491081439066
7.368728229634783
19.036545785562623
-18.019576281057372
1.6410116166359123
9.576756733064999
5.164065484474553
17.886710655487615
-3.6409255368494815
-3.6493579262926774
-23.73776274776314
-16.296284627250593
-12.080245534880161
13.838482738214928
-7.2456160639646
-20.166480857142574
-13.660416467879273
9.870159391493178
-7.358995805260646
-3.2074262279268195
-4.36469495037751
4.131956569310916
-47.53953389512523
-65.69633009090465
-1.3092510180541403
-56.82582989830027
-50.08599080316348
11.35639956130207
0.4080739448866866
19.91242362230725
-23.676081382711665
12.827362454065348
-30.273992305312635
-10.004944877709123
-34.39468216436356
-22.603816536581434
-10.608755457962879
9.644128465064927
-45.89239804275363
-9.525933436126483
-13.355905165628183
-11.513516651397437
22.908542392115198
-1.5745661554402266
4.761881181720793
-9.226889896405256
10.31870192301226
0.71067915358992
10.336590991345092
-16.65306751619897
10.683359670903751
7.85784999908811
-24.321591583884246
-4.895299484394556
0.6124432399094377
-16.817197705843068
-45.08261159616606
12.23877087909846
-6.578355106678146
-2.3864040419909744
-30.668869616931136
-7.709232321089527
-0.4167843590369809
1.3919061732887468
-1.264364331607852
6.085561070284467
-9.153252766126032
10.80949626624415
0.8486340582976628
9.539735016941874
-15.979228930682106
10.746368392728751
8.001866894919168
-24.77856738849285
-4.4480686651420305
1.1157258397998437
-16.728038633537533
13.862676044415856
-6.739558761084369
-13.670794310862268
-18.16631266914783
-8.29145843195897
3.5154033043551522
2.396510544602598
22.249244192598677
-1.3781457038885805
9.925275384010378
0.7445321505432985
8.668170353090737
-3.2468561559860234
3.7609354904621917
-5.349026355207755
10.993828555627458
-13.835157435799948
17.342281807132885
8.216593100873478
17.397135753992597
-0.10876850278336699
13.154499823505281
0.33697741152949295
12.074523744122187
5.308776966369965
13.334359330610955
-22.79817449925985
-21.448098507009384
24.332551705000704
23.46382607058923
-39.624832211181335
-7.97310476084867
12.624149923569988
4.386648666888782
1.128478390772159
-3.955227818554025
8.359188056887087
-0.3791004762228988
36.44231830789633
8.353681206449739
-11.265507720600406
48.08196515399359
12.023964833542184
-14.632113409772666
0.8216825468584742
4.269504949426692
-13.038822853687707
36.558433243818826
-2.2184623036660884
-5.592606099845132
24.65440455924317
43.344212392245396
12.043070578588491
-3.730428276529957
-5.139699202638116
0.17801936492672565
-36.49731975949205
4.7212012571126865
9.365957590797906
19.319829034980934
37.129996462142024
-10.4839173597401
59.56096797413865
38.510404571789344
30.89128114070143
17.632848751373995
21.696230488453935
-9.28867423836403
2.5672262819116756
4.915433781856804
-21.45337969690895
-5.79558620573089
13.413513214876241
-10.149534698870003
-18.687330273367643
28.10221606682028
-8.92117422078289
16.6531373370058
39.95881342920432
55.46514381593742
-21.10272139638921
-0.715683064865309
-11.124698322081734
6.5255765163591555
1.5036097559463022
19.535436786874417
-6.0192169396776976
4.062023987942215
-33.80306522221436
14.049209039386387
3.7567565541415435
7.829136705122962
3.7889715041341008
3.62586508632757
-0.938715131809946
2.570727312354947
-1.3861759869860308
-5.149279796746584
5.664683103886521
-13.982685948687015
19.516598381521472
18.291251387613283
4.7352480709931335
-11.6031886598094
0.5264637648593471
-0.4430603792728619
-4.098345379299635
5.4075811194885395
18.39520853485935
-11.791314123606744
-11.995491008894508
-36.60593775224701
16.902304616993945
5.667930199335884
16.36591979378464
7.288609704659331
6.87170571120287
4.734439815327362
5.216817531051257
5.772205737430278
-1.0726757357026875
10.650923075742943
23.119633703775307
20.66409306135859
13.67226316511646
-4.732004496054815
13.33262118744802
-7.2216743389275955
0.6216507763647621
3.382326384651158
18.771450237067658
-23.294252379896047
12.538565539833233
-3.434287728234743
45.88858921920023
9.581428578324982
23.25014397749311
8.758702237617877
-19.619606664413308
33.174630124125194
-2.3035437126261775
27.969074100867417
10.729957513639429
-2.4344094608580145
10.230808680044156
1.2444164069202919
9.448887534396485
-5.641689185121393
-23.22885594663512
11.50822605868897
15.525919058978275
7.997929596914225
-11.383587896151464
5.609993918387592
-15.587030885684419
23.837471100884102
11.405574086388432
-26.334908390557334
8.796004604695371
2.7868742207552377
-16.244841555627374
13.412231580400618
1.8901351514276852
-6.007774981059189
38.054422527354696
14.812163631128314
19.481756446012803
-6.48221313422362
3.8281473077902852
3.3630662156722604
-2.6690088888481642
21.791079995106582
23.967201222386503
25.83333501051932
-5.650537960890696
24.556846026956435
37.432862072209204
12.713339618814343
-3.404468720587885
28.767697644784217
36.59090446950438
38.512551045855794
13.466447531145345
7.197803532607328
-1.3481186692525255
13.95073660586821
14.460212990989774
7.524916232369076
-0.35442346132906166
5.293765368298384
-1.7275344904369232
7.171940594851789
-18.907424484588844
10.638998685547657
-1.728190710219426
9.824729303400591
-7.699094176421205
6.477885831887214
12.139691858503777
-4.043999488183245
-0.20113793770852062
1.459055369646362
2.514119705929365
2.54642889675411
5.494255430110857
-1.0881212016093718
1.3226915365200937
-7.426365655801384
14.316398881186231
7.408482128524366
-1.4354884827614596
4.539780712958173
-1.9848710342397882
6.7039342109711
-19.224715910582137
11.343178532814266
-1.879192576748021
9.690049876013605
-7.9024520520191
6.350696021383267
11.768792189541612
-4.273596290675208
-0.4141660103584176
1.1436677258890597
2.2650400827288575
2.244558137494997
6.443994733234758
-1.4261337522393824
1.067466458486498
-7.719849463170449
-14.065695435483685
16.371806002923332
22.050115559598094
-58.264928592641226
9.094152583629189
20.528401396640625
-2.1304141371402006
10.635825474591012
-33.65515888473634
-12.683391540282171
0.1984397574606398
-2.3717087727894097
-17.556854183456544
-1.4243431404275553
11.423306633524122
-1.8103251231940478
4.051622883447782
-22.554204121235127
5.6465531698366345
5.602910704934122
7.917032478814698
1.4370426993981207
-42.687142794124206
2.9728210169286053
-0.49818927031766114
-19.410643878354655
-15.40312653214694
1.1992248749988323
6.718652282709449
17.090549177752827
0.5614587931454933
-2.8462177545477347
-17.189658344371043
-4.747491512291447
-10.484671039940423
-9.853541324392674
31.966951301114143
10.495424695545923
13.955820114937875
-11.827630734962282
14.372082950411178
-4.948661800490331
-1.833219343814068
15.577491254284558
-16.835407630500853
-0.2371017159074209
18.284276005408525
1.2915495910220929
32.27788176983449
19.870923730485597
30.407553718546108
6.557450433309023
5.56979772233378
5.863820849336626
8.717958789017075
2.630292374308038
22.406039021139975
38.35063590126848
-4.921633585844575
38.34056416272848
11.266910591731998
-6.43402688050695
9.361403098641102
18.906964767678232
7.294917379959236
27.0857763810317
31.86417076621781
2.630292374308038
22.406039021139975
38.35063590126848
-4.921633585844575
38.34056416272848
11.266910591731998
-6.43402688050695
9.361403098641102
18.906964767678232
7.294917379959236
27.0857763810317
31.86417076621781
-16.743692272931916
-13.70885222163897
31.722394996369168
-18.929021083891918
-14.957581768074625
25.642753716628846
6.720595053542938
-2.02326144207019
11.916841982043763
18.710998371264875
-15.728730640479471
-2.5188497779352095
-14.652423115450079
-13.313907830850477
-9.213807600230755
14.394888582154389
-3.5349346723170676
9.435860615924177
-3.014089998114801
39.97214986837922
-11.960198199384285
-10.125126945388804
-3.090729429901084
-1.2238689434311765
-15.78855048261709
5.76900873058263
7.643583396061765
3.084952816246556
8.723066810904776
2.6617298028741816
1.9548065929774259
14.191784397967195
4.814994790623734
3.6344871152925515
4.4017965576516795
1.8474382456832013
5.800812975191947
10.283987622284576
-8.050170810526545
26.52937794449239
-9.018631093718604
-1.38617097488956
0.3893460353701319
-13.532565293830192
0.9797766607944614
9.564009265050828
4.490447116868965
8.398894793935899
-2.2928247064669094
2.983950371027644
14.817113680597105
-13.788414958956995
4.616363340011748
5.8528294040306035
3.2338067730919873
7.311802226843648
11.125092308857939
-6.76776115820128
27.707506718999234
-16.35778727419963
5.826205019641154
49.73857002111243
-8.04663333004556
-5.968441658263181
1.6556247333833616
-1.2896835980047543
14.5187786837236
-0.3429600709989691
19.872089886925213
6.192506500985418
5.894787980013084
-5.940066197596642
6.381842493475963
38.41437162398033
32.30991902478064
-35.09869620366365
0.33458974492044163
30.905244926249633
40.75842149350309
14.962247345084528
2.823680584462211
-12.641836263793444
19.004160350392855
18.237144343726793
10.920424000301837
-0.532624135315819
-1.111416748180328
11.979594709446449
9.0767287236698
9.030731868419718
5.072470289388032
8.047598652922428
0.7635427685124487
13.008555954991891
-20.836181061619648
19.260065257019964
-14.163129925551706
-1.232069454321872
18.63325043416775
-9.634530041610052
14.002301222318051
15.205589421153451
8.752789460813009
4.995584689236974
7.667405065809412
0.6144564394759031
13.635973981824247
-21.60415557249337
19.216902820180547
-15.618441613409363
-1.586664274321944
18.282416977078167
-10.054406998159504
13.473247041959171
14.808681159669769
14.555246315393205
11.061254303852964
38.3162351414473
-0.9673883590955903
8.138559640368866
10.302338546741947
1.1652840138195837
6.787335373768535
10.278352750493083
7.858912127266295
34.56731175998892
3.925261794866123
6.926589858942621
44.47587214021869
23.812387888047752
-17.456532055371312
18.883721875278106
18.75327604594808
3.8708263258656865
0.05831195863120749
14.01785623924336
-6.120344171938577
23.41521507158339
10.572932595227712
1.6219521463730873
-16.544509788371567
5.902319124919587
13.329270434140849
-2.2041159347745993
19.702542537525044
7.102466830443033
2.202713712104316
1.7183444232356213
10.87786210581763
19.2107195673356
32.91959393095786
8.285019730159597
36.60675966825056
6.60281472849527
-7.135882207932007
6.343592318958556
22.35413727812563
37.31593413457815
-2.182879416987423
10.650436050877374
28.883721731374315
-5.259601003951412
29.060947736022424
17.045252305966084
24.532296316910763
17.977565350923904
14.14030512697436
7.163828021426684
16.877741115148584
0.5625963273548696
-5.73827079994174
0.907630259026418
19.44682657850988
19.956109751588198
59.76859908054073
-7.448250176851622
-24.023316180230665
19.071964936539604
18.675739808479673
24.232692761571336
17.151785409292295
3.796984138271652
15.047882000047162
-1.5991010320933345
-7.1478505247077635
6.660521567266387
11.99733020733149
15.340771235921338
7.738856717372687
11.963323329760255
33.30059497864518
22.564110808940196
11.711996446207793
18.58209314803069
40.58401977660018
20.439620550086907
33.03497417996136
11.963323329760255
33.30059497864518
22.564110808940196
11.711996446207793
18.58209314803069
40.58401977660018
20.439620550086907
33.03497417996136
15.444882097286179
12.29837240185199
71.27446439049989
2.0761495691887686
-3.443008706709222
19.400505797094972
23.82563225462293
40.31066969518317
-0.19765969534536443
