GIS
27
0.0
2
nil
t
3
308 0
1737 0 1
501 1
2546
ethm=PERSON:I
et1_nationality=GPE
wm1=biological
hm1=biological
et1sub2=Biological:WEA
hmet=biological:WEA
ethm=WEA:weapons
hmet=U.S:GPE
wm1=artillery
hm1=artillery
wm2=U.S.
hm2=U.S
hm12=our:military
ethm=ORGANIZATION:military
hmhm=our:military
et1sub2=Shooting:WEA
et12sub=WEA:Underspecified
hmet=artillery:WEA
et12sub=WEA:Projectile
et1sub2sub=Shooting:Projectile
wm2=Kurdish
hm2=Kurdish
wbl=and
chpbl=and
et12+m1>m2=ORGANIZATION:GPE:false
hm12+m1>m2=ORGANIZATION:GPE:false
hmet=u.s:GPE
wm2=coalition
hm2=coalition
am2f=reports
wm1=young
hm1=young
hm12=military:analyst
hmhm=military:analyst
wm2=viewers
hm2=viewers
hm12=our:viewers
hmhm=poss-1:our:viewers
et1sub2=Air:VEH
et1sub2=Air:WEA
et12sub=VEH:Exploding
et1sub2sub=Air:Exploding
wm1=weapons
hm1=weapons
wbfl=-
chpbfl=-
et1sub2=Media:GPE
wm2=guest
hm2=guest
et12=WEA:VEH
et12+m1>m2=WEA:VEH:true
et12+m1<m2=WEA:VEH:false
hm12+m1>m2=WEA:VEH:true
hm12+m1<m2=WEA:VEH:false
etet=WEA:VEH
ethm=poss-1:ORGANIZATION:viewers
et12=LOCATION:VEH
et12+m1>m2=LOCATION:VEH:true
et12+m1<m2=LOCATION:VEH:false
hm12+m1>m2=LOCATION:VEH:true
hm12+m1<m2=LOCATION:VEH:false
hmet=israeli:GPE
wm2=palestinian
hm2=palestinian
hm12=israeli:palestinian
et12sub=GPE:Special
et1sub2sub=Nation:Special
ethm=GPE:palestinian
hmhm=israeli:palestinian
wbfl=wife
chpbfl=wife
wm2=Laci
hm2=Laci
hm12=his:Laci
ethm=PERSON:Laci
hmhm=his:Laci
am2f=peace
wm2=Yasser
wm2=Arafat
hm2=Yasser_Arafat
hm12=PLO:Yasser_Arafat
ethm=ORGANIZATION:Yasser_Arafat
hmhm=PLO:Yasser_Arafat
wm2=Palestinian
hm2=Palestinian
hm12=Israeli:Palestinian
hmet=Israeli:GPE
ethm=GPE:Palestinian
hmhm=Israeli:Palestinian
am2f=guess
wbfl=leader
chpbfl=leader
wm2=Colin
wm2=Powell
hm2=Colin_Powell
hm12=State:Colin_Powell
ethm=ORGANIZATION:Colin_Powell
hmhm=State:Colin_Powell
wm1=leader
hm1=leader
wm1=people
hm1=people
hmet=people:PERSON
hmet=police:ORGANIZATION
et1_country=GPE
wm2=British
hm2=British
ethm=GPE:British
wm1=media
hm1=media
wm2=George
wm1=nuclear
hm1=nuclear
et1sub2=Nuclear:WEA
et12sub=WEA:Nuclear
et1sub2sub=Nuclear:Nuclear
hmet=nuclear:WEA
hm12=nuclear:weapons
hmhm=nuclear:weapons
et1sub2sub=Media:Media
wm1=adult
hm1=adult
wm2=US
hm2=US
hmet=its:GPE
et1sub2sub=Commercial:Nation
et1_country=ORGANIZATION
wm2=bin
hmet=his:GPE
chpbf=GPE
ethm=GPE:coalition
wm2=Vladimir
wm2=Putin
hm2=Vladimir_Putin
wm2=W.
wm2=Bush
hm2=George_W._Bush
hm12=US:George_W._Bush
ethm=GPE:George_W._Bush
hmhm=US:George_W._Bush
hm12=Russian:Vladimir_Putin
ethm=GPE:Vladimir_Putin
hmhm=Russian:Vladimir_Putin
am2f=relations
ethm=GPE:US
et12sub=ORGANIZATION:Population-Center
wbf=-
chpbf=-
hmet=US:GPE
et1sub2=Underspecified:PERSON
et1sub2sub=Underspecified:Group
ethm=WEA:inspectors
etet=nameMod-1:WEA:WEA
hm12=weapons:inspectors
hmet=weapons:PERSON
hmhm=weapons:inspectors
wm2=Tony
wm2=Blair
hm2=Tony_Blair
hm12=British:Tony_Blair
ethm=GPE:Tony_Blair
hmhm=British:Tony_Blair
wm2=Gerhard
wm2=Schroeder
hm2=Gerhard_Schroeder
hm12=German:Gerhard_Schroeder
ethm=GPE:Gerhard_Schroeder
hmhm=German:Gerhard_Schroeder
hm12=U.S:British
hmhm=U.S:British
ethm=PERSON:U.S
wm1=aircraft
hm1=aircraft
et1sub2sub=Air:Water
hmet=aircraft:VEH
hm12=U.S:coalition
hmhm=U.S:coalition
hm12=U.S:George_W._Bush
hmhm=U.S:George_W._Bush
et12sub=VEH:Land
et12+m1>m2=ORGANIZATION:VEH:false
hm12+m1>m2=ORGANIZATION:VEH:false
hm12=American:British
hmet=American:GPE
hmhm=American:British
hmet=its:WEA
bm1f=scrap
wm2=Saddam
wm2=Hussein
hm2=Saddam_Hussein
hm12=Iraqi:Saddam_Hussein
ethm=GPE:Saddam_Hussein
hmhm=Iraqi:Saddam_Hussein
hmet=its:PERSON
et12+m1>m2=GPE:FACILITY:false
hm12+m1>m2=GPE:FACILITY:false
ethm=poss-1:GPE:allies
wm2=John
et12sub=VEH:Air
et1sub2sub=Air:Air
etet=nameMod-1:VEH:VEH
ethm=nameMod-1:WEA:missiles
ethm=GPE:Kurdish
hm12=aircraft:carrier
ethm=VEH:carrier
hmhm=aircraft:carrier
#wb=4
wbl=,
chpbl=,
et12+m1>m2=FACILITY:ORGANIZATION:false
hm12+m1>m2=FACILITY:ORGANIZATION:false
hm12=biological:weapons
hmhm=biological:weapons
et12=VEH:FACILITY
et12+m1>m2=VEH:FACILITY:true
et12+m1<m2=VEH:FACILITY:false
hm12+m1>m2=VEH:FACILITY:true
hm12+m1<m2=VEH:FACILITY:false
hm12=its:allies
hmhm=poss-1:its:allies
wm2=Donald
wm2=Rumsfeld
wm2=Polish
hm2=Polish
hm12=British:Polish
hmet=British:GPE
ethm=GPE:Polish
hmhm=British:Polish
wm2=sectors
hm2=sectors
hm12=its:nuclear
hmhm=its:nuclear
et12+m1>m2=ORGANIZATION:WEA:false
hm12+m1>m2=ORGANIZATION:WEA:false
et1sub2sub=Special:Nation
wbo=Mai
wbo=Hanh
bm1f=include
et1sub2=Celestial:VEH
etet=nameMod-1:LOCATION:VEH
et1sub2=Land:VEH
et1sub2sub=Land:Land
am2f=program
ethm=GPE:U.S
et1_nationality=PERSON
hm12=US:coalition
hmhm=US:coalition
hmet=Iraq:GPE
hmet=media:ORGANIZATION
et12sub=VEH:Building-Grounds
etet=VEH:FACILITY
wm1=300
et12+m1>m2=PERSON:FACILITY:false
hm12+m1>m2=PERSON:FACILITY:false
et1sub2=Land:FACILITY
et1sub2sub=Land:Building-Grounds
et12sub=LOCATION:Land
hm2=Iraqi
ethm=GPE:Iraqi
wm2=opponents
hm2=opponents
wm1=Board
hm1=Board
wm2=Member
hm2=Member
hm12=Board:Member
am2f=Compensation
hmet=Board:PERSON
ethm=PERSON:Member
hmhm=Board:Member
hmet=US:VEH
wm2=Drones
hm2=Drones
hm12=US:Drones
bm1f=Down
ethm=GPE:Drones
hmhm=US:Drones
wm2=gun
hm2=gun
ethm=GPE:gun
wm1=staff
hm1=staff
hmet=staff:PERSON
wm1=SWAM
hm1=SWAM
wm2=Al
et1sub2=Exploding:WEA
chpbl=-
et1sub2sub=Shooting:Underspecified
wm2=U.N.
hm2=U.N
hmet=own:PERSON
ethm=GPE:I
wbfl=or
chpbfl=or
wm2=opponent
hm2=opponent
wm2=fan
hm2=fan
ethm=nameMod-1:ORGANIZATION:fan
wm2=fans
hm2=fans
wm2=competitors
hm2=competitors
wbfl=,
chpbfl=,
ethm=poss-1:ORGANIZATION:competitors
et1sub2sub=Religious:Individual
wbnull
#wb=0
not_a_relative
chpbnull
am2f=,
et12=PERSON:PERSON
et12+m1>m2=PERSON:PERSON:true
et12+m1<m2=PERSON:PERSON:false
hm12+m1>m2=PERSON:PERSON:true
hm12+m1<m2=PERSON:PERSON:false
ml12=PRO:NOM
bm1f=that
et1sub2=Individual:PERSON
ml12=NOM:NOM
et12=ORGANIZATION:PERSON
ml12=NAM:NOM
et12+m1>m2=ORGANIZATION:PERSON:true
et12+m1<m2=ORGANIZATION:PERSON:false
hm12+m1>m2=ORGANIZATION:PERSON:true
hm12+m1<m2=ORGANIZATION:PERSON:false
et12sub=PERSON:Group
etet=poss-1:PERSON:PERSON
et1sub2sub=Individual:Group
wm1=his
hm1=his
bm1f=of
am2f=.
et12sub=PERSON:Individual
bm1f=the
etet=ORGANIZATION:PERSON
et12sub=ORGANIZATION:Individual
et12=PERSON:ORGANIZATION
et12+m1<m2=PERSON:ORGANIZATION:false
hm12+m1<m2=PERSON:ORGANIZATION:false
am2f=and
et12=GPE:PERSON
et1sub2=Nation:PERSON
et12sub=GPE:Group
et1sub2sub=Nation:Group
et12+m1>m2=GPE:PERSON:true
et12+m1<m2=GPE:PERSON:false
hm12+m1>m2=GPE:PERSON:true
hm12+m1<m2=GPE:PERSON:false
et12sub=ORGANIZATION:Group
wm1=our
hm1=our
et12+m1>m2=PERSON:ORGANIZATION:true
hm12+m1>m2=PERSON:ORGANIZATION:true
et12=ORGANIZATION:ORGANIZATION
et12+m1>m2=ORGANIZATION:ORGANIZATION:true
et12+m1<m2=ORGANIZATION:ORGANIZATION:false
hm12+m1>m2=ORGANIZATION:ORGANIZATION:true
hm12+m1<m2=ORGANIZATION:ORGANIZATION:false
ml12=NAM:NAM
bm1f=and
et1sub2sub=Individual:Individual
etet=PERSON:PERSON
et1sub2=Individual:ORGANIZATION
hmet=his:PERSON
ml12=NOM:NAM
etet=PERSON:ORGANIZATION
et1sub2=Non-Governmental:PERSON
hmet=poss-1:his:PERSON
et1sub2sub=Non-Governmental:Individual
etet=nameMod-1:ORGANIZATION:PERSON
et12+m1>m2=PERSON:PERSON:false
hm12+m1>m2=PERSON:PERSON:false
wm2=weapons
hm2=weapons
et12=WEA:WEA
et12+m1<m2=WEA:WEA:false
hm12+m1<m2=WEA:WEA:false
etet=WEA:WEA
et12=PERSON:GPE
et12+m1>m2=PERSON:GPE:true
et12+m1<m2=PERSON:GPE:false
hm12+m1>m2=PERSON:GPE:true
hm12+m1<m2=PERSON:GPE:false
et12sub=GPE:Individual
am2f=are
et12=GPE:GPE
et12sub=GPE:Nation
et12+m1>m2=GPE:GPE:true
et12+m1<m2=GPE:GPE:false
hm12+m1>m2=GPE:GPE:true
hm12+m1<m2=GPE:GPE:false
wm1=their
hm1=their
wm1=U.N.
hm1=U.N
nationality_et2=PERSON
etet=nameMod-1:GPE:PERSON
et12sub=PERSON:Government
et12+m1>m2=PERSON:ORGANIZATION:false
hm12+m1>m2=PERSON:ORGANIZATION:false
et1sub2=Group:PERSON
et1sub2=Government:PERSON
et1sub2sub=Government:Individual
bm1f=a
wm1=Iraqi
hm1=Iraqi
am2f=of
etet=GPE:PERSON
bm1f=,
bm1f=by
wm2=forces
hm2=forces
et12=GPE:LOCATION
et1sub2=Nation:LOCATION
et12+m1>m2=GPE:LOCATION:true
et12+m1<m2=GPE:LOCATION:false
hm12+m1>m2=GPE:LOCATION:true
hm12+m1<m2=GPE:LOCATION:false
etet=nameMod-1:GPE:LOCATION
wm2=border
hm2=border
et12sub=GPE:Boundary
et1sub2sub=Nation:Boundary
ethm=nameMod-1:GPE:border
wm1=my
hm1=my
wm1=British
hm1=British
nationality_et2=LOCATION
hmet=nameMod-1:Iraqi:LOCATION
country_et2=PERSON
ethm=nameMod-1:GPE:forces
am2f=in
hmet=nameMod-1:Iraqi:PERSON
wm1=coalition
hm1=coalition
hm12=coalition:forces
hmet=coalition:PERSON
ethm=GPE:forces
wm1=U.S.
hm1=U.S
wm2=soldiers
hm2=soldiers
etet=ORGANIZATION:ORGANIZATION
wm1=CNN
hm1=CNN
et1sub2=Media:PERSON
wm2=CORRESPONDENT
hm2=CORRESPONDENT
ethm=ORGANIZATION:CORRESPONDENT
bm1f=Four
et1sub2sub=Nation:Individual
wm2=troops
hm2=troops
ethm=nameMod-1:GPE:troops
bm1f=to
hmet=nameMod-1:U.S:PERSON
etet=poss-1:GPE:PERSON
hmet=poss-1:our:PERSON
et12+m1>m2=WEA:WEA:true
hm12+m1>m2=WEA:WEA:true
hm12=CNN:CORRESPONDENT
et1sub2sub=Media:Individual
hmet=CNN:PERSON
hmhm=CNN:CORRESPONDENT
am2f=to
bm1f=with
et1sub2sub=Group:Group
hmet=poss-1:their:PERSON
et12=GPE:ORGANIZATION
et12+m1>m2=GPE:ORGANIZATION:true
et12+m1<m2=GPE:ORGANIZATION:false
hm12+m1>m2=GPE:ORGANIZATION:true
hm12+m1<m2=GPE:ORGANIZATION:false
et1sub2=Nation:GPE
hm12=U.S:forces
et1sub2sub=Individual:Government
am2f=or
et12=GPE:WEA
et1sub2=Nation:WEA
et12+m1>m2=GPE:WEA:true
et12+m1<m2=GPE:WEA:false
hm12+m1>m2=GPE:WEA:true
hm12+m1<m2=GPE:WEA:false
etet=nameMod-1:GPE:GPE
et1sub2=Nation:ORGANIZATION
et12sub=GPE:Government
et1sub2sub=Nation:Government
etet=GPE:ORGANIZATION
nationality_et2=GPE
hmet=poss-1:my:PERSON
nationality_et2=ORGANIZATION
et12=GPE:VEH
et1sub2=Nation:VEH
et12sub=GPE:Air
et1sub2sub=Nation:Air
et12+m1<m2=GPE:VEH:false
hm12+m1<m2=GPE:VEH:false
#wb=1
et1_relative=PERSON
wm2=I
hm2=I
wm1=your
hm1=your
wm2=wife
hm2=wife
hmet=poss-1:your:PERSON
et12=PERSON:VEH
et12+m1>m2=PERSON:VEH:true
et12+m1<m2=PERSON:VEH:false
hm12+m1>m2=PERSON:VEH:true
hm12+m1<m2=PERSON:VEH:false
am2f=have
ml12=NOM:PRO
etet=nameMod-1:GPE:ORGANIZATION
et1sub2sub=Nation:Nation
et12+m1>m2=GPE:GPE:false
hm12+m1>m2=GPE:GPE:false
etet=GPE:GPE
hmet=U.S:PERSON
et12sub=PERSON:Nation
ml12=PRO:NAM
am2f=were
hmhm=nameMod-1:U.S:forces
bm1f=.
et1sub2sub=Government:Group
wm1=Republican
et12sub=GPE:Population-Center
et1sub2sub=Nation:Population-Center
hmet=nameMod-1:Iraqi:GPE
et12=VEH:PERSON
et12+m1<m2=VEH:PERSON:false
hm12+m1<m2=VEH:PERSON:false
et1sub2=Group:VEH
wm1=its
hm1=its
et12=PERSON:WEA
et12+m1<m2=PERSON:WEA:false
hm12+m1<m2=PERSON:WEA:false
et12sub=GPE:Land-Region-Natural
et1sub2sub=Nation:Land-Region-Natural
bm1f=on
am2f=say
am2f=who
wm1=Our
hm1=Our
wm2=military
hm2=military
et12sub=ORGANIZATION:Government
am2f=is
hm12=U.S:troops
hmhm=nameMod-1:U.S:troops
wm2=officials
hm2=officials
wm2=fighters
hm2=fighters
am2f=from
am2f=that
wm1=American
hm1=American
hmet=nameMod-1:American:PERSON
am2f=on
wm1=military
hm1=military
wm1=her
hm1=her
hmet=poss-1:her:PERSON
wm1=Army
bm1f='s
et1sub2=Individual:GPE
etet=poss-1:PERSON:GPE
wm2=family
hm2=family
et1sub2=Media:ORGANIZATION
hmet=military:PERSON
wm1=United
am2f=?
wm1=Guard
etet=nameMod-1:PERSON:PERSON
wm2=regime
hm2=regime
wm2=Army
hm2=Army
wm2=correspondent
hm2=correspondent
country_et2=ORGANIZATION
et12+m1>m2=GPE:VEH:true
hm12+m1>m2=GPE:VEH:true
wm2=commanders
hm2=commanders
am2f=forces
hmet=Iraqi:PERSON
wm1=Kurdish
hm1=Kurdish
et12+m1>m2=GPE:PERSON:false
hm12+m1>m2=GPE:PERSON:false
et12=ORGANIZATION:VEH
et1sub2=Government:VEH
et12+m1<m2=ORGANIZATION:VEH:false
hm12+m1<m2=ORGANIZATION:VEH:false
etet=ORGANIZATION:VEH
et1sub2=Group:WEA
et12+m1>m2=PERSON:WEA:true
hm12+m1>m2=PERSON:WEA:true
etet=poss-1:PERSON:WEA
et12=GPE:FACILITY
et1sub2=Nation:FACILITY
et12+m1>m2=GPE:FACILITY:true
et12+m1<m2=GPE:FACILITY:false
hm12+m1>m2=GPE:FACILITY:true
hm12+m1<m2=GPE:FACILITY:false
wm2=people
hm2=people
wm2=capital
hm2=capital
hm12=Iraqi:capital
ethm=nameMod-1:GPE:capital
hmhm=nameMod-1:Iraqi:capital
et1sub2=Population-Center:PERSON
hm1=Republican_Guard
etet=GPE:VEH
hmet=nameMod-1:Iraqi:ORGANIZATION
hm12=U.S:commanders
ethm=nameMod-1:GPE:commanders
hmhm=nameMod-1:U.S:commanders
et1sub2sub=Group:Individual
hm1=Army
et12+m1>m2=ORGANIZATION:VEH:true
hm12+m1>m2=ORGANIZATION:VEH:true
hm12=U.S:soldiers
wm2=men
hm2=men
et12=PERSON:FACILITY
et12+m1>m2=PERSON:FACILITY:true
et12+m1<m2=PERSON:FACILITY:false
hm12+m1>m2=PERSON:FACILITY:true
hm12+m1<m2=PERSON:FACILITY:false
etet=poss-1:PERSON:FACILITY
wbfl=and
chpbfl=and
bm1f=at
ethm=nameMod-1:GPE:officials
ethm=GPE:troops
et1sub2sub=Media:Government
et12+m1>m2=ORGANIZATION:ORGANIZATION:false
hm12+m1>m2=ORGANIZATION:ORGANIZATION:false
wm2=analyst
hm2=analyst
etet=poss-1:ORGANIZATION:PERSON
am2f=at
hm12=American:troops
hmhm=nameMod-1:American:troops
wm2=Republican
bm1f=some
et12+m1>m2=GPE:ORGANIZATION:false
hm12+m1>m2=GPE:ORGANIZATION:false
hmet=Iraqi:ORGANIZATION
hm12=Iraqi:forces
bm1f=Iraqi
hmet=nameMod-1:Republican_Guard:PERSON
wm1=ITN
hm1=ITN
hmet=ITN:PERSON
bm1f=as
bm1f=for
etet=nameMod-1:GPE:VEH
etet=nameMod-1:GPE:FACILITY
et1sub2=Group:GPE
#wb=2
hmet=Kurdish:PERSON
et1sub2sub=Group:Nation
hmet=nameMod-1:Kurdish:PERSON
etet=PERSON:GPE
country_et2=VEH
hm12=Kurdish:fighters
et12sub=GPE:Land
et1sub2sub=Nation:Land
et1sub2sub=Media:Group
hmet=U.S:ORGANIZATION
wm2=members
hm2=members
bm1f=three
bm1f=but
am2f='s
hmet=our:ORGANIZATION
ethm=ORGANIZATION:analyst
et12=FACILITY:PERSON
et1sub2=Building-Grounds:PERSON
et12+m1<m2=FACILITY:PERSON:false
hm12+m1<m2=FACILITY:PERSON:false
hmhm=nameMod-1:Iraqi:forces
ethm=GPE:soldiers
am2f=(
et12sub=PERSON:Non-Governmental
hmet=his:ORGANIZATION
et1sub2=Group:ORGANIZATION
et1sub2sub=Non-Governmental:Group
et1sub2=Group:FACILITY
et12sub=PERSON:Building-Grounds
hmet=poss-1:their:FACILITY
bm1f=against
et12sub=PERSON:Land
etet=PERSON:VEH
ethm=ORGANIZATION:correspondent
wm1=Pentagon
hm1=Pentagon
nationality_et2=FACILITY
hmet=nameMod-1:Iraqi:FACILITY
bm1f=abandoned
et12=ORGANIZATION:FACILITY
et12sub=ORGANIZATION:Building-Grounds
et12+m1>m2=ORGANIZATION:FACILITY:true
et12+m1<m2=ORGANIZATION:FACILITY:false
hm12+m1>m2=ORGANIZATION:FACILITY:true
hm12+m1<m2=ORGANIZATION:FACILITY:false
wm2=base
hm2=base
et12sub=GPE:Building-Grounds
et1sub2sub=Nation:Building-Grounds
et1sub2=Government:FACILITY
et1sub2sub=Government:Building-Grounds
etet=ORGANIZATION:FACILITY
etet=nameMod-1:GPE:WEA
bm1f=are
et1sub2=Air:PERSON
wm1=Marine
hm1=Marine
hmet=Marine:PERSON
bm1f=where
hm12=Iraqi:military
ethm=nameMod-1:GPE:military
et12sub=FACILITY:Group
et1sub2sub=Building-Grounds:Group
bm1f=an
nationality_et2=WEA
bm1f=The
wm2=leader
hm2=leader
hmet=nameMod-1:U.S:VEH
hmet=poss-1:their:WEA
am2f=troops
am2f=fighters
wm1=Special
wm1=Forces
hm1=Special_Forces
am2f=as
ethm=PERSON:fighters
ethm=nameMod-1:PERSON:fighters
nationality_et2=VEH
hmet=nameMod-1:Iraqi:VEH
et12+m1>m2=VEH:PERSON:true
hm12+m1>m2=VEH:PERSON:true
etet=VEH:PERSON
et12sub=VEH:Individual
wm1=Apache
hm1=Apache
et1sub2sub=Air:Individual
wm2=aircraft
hm2=aircraft
etet=poss-1:PERSON:VEH
et1sub2=Individual:VEH
et12sub=PERSON:Air
etet=poss-1:PERSON:ORGANIZATION
wm2=soldier
hm2=soldier
bm1f=from
am2f=was
wm1=News
et12=ORGANIZATION:GPE
et12+m1<m2=ORGANIZATION:GPE:false
hm12+m1<m2=ORGANIZATION:GPE:false
etet=ORGANIZATION:GPE
wm1=-
etet=FACILITY:PERSON
et12+m1>m2=FACILITY:PERSON:true
hm12+m1>m2=FACILITY:PERSON:true
et12=PERSON:LOCATION
et1sub2=Group:LOCATION
et12+m1>m2=PERSON:LOCATION:true
et12+m1<m2=PERSON:LOCATION:false
hm12+m1>m2=PERSON:LOCATION:true
hm12+m1<m2=PERSON:LOCATION:false
wm1=Arab
hm1=Arab
etet=PERSON:LOCATION
wm1=House
bm1f=senior
et12sub=FACILITY:Individual
et1sub2sub=Building-Grounds:Individual
wm1=States
hm1=United_States
ml12=NAM:PRO
wm2=brother
hm2=brother
ethm=poss-1:PERSON:brother
wm1=Saddam
etet=nameMod-1:PERSON:ORGANIZATION
et1sub2=Educational:PERSON
wm2=country
hm2=country
et1sub2sub=Individual:Nation
hm12=his:country
am2f=with
hmet=poss-1:his:GPE
ethm=poss-1:PERSON:country
hmhm=poss-1:his:country
am2f=do
wm2=ambassador
hm2=ambassador
bm1f=or
et1sub2=Projectile:WEA
et12sub=WEA:Exploding
et1sub2sub=Projectile:Exploding
ml12=PRO:PRO
et1sub2=State-or-Province:PERSON
et1sub2sub=State-or-Province:Individual
bm1f=And
#wb=3
et12+m1>m2=PERSON:GPE:false
hm12+m1>m2=PERSON:GPE:false
et12sub=PERSON:State-or-Province
et1sub2sub=Individual:State-or-Province
wm2=executive
hm2=executive
et1sub2=Commercial:PERSON
et1sub2sub=Commercial:Group
hmet=United_States:ORGANIZATION
wm2=state
hm2=state
ethm=poss-1:PERSON:state
hm1=Republican
hmet=Republican:PERSON
et1sub2sub=Individual:Non-Governmental
hmet=poss-1:his:ORGANIZATION
ethm=GPE:military
am2f=will
bm1f=in
et1sub2=Non-Governmental:GPE
et12sub=ORGANIZATION:Nation
et1sub2sub=Non-Governmental:Nation
wm2=world
hm2=world
hm12=Arab:world
hmet=Arab:LOCATION
ethm=PERSON:world
hmhm=Arab:world
wm2=administration
hm2=administration
ethm=nameMod-1:PERSON:administration
et12=VEH:VEH
et12+m1>m2=VEH:VEH:true
et12+m1<m2=VEH:VEH:false
hm12+m1>m2=VEH:VEH:true
hm12+m1<m2=VEH:VEH:false
et1sub2sub=Population-Center:Group
wm2=area
hm2=area
et12sub=GPE:Region-General
et12sub=PERSON:Commercial
et1sub2sub=Group:Land
et12+m1>m2=FACILITY:PERSON:false
hm12+m1>m2=FACILITY:PERSON:false
bm1f=old
et1sub2sub=Educational:Group
et1sub2=Individual:FACILITY
wm2=allies
hm2=allies
wm1=u.s.
hm1=u.s
wm1=al
etet=poss-1:GPE:GPE
wm2=force
hm2=force
wm1=school
hm1=school
wm2=students
hm2=students
wm1=high
hm1=high_school
hmet=her:PERSON
wm2=chief
hm2=chief
wm1=government
hm1=government
wm2=leaders
hm2=leaders
et12=LOCATION:PERSON
et12+m1<m2=LOCATION:PERSON:false
hm12+m1<m2=LOCATION:PERSON:false
bm1f=call
et12sub=GPE:Non-Governmental
wm1=iraqi
hm1=iraqi
am2f=today
wm2=groups
hm2=groups
hmet=u.s:PERSON
hmet=nameMod-1:u.s:PERSON
wm2=units
hm2=units
et1sub2sub=Population-Center:Individual
wm2=government
hm2=government
hmet=our:PERSON
am2f=has
et12+m1>m2=ORGANIZATION:GPE:true
hm12+m1>m2=ORGANIZATION:GPE:true
etet=GPE:FACILITY
hmet=nameMod-1:iraqi:PERSON
et12sub=GPE:Media
bm1f=be
hmet=poss-1:its:PERSON
hmet=nameMod-1:coalition:PERSON
am2f=could
et1sub2=Population-Center:LOCATION
et1sub2sub=Population-Center:Region-General
et1sub2sub=Nation:Media
hmhm=nameMod-1:coalition:forces
bm1f=several
wm2=parents
hm2=parents
ethm=poss-1:PERSON:parents
wm1=republican
wm1=guard
hm1=republican_guard
et1sub2=Government:ORGANIZATION
et1sub2sub=Government:Government
wm1=army
hm1=army
et12+m1>m2=ORGANIZATION:PERSON:false
hm12+m1>m2=ORGANIZATION:PERSON:false
ethm=nameMod-1:ORGANIZATION:forces
ethm=nameMod-1:GPE:base
wm2=division
hm2=division
wm2=tanks
hm2=tanks
ethm=nameMod-1:GPE:tanks
wm2=marines
hm2=marines
wm1=baghdad
hm1=baghdad
wm1=force
etet=nameMod-1:ORGANIZATION:FACILITY
wm1=british
hm1=british
wm2=minister
hm2=minister
wm2=general
hm2=general
bm1f=have
wm2=reporter
hm2=reporter
wm2=inspectors
hm2=inspectors
et1sub2=Continent:GPE
et1sub2sub=Continent:Nation
wm2=home
hm2=home
hmet=nameMod-1:iraqi:GPE
am2f=says
wm2=president
hm2=president
hmet=iraqi:PERSON
wm1=air
wm2=missile
hm2=missile
et1sub2sub=Individual:Air
hmet=poss-1:his:VEH
wm2=missiles
hm2=missiles
wm1=american
hm1=american
wm2=tank
hm2=tank
et1sub2sub=Group:Air
am2f=had
bm1f=our
et12sub=ORGANIZATION:Commercial
et12sub=PERSON:Population-Center
et1sub2sub=Individual:Building-Grounds
et1sub2=State-or-Province:ORGANIZATION
wm1=police
hm1=police
hmet=nameMod-1:american:PERSON
et1sub2=Individual:WEA
et12sub=PERSON:Region-General
et1sub2=Population-Center:FACILITY
hm12=iraqi:government
ethm=nameMod-1:GPE:government
hmhm=nameMod-1:iraqi:government
hmet=military:FACILITY
ethm=nameMod-1:GPE:regime
hmet=iraqi:ORGANIZATION
wm2=community
hm2=community
wm2=colleagues
hm2=colleagues
wm1=city
bm1f=retired
ethm=ORGANIZATION:members
et1sub2=Commercial:ORGANIZATION
et1sub2sub=Commercial:Commercial
et1sub2sub=Group:Non-Governmental
wm2=police
hm2=police
etet=PERSON:FACILITY
wm2=city
hm2=city
et1sub2sub=Commercial:Individual
et12sub=ORGANIZATION:Land
hmet=poss-1:our:VEH
bm1f=seen
et12=FACILITY:FACILITY
et12+m1>m2=FACILITY:FACILITY:true
et12+m1<m2=FACILITY:FACILITY:false
hm12+m1>m2=FACILITY:FACILITY:true
hm12+m1<m2=FACILITY:FACILITY:false
wm1=homeland
wm1=security
hm1=homeland_security
hmet=homeland_security:PERSON
bm1f=this
hmet=poss-1:his:FACILITY
wm2=department
hm2=department
wm2=teacher
hm2=teacher
et1sub2=Educational:ORGANIZATION
ethm=poss-1:PERSON:students
etet=VEH:VEH
et12+m1>m2=VEH:PERSON:false
hm12+m1>m2=VEH:PERSON:false
et1sub2=Population-Center:GPE
et12sub=GPE:State-or-Province
bm1f=see
wm2=journalist
hm2=journalist
hmet=british:PERSON
wm1=israeli
hm1=israeli
wm2=sources
hm2=sources
wm1=palestinian
hm1=palestinian
et1sub2=Special:PERSON
wm2=carrier
hm2=carrier
et1sub2sub=Special:Group
bm1f=many
etet=FACILITY:FACILITY
et12sub=GPE:Commercial
et1sub2sub=Nation:Commercial
wm1=u.n.
hm1=u.n
et12sub=ORGANIZATION:Non-Governmental
etet=nameMod-1:ORGANIZATION:ORGANIZATION
wm2=friend
hm2=friend
wm2=i
hm2=i
am2f=members
wm1=bush
hm1=bush
wm2=officers
hm2=officers
wm1=state
am2f=for
am2f=after
hm1=state
et1sub2=State-or-Province:LOCATION
hmet=police:PERSON
ethm=ORGANIZATION:chief
et12+m1>m2=PERSON:VEH:false
hm12+m1>m2=PERSON:VEH:false
et1sub2sub=State-or-Province:Government
wm2=reporters
hm2=reporters
bm1f=--
wm1=white
wm1=house
hm1=white_house
et1sub2sub=Population-Center:Building-Grounds
wm2=headquarters
hm2=headquarters
et12sub=VEH:Group
et1sub2sub=Air:Group
ethm=PERSON:members
wm2=bombs
hm2=bombs
et12=VEH:WEA
et12+m1<m2=VEH:WEA:false
hm12+m1<m2=VEH:WEA:false
am2f=right
wm2=ship
bm1f=when
et1sub2=Commercial:VEH
et12sub=ORGANIZATION:Air
et12sub=PERSON:Media
et1sub2sub=Individual:Media
wm2=unit
hm2=unit
et1sub2=Population-Center:ORGANIZATION
hmet=my:PERSON
ethm=nameMod-1:ORGANIZATION:headquarters
wm2=team
hm2=team
etet=poss-1:ORGANIZATION:ORGANIZATION
bm1f=?
ethm=GPE:minister
hm12=bush:administration
wm2=bureau
hm2=bureau
am2f=chief
et12=LOCATION:LOCATION
et12+m1>m2=LOCATION:LOCATION:true
et12+m1<m2=LOCATION:LOCATION:false
hm12+m1>m2=LOCATION:LOCATION:true
hm12+m1<m2=LOCATION:LOCATION:false
wm2=company
hm2=company
et1sub2sub=Media:Commercial
hmet=poss-1:our:ORGANIZATION
ethm=nameMod-1:GPE:area
wm1=california
hm1=california
wm1=family
hm1=family
hm12=family:members
relative_et2=PERSON
hmet=family:PERSON
hmhm=family:members
wm2=half
hm2=half
wm1=arab
hm1=arab
wm2=court
hm2=court
et1sub2sub=Group:Government
et12sub=PERSON:Water
am2f=saying
am2f=said
wm1=cnn
hm1=cnn
et12sub=GPE:Projectile
et1sub2sub=Nation:Projectile
etet=GPE:WEA
et12sub=GPE:Water
et1sub2sub=Nation:Water
wm2=helicopter
hm2=helicopter
ethm=nameMod-1:ORGANIZATION:leader
et12+m1>m2=GPE:WEA:false
hm12+m1>m2=GPE:WEA:false
hm2=ship
bm1f=former
wm1=enron
hm1=enron
wm1=jerusalem
hm1=jerusalem
wm1=helicopter
hm1=helicopter
am2f=attack
et12+m1>m2=VEH:WEA:true
hm12+m1>m2=VEH:WEA:true
wm2=mike
wm2=hanna
hm2=mike_hanna
wm2=neighborhood
hm2=neighborhood
wm2=leadership
hm2=leadership
wm2=states
et12sub=ORGANIZATION:Underspecified
wm2=group
hm2=group
bm1f=other
et1sub2=Special:ORGANIZATION
et1sub2sub=Special:Non-Governmental
et12=ORGANIZATION:WEA
et1sub2=Non-Governmental:WEA
et1sub2sub=Non-Governmental:Underspecified
et12+m1<m2=ORGANIZATION:WEA:false
hm12+m1<m2=ORGANIZATION:WEA:false
wm1=royal
et12sub=ORGANIZATION:Water
et1sub2sub=Individual:Water
wm2=spokesman
hm2=spokesman
bm1f=had
bm1f=about
wm1=caribbean
hm1=royal_caribbean
et1sub2sub=Commercial:Water
wm2=room
hm2=room
wm1=hotel
hm1=hotel
et12sub=FACILITY:Subarea-Facility
wm2=network
hm2=network
et12+m1>m2=GPE:VEH:false
hm12+m1>m2=GPE:VEH:false
wm1=ohio
hm1=ohio
et1sub2sub=Special:Individual
hmet=palestinian:PERSON
am2f=may
hmet=israeli:PERSON
ethm=GPE:police
et1sub2sub=Population-Center:Government
hm12=police:department
hmhm=police:department
hmet=poss-1:your:GPE
hmet=poss-1:our:GPE
et12sub=ORGANIZATION:Educational
et1sub2sub=Educational:Educational
wm1=texas
wm2=car
hm2=car
wm1=atlanta
wm2=-
et1sub2=Indeterminate:ORGANIZATION
hmet=poss-1:your:ORGANIZATION
bm1f=is
bm1f=think
et1sub2sub=Individual:Commercial
et1sub2sub=Group:Commercial
am2f=but
wm1=Bush
hm1=Bush
wm2=cabinet
hm2=cabinet
et1sub2=Indeterminate:PERSON
et1sub2sub=Indeterminate:Group
wm2=town
hm2=town
ethm=GPE:force
am2f=next
hm12=police:chief
hmhm=police:chief
hmet=government:PERSON
bm1f=murdering
bm1f=was
wm2=kids
hm2=kids
ethm=poss-1:PERSON:kids
hm12=his:brother
hmhm=poss-1:his:brother
am2f=last
hmet=their:PERSON
ethm=nameMod-1:GPE:people
bm1f=new
wm1=PLO
hm1=PLO
bm1f=Controversial
am2f=died
hmet=PLO:PERSON
wm2=hospital
hm2=hospital
ethm=poss-1:PERSON:people
wm1=Palestinian
hm1=Palestinian
ethm=ORGANIZATION:leader
ethm=nameMod-1:GPE:hospital
wm1=Israeli
hm1=Israeli
et12sub=GPE:Shooting
et1sub2sub=Nation:Shooting
hm12=PLO:leader
am2f=Yasser
hmhm=PLO:leader
wm1=Paris
hm1=Paris
hm12=Paris:hospital
hmet=nameMod-1:Paris:FACILITY
hmhm=nameMod-1:Paris:hospital
hm12=his:people
am2f=--
hmhm=poss-1:his:people
hmet=poss-1:their:GPE
am2f=got
wm2=employees
hm2=employees
et12sub=ORGANIZATION:State-or-Province
am2f=think
bm1f=)
wm2=official
hm2=official
wm1=State
hm1=State
am2f=should
hmet=State:PERSON
bm1f=leader
wm1=own
hm1=own
bm1f=his
am2f=leader
wm1=US
hm1=US
hmet=nameMod-1:US:PERSON
ethm=nameMod-1:GPE:official
hmet=nameMod-1:Palestinian:PERSON
ethm=PERSON:people
bm1f=-
et12sub=PERSON:Subarea-Facility
wm2=school
hm2=school
am2f=out
et1sub2sub=Indeterminate:Individual
bm1f=all
hmet=poss-1:my:FACILITY
hm12=my:parents
hmhm=poss-1:my:parents
bm1f=because
wm1=Iraq
hm1=Iraq
wm2=friends
hm2=friends
am2f=standing
am2f=did
wm1=New
wm1=York
hm1=New_York
ethm=ORGANIZATION:department
wm1=Russian
hm1=Russian
ethm=GPE:officials
wm2=media
hm2=media
bm1f=top
et1sub2sub=Nation:Non-Governmental
hmet=British:PERSON
am2f=would
et1sub2=State-or-Province:GPE
et1sub2sub=State-or-Province:Population-Center
hm2=states
hmet=Russian:PERSON
hmet=US:PERSON
et1sub2=Non-Governmental:ORGANIZATION
et1sub2sub=Non-Governmental:Non-Governmental
wm1=German
hm1=German
hmet=German:PERSON
ethm=GPE:president
et1sub2sub=Educational:Individual
wm1=world
hm1=world
et12=LOCATION:GPE
et12+m1>m2=LOCATION:GPE:true
et12+m1<m2=LOCATION:GPE:false
hm12+m1>m2=LOCATION:GPE:true
hm12+m1<m2=LOCATION:GPE:false
ethm=nameMod-1:GPE:sources
wm2=Richard
wm1=Korean
hmet=nameMod-1:Russian:PERSON
wm1=North
hm1=North_Korean
bm1f=A
et12sub=GPE:Nuclear
et1sub2sub=Nation:Nuclear
hmet=poss-1:its:WEA
am2f=Richard
wm1=Department
hm1=State_Department
bm1f="
am2f=told
hmet=State_Department:PERSON
et12sub=ORGANIZATION:Media
wm1=Party
wm1=MDP
hm1=MDP
hmet=nameMod-1:MDP:PERSON
et1sub2=Subarea-Facility:FACILITY
et12sub=FACILITY:Building-Grounds
wm2=business
hm2=business
hmet=poss-1:its:ORGANIZATION
bm1f=its
wm1=French
hm1=French
et1sub2=Commercial:FACILITY
hmet=New_York:ORGANIZATION
et12=FACILITY:ORGANIZATION
et1sub2=Building-Grounds:ORGANIZATION
et12+m1<m2=FACILITY:ORGANIZATION:false
hm12+m1<m2=FACILITY:ORGANIZATION:false
etet=FACILITY:ORGANIZATION
hmet=its:ORGANIZATION
et1sub2=Commercial:GPE
bm1f=giant
bm1f=including
wm2=lawyer
hm2=lawyer
et12sub=FACILITY:Commercial
et1sub2sub=Building-Grounds:Commercial
et12+m1>m2=FACILITY:ORGANIZATION:true
hm12+m1>m2=FACILITY:ORGANIZATION:true
et12sub=ORGANIZATION:Entertainment
et1sub2sub=Commercial:Entertainment
hmet=nameMod-1:French:ORGANIZATION
wm1=Qatari
hm1=Qatari
wm2=countries
hm2=countries
et12=LOCATION:ORGANIZATION
et12+m1>m2=LOCATION:ORGANIZATION:true
et12+m1<m2=LOCATION:ORGANIZATION:false
hm12+m1>m2=LOCATION:ORGANIZATION:true
hm12+m1<m2=LOCATION:ORGANIZATION:false
hmet=his:VEH
wm1=Sunni
hm1=Sunni
ethm=nameMod-1:PERSON:regime
am2f=took
hmet=US:ORGANIZATION
wm2=Council
wm1=Chinese
hm1=Chinese
wm2=counterpart
hm2=counterpart
hmet=Chinese:PERSON
hmet=state:ORGANIZATION
et12sub=GPE:Path
et1sub2sub=Nation:Path
et1sub2sub=Nation:Region-General
et12sub=GPE:Underspecified
et1sub2sub=Nation:Underspecified
bm1f=told
hmet=Bush:PERSON
wm2=bankers
hm2=bankers
et1sub2sub=Population-Center:Commercial
hm12=its:bankers
ethm=poss-1:ORGANIZATION:bankers
hmhm=poss-1:its:bankers
wm2=companies
hm2=companies
am2f='
et1sub2=Region-General:GPE
etet=nameMod-1:LOCATION:GPE
et1sub2=Religious:PERSON
et1sub2=State-or-Province:FACILITY
et1sub2sub=State-or-Province:Building-Grounds
et1sub2sub=Individual:Subarea-Facility
wm2=agency
hm2=agency
wm1=Japanese
hm1=Japanese
wm2=office
hm2=office
et1sub2sub=Commercial:Building-Grounds
ethm=nameMod-1:GPE:business
country_et2=GPE
et12sub=LOCATION:Population-Center
etet=LOCATION:GPE
hmet=nameMod-1:Israeli:PERSON
wm2=source
hm2=source
wm1=Jewish
hm1=Jewish
wm1=White
hm1=White_House
hmet=nameMod-1:White_House:PERSON
hmet=state:FACILITY
ethm=nameMod-1:GPE:court
et12=WEA:PERSON
et12sub=WEA:Group
et12+m1>m2=WEA:PERSON:true
et12+m1<m2=WEA:PERSON:false
hm12+m1>m2=WEA:PERSON:true
hm12+m1<m2=WEA:PERSON:false
etet=WEA:PERSON
etet=poss-1:GPE:WEA
ethm=poss-1:GPE:weapons
ethm=nameMod-1:ORGANIZATION:members
wm2=advisers
hm2=advisers
hmet=French:PERSON
wm2=workers
hm2=workers
bm1f=said
wm1=Al
et1sub2=Sports:PERSON
am2f=later
et12sub=GPE:Sports
wm1=Turkish
hm1=Turkish
et12+m1>m2=LOCATION:PERSON:true
hm12+m1>m2=LOCATION:PERSON:true
etet=LOCATION:PERSON
etet=poss-1:GPE:LOCATION
wm2=Cabinet
hm2=Cabinet
ethm=PERSON:Cabinet
wm1=His
hm1=His
wm2=party
hm2=party
wm1=Washington
bm1f=while
et1sub2=GPE-Cluster:GPE
et1sub2sub=GPE-Cluster:Nation
wm1=European
ethm=nameMod-1:GPE:countries
wm1=EU
hm1=EU
bm1f=after
hm12=U.S:military
wm2=Universal
hmet=poss-1:its:FACILITY
wm1=Universal
wm2=assets
hm2=assets
et1sub2=GPE-Cluster:PERSON
am2f=gave
am2f=officials
wm2=helicopters
hm2=helicopters
bm1f=two
et1sub2sub=Government:Air
bm1f=six
wm2=Marines
hm2=Marines
wm2=convoy
hm2=convoy
hmhm=U.S:troops
bm1f=armored
country_et2=LOCATION
etet=GPE:LOCATION
hmet=nameMod-1:Turkish:PERSON
wm2=Secretary
hm12=Iraqi:regime
hmhm=nameMod-1:Iraqi:regime
hm12=U.S:officials
hmhm=nameMod-1:U.S:officials
hm2=Secretary
et1sub2=Government:GPE
wm1=Canadian
hm1=Canadian
bm1f=''
et1sub2=County-or-District:PERSON
et1sub2sub=County-or-District:Individual
hmet=nameMod-1:U.S:ORGANIZATION
hmet=nameMod-1:Iraq:LOCATION
wm2=General
hmet=U.N:PERSON
hmet=White_House:PERSON
am2f=accused
et1_country=PERSON
et12sub=VEH:Water
et12sub=PERSON:Special
hmet=Kurdish:GPE
et1sub2sub=Group:Region-General
et1sub2sub=Group:Population-Center
hmet=nameMod-1:Turkish:LOCATION
wm2=planes
hm2=planes
et1sub2sub=Nation:Sports
wm2=club
hm2=club
hmet=German:ORGANIZATION
am2f=along
hmhm=U.S:military
am2f=a
hmet=U.S:VEH
wm2=vehicles
hm2=vehicles
wm2=personnel
hm2=personnel
bm1f=seven
wm1=personnel
hm1=personnel
wm2=carriers
hm2=carriers
hmet=personnel:VEH
hmhm=Kurdish:fighters
wm1=Navy
hm1=Navy
country_et2=WEA
wm1=Shiite
hm1=Shiite
et12+m1>m2=PERSON:WEA:false
hm12+m1>m2=PERSON:WEA:false
hm12=its:weapons
hmet=poss-1:its:GPE
wm2=nuclear
hm2=nuclear
ethm=GPE:nuclear
am2f=spokesman
wm1=South
hm1=South_Korean
hmet=poss-1:its:LOCATION
hm12=Iraqi:fighters
wm2=plane
hm2=plane
bm1f=any
wm2=diplomats
hm2=diplomats
am2f=went
wm2=television
hm2=television
wm2=member
hm2=member
wm1=Toyota
hm1=Toyota
wm2=airport
hm1=Baghdad
ethm=nameMod-1:GPE:fighters
hmhm=nameMod-1:Iraqi:fighters
et1sub2sub=Subarea-Facility:Building-Grounds
wm1=Baghdad
et1sub2=Media:FACILITY
et1sub2sub=Media:Building-Grounds
am2f=came
ethm=nameMod-1:GPE:neighborhood
ethm=nameMod-1:GPE:workers
hmet=nameMod-1:U.N:PERSON
wm2=man
hm2=man
wm2=crew
hm2=crew
am2f=the
bm1f=first
et1sub2sub=Individual:Population-Center
et1sub2=Building-Grounds:FACILITY
am2f=seeking
wm1=League
wm2=Ambassador
hm2=Ambassador
et1sub2=Non-Governmental:FACILITY
et1sub2sub=Non-Governmental:Building-Grounds
bm1f=But
ethm=GPE:spokesman
am2f=John
wm1=Muslim
hm1=Muslim
wm2=nation
hm2=nation
wm1=Ministry
wm1=Indonesian
hm1=Indonesian
hm12=Bush:administration
hmet=nameMod-1:Bush:ORGANIZATION
hmhm=nameMod-1:Bush:administration
wm1=Defense
hm1=Defense
hmet=Defense:PERSON
wm2=fighter
wm2=giants
hm2=giants
am2f=Monday
ethm=poss-1:PERSON:office
hm12=U.S:official
hmhm=nameMod-1:U.S:official
hm12=your:country
am2f=can
hmhm=poss-1:your:country
wm2=Iraqi
ethm=PERSON:groups
ethm=nameMod-1:GPE:administration
hmet=Russian:ORGANIZATION
am2f=reported
bm1f=between
wm1=Court
ethm=PERSON:group
et1sub2sub=Population-Center:Non-Governmental
ethm=nameMod-1:GPE:group
et1sub2sub=Sports:Individual
wm1=Los
wm1=Angeles
hm1=Los_Angeles
et1sub2sub=Population-Center:Sports
ethm=nameMod-1:GPE:spokesman
etet=LOCATION:ORGANIZATION
et12sub=LOCATION:Individual
wm1=hospital
hm1=hospital
wm1=team
hm1=team
hmet=team:PERSON
bm1f=whether
wm2=teams
hm2=teams
hm12=Iraqi:government
hmhm=nameMod-1:Iraqi:government
et12sub=LOCATION:Nation
am2f=-
et1sub2=Indeterminate:FACILITY
etet=poss-1:GPE:ORGANIZATION
wm1=Asia
hm1=Asia
etet=LOCATION:LOCATION
wm2=Foreign
wm1=Foreign
hm1=Foreign_Ministry
hmet=nameMod-1:South_Korean:PERSON
am2f=named
hmet=poss-1:His:PERSON
am2f=_
et1sub2=Water:PERSON
wm2=Navy
hm2=Navy
ethm=GPE:Navy
wm2=officer
hm2=officer
et1sub2=Water:VEH
et1sub2sub=Water:Water
am2f=Donald
ethm=ORGANIZATION:Secretary
hm12=Defense:Secretary
hmhm=Defense:Secretary
wm1=Gulf
wm2=region
hm2=region
etet=nameMod-1:ORGANIZATION:GPE
hmet=British:ORGANIZATION
et1sub2=Continent:PERSON
wm1=Spanish
hm1=Spanish
ethm=nameMod-1:GPE:men
wm1=African
wm1=Christian
hm1=Christian
hmet=Christian:PERSON
etet=poss-1:ORGANIZATION:FACILITY
am2f=official
hmet=South_Korean:PERSON
ethm=GPE:missile
et12sub=PERSON:Exploding
am2f=by
am2f=because
ethm=nameMod-1:GPE:groups
hmet=Israeli:PERSON
etet=poss-1:PERSON:LOCATION
et1sub2sub=Region-General:Population-Center
am2f=this
wm2=bus
hm2=bus
et1sub2=Population-Center:VEH
et1sub2sub=Population-Center:Land
wm2=explosives
hm2=explosives
hmet=poss-1:Our:PERSON
wm1=Islamic
etet=poss-1:GPE:FACILITY
hmhm=U.S:forces
wm2=embassy
hm2=embassy
wm1=Saudi
hm1=Saudi
hmet=hospital:PERSON
wm1=West
wm2=boy
hm2=boy
ethm=ORGANIZATION:sources
ethm=ORGANIZATION:officer
am2f=fired
bm1f=over
et1sub2=Special:GPE
hmet=North_Korean:PERSON
hmhm=poss-1:its:weapons
hmet=nameMod-1:North_Korean:PERSON
hmet=state:PERSON
wm2=director
hm2=director
wm1=radio
hm1=radio
wm2=national
hm2=national
wm2=prosecutor
hm2=prosecutor
am2f=Pham
et12=ORGANIZATION:LOCATION
et12+m1<m2=ORGANIZATION:LOCATION:false
hm12+m1<m2=ORGANIZATION:LOCATION:false
etet=ORGANIZATION:LOCATION
bm1f=protect
ethm=PERSON:leader
hm12=its:embassy
wm2=compound
hm2=compound
wm2=divisions
hm2=divisions
hm12=Republican_Guard:divisions
ethm=nameMod-1:ORGANIZATION:divisions
hmhm=nameMod-1:Republican_Guard:divisions
wm2=Marine
hm2=Marine
hmet=nameMod-1:Marine:PERSON
et1sub2=Government:LOCATION
et12sub=ORGANIZATION:Region-General
wm1=regime
hm1=regime
bm1f=key
et1sub2sub=Government:Region-General
et12+m1>m2=ORGANIZATION:LOCATION:true
hm12+m1>m2=ORGANIZATION:LOCATION:true
am2f=before
am2f=received
am2f=now
wm2=intelligence
hm2=intelligence
wm1=Asian
et1sub2sub=Continent:Individual
country_et2=FACILITY
wm2=agencies
hm2=agencies
et1sub2=Water-Body:LOCATION
wm2=of
wm2=warplanes
hm2=warplanes
ethm=nameMod-1:GPE:warplanes
wm2=houses
hm2=houses
am2f=launched
ethm=GPE:aircraft
etet=VEH:WEA
wm1=bus
hm1=bus
et1sub2=Land:PERSON
am2f=hit
ethm=nameMod-1:GPE:city
wm2=representatives
hm2=representatives
hm12=US:officials
hmhm=nameMod-1:US:officials
bm1f=interim
et1sub2=Region-General:ORGANIZATION
et1sub2sub=Building-Grounds:Subarea-Facility
wm1=terrorist
hm1=terrorist
bm1f=were
wm2=prisoners
hm2=prisoners
etet=nameMod-1:PERSON:GPE
bm1f=those
am2f=made
et12+m1>m2=GPE:LOCATION:false
hm12+m1>m2=GPE:LOCATION:false
wm2=doctors
hm2=doctors
hm12=his:doctors
ethm=poss-1:PERSON:doctors
hmhm=poss-1:his:doctors
bm1f=late
bm1f=like
hmet=their:GPE
bm1f=tell
et1sub2sub=Religious:Group
et1_relative=ORGANIZATION
am2f=into
bm1f=my
am2f=refused
am2f=does
wm1=town
hm1=town
hm12=his:company
bm1f=sold
et1sub2sub=State-or-Province:Group
hmet=his:FACILITY
wm2=station
hm2=station
et12sub=LOCATION:Group
wm1=Clinton
hm1=Clinton
ethm=nameMod-1:GPE:weapons
hm1=Islamic
am2f=department
et1sub2sub=Land:Individual
et12sub=ORGANIZATION:Subarea-Facility
wm1=board
hm1=board
hmet=board:PERSON
hm12=board:member
ethm=PERSON:member
hmhm=board:member
et1sub2sub=Sports:Group
ethm=nameMod-1:PERSON:members
wm1=Democratic
hm1=Democratic
hmet=nameMod-1:Bush:PERSON
hmet=town:PERSON
am2f=over
bm1f=take
wm1=college
hm1=college
et12sub=PERSON:Educational
et1sub2sub=Indeterminate:Educational
et1sub2=Sports:ORGANIZATION
et1sub2=Sports:VEH
et1sub2sub=Sports:Land
wm2=association
hm2=association
et12sub=ORGANIZATION:Sports
wm2=guys
hm2=guys
etet=poss-1:ORGANIZATION:VEH
wm2=cars
hm2=cars
wm1=Carnival
wm2=shareholder
hm2=shareholder
hmet=your:PERSON
bm1f=both
hmet=my:ORGANIZATION
ethm=FACILITY:room
wm1=airport
hm1=airport
et1sub2sub=Population-Center:Population-Center
bm1f=give
hm12=their:country
hmhm=poss-1:their:country
bm1f=their
hmet=own:GPE
hm12=own:country
ethm=PERSON:country
hmhm=own:country
bm1f=if
wm1=CIA
hm1=CIA
bm1f=/
wm1=Indian
ethm=nameMod-1:GPE:company
ethm=nameMod-1:PERSON:government
et1sub2sub=Nation:State-or-Province
wm2=facility
hm2=facility
et1sub2sub=Government:Water
wm2=fleet
hm2=fleet
wm2=areas
hm2=areas
hmet=poss-1:their:LOCATION
wm2=candidates
hm2=candidates
wm2=organization
hm2=organization
bm1f=:
bm1f=Some
bm1f=pay
am2f=I
etet=PERSON:WEA
wm2=facilities
hm2=facilities
hm12=his:home
hmet=school:ORGANIZATION
wm2=committee
hm2=committee
hm12=her:home
wm1=court
hm1=court
et1sub2=Region-General:PERSON
wm2=store
hm2=store
hm1=House
wm1=Florida
hm1=Florida
wm1=gun
hm1=gun
et12sub=PERSON:Path
bm1f=than
wm2=neighbors
hm2=neighbors
et12sub=GPE:Indeterminate
bm1f=active
wm2=writer
hm2=writer
bm1f=before
wm2=Committee
bm1f=help
hm2=Republican
bm1f=only
wm2=chain
hm2=chain
am2f=!
bm1f=dozen
et12sub=PERSON:Region-International
wm2=bank
hm2=bank
et12sub=LOCATION:Commercial
et1sub2sub=Group:Region-International
wm1=Qaeda
et1sub2sub=Group:Media
hmhm=nameMod-1:Iraqi:military
bm1f=local
am2f=which
hmet=terrorist:ORGANIZATION
wm1=Tokyo
hm1=Tokyo
et12sub=GPE:Medical-Science
hm1=European
wm2=House
ethm=nameMod-1:ORGANIZATION:chief
etet=ORGANIZATION:WEA
hmet=nameMod-1:European:GPE
hm12=their:weapons
hmet=their:WEA
wm2=professor
hm2=professor
wm2=Court
et1sub2=Individual:LOCATION
et1sub2sub=Individual:Region-General
ethm=poss-1:PERSON:area
wm1=civilian
hm1=civilian
wm2=casualties
hm2=casualties
hmet=army:PERSON
wm1='
et1sub2sub=Sports:Sports
am2f=:
hmet=poss-1:their:ORGANIZATION
wm1=Auburn
hm1=Auburn
hmet=their:ORGANIZATION
et1sub2sub=Sports:Educational
bm1f=entire
am2f=)
wm2=coach
hm2=coach
bm1f=hitting
hmet=poss-1:my:VEH
wm2=program
hm2=program
et12sub=PERSON:Sports
ethm=nameMod-1:PERSON:people
am2f=around
wm2=women
hm2=women
bm1f=out
hmet=poss-1:your:VEH
hm1=Asian
bm1f=off
bm1f=(
wm2=board
hm2=board
ethm=ORGANIZATION:leaders
bm1f=up
et12sub=GPE:Airport
ethm=ORGANIZATION:I
hmet=nameMod-1:British:PERSON
hmhm=coalition:forces
hm12=British:forces
hmhm=nameMod-1:British:forces
ethm=nameMod-1:GPE:soldiers
ethm=poss-1:PERSON:wife
wm2=desert
hm2=desert
hm12=Iraqi:desert
ethm=nameMod-1:GPE:desert
hmhm=nameMod-1:Iraqi:desert
wm1=Her
hm1=Her
ethm=poss-1:PERSON:family
hm12=British:troops
hmhm=nameMod-1:British:troops
hm12=Iraqi:soldiers
hmhm=nameMod-1:Iraqi:soldiers
hmet=poss-1:Her:PERSON
am2f=moving
hm12=coalition:troops
hmhm=coalition:troops
am2f=push
hmet=nameMod-1:Army:PERSON
hm12=Iraqi:officials
hmhm=nameMod-1:Iraqi:officials
hm12=our:analyst
ethm=poss-1:ORGANIZATION:analyst
hmhm=poss-1:our:analyst
et12sub=PERSON:Shooting
ethm=ORGANIZATION:officials
wm2=children
hm2=children
wm2=Central
wm2=Command
hm2=Central_Command
hm12=U.S:Central_Command
ethm=GPE:Central_Command
hmhm=U.S:Central_Command
hm12=CNN:correspondent
hm12=his:family
hmhm=poss-1:his:family
wm2=Senator
hm2=Senator
wm2=daughter
hm2=daughter
et1sub2sub=Individual:Land
ethm=poss-1:PERSON:daughter
ethm=ORGANIZATION:students
am2f=there
wm2=sister
hm2=sister
ethm=poss-1:PERSON:sister
wm2=father
hm2=father
ethm=poss-1:PERSON:father
hm12=his:wife
ethm=nameMod-1:ORGANIZATION:units
wm2=ones
hm2=ones
hm12=their:ones
ethm=poss-1:PERSON:ones
hmhm=poss-1:their:ones
hm12=u.s:troops
hmhm=nameMod-1:u.s:troops
hmet=nameMod-1:iraqi:ORGANIZATION
hm12=u.s:forces
wm2=husband
hm2=husband
hm12=her:husband
ethm=poss-1:PERSON:husband
hmhm=poss-1:her:husband
hmet=coalition:VEH
hm12=military:officials
hmhm=military:officials
et12sub=GPE:Exploding
et1sub2sub=Nation:Exploding
wm2=army
hm2=army
ethm=nameMod-1:GPE:marines
ethm=nameMod-1:GPE:missile
hm12=u.s:marines
wm2=families
hm2=families
hm12=their:families
ethm=poss-1:PERSON:families
hmhm=poss-1:their:families
wm2=son
hm2=son
ethm=poss-1:PERSON:son
hm12=their:son
hmhm=poss-1:their:son
hmhm=nameMod-1:u.s:forces
ethm=poss-1:PERSON:home
hmhm=poss-1:his:wife
wm2=sons
hm2=sons
hm12=his:sons
ethm=poss-1:PERSON:sons
hmhm=poss-1:his:sons
hmet=u.s:ORGANIZATION
et1sub2sub=Group:Building-Grounds
hm12=u.s:officials
hm12=her:daughter
hm12=his:father
hmhm=poss-1:his:father
wm2=baby
hm2=baby
ethm=poss-1:PERSON:baby
wm2=secretary
hm2=secretary
ethm=poss-1:ORGANIZATION:correspondent
am2f=believe
hmhm=nameMod-1:u.s:officials
wm2=mother
hm2=mother
ethm=poss-1:PERSON:mother
hm1=city
wm2=pilot
hm2=pilot
am2f=here
hmet=nameMod-1:palestinian:PERSON
hmet=nameMod-1:israeli:PERSON
ethm=poss-1:PERSON:friend
wm1=administration
hm1=administration
hmet=administration:PERSON
hmhm=poss-1:her:daughter
wm1=fbi
hm1=fbi
ethm=poss-1:PERSON:children
wm2=woman
hm2=woman
wm1=qaeda
hm1=al_qaeda
hmet=nameMod-1:al_qaeda:PERSON
ethm=nameMod-1:ORGANIZATION:troops
hm12=my:family
hmhm=poss-1:my:family
hmet=nameMod-1:fbi:PERSON
wm2=authorities
hm2=authorities
ethm=poss-1:ORGANIZATION:reporters
wm1=hamas
hm1=hamas
hmet=nameMod-1:hamas:PERSON
hm12=police:officers
ethm=ORGANIZATION:officers
hmhm=police:officers
hm12=her:father
hm12=our:correspondent
hmet=nameMod-1:british:PERSON
ethm=nameMod-1:GPE:woman
wm2=attorney
hm2=attorney
ethm=poss-1:PERSON:company
wm2=girl
hm2=girl
ethm=poss-1:PERSON:cabinet
hm12=his:cabinet
hmhm=poss-1:his:cabinet
hm12=your:cabinet
hmhm=poss-1:your:cabinet
ethm=PERSON:wife
hmhm=his:wife
hm12=my:friend
am2f=when
wm2=child
hm2=child
ethm=poss-1:PERSON:child
am2f=Laci
hm12=my:husband
hmhm=poss-1:my:husband
wm2=guns
wm1=My
hm1=My
hmet=poss-1:My:PERSON
wm1=department
hm12=US:official
hmhm=nameMod-1:US:official
am2f=still
hm12=her:family
hmhm=poss-1:her:family
hm12=my:wife
hmhm=poss-1:my:wife
hm12=her:sister
hmhm=poss-1:her:sister
wm2=mom
hm2=mom
ethm=poss-1:PERSON:mom
bm1f=seeing
wm2=brothers
hm2=brothers
ethm=poss-1:PERSON:brothers
bm1f=how
hmet=poss-1:her:FACILITY
wm2=in
hm12=her:parents
hmhm=poss-1:her:parents
hm12=My:brother
hmhm=poss-1:My:brother
wm2=dad
hm2=dad
ethm=poss-1:PERSON:dad
hm12=my:dad
hmhm=poss-1:my:dad
bm1f=these
wm2=President
hm2=President
ethm=nameMod-1:GPE:media
ethm=GPE:President
am2f=since
wm2=Minister
am2f=George
ethm=ORGANIZATION:spokesman
hm12=government:sources
hmhm=government:sources
ethm=nameMod-1:ORGANIZATION:officials
hm12=his:daughter
hmhm=poss-1:his:daughter
hm2=Minister
ethm=GPE:Minister
ethm=nameMod-1:GPE:minister
hmet=police:FACILITY
am2f=Vladimir
hm12=US:President
hmhm=US:President
hmhm=poss-1:my:friend
hmet=nameMod-1:Russian:ORGANIZATION
wm2=house
hm2=house
ethm=poss-1:PERSON:house
ethm=nameMod-1:GPE:army
et12=LOCATION:FACILITY
et12+m1>m2=LOCATION:FACILITY:true
et12+m1<m2=LOCATION:FACILITY:false
hm12+m1>m2=LOCATION:FACILITY:true
hm12+m1<m2=LOCATION:FACILITY:false
etet=LOCATION:FACILITY
ethm=nameMod-1:ORGANIZATION:official
hm12=British:Minister
am2f=Tony
hmhm=British:Minister
bm1f=As
wm2=ministers
hm2=ministers
wm2=Chancellor
hm2=Chancellor
hm12=German:Chancellor
am2f=Gerhard
ethm=GPE:Chancellor
hmhm=German:Chancellor
ethm=poss-1:PERSON:government
et1sub2sub=GPE-Cluster:Group
hm12=Iraqi:army
ethm=GPE:army
etet=nameMod-1:ORGANIZATION:VEH
hm12=Iraqi:border
hmhm=nameMod-1:Iraqi:border
wm2=Kurds
hm2=Kurds
hm12=Iraqi:Kurds
hmhm=Iraqi:Kurds
ethm=GPE:Marines
hm12=Iraqi:troops
hmhm=nameMod-1:Iraqi:troops
hm12=his:son
hmhm=nameMod-1:U.S:soldiers
ethm=GPE:Army
hmhm=Iraqi:military
hmhm=nameMod-1:Kurdish:fighters
hmet=nameMod-1:Pentagon:PERSON
hm12=U.S:President
hmhm=U.S:President
hmet=American:PERSON
hm12=American:forces
hm12=U.S:Marines
hmhm=U.S:Marines
hm12=U.S:tanks
hm12=Iraqi:tanks
hmhm=nameMod-1:Iraqi:tanks
ethm=nameMod-1:GPE:soldier
ethm=nameMod-1:GPE:television
hmhm=nameMod-1:U.S:military
hm12=Pentagon:officials
hmhm=nameMod-1:Pentagon:officials
hm12=Iraqi:President
am2f=Saddam
hmhm=Iraqi:President
hm12=U.S:Army
hmhm=U.S:Army
hmhm=nameMod-1:American:forces
hm12=Iraqi:leader
ethm=nameMod-1:GPE:leader
wm2=Prime
wm2=militia
hm2=militia
hmet=nameMod-1:Iraqi:WEA
am2f=also
ethm=nameMod-1:GPE:companies
hm12=Russian:President
hmhm=Russian:President
wm2=lawmakers
hm2=lawmakers
hm12=Russian:companies
hmhm=nameMod-1:Russian:companies
hmet=nameMod-1:British:ORGANIZATION
ethm=nameMod-1:GPE:authorities
ethm=nameMod-1:GPE:leaders
wm2=exiles
hm2=exiles
hm12=Iraqi:exiles
bm1f=four
wm2=client
hm2=client
ethm=poss-1:PERSON:client
hmet=nameMod-1:Japanese:ORGANIZATION
am2f=killed
et1sub2=Region-General:FACILITY
ethm=nameMod-1:ORGANIZATION:inspectors
ethm=GPE:Ambassador
hm12=U.N:inspectors
hmhm=nameMod-1:U.N:inspectors
hmet=school:PERSON
hmet=poss-1:their:VEH
wm2=navy
hm2=navy
ethm=nameMod-1:GPE:navy
wm2=Security
hm2=Security_Council
ethm=ORGANIZATION:Security_Council
wm1=Security
wm1=Council
ethm=GPE:Secretary
etet=nameMod-1:LOCATION:LOCATION
ethm=ORGANIZATION:official
wm2=militants
hm2=militants
et1sub2sub=Government:Land
hmet=military:VEH
wm2=bomber
hm2=bomber
wm1=Bank
wm1=Hamas
hm1=Hamas
hmet=nameMod-1:Hamas:PERSON
ethm=nameMod-1:GPE:police
am2f=moved
hm12=Israeli:troops
hmhm=nameMod-1:Israeli:troops
ethm=nameMod-1:GPE:boy
wm1=Military
hm1=Military
hmet=Military:PERSON
hm1=West_Bank
hmet=nameMod-1:West_Bank:GPE
ethm=nameMod-1:LOCATION:city
hm12=Palestinian:officials
hmhm=nameMod-1:Palestinian:officials
hm12=Palestinian:boy
hmhm=nameMod-1:Palestinian:boy
hmet=nameMod-1:Israeli:ORGANIZATION
ethm=nameMod-1:GPE:militants
wm1=party
ethm=nameMod-1:GPE:lawmakers
wm2=ministry
hm2=ministry
hmet=North_Korean:ORGANIZATION
wm1=ministry
hm1=ministry
hmet=ministry:PERSON
hm12=his:government
hmhm=poss-1:his:government
hm12=South_Korean:officials
hmhm=nameMod-1:South_Korean:officials
hm12=U.S:lawmakers
hmhm=nameMod-1:U.S:lawmakers
hm12=government:officials
hmhm=government:officials
ethm=GPE:leader
am2f=outside
wm2=civilians
hm2=civilians
ethm=nameMod-1:GPE:civilians
ethm=poss-1:GPE:forces
hm12=administration:officials
hmhm=administration:officials
hmet=nameMod-1:Chinese:PERSON
hm12=Iraqi:civilians
hmhm=nameMod-1:Iraqi:civilians
hm12=Iraqi:people
hmhm=nameMod-1:Iraqi:people
hmet=nameMod-1:US:ORGANIZATION
hmet=nameMod-1:EU:PERSON
ethm=nameMod-1:GPE:ministers
hmet=nameMod-1:Indonesian:PERSON
wm2=scientists
hm2=scientists
ethm=nameMod-1:GPE:scientists
hmhm=poss-1:her:father
hm12=his:mother
hmhm=poss-1:his:mother
hm12=my:kids
hmhm=poss-1:my:kids
hmhm=my:wife
wm2=ex
hm2=ex
ethm=poss-1:PERSON:ex
hm12=my:ex
hmhm=poss-1:my:ex
bm1f=what
wm2=lawyers
hm2=lawyers
et1_relative=GPE
ethm=poss-1:PERSON:car
wm2=girlfriend
hm2=girlfriend
ethm=poss-1:PERSON:lawyer
et1sub2sub=Group:Subarea-Facility
wm2=roommate
hm2=roommate
ethm=poss-1:PERSON:roommate
wm2=plant
hm2=plant
wm2=uncle
hm2=uncle
ethm=poss-1:PERSON:uncle
hm12=your:uncle
hmhm=poss-1:your:uncle
hmet=Our:PERSON
wm2=staff
hm2=staff
hm12=our:troops
ethm=poss-1:GPE:troops
hmhm=poss-1:our:troops
hmhm=nameMod-1:Iraqi:army
wm2=founder
hm2=founder
am2f=face
hm12=My:wife
hm1=Carnival
am2f=get
wm2=clerics
hm2=clerics
ethm=GPE:border
hm1=Indian
ethm=poss-1:PERSON:party
wm1=Kuwaiti
hm1=Kuwaiti
hmet=nameMod-1:Japanese:PERSON
hm12=his:state
hmhm=poss-1:his:state
hm12=board:members
hmhm=board:members
bm1f=If
wm2=Judge
hm2=Judge
wm2=law
wm2=scientist
hm2=scientist
ethm=poss-1:PERSON:friends
wm1=Virginia
hm1=Virginia
ethm=poss-1:GPE:president
hm12=British:officials
etet=nameMod-1:LOCATION:PERSON
ethm=poss-1:PERSON:teacher
hm12=Palestinian:leader
hmhm=nameMod-1:Palestinian:leader
ethm=nameMod-1:GPE:diplomats
et1sub2sub=Continent:Group
wm2=service
hm2=service
am2f=General
hm12=American:officials
hmet=nameMod-1:European:PERSON
hmhm=nameMod-1:American:officials
ethm=nameMod-1:GPE:president
wm2=diplomat
hm2=diplomat
ethm=nameMod-1:GPE:diplomat
hm12=terrorist:organization
ethm=PERSON:organization
hmhm=terrorist:organization
hm12=my:house
et1sub2sub=Educational:Sports
ethm=nameMod-1:ORGANIZATION:team
hmet=poss-1:our:FACILITY
ethm=poss-1:PERSON:employees
wm2=players
hm2=players
hmhm=poss-1:his:company
wm1=University
hm2=airport
wm2=grandmother
hm2=grandmother
wm2=boss
hm2=boss
ethm=poss-1:PERSON:boss
hm12=my:car
hmhm=poss-1:my:car
2.612127289866444
2.079749394878081
2.0476529133978243
2.0476529133978243
2.3267277880898956
2.0476529133978243
2.061038052813794
3.2878225808569566
5.869439967121799
5.869439967121799
4.045902397171654
4.045902397171654
5.154874434272324
5.154874434272324
5.154874434272324
3.0444901376394227
2.6619613936225104
2.6924582763070117
2.9343655582351653
2.702976142238956
10.3021042423455
10.3021042423455
7.940422560976682
7.940422560976682
7.455224336175291
7.455224336175291
3.448869151127459
10.252161203486192
10.252161203486192
25.00896722065031
48.644966891715605
48.644966891715605
24.326739561759
24.326739561759
17.884306791782805
17.884306791782805
17.884306791782805
17.884306791782805
4.832002044363926
13.929098445590844
9.715209078332236
9.715209078332236
15.66674395853109
15.66674395853109
2.7171710755288543
2.7171710755288543
8.29372983003589
40.16592984939106
40.16592984939106
13.939187009226146
13.939187009226146
13.939187009226146
13.939187009226146
13.939187009226146
13.939187009226146
18.026791675064555
14.024622940197034
14.73051439626342
14.024622940197034
14.73051439626342
14.024622940197034
2.38022178808243
2.5570230900541056
2.5570230900541056
2.4783743091824766
2.479419224341345
2.479419224341345
2.5570230900541056
2.4783743091824766
3.3702899578336765
3.3702899578336765
3.047351156187655
3.047351156187655
3.047351156187655
3.047351156187655
3.047351156187655
2.7761058291793876
5.798721154463791
5.798721154463791
5.798721154463791
6.055936071929738
6.055936071929738
6.055936071929738
3.166595151794557
3.166595151794557
2.4329766817643725
2.4329766817643725
2.4329766817643725
2.4329766817643725
5.465598666671246
5.1020602426451624
5.1020602426451624
6.447835072655471
6.447835072655471
6.447835072655471
6.447835072655471
6.447835072655471
6.447835072655471
4.750058859101369
4.750058859101369
5.9846197718414444
5.9846197718414444
5.9846197718414444
14.739261199825775
2.8286661624228935
1.8631780916002583
1.8631780916002583
1.8631780916002583
25.974439562647362
25.974439562647362
11.466076310420567
6.331170723055642
6.331170723055642
2.1058530393475867
2.17016778857721
2.136755661666308
2.0087214011617474
1.958030519786336
1.958030519786336
8.447105530398753
27.87179287143914
27.87179287143914
2.217470266416679
2.217470266416679
6.331248740322424
13.060498798988814
6.418651172179924
3.669165191760835
29.597599306994727
9.636936434266234
9.40594316629143
10.120741704848632
13.492241039730528
10.120741704848632
10.027448431414573
9.76356533015726
10.027448431414573
8.64089770586286
10.027448431414573
8.64089770586286
12.212391781006303
12.212391781006303
12.212391781006303
1.8327765824165905
1.868963528305051
14.901658355900524
5.8717933122914365
6.1042384097892874
1.6097986519367553
19.075562760067854
19.075562760067854
20.417344008671588
7.778396919805219
11.484463001798925
11.469737383069875
11.484463001798925
12.465763454359983
12.465763454359983
12.465763454359983
12.465763454359983
12.465763454359983
12.465763454359983
11.92574341319765
11.92574341319765
11.92574341319765
11.92574341319765
11.92574341319765
11.92574341319765
2.433533234397189
2.433533234397189
4.285722037265932
5.564114815105083
5.564114815105083
2.8521510499272518
2.8521510499272518
4.643022668669154
4.643022668669154
10.734153293761722
10.734153293761722
6.202417370798434
23.60992490218178
23.60992490218178
1.358650711666627
1.3965045663209756
1.358650711666627
8.932278422613972
26.69410044778957
12.146873429334722
12.146873429334722
12.146873429334722
12.146873429334722
12.146873429334722
12.146873429334722
20.60189134032451
25.185583599002936
25.185583599002936
14.945870483947065
25.80794102863668
6.2814667593240685
6.2814667593240685
7.206323431120325
9.318269926240541
14.267674493149304
2.897785511061266
2.897785511061266
2.897785511061266
11.606380609147042
9.362374329403842
9.362374329403842
6.939826265992211
6.939826265992211
2.138863490581695
2.138863490581695
13.129299420562253
14.056729808221421
13.129299420562253
14.056729808221421
13.129299420562253
7.517701762592673
7.517701762592673
15.403199180810573
15.403199180810573
1.3901452702211439
1.3901452702211439
1.3901452702211439
1.369370509643856
1.3901452702211439
1.3901452702211439
51.91488292241495
51.91488292241495
9.583487653801013
9.583487653801013
25.97161611493823
25.97161611493823
15.75369044162251
8.043580350024598
8.043580350024598
8.57150747016319
14.094473746006994
15.173261269575171
5.250053276986123
5.250053276986123
11.763084630769757
3.7214205325065817
18.669228405190225
16.858699298592903
16.858699298592903
1.9421769363743304
14.499119376735564
13.17096907697315
11.291411592983714
16.0110645018317
25.091757976875208
25.091757976875208
11.112419785860581
10.521971412852041
12.644323732705256
1.9373411312080564
1.9373411312080564
32.63694539535389
32.63694539535389
6.870861709526919
6.870861709526919
6.870861709526919
6.870861709526919
6.870861709526919
6.870861709526919
6.870861709526919
6.870861709526919
6.870861709526919
14.215649951807748
14.724949051334367
14.724949051334367
14.724949051334367
14.724949051334367
14.724949051334367
14.724949051334367
13.837849392406344
13.837849392406344
13.837849392406344
16.321407249100822
16.321407249100822
16.321407249100822
21.002682667815634
21.002682667815634
16.126378984097258
3.515219612041588
9.664744969935636
3.2460492647431787
6.258182295722868
6.258182295722868
20.07367278015974
3.986887153619448
12.971794118299176
12.971794118299176
28.153762930788755
28.153762930788755
26.288659678805896
26.288659678805896
26.288659678805896
37.14708243121777
37.14708243121777
22.66443181918021
22.66443181918021
10.319433390735385
10.319433390735385
17.53271934265123
30.657771135011473
-0.7770861570619694
0.4564105620912766
-0.7770861570619694
0.4564105620912766
0.5413366779889799
-0.2387765329236844
-1.1078652982314026
0.5905933700063493
2.876347244887967
-1.204460745214888
1.140814577181735
-0.4302217463630802
0.533659881378723
0.07842499560851479
1.140814577181735
-0.4302217463630802
0.533659881378723
0.07842499560851479
1.140814577181735
-0.4302217463630802
-2.679133363469413
1.0314010587580382
-9.240542161586148
3.4718149283688886
1.669158580927073
-0.4294155116798555
0.6611540254093908
-0.419777761304557
-1.6397494596265867
0.8964187646562003
-8.265544267856763
2.560971323563976
-2.8591957271257655
1.305916784507354
-1.6397494596265867
0.8964187646562003
-2.8591957271257655
1.305916784507354
-1.6397494596265867
0.8964187646562003
5.636503764480843
-3.1801444799975194
-8.890428492546334
1.8304815080388694
10.0280679588569
-4.052931320741472
-3.306313400824333
1.253931503394421
-3.306313400824333
1.253931503394421
1.941597871124367
-1.2238125318363702
0.9010319417952548
-0.2855091061835706
-2.6144191842539595
1.1702727169040088
-3.5388794922108966
1.6537470666778873
1.3932035335398663
-0.943710751870162
-0.04749727316582231
0.06429757602912467
-0.7501345224867766
0.6016008606517769
-0.7501345224867766
0.6016008606517769
-0.7501345224867766
0.6016008606517769
4.4381398160875305
-1.7673524781203014
-1.509341828145792
0.6393852282809158
-1.7306001754703972
0.681936075004546
-9.372825618068918
1.5431813034058202
-10.836311988697496
1.596191714926273
-2.710285171942619
0.8850882969391085
-1.509341828145792
0.6393852282809158
-2.710285171942619
0.8850882969391085
-1.509341828145792
0.6393852282809158
-5.374182456850618
1.7381893382940845
0.6076851277018012
-0.33364076246945196
0.6076851277018012
-0.33364076246945196
-3.230523243238186
1.8109796994104475
-3.230523243238186
1.8109796994104475
0.1155518489850822
-0.06344042513563686
-1.0803856883748217
1.0332847458951688
0.1155518489850822
-0.06344042513563686
-1.0803856883748217
1.0332847458951688
0.1155518489850822
-0.06344042513563686
10.798393968049163
-31.989260500978435
-4.426033169413503
1.887164487468084
-4.104286622508382
1.5520957519823888
5.3698353594453545
-9.294001732262732
0.37693454789687175
-0.2783949938258523
-2.6322557076313426
3.284615121868297
6.633158031233871
-54.49150564603681
-0.6541154236400453
1.0191859526676907
-1.4357333975605364
0.8619343481394459
-5.855175572275435
1.474459788071428
-2.5221268535691768
1.9433850723143244
-14.803144646970217
3.350197915950366
3.0716496435083114
-41.39617385025452
3.0716496435083114
-41.39617385025452
3.1856246153131256
-6.2447908326356165
3.1856246153131256
-6.2447908326356165
1.8456542527069764
-27.25270906877052
1.8456542527069764
-27.25270906877052
1.8456542527069764
-27.25270906877052
0.6680252183108797
16.81015734691957
-0.2927151817868854
0.22724344085591186
-4.982051683625231
1.6573784423683242
-0.2927151817868854
0.22724344085591186
-4.982051683625231
1.6573784423683242
-0.2927151817868854
0.22724344085591186
2.3989038395692566
-1.3577477500821402
-0.41247068301707435
0.3949220219239611
1.1355242730025514
-2.296194169254337
3.018509241329446
-12.922111374733714
0.7544522072191908
-0.6738396361182062
1.1355242730025514
-2.296194169254337
0.7544522072191908
-0.6738396361182062
1.1355242730025514
-2.296194169254337
0.634973057786441
-0.1841775425091674
0.634973057786441
-0.1841775425091674
5.760619667250644
-3.793574173414837
5.760619667250644
-3.793574173414837
-3.5842613489898527
1.0819955143741584
-17.217376027968204
2.189283804076803
4.495046790301794
-4.717262535650651
4.654893716747427
-22.50045853625218
4.654893716747427
-22.50045853625218
0.08177584655278913
-0.004922780163081342
-3.2658868432549255
1.4394489798251877
3.098784183409966
-2.299679876614002
-2.772349411490426
1.405146394895258
-1.5959308080105674
0.6565330784224663
-1.4868193248241206
0.6340044363965189
6.103033844626555
-3.1713847047600843
3.6773475128352446
-2.1333426185288165
0.3692464233195274
-0.16720257746197564
-4.477465624668763
2.254733546770573
-3.8930903709865174
0.8879362478040074
-3.8930903709865174
0.8879362478040074
-3.4274283876675717
1.2167550600860193
-3.8243029361842344
1.0669422547238163
-6.476544154485985
1.878538203219747
-3.4274283876675717
1.2167550600860193
-6.476544154485985
1.878538203219747
-3.4274283876675717
1.2167550600860193
-4.245104651305178
1.3921847047694338
-10.710448624373326
1.6691345226216625
-10.710448624373326
1.6691345226216625
-25.234764704783608
3.1136005552007266
12.1026303974542
-0.45523681061933763
14.823311005297011
-1.4379593596883185
-3.0451140118051323
0.9933620777740764
-3.0451140118051323
0.9933620777740764
-4.5294225233649215
1.7429392428688244
-4.5294225233649215
1.7429392428688244
-12.183915893944025
2.3766855652033145
36.04990744076675
-6.024794229438465
0.460315674625869
0.0874312892948188
9.79541373787813
-0.11501285950541984
0.7942132124796943
-0.1828567042073832
-20.882909876033015
2.0899338296327166
-15.943513538480982
1.586885270735725
-15.943513538480982
1.586885270735725
-18.178240966696343
1.2282981763242184
-23.34472784413452
1.4092525372754525
-15.779856029101685
1.347816678309568
-1.7035666248999117
0.7154681116291801
-1.1078358290952526
0.5406463117748963
-13.806057090342946
1.75955365574701
-13.806057090342946
1.75955365574701
3.222848234274565
-6.682875978200993
2.416443125857909
-4.000009177383904
2.416443125857909
-4.000009177383904
0.21657722638653398
-0.1408463486833944
2.9469616243673147
-5.83664715310834
2.9469616243673147
-5.83664715310834
2.9469616243673147
-5.83664715310834
16.2116904630923
-3.1035689824859105
3.10728255629955
-1.8061642452146645
-9.288664072015147
1.3887908099806303
-9.288664072015147
1.3887908099806303
-1.4826672739419995
0.8757692691367573
-7.034846030159356
2.0321819696688967
2.364975239540223
0.27334257109724636
15.821023971673977
-5.455929850941343
5.174942650729958
-2.1594699109606696
1.7796756032511207
-23.8516886236053
1.7796756032511207
-23.8516886236053
2.4866251760452243
-5.216529761876519
-1.9190591255931926
1.4850261884630545
4.520013396163581
-8.295780175958663
2.4866251760452243
-5.216529761876519
-0.5493980793219135
0.38827468012696187
2.7550620011856264
-1.4851161079846387
1.4567827762285193
-1.229999741367644
-4.228720437744414
1.3960137600690752
-3.4432766197023534
1.2494789778364312
-6.711042856813496
1.8515197698893653
-3.4432766197023534
1.2494789778364312
-6.711042856813496
1.8515197698893653
-3.4432766197023534
1.2494789778364312
2.557141846333531
-8.386290445494367
2.4524063798518716
0.28585177717254684
5.228501818222638
-5.139660579460715
11.651484907283542
-8.684404803942444
-1.0899606602694933
0.7554964471586718
-2.464176832406633
1.543650090984181
-32.46462554597662
3.8030494926642917
-1.0899606602694933
0.7554964471586718
-32.46462554597662
3.8030494926642917
-1.0899606602694933
0.7554964471586718
1.1252361481788995
-0.5234634272153285
0.37196247941976424
0.12656975088602085
-7.755911401562781
2.0022134533561564
-8.682215448875494
2.0642087040845922
-1.1883688037664801
0.6522103631860885
2.87116584509316
-0.8128569686528602
-17.057011933300377
2.3577011120486615
-7.233473012050558
2.20158658386637
-1.9466479606643787
1.2150855873745274
-1.9862274700310216
1.1382624174800484
-1.499675388828444
1.1274487593228084
0.011367871748376057
0.025909562333218172
-1.9466479606643787
1.2150855873745274
-1.9466479606643787
1.2150855873745274
2.753621316208778
-26.112781137570387
-71.36660208463901
3.443953810530914
2.1689672928519323
-23.31696591052244
2.1957546259138585
-24.280683379168277
-9.092160800827674
2.4928785007433576
-9.092160800827674
2.4928785007433576
-11.617159765109031
1.3335659384780483
-29.855794613853977
1.6876917892106795
1.9105616823296017
0.01232638232991734
-5.314388087070901
1.4413777562773973
-21.422113463032176
2.5643775954380787
-5.314388087070901
1.4413777562773973
-21.422113463032176
2.5643775954380787
-5.314388087070901
1.4413777562773973
-1.3358257539198073
0.6690791020694227
-1.1545346029997683
20.500160851660937
-12.149931283504218
2.236083505231969
3.143947355048901
-41.225141067679466
1.4255446726257968
-12.088066396961112
1.4255446726257968
-12.088066396961112
1.3821309280145853
-7.323386723292492
4.014310426059012
-2.7364347720103295
-3.6461063396136373
2.188489622058448
2.3610248257865702
-5.387387030854956
5.543794636159108
-1.173197800222443
-1.92224804720788
0.7038050735257539
-4.655709673244628
1.7085578008706195
-21.921011416801583
3.9224229440962235
-5.668978336141281
1.6379082469859036
-3.760620037894405
1.8662993781322856
2.1186415078475163
-0.5416823738351959
-12.590625416830276
2.3076860396400223
-0.37104212213300336
0.3793235766878609
-0.37104212213300336
0.3793235766878609
-0.37104212213300336
0.3793235766878609
-4.192656073483985
1.6236768698115234
0.7119693735770927
-0.5708592354707767
1.3892137965415832
-1.163225159974946
-7.933536610066843
2.325714616579061
-7.933536610066843
2.325714616579061
-7.933536610066843
2.325714616579061
4.681486772978731
-1.0284154515491934
-6.30699347893884
1.633599487431446
3.535729383330175
-2.2351696947165434
-16.720448410636358
1.9258573379887052
8.51921413313229
-3.3904145776830505
5.882872397206632
-2.704636005239159
5.882872397206632
-2.704636005239159
4.519351612143938
-1.7562718235087384
4.519351612143938
-1.7562718235087384
-4.6858599598481945
8.527631695516833
5.589259905222024
-2.411350678985271
10.34172261072155
-0.24251617630008138
-6.51105072134034
0.9888337884185896
-20.898043856280676
1.8750163638793005
-20.898043856280676
1.8750163638793005
6.255386183863163
-3.0811199196591437
6.255386183863163
-3.0811199196591437
-7.786893980481583
1.7104624145040517
8.861147222817957
-3.622086546774326
-5.41908741031849
1.6838592287564276
-5.06238790489331
1.6061831797441801
11.924640203299951
-0.24645429064125546
5.277231647223134
-2.9079448430031714
3.195715967836509
-1.6045442469247289
3.195715967836509
-1.6045442469247289
-0.41789505044113495
0.49282671489367313
-0.41789505044113495
0.49282671489367313
-21.180481359215285
2.0277184618011956
-5.546047775425754
1.8590147464458138
11.470056160743237
-22.520860919098112
-4.756908157960705
2.349281706485312
-7.730423184574859
1.9130220207403652
-3.9860114965836133
1.0638844779344052
-3.9860114965836133
1.0638844779344052
2.822082832214198
-11.78780074707306
6.774811836074029
-3.5992741123018845
-5.100431806925522
2.3945122166093533
8.798956156885959
-7.272616477910336
-25.77639946995102
2.6291731034635393
5.833341055335061
-6.193568864503588
3.2068344988184636
-2.0935615291144787
3.2068344988184636
-2.0935615291144787
-20.47020859817221
3.577153459264774
-20.47020859817221
3.577153459264774
-0.7879038517868673
0.5956820085463042
3.01610791974345
-0.960691744008622
-8.04740581920566
2.337103308695348
-7.225301971830209
2.7269364900376227
-7.225301971830209
2.7269364900376227
-7.385295247739826
2.5323057093252497
-7.385295247739826
2.5323057093252497
1.864353855857309
-4.445033822128229
5.991851143822173
-3.851569731851988
-13.927604826608935
6.504831071929221
-16.686835143974484
7.552623410184564
5.093375633351981
-20.172925771397995
5.093375633351981
-20.172925771397995
-0.9334379391503598
0.5287948948256234
2.5878436147343895
-1.0379955892683688
-0.9334379391503598
0.5287948948256234
-0.9334379391503598
0.5287948948256234
-7.96463635791167
3.231622913932815
3.6799648233749664
-0.9299222070297473
-6.414044887551696
1.50010063437872
-6.414044887551696
1.50010063437872
0.5263588425320059
0.6664814839061373
-1.0645237827561673
0.5703053075687436
-5.532194920368673
2.4662130881494955
-8.80028743997853
2.885012013238286
-1.0645237827561673
0.5703053075687436
-8.80028743997853
2.885012013238286
-1.0645237827561673
0.5703053075687436
-6.8908264001303605
2.5146330001910098
-6.8908264001303605
2.5146330001910098
-13.691384967885302
3.0877375412770607
-13.691384967885302
3.0877375412770607
-16.519440080874926
2.2663640047076687
-8.13210294306561
1.782848063294431
-16.519440080874926
2.2663640047076687
2.0015753130338223
-1.8279565911743836
-8.483658688451692
1.3904214929286622
-1.3323713978974898
2.354400872622451
22.79123458578551
-7.048978463207911
21.313699662953947
-15.684607247804363
13.188605017865976
-5.355076761108915
21.313699662953947
-15.684607247804363
0.7261046059372687
-0.436223876142638
5.5249909171031995
-1.2117708845162283
-29.72268860492009
5.596601387508537
-29.72268860492009
5.596601387508537
26.174982667613378
-4.012103366220245
-18.26326932114568
5.354380662611125
-18.26326932114568
5.354380662611125
0.5761949925030687
0.008605918013851799
-9.54018480774736
2.533091553815137
0.5761949925030687
0.008605918013851799
-9.54018480774736
2.533091553815137
0.5761949925030687
0.008605918013851799
-15.994709387969824
3.099052390401569
1.5742553862335842
-16.794299183512393
1.5742553862335842
-16.794299183512393
-11.559509241360274
6.770515473825476
-8.562470209036075
1.0857472884834047
1.4046391040326078
-0.02915599671591762
1.5368715010987704
-4.786012471273489
2.708878249592509
-31.09371587623155
2.708878249592509
-31.09371587623155
-14.616105194820086
6.091982654934656
-14.616105194820086
6.091982654934656
-4.360445070272123
1.9526242374307548
6.482530661129005
-2.9262966373168378
5.408107707948304
0.22276785484466566
24.438887765920114
-1.2343189009413988
-34.46712966821534
15.625309590745331
31.205242941556516
-16.206107709722176
6.876386078933937
-12.426851838467273
6.876386078933937
-12.426851838467273
-53.505242020550874
7.102336776541547
27.835054362175224
-3.0278082516314826
21.289055230056665
-13.243336786953972
14.487459567078128
-1.1108490874130832
1.226923954349732
-0.8233026759731557
1.226923954349732
-0.8233026759731557
1.226923954349732
-0.8233026759731557
2.454076445136482
-1.3268015920912624
-2.2287499115649263
1.1068224810256968
4.088313803522805
-0.5809814869813201
0.21021456726756726
0.23084433047313802
4.755685402198102
-4.1395745343752255
4.986366456917682
-74.44060669612242
-8.86523799432899
5.574132467030588
-2.035786697778635
1.5461338106896054
-27.39843303320001
4.070850522186859
2.1294577591098984
-2.910394771674218
7.599007678904851
-8.123975868513856
-25.190862367520264
4.626954611202077
1.0993943730172449
-0.49727889177723616
-0.2470252039172025
0.25508089816422475
11.439885636727363
-9.692882120816435
-17.37903130056461
3.392369291153926
-0.03166671650616237
0.09190168801702736
-0.03166671650616237
0.09190168801702736
22.922022110985548
-13.41653069849911
3.365268243633588
-0.1420306676721086
-15.030854047307677
3.550146264187076
-2.135409616485283
6.203944849877304
7.554387342310681
-8.635544427583502
1.8749441004095728
-3.1406580771611647
-2.7389658009131117
5.01559887922515
1.8749441004095728
-3.1406580771611647
1.8749441004095728
-3.1406580771611647
-0.6096988017254751
0.6247930739891223
30.913083621157526
-5.784002206370484
-10.185652291545438
8.178518424381004
-0.44698282287484004
0.3444655409860595
0.9672650942180896
-1.0337437307114652
-2.6627584746783324
2.4144763694030167
0.9446058778362887
-0.13728071078990567
-13.82631439867258
2.7873880412290464
-3.7998114610404414
1.5101033783904243
0.6954762103072919
1.1089259752034528
6.220878794441984
-3.637083641949272
-29.900107515351465
5.066341826327486
-4.784720637984839
2.3967520433980263
-9.486077064545707
3.6084066002302926
18.182870135552008
-4.238347584361209
18.182870135552008
-4.238347584361209
11.298252964980412
-6.0688687927314735
-7.732435055029171
3.4367326182344895
1.357581201544185
-0.22698755174076335
-2.4183594003852447
0.8819149307273997
-0.667648525535856
0.4803594742394135
-15.280091459875106
3.2953768259458127
-2.4183594003852447
0.8819149307273997
-15.280091459875106
3.2953768259458127
-2.4183594003852447
0.8819149307273997
5.6120899719665545
-2.929861429336372
5.6120899719665545
-2.929861429336372
1.3670622121076463
-0.3469069186544842
-3.2919007958383575
1.3882630085030225
-15.929056123505624
3.1537013229847983
-10.208145471337394
2.2504349993216657
5.190370012735717
-1.3429539171729048
-6.128549127653907
1.6249131155185426
-6.089364747933178
2.836447299255727
5.030664883235902
-3.969919870758136
1.085753805966097
-0.4713915031372262
2.1774743078389847
-0.9574454151350187
4.006434852727305
-3.5100625180043354
8.120909385732856
-0.8055315885515946
2.1722059819886885
0.2309008801277166
-19.702057420271455
2.202366839916415
-3.2274359845494907
2.9266908870945425
-8.173319971925519
7.14122648388944
1.72797674729421
-0.37530853758569993
3.497131011860226
-0.99011808300498
5.027390686231639
-2.4881446003949987
-4.472729841468834
1.7411236968336214
-4.472729841468834
1.7411236968336214
-16.74617222671476
3.864567912637606
6.863199497000605
-6.347757973467548
-1.9541687382418236
10.104605220530392
-0.11000727173288594
4.174944629897116
-2.737755708039142
2.9163329423888693
-2.737755708039142
2.9163329423888693
-2.737755708039142
2.9163329423888693
12.989265466313126
-6.048319854882607
1.5304230337171
-0.5510221539551603
-12.616333524105034
5.699695834317427
-13.109489636140268
4.465195999709039
-7.862193640360686
1.644589975487139
-4.972377683913927
2.8251133912532764
-4.972377683913927
2.8251133912532764
-2.3684170745318345
2.6988491162350696
4.7586657166163935
-8.439889612410717
-4.678249179408347
4.925418209395636
-4.678249179408347
4.925418209395636
9.94022679572901
-13.17244361393603
-14.036781523571035
4.260054272163838
-14.036781523571035
4.260054272163838
-1.6476126598594387
0.8423140858486482
0.6447109347532738
0.34785607915288574
6.523269551553112
-1.0176341562667544
-15.692080284424499
3.660095638246751
-3.3971167420159833
1.1510559790848094
-3.3971167420159833
1.1510559790848094
-8.516060387376232
3.70913387234639
-5.099766440516062
1.8752286931997393
6.558537713543871
-5.92581812157368
3.114696890227753
-9.262572958756872
3.114696890227753
-9.262572958756872
3.114696890227753
-9.262572958756872
4.376031805219977
-31.489498608459883
7.427996419940227
-20.677667112460753
-0.040290916070421456
0.6194635997480338
1.0476084158456764
-1.2075309159290952
1.0476084158456764
-1.2075309159290952
3.6332979974345223
-2.2966663900972275
-3.62380638991191
2.1275539249300097
-6.2532985030813535
3.6435626415099973
3.6332979974345223
-2.2966663900972275
-6.2532985030813535
3.6435626415099973
3.6332979974345223
-2.2966663900972275
1.520499982655569
-0.8451958656016396
-3.0841179265046668
1.816728610920024
-8.974521077104345
4.392667118456512
-3.0656953679066903
2.1613653523717673
-5.540919350476396
1.605685760257125
5.473091879453314
-29.369316300100337
1.2827018853456391
-1.245030289229952
2.1104790198534635
-0.9743855953774381
2.1104790198534635
-0.9743855953774381
3.3295405327599252
-28.05694353818272
-6.172382960603434
1.1253392852460289
-2.996055032678561
0.8899362810864053
3.648722052109792
0.38595060815859017
8.254202282853793
-23.356111470149816
7.1151698570895725
-6.98860538622581
-7.628121096523023
2.091270927269161
-5.803963226671022
2.4588474526743274
-5.803963226671022
2.4588474526743274
-2.6865937963495297
1.3844213788119855
27.204057279348433
-3.287553792444794
-4.932686402942135
1.4788360109271403
-48.22408498801034
4.555601051780613
10.598915785140436
-1.6954062627999154
27.204057279348433
-3.287553792444794
-0.5669409698423205
0.8628745871959946
-5.778231119567453
2.550584904654074
-5.778231119567453
2.550584904654074
14.790147963082273
-10.966638839824428
-5.086322798628148
28.39990348061267
-3.5196211881883595
24.972522981230206
-7.85635619003124
33.6328189503216
-1.5502170766845165
1.4428149452494812
-4.6280334858017795
1.9795355794102374
-2.6664044783877188
2.118878052014005
1.6341112994703415
-0.7092505947369268
5.947254483379163
-45.82055733034869
3.295296828812822
-8.127534998881819
3.295296828812822
-8.127534998881819
0.34238284795890106
-0.10290569938215155
-5.347731168595767
2.6231792626488155
-20.809699655286266
5.459511821416486
-20.809699655286266
5.459511821416486
-3.3629059930227916
1.4022135548980166
-1.539690361061659
0.8181261625424558
25.224334475872237
-19.30539409448275
6.206927161796505
-3.9853023308194366
6.206927161796505
-3.9853023308194366
2.6238035775117075
-0.29740747134766043
-2.9396844276337344
1.6047786990254673
9.62433237650481
-8.47097607887806
0.28014518760442986
-0.15874816031882366
-15.727718634897023
3.7245834464053895
8.233914068255945
-2.512319588754045
-16.368304705972403
6.030446107425734
-7.7518806920352175
4.283762215065614
1.215431429962927
-1.9048134177730756
1.4729856530508298
-3.740238039411114
-10.3249301817661
16.027585846300536
6.043356072008358
-3.365221926621447
6.043356072008358
-3.365221926621447
-2.101396373663882
1.030169675255239
-2.101396373663882
1.030169675255239
-2.101396373663882
1.030169675255239
-2.101396373663882
1.030169675255239
-0.2851076108582329
0.33340927156650757
-0.2851076108582329
0.33340927156650757
8.008864619533824
-10.213730963097966
2.179698646154011
-14.732025676758575
2.1717039796907143
-13.708371001972674
2.179698646154011
-14.732025676758575
2.1717039796907143
-13.708371001972674
2.179698646154011
-14.732025676758575
5.182118630186208
-3.353413726800827
6.487144037796909
-4.3332971369324085
6.487144037796909
-4.3332971369324085
3.9508906382874946
-1.5274542000296192
2.3292946943397324
-1.39204849978894
0.19252790316078283
0.03553275699395475
2.6353434547941026
-7.432656023772328
2.6353434547941026
-7.432656023772328
-29.987338654132728
5.805465650142878
-27.275375274840577
3.481690812213823
3.0880894202966624
-0.9702358349861964
1.2764136900779377
-1.6970800426388122
1.2764136900779377
-1.6970800426388122
-6.428034365722219
1.6002636051038501
-5.544318253077889
1.4581569866801805
-12.468837309367343
3.469943835069049
0.5569498125423187
1.9231093879003038
-0.936353589784265
0.5218326924547432
-0.936353589784265
0.5218326924547432
1.314568303051749
-0.33862235113318606
2.645628632413308
-0.43832888319435415
-12.034649430194584
2.039696297194029
-12.034649430194584
2.039696297194029
-0.2371277789707521
0.2509556789977955
-0.2371277789707521
0.2509556789977955
-3.6593937540158383
3.3110320231059074
4.168730816499533
-2.376021240312003
4.168730816499533
-2.376021240312003
0.16492339410651446
0.27238868846805664
0.16492339410651446
0.27238868846805664
-6.3282996516595365
1.4313150306564357
-6.3282996516595365
1.4313150306564357
1.704712983359224
-0.995465331043929
1.704712983359224
-0.995465331043929
1.704712983359224
-0.995465331043929
-2.0455714811117405
1.467617955977488
-2.5664869780256763
1.8439643822774552
-0.3623367283759187
0.3006486301828075
-0.3623367283759187
0.3006486301828075
4.5476780412608475
-1.4703621997500291
3.4834825953446154
-2.724495762502915
3.4834825953446154
-2.724495762502915
-8.886870471975998
1.936356455411914
-14.393002615530639
1.426261127923702
3.890103673383084
-0.3330746080125051
3.890103673383084
-0.3330746080125051
-0.0582057144521384
0.577265375179286
5.7049754959437715
-3.3437263175141196
5.7049754959437715
-3.3437263175141196
-20.304623826020812
11.590781936297699
2.9536548868580303
-0.9919588520119835
-4.806502316675042
6.525713561629432
-4.806502316675042
6.525713561629432
1.635201248735905
-1.184699517666612
10.43490365427077
-1.8687070027739083
-9.622479717419488
2.9322654074239103
-0.7322862536343104
1.9478303416883072
5.302389346591392
-1.5784259470305795
36.56917192371926
-6.158382858662428
-6.564608187238017
1.5052243068023843
-9.219690425854218
3.8185631668862867
1.9326435647763178
-0.7627896896359712
2.0789345950012974
-0.4234720795537359
47.14792151344656
-9.942262184748664
-21.243807171488193
3.908375451343945
-1.3810311193855487
0.6786132494122246
-1.3810311193855487
0.6786132494122246
-17.442517172429195
1.7963847743741397
19.74964797895295
-12.239344689013915
-5.0759395435243295
1.4890905077051249
9.06577261235475
-2.5693020373011324
-1.9104832601333772
3.1149253955310914
-5.533491643761206
8.087668633767981
0.7062201191696476
-0.140204015151991
2.7823249656307976
-1.4665760204418168
4.713900333857692
-45.010551945330285
4.713900333857692
-45.010551945330285
-22.956214543558563
4.795603548664129
17.256680613993687
-13.88994919080586
3.399488345837392
-2.105642584309183
11.62027618719399
-10.22008621125714
0.19023444568307923
0.47642363363722695
0.19023444568307923
0.47642363363722695
13.745878458226237
-2.048824634589986
9.413749146324331
-2.685168463259481
9.413749146324331
-2.685168463259481
-2.7389152637258056
1.230405118227316
-2.7389152637258056
1.230405118227316
-8.689625216997818
2.631633658977149
-12.81388996772046
2.619330438575947
-2.5817950284532696
1.1369243905094493
-2.5817950284532696
1.1369243905094493
-24.630946771725455
2.8269856556046973
-24.630946771725455
2.8269856556046973
-19.660249825413306
6.044565241092413
-19.660249825413306
6.044565241092413
12.463211556146444
-14.142497033518357
-8.816325870307807
2.217257274611601
-8.816325870307807
2.217257274611601
-7.7571314871146715
4.5919484179875125
-7.7571314871146715
4.5919484179875125
-14.22307061015023
4.815363877927918
-14.22307061015023
4.815363877927918
-5.571667215643577
2.989395164597981
-5.571667215643577
2.989395164597981
8.555276496418784
-34.07276960619385
-42.92406757973727
6.344384935520704
-16.313432446795936
3.818223655517328
-16.313432446795936
3.818223655517328
14.848988816651973
-11.98054014127122
9.313097015424477
-2.626542339626267
-6.780786168721546
2.89438279826181
-6.780786168721546
2.89438279826181
17.35506192845219
-2.069689125322763
16.859037296394956
-1.0701101922449154
2.899911636323603
-4.0955109244866525
2.899911636323603
-4.0955109244866525
-8.406124583117823
2.101848860915344
-4.041665844187111
1.2477004642136968
1.4733845856887995
-0.9218270470644174
1.4733845856887995
-0.9218270470644174
-2.7839103705238797
1.1404625649067504
-0.8049154523297073
0.45948742317973057
12.685061337860809
-42.39584691084668
4.243769051602348
-7.308542634112985
-3.0330890891000326
1.6364209785504849
7.655573147805573
-3.271511890239619
-19.478840021755595
7.117080507516675
-6.45225611375316
2.497488898185463
-6.214316956974247
2.4886492168333327
-1.9071375213577701
0.8322294121592178
-13.830018648108338
3.2248440284277047
2.225690419809052
-1.5223953244226225
-11.033617907602446
3.369938571178332
-0.1805622656918291
2.8656383864382224
1.5577954637192466
-1.2036257853317174
-0.1805622656918291
2.8656383864382224
19.17567889911018
-8.083117501263146
9.39705726867598
-5.000995679036446
4.692442349995222
-2.865108031952241
4.064504356715285
-1.3843058319468289
4.064504356715285
-1.3843058319468289
-12.576665479612403
3.1024007679270613
-12.576665479612403
3.1024007679270613
6.812026599820545
-2.1788778310200954
2.9996695853856217
-0.9809521491125457
-5.899331908858789
2.099027851889773
3.58823677446862
-5.361185713982921
4.736686070443401
-8.09524016531106
2.2758713019905925
-1.7701376084032612
2.179565781178785
-0.4749592884200995
2.179565781178785
-0.4749592884200995
11.288353678935648
-10.494628552394069
-2.276755313092362
1.1603514223490863
-2.276755313092362
1.1603514223490863
-4.871149798812054
2.134497339262105
-12.907481190699663
4.124609513217445
0.19786676738483833
0.18918523296189838
-27.080064087062258
6.819170001312994
-2.0368555964280683
2.13094104321058
-2.9407792555248333
2.7211858968617264
-2.0368555964280683
2.13094104321058
-2.9407792555248333
2.7211858968617264
-2.0368555964280683
2.13094104321058
0.3962295446637637
-0.21065143426019395
0.3962295446637637
-0.21065143426019395
0.3962295446637637
-0.21065143426019395
5.0914155479008105
-4.5878152786760165
7.465379034203413
-4.882228421274107
-5.689773656973964
1.982744913620444
7.268949646964295
-9.105744981174675
7.268949646964295
-9.105744981174675
3.2007875494499256
-1.3226664112549762
3.2007875494499256
-1.3226664112549762
-21.886481836948487
11.442573193427897
13.948180199670118
-3.6917994980653788
-0.8046496604056017
13.610415842000057
3.48976815079081
-9.274544790488152
3.48976815079081
-9.274544790488152
-21.447960269002632
19.13026627838798
-56.33050642141089
16.576921130277167
-32.0662822605193
7.28066645404399
-10.933205997536515
2.838933851407404
-10.933205997536515
2.838933851407404
13.310944679999944
-11.063198330089287
-2.720530036904758
1.7342257074490415
-2.720530036904758
1.7342257074490415
0.5392091849751173
0.2038094481742716
0.5392091849751173
0.2038094481742716
-10.105993201764297
2.938810124810498
-10.105993201764297
2.938810124810498
5.209208365140454
-0.5304718306396929
4.6162326564781715
-12.460281195234563
4.6162326564781715
-12.460281195234563
2.2502858966931973
0.4400153902652688
27.143310818914003
-16.108773301460115
-0.020883573093321228
0.11732532947319507
1.7849552191695026
-0.2797142727123183
5.874454191372408
-1.7167563595117752
4.5953873061245485
-0.5648729926517746
4.5953873061245485
-0.5648729926517746
4.152882176491573
-2.2691815598251903
-7.180576675880695
4.593836668171867
-32.10277578084112
4.0740141580377145
-32.10277578084112
4.0740141580377145
1.0904149829080898
-0.6301620191693381
1.0904149829080898
-0.6301620191693381
-11.367813216755767
10.34559925035227
4.932058171811255
-13.19290435108282
4.932058171811255
-13.19290435108282
20.42878208936046
-3.076806858399922
20.42878208936046
-3.076806858399922
4.5141817271026135
-3.503630579120838
-6.761480779195439
3.309037526101307
-4.171116092127909
1.4712606724132038
5.996425971507387
-5.106851883943149
-1.7554467868404622
0.9876410160928111
-7.2697244027157755
2.315016959343879
-21.82048319354064
9.683238921331823
8.875821984126805
-28.565815902331877
8.875821984126805
-28.565815902331877
6.956587918466743
-2.2495033194541643
-13.741989653828258
3.4209904367964654
-13.741989653828258
3.4209904367964654
-8.030892073069623
3.973211644026597
-7.533454164250031
4.109568060556932
5.849677270560069
-2.58377486206573
-7.533454164250031
4.109568060556932
-3.0059772711089088
1.1851811462724235
-0.8807321739184333
0.49450764771634437
-0.8807321739184333
0.49450764771634437
-21.21078814608045
7.621777159063143
-1.6848720762565077
1.0550444747070005
0.7858060506300313
-0.78184696158287
3.1937270911247397
-5.817622997301058
3.1937270911247397
-5.817622997301058
2.382093455934295
-8.982780360670624
2.382093455934295
-8.982780360670624
2.382093455934295
-8.982780360670624
1.5301867984830364
0.1041260195201077
-32.00282791056685
5.023014380790832
-10.593675744942288
3.9515675146789175
-8.290502319905366
2.3607291120173994
8.141130276028306
-4.924723893290752
-2.9027929923072104
3.0523189997088567
-4.591576987433672
4.877098323523811
-16.19180086737406
6.216923649855092
-16.19180086737406
6.216923649855092
-18.467004360518885
5.5570994480207405
3.8570733550753116
-4.210142371827854
-7.507175265082124
1.5503227472256929
7.383067058352719
-5.272797420218993
7.383067058352719
-5.272797420218993
-6.342109506513962
5.6603981404386055
-16.04483877055947
7.635344931966925
7.469038841976261
-0.8717940146392236
0.3803876112927569
1.9502152457933408
-32.66150772446601
7.663597063522907
-32.66150772446601
7.663597063522907
7.064768391347301
-10.947417487103047
-10.419013545077664
7.615532249863322
13.45854823673008
-9.551023635105183
-10.419013545077664
7.615532249863322
13.45854823673008
-9.551023635105183
-10.419013545077664
7.615532249863322
-0.17454423192409552
0.46769691314901607
-0.17454423192409552
0.46769691314901607
-14.471997602281583
27.557086539757623
10.413957090918158
-8.104292474220994
12.179896613326804
-7.219464779568018
19.80188624995869
-22.133508735730615
19.80188624995869
-22.133508735730615
0.7337911385346887
0.6403170069803042
0.7337911385346887
0.6403170069803042
2.053902675807841
-6.17127663840505
0.7337911385346887
0.6403170069803042
0.7337911385346887
0.6403170069803042
2.053902675807841
-6.17127663840505
2.7019422588537694
-5.23016572096719
2.7019422588537694
-5.23016572096719
-13.144176831991638
4.981860687034933
-13.144176831991638
4.981860687034933
-4.682183247501801
1.5566448118003895
-4.682183247501801
1.5566448118003895
4.94355964656897
-9.681381851090558
-7.265656660948676
2.41000404493429
1.5740917726380192
-0.7018849263132694
5.9523125902658975
-2.808805740975638
-3.1168754896064113
1.1473113452713501
-3.1168754896064113
1.1473113452713501
-4.592772116561687
1.9382687229757192
-4.592772116561687
1.9382687229757192
0.0877003161290899
0.5095393661535073
-12.579734246189489
5.51055615685164
-19.23265675909094
6.055799961386965
-11.458845943816026
6.353616538218642
-11.458845943816026
6.353616538218642
7.62885722326084
-0.20606933902272373
4.312760611468443
-14.424215994379983
4.312760611468443
-14.424215994379983
-4.669666502407091
1.4493142859038128
5.930434984584297
-4.872582649378409
1.8754334042043115
-1.755292004339887
1.8754334042043115
-1.755292004339887
7.934877656132348
-10.287209615069461
7.934877656132348
-10.287209615069461
1.2255964033240963
-1.6541309690132886
1.2255964033240963
-1.6541309690132886
1.8355135732960677
-1.705211738299061
0.20628183065355632
1.7143633457874754
0.20628183065355632
1.7143633457874754
-2.1695710925513474
8.448668862696644
-2.1695710925513474
8.448668862696644
-2.1695710925513474
8.448668862696644
4.943536342345413
-1.6541032116990937
4.943536342345413
-1.6541032116990937
8.791058206809602
-3.002518075722766
8.791058206809602
-3.002518075722766
-42.139361519347496
11.89263997311408
-11.22522301256665
9.492406579721669
4.707160379834928
-1.5339374021918202
4.707160379834928
-1.5339374021918202
6.4970461387656515
-1.7952253350257785
-4.179724063380293
2.7189862239852376
-15.5149702690439
4.723838216722518
-4.952110367689789
7.226461198319498
2.8802268629992396
-5.03081420341943
1.2080081703927512
-1.58290703285713
-4.952110367689789
7.226461198319498
-4.952110367689789
7.226461198319498
-2.4668676780450505
0.9146108978436802
-3.0855108554538213
1.1416201148290872
1.4744188021945146
-0.8295206128928003
-7.163688393242065
3.8728276986523014
-7.163688393242065
3.8728276986523014
-21.49468580083416
12.978104918044728
-4.191428694714167
1.8629926422505367
5.418587394245191
-1.4968929613957689
5.418587394245191
-1.4968929613957689
-3.2491048454084632
1.1069420476894112
-9.014178636168381
1.950281163917334
-9.014178636168381
1.950281163917334
-16.748017721820272
4.718897275872821
-16.748017721820272
4.718897275872821
-8.29125515771368
3.0121989097102126
11.515999175925256
-10.004184005036599
11.515999175925256
-10.004184005036599
5.8624829772157625
-42.012778226047516
5.8624829772157625
-42.012778226047516
3.58686670889662
-3.3156598416207728
3.58686670889662
-3.3156598416207728
5.40009237887115
-0.9731841929866274
15.901493480740749
-12.246945315915877
12.989970987172567
-1.1797207444981967
5.0627275631760345
-1.356160152418142
-9.106070562781401
5.995787792026702
2.0668914082245458
-0.6553539411433855
4.835576720731369
-13.73056040729352
4.835576720731369
-13.73056040729352
-7.905728395510333
2.0997451136608474
7.9685307515474895
-26.90251046702518
8.293373350941334
-18.606327089459764
-5.090585344546785
8.401562103289503
44.161487387574006
-10.600335253725671
-22.78902769151533
3.1387016133059213
-22.78902769151533
3.1387016133059213
-25.4762273241333
10.296416626271595
4.630991521864191
-5.921546769061183
-7.738829861428893
2.4382688218216084
-24.34134945096455
3.379539486654549
-12.484774247350671
4.100959020961516
-31.82194648862321
5.465835623935769
2.9810602901274326
-1.7315307447052746
4.813169681616092
-5.885201010466207
-13.04587075132511
2.758731976837228
-4.34132320746897
4.639909650276254
-4.34132320746897
4.639909650276254
-29.800938069215523
3.1254736842293016
-29.800938069215523
3.1254736842293016
6.26602129801546
-3.1129014945382742
15.999078173567826
-5.3770470808086985
-19.336023331738833
3.5066412263465527
-19.336023331738833
3.5066412263465527
30.20533316165126
-5.825700508967904
30.497985552526725
-5.909558488805515
8.926588493887014
-1.6535100215479728
8.926588493887014
-1.6535100215479728
-29.73599552524879
6.910716379355767
-0.015703270510997624
0.06109088332194945
-12.694758822999784
2.9071756646740896
-20.79020828162548
2.693398315710654
-20.79020828162548
2.693398315710654
-20.79020828162548
2.693398315710654
33.45713994677909
-6.055652148821202
33.45713994677909
-6.055652148821202
4.754181363416099
-1.0568776565465883
8.19858108030331
-34.379382000564306
-15.147209859172195
2.1162766590208433
4.282362624432167
-3.040596110765468
1.053695362110037
-1.475368518551774
1.053695362110037
-1.475368518551774
-5.499748353875511
5.898782383684244
5.001089560086317
-18.87805196275229
1.053695362110037
-1.475368518551774
7.50032007181395
-4.075361971354302
7.50032007181395
-4.075361971354302
17.03243896735621
-4.833167531307119
-3.9491860547332953
1.0600531422720496
-3.9491860547332953
1.0600531422720496
3.327533628523745
-1.502753120172815
-2.8697422128574352
0.9933870435164185
-2.3493843551764355
1.2305402209728875
-2.3493843551764355
1.2305402209728875
4.921531949717626
-7.073365186766234
-0.48780085094813697
0.591607503698748
-9.783892410408539
5.079515544954475
0.1423629092594445
-0.041878515804271155
-9.783892410408539
5.079515544954475
-7.525102570753103
2.2163425195474766
-7.525102570753103
2.2163425195474766
6.217469720137049
-1.4380379685667466
6.217469720137049
-1.4380379685667466
6.217469720137049
-1.4380379685667466
-12.356234921790675
2.966975177773075
-4.66890016481227
2.3663859757773578
-12.356234921790675
2.966975177773075
-2.5934138028654905
1.5671124243620846
-0.024733024887857225
0.16749370244272144
-12.29519683879797
2.37924736742968
-12.29519683879797
2.37924736742968
-11.751345368955773
24.126014605020764
9.29747482686231
-22.835020228864348
1.8050053295255117
-1.8730750798548685
-21.75083805618607
3.413010691555737
-21.75083805618607
3.413010691555737
1.021796268912377
-1.054686667847136
2.5306031474075588
-7.476714787613354
2.68315597361879
-2.5839552607044527
2.5316150745663797
-6.487738791547685
10.40064839913552
-14.933567000766134
4.397360537810918
-8.046586737306184
4.397360537810918
-8.046586737306184
4.814312158273218
-4.520272378380783
2.3635996033265654
-5.498877447669634
3.9207140731638424
-3.004117917570709
3.9207140731638424
-3.004117917570709
14.666283929540576
-2.5574800692614645
15.69749078794606
-2.6367350385912904
-23.519499208473405
1.7605352991107246
-8.023297088308963
8.867054943744128
9.35397091888877
-14.69707095263792
-19.040747425903614
3.721109881910765
0.12953712765493575
0.09597673555370423
0.12953712765493575
0.09597673555370423
-17.64706382762789
4.4801061604151915
1.249468317409379
-0.7668238256495377
-26.084531536623246
3.567010786274239
13.591961938553467
-3.262474976058356
31.225589808920535
-4.544704090962229
31.225589808920535
-4.544704090962229
-29.7478518043088
4.210564637418482
4.58492952679289
-7.22981160801767
4.58492952679289
-7.22981160801767
-19.50211082292976
7.896377619197982
-19.50211082292976
7.896377619197982
-1.753740450949255
6.962009761944639
6.8359670978052005
-7.464392704327614
0.6193084739962325
-0.3926959928657885
3.355500194904793
-2.6827164114893516
-2.088396759021554
1.9064149955143392
5.0203583351554695
-14.608157686222894
-4.147735321109501
1.6678130050165447
-4.147735321109501
1.6678130050165447
-4.773091631202218
1.0830108503100173
7.694902371418052
-0.7989900202022975
7.694902371418052
-0.7989900202022975
0.16093796496739277
0.5254620172622904
9.283093710894237
-9.682544606859752
0.4853107420765932
-0.06763099206432033
-49.79681464004899
6.039641304384133
0.006818932653101517
0.17425418854912766
0.006818932653101517
0.17425418854912766
5.464240912711023
-0.1389935430464062
5.4582433969733675
-4.894268051903139
-4.039772757945222
4.047868966165028
-8.689007748789393
3.506808127235129
-19.75708337318937
6.31945368902477
-3.33670738132792
2.777072236388384
-3.33670738132792
2.777072236388384
-1.289594035842122
1.1894133358115562
-16.381358207301147
3.7922165178346727
1.071310620675451
-0.00964917241400487
1.4136495710719201
-1.356922160154925
-7.473967553039432
8.289110840680395
3.4754416719816215
-0.987973801502962
-2.945558219077876
1.1180929010883478
3.4754416719816215
-0.987973801502962
-2.945558219077876
1.1180929010883478
3.4754416719816215
-0.987973801502962
11.407282333184442
-2.174129733002791
7.774938493716989
-19.551696767006252
1.9635458693421914
-0.9660183113801022
23.92530804215883
-1.5583034420480162
-13.696322132252943
7.692792992258723
-6.281441278358065
3.3713334253354295
-1.450933489173174
0.69189006364401
0.26435782264152774
-0.03232420993789953
0.26435782264152774
-0.03232420993789953
-17.064027937745482
3.022285374387196
5.302793754121748
-1.0752374587485427
-4.940378687859177
2.2280481907666108
-1.4583992415175708
1.0335854170119325
1.8439029573413528
-1.3148057929983286
6.317346268864112
-6.4956417429537705
1.8721225219101876
-1.7157491132979523
5.705564478127933
-25.313831919723324
-35.974867852623824
8.262932166783967
8.162123382907707
-2.261721160496899
8.162123382907707
-2.261721160496899
8.162123382907707
-2.261721160496899
7.531523098983557
-15.821068111064816
8.1737122640662
-37.94150964127113
2.0402222517193938
-1.6980984685967153
2.0402222517193938
-1.6980984685967153
-20.808996973818157
11.45054348871939
10.10250609586875
-12.407775276636585
0.8555772943069251
-0.21206863477437832
0.8555772943069251
-0.21206863477437832
10.977165005828718
-3.1290429109260085
7.631472247431067
-6.872311245535909
2.6434620543094836
-15.591131202237616
0.4051298387453641
1.977504532636032
2.6434620543094836
-15.591131202237616
2.6434620543094836
-15.591131202237616
2.6434620543094836
-15.591131202237616
-7.855393394311405
6.4317087961989525
1.3550403632660877
-1.9697804702219486
-5.722576953659425
6.159298661557897
-21.032557160015074
8.49772863362207
-2.3115144193089296
0.9075780600703165
-2.3115144193089296
0.9075780600703165
-0.17654995992540168
5.023915474680582
-5.274570012921821
27.48559830083647
-0.6536054330596919
6.457599112655697
-0.6536054330596919
6.457599112655697
-8.327649761977252
3.6821114983084176
-8.327649761977252
3.6821114983084176
-2.126280013519285
0.8490278899685815
-2.7565549174049875
2.995259018303302
-2.7565549174049875
2.995259018303302
-32.23874021849184
5.017857221928542
-32.23874021849184
5.017857221928542
-3.9651853625177145
2.171335110362075
-27.346312757080067
6.107059079123263
-3.9651853625177145
2.171335110362075
-27.346312757080067
6.107059079123263
-3.9651853625177145
2.171335110362075
5.56148073165692
-4.997373850891991
2.4486338502748968
-3.2870720819458605
2.4486338502748968
-3.2870720819458605
-16.74614072998791
20.759072228484076
-16.604507466403533
2.480040300891752
4.520010915947609
-4.868407335059709
-25.37745757531005
5.646914529430739
0.5286188380370587
-0.2261299204850764
0.5286188380370587
-0.2261299204850764
-13.280028388025773
2.7719442280713436
-13.280028388025773
2.7719442280713436
8.989709055358112
-9.52626138889487
0.5548462292961469
-0.21606766912535846
9.196196754576377
-6.1469115843665545
7.285872890012495
-6.171348981204047
17.541793700006565
-6.405203310486406
-3.6760979431494865
1.1356920019486025
-3.6760979431494865
1.1356920019486025
-19.098640400378
7.408360443320923
13.57044714353243
-11.909473441743954
4.0304724497131135
-5.612015297318564
4.0304724497131135
-5.612015297318564
-21.676525799449227
4.318002373211742
0.10406991030632373
-0.07394771125874688
0.10406991030632373
-0.07394771125874688
0.10406991030632373
-0.07394771125874688
-4.3715450202373995
2.0160102761635317
-4.3715450202373995
2.0160102761635317
13.835372231953567
-3.215189810321593
-7.727617979773813
1.8051435554215927
0.8800755451394833
0.34820507388662825
14.37563052576477
-22.588987632393707
2.8124228831354303
-1.5878547305915374
2.8124228831354303
-1.5878547305915374
-3.377007454272751
1.130877851478593
8.739858770160692
-14.379467302027406
8.739858770160692
-14.379467302027406
1.5944124655348872
-0.3323832975174863
1.5944124655348872
-0.3323832975174863
7.191658031773759
-5.214760490427102
7.191658031773759
-5.214760490427102
-1.3733705839144106
0.6631404648630392
17.196477723828313
-4.815446063604047
-1.1259717504121998
1.8624862065207035
-8.94880868600073
2.0674847256985385
5.508217674239547
-3.928652710787289
5.339274878551283
0.6578908723608503
-6.630989519964215
2.026677092015886
-6.630989519964215
2.026677092015886
-15.899994046164625
4.487313182357038
-15.899994046164625
4.487313182357038
1.5767763330671178
-1.233701327358653
1.5767763330671178
-1.233701327358653
11.177103321870026
-3.225117618993369
2.098115660688114
-1.9162006424372293
23.82142002817791
-2.7878373753260033
-0.17001943330926994
1.0674226914347213
-0.17001943330926994
1.0674226914347213
-0.17001943330926994
1.0674226914347213
-0.17001943330926994
1.0674226914347213
-0.17001943330926994
1.0674226914347213
-0.17001943330926994
1.0674226914347213
-0.17001943330926994
1.0674226914347213
0.6117555870859622
0.14561163866032123
12.698081225547455
-5.581153407556368
-13.906545861199618
3.0196343220610253
-6.442891562590807
3.457863898631695
-6.442891562590807
3.457863898631695
6.569264509605038
-5.593923470566748
-1.621372806576791
0.6985732291347189
-1.621372806576791
0.6985732291347189
6.271511906076315
-3.1480729879252594
4.34284508598811
-5.652999267199958
-0.7118662629681003
0.6447003145485835
18.211480530880973
-44.430059049278285
10.830814707687347
-9.186215742969468
11.598207742871145
-3.641950731588373
11.598207742871145
-3.641950731588373
-7.119536229175383
3.04420205772731
-7.119536229175383
3.04420205772731
20.708473438336565
-20.725199577585105
-24.270199657750975
4.104814580809929
-22.588827957468602
7.444096106814232
-22.588827957468602
7.444096106814232
-22.588827957468602
7.444096106814232
-11.988741539896447
2.3302315556444664
-11.988741539896447
2.3302315556444664
9.397581265970699
-1.701455933047538
9.397581265970699
-1.701455933047538
2.407316282065926
-0.5382917341332497
4.927795352848705
-4.255956697365846
-2.23113267637561
1.3850639424099456
-2.23113267637561
1.3850639424099456
-14.208832149211146
2.095193212551153
30.45969112768463
-4.251862472094906
13.783091710895143
-4.785262987065628
13.783091710895143
-4.785262987065628
2.4717587501181137
-0.8185959234040141
10.968710902851752
-1.9810317423008965
4.540524101054776
-9.810067143052516
-21.191672626689858
4.48645346839502
20.94525724070472
-22.882775776518383
3.95077858295642
-3.7186015879714818
3.95077858295642
