GIS
26
0.0
35
GEN-AFF:Citizen-Resident-Religion-Ethnicity
PART-WHOLE:Subsidiary-1
ORG-AFF:Ownership
PER-SOC:Business
ORG-AFF:Employment-1
GEN-AFF:Citizen-Resident-Religion-Ethnicity-1
ORG-AFF:Founder-1
ORG-AFF:Membership-1
PART-WHOLE:Geographical-1
ART:User-Owner-Inventor-Manufacturer
ORG-AFF:Membership
PART-WHOLE:Geographical
PHYS:Located-1
PER-SOC:Family
PHYS:Near-1
GEN-AFF:Org-Location-1
ART:User-Owner-Inventor-Manufacturer-1
PART-WHOLE:Artifact-1
PER-SOC:Family-1
PER-SOC:Business-1
PART-WHOLE:Artifact
ORG-AFF:Employment
ORG-AFF:Student-Alum-1
PER-SOC:Lasting-Personal
ORG-AFF:Founder
PHYS:Located
PART-WHOLE:Subsidiary
PHYS:Near
ORG-AFF:Ownership-1
ORG-AFF:Investor-Shareholder-1
GEN-AFF:Org-Location
ORG-AFF:Sports-Affiliation-1
ORG-AFF:Student-Alum
PER-SOC:Lasting-Personal-1
ORG-AFF:Investor-Shareholder
398
15 0
3 0 1 2 3 4 5 6 7 8 9 10 11 12 13 14 15 16 17 18 19 20 21 22 23 24 25 26 27 28 29 30 31 32 33 34
1 0 1 2 3 4 5 6 7 8 9 10 11 12 13 14 15 16 17 18 19 20 21 22 23 24 25 26 27 28 29 30 31 32 34
1 0 1 2 3 4 5 6 7 8 9 10 11 12 13 15 16 17 18 19 21 23 24 25 26 27 28 29 30 31 32
1 0 1 2 3 4 5 6 7 8 9 10 11 12 14 15 16 19 21 22 24 25 27 28 29 30 31 34
1 0 1 2 3 4 5 6 7 8 9 10 11 13 15 16 18 21 22 23 29 30 32
1 0 1 2 3 4 5 7 8 9 10 11 12 13 14 15 16 17 18 19 20 21 22 23 24 25 26 27 29 30 31
1 0 1 2 3 4 5 7 8 9 10 11 12 13 14 15 16 17 19 20 21 22 25 26 28 30 31 33
1 0 1 2 3 4 5 7 8 9 10 11 12 13 14 15 16 18 19 21 22 23 24 25 26 28 30 32
1 0 1 2 3 4 5 7 8 9 10 11 13 15 16 22 30 31
1 0 1 2 3 4 5 7 8 9 10 12 13 15 18 21 23
1 0 1 2 3 4 5 7 8 9 10 13 16 22 23 25 27 29 30
1 0 1 2 3 4 5 7 9 13 15 24
1 0 1 2 3 4 5 8 9 13 15 19 23 29
1 0 1 2 3 4 5 9 10 13 15 16 18 23
1 0 1 2 4 5 6 7 8 9 10 11 12 14 15 16 19 21 22 24 26 27 28 30
1 0 1 2 4 5 7 8 9 11 12 13 14 15 25
1 0 1 2 4 10 13 15 18 24 25
1 0 1 3 4 5 6 7 9 10 12 13 15 18 21 23 25 29 32
2 0 1 3 4 5 6 8 9 10 13 15 18 23 26
1 0 1 3 4 5 7 8 9 10 11 13 15 16 18 21 23 25 26 32
1 0 1 3 4 5 7 8 9 10 13 15 18 22 23 25 30 32
1 0 1 3 4 5 7 9 10 13 15 16 22 23 25 26 27 28 31
1 0 1 3 4 5 8 9 12 13 14 15 16 19 21 23
1 0 1 3 4 5 8 9 13 15
1 0 1 3 4 5 8 9 13 15 19 23 24 31
1 0 1 3 4 5 8 9 13 15 26 34
1 0 1 4 5 7 8 9 10 11 12 15 19 20 22 31 34
1 0 1 4 5 7 8 9 11 13 18 23 25 30
1 0 1 4 5 7 8 13 23
1 0 1 4 5 7 12 13 15 31
1 0 1 4 5 7 15 26
1 0 1 4 5 8 9 10 15 19
2 0 1 4 5 9 15
1 0 1 4 7 8 9 15 22 29
1 0 1 4 9
1 0 1 4 13 15 23
1 0 1 5
1 0 1 5 9 10
2 0 1 5 10 15
1 0 1 8 9 15 18
2 0 1 10 15 21 24
6 0 2 3 4 5 7 10 13 18 19 23 33
2 0 2 3 4 7 8 9 10 11 13 15 18 19 23 25 26 30 31 32
1 0 2 3 4 13
2 0 2 3 9 10 13 18 19 21 23 24
2 0 2 3 9 10 13 18 21 23
3 0 2 3 13 18 19 23
5 0 2 9 10 15 21 24 32 34
1 0 2 9 10 21 24 32 34
1 0 2 10 15 21 32
1 0 2 10 15 24 34
1 0 2 10 21 24 32
2 0 3 4 5 7
1 0 3 4 5 7 8 9 13 16 22 23
2 0 3 4 5 7 10 13 18 19 23 33
1 0 3 4 5 8 9 13
1 0 3 5 9 13 32
1 0 3 5 13 18 19 23
1 0 3 5 13 18 19 23 33
2 0 3 9 10 11 13 19 21 23 25 26 32
1 0 3 9 12 15 27
2 0 3 13 18 19 23
2 0 4 5
2 0 4 5 7
1 0 4 5 7 8 9 13 23
1 0 4 5 7 9 13 15
1 0 4 5 7 10 19
2 0 4 5 7 23
1 0 4 5 9 13
1 0 4 5 10 15 21
2 0 4 5 12
2 0 4 5 19
1 0 4 8 9 13
1 0 4 9
1 0 4 9 10
1 0 4 9 19
1 0 4 13 23
1 0 4 16 21
10 0 5
1 0 5 7
1 0 5 9 10
1 0 5 10
1 0 5 10 15 21
1 0 7
3 0 7 8 21 25
1 0 7 8 25
6 0 8
2 0 8 9 25
2 0 8 14
2 0 8 21
2 0 8 30
6 0 9
2 0 9 10
6 0 9 10 21 24 25
1 0 9 21 25
1 0 9 25
3 0 10
2 0 10 21
2 0 10 21 24
1 0 10 21 24 25
1 0 10 21 25
1 0 10 24
2 0 11 14
2 0 11 14 27
1 0 11 25
1 0 11 30
3 0 13 18 23
1 0 13 23
1 0 15 21 34
2 0 21
1 0 21 24
7 0 21 25
1 0 23
9 0 25
2 0 30
27 1
1 1 2 3 4 5 8 9 13 15 18 21 23
2 1 2 3 4 15
1 1 2 4 5 8 10 13 18 21 23 32
2 1 2 4 10 15 24
2 1 2 10 15
4 1 2 15
2 1 2 15 16 21 26
1 1 3 4
1 1 3 4 5 6 7 8 9 10 12 13 15 19 23 27
1 1 3 4 5 6 7 9 11 13 15 18 21 23
1 1 3 4 5 7 8 9 12 13 15 18 23 26
1 1 3 4 5 7 8 9 13
1 1 3 4 5 7 8 10 13 16 21 28
1 1 3 4 5 7 9 10 13 19 21 23
1 1 3 4 5 7 9 12 13 16 23
1 1 3 4 5 8 9 12 13 15 16 17 21 22 23 28
1 1 3 4 5 9
1 1 3 4 5 10 12 15 21
1 1 3 4 5 13 15 18
1 1 3 4 5 21 31
1 1 3 4 7 9 13 18 23 28 31
1 1 3 8 9 11 13 16 21 26
1 1 3 15 21
18 1 4
7 1 4 5
5 1 4 5 6 7 16 22 28 29 31
1 1 4 5 6 7 22 28 29 31
4 1 4 5 7
1 1 4 5 7 8 9 10 11 12 14 15 21 25 27 32
2 1 4 5 7 8 9 12 13 16 17 27 28 29 30
1 1 4 5 7 8 9 29
2 1 4 5 7 9
1 1 4 5 7 9 19 21
1 1 4 5 7 22 28 29 31
2 1 4 5 8 9
4 1 4 5 8 9 12 15
1 1 4 5 8 9 13
7 1 4 5 8 9 15
1 1 4 5 8 11 12 15
1 1 4 5 8 14
8 1 4 5 8 15
4 1 4 5 9
1 1 4 5 9 13 28
7 1 4 5 9 15
1 1 4 5 10 15 16
1 1 4 5 12
2 1 4 5 12 15 21
4 1 4 5 15
1 1 4 5 16 22
2 1 4 5 26
6 1 4 7
5 1 4 7 8 9 10 26 29
2 1 4 7 9
2 1 4 7 9 12
2 1 4 7 9 15
2 1 4 7 9 30
1 1 4 7 10 15 19
2 1 4 7 16 26
1 1 4 7 26
1 1 4 7 31 33
4 1 4 8
2 1 4 8 9
1 1 4 8 9 12
1 1 4 8 10 26
1 1 4 8 11 15
2 1 4 8 15
3 1 4 9
1 1 4 9 12
1 1 4 9 15
1 1 4 12
1 1 4 13
1 1 4 13 18
14 1 4 15
1 1 4 15 26
1 1 4 22
2 1 4 34
2 1 5 8 9
2 1 5 15
4 1 7
1 1 7 9
1 1 7 10
3 1 7 10 26
1 1 7 30
4 1 8 9
6 1 8 9 14
2 1 8 9 15
2 1 8 11 12 14
2 1 8 14
1 1 8 15
1 1 8 26
12 1 9
2 1 9 10 15
2 1 9 15
2 1 9 21
3 1 10
1 1 10 29
47 1 15
2 1 15 21
1 1 26
2 1 26 29
2 1 29
2 2 3 9 13 18 23 25
1 2 3 13 18 23
1 2 4 13 21 22
1 2 9 10 21 24
1 2 9 10 21 24 32
2 2 9 21
2 2 10
1 2 10 15 26 32
2 2 10 21 24
1 2 10 24
3 2 21
15 3
16 3 4
6 3 4 5
1 3 4 5 6 13 18 23
2 3 4 5 7
1 3 4 5 7 9 10 12 13 15 23
2 3 4 5 7 13 16 19
1 3 4 5 8 13
2 3 4 5 23
4 3 4 7
1 3 4 7 9 10 13 23
1 3 4 7 13 15
1 3 4 7 13 18 19 23 31
1 3 4 9 13
1 3 4 9 13 21
1 3 4 9 13 23
2 3 4 12
1 3 4 13 18
2 3 4 16
7 3 4 19
1 3 4 22
2 3 4 23
6 3 5
2 3 5 7 8
1 3 5 13 18 19 23
2 3 5 23
1 3 8 13
1 3 9
1 3 9 10 13 15 18
1 3 9 13 22 23
2 3 10 19 24
3 3 13
4 3 13 18 23
1 3 13 19
3 3 13 19 23
2 3 13 23
2 3 16
4 3 19
5 3 23
2 3 23 33
198 4
64 4 5
4 4 5 6 7
2 4 5 6 7 16 22 28 29 31
10 4 5 7
1 4 5 7 8 10 31
1 4 5 7 9
1 4 5 7 15
1 4 5 7 19
1 4 5 8 9 13
1 4 5 8 13 15
2 4 5 8 15
5 4 5 9
1 4 5 9 12 13 19 23
1 4 5 9 13 23 32
4 4 5 9 15
26 4 5 12
2 4 5 13
1 4 5 13 15 21 32
4 4 5 15
3 4 5 16
1 4 5 19
1 4 5 23
1 4 5 31
1 4 6
2 4 6 7
2 4 6 7 16 28 29
1 4 6 7 28 31
1 4 6 13 16
50 4 7
1 4 7 8
1 4 7 8 15
5 4 7 9
1 4 7 12
1 4 7 12 13 16 28
1 4 7 13
3 4 7 15
1 4 7 28 31
1 4 7 31
3 4 8
2 4 8 9 22 26
2 4 8 15
2 4 8 16
12 4 9
1 4 9 10 13
2 4 9 13
1 4 9 13 15
1 4 9 13 15 22
1 4 9 13 23
1 4 9 16
3 4 12
1 4 12 13 15
1 4 13
1 4 13 16
1 4 13 16 31
2 4 13 23
1 4 13 24
1 4 13 25
6 4 15
2 4 19
4 4 22
2 4 22 23 31
1 4 28 29
1 4 28 31
21 5
3 5 7
1 5 7 8
2 5 7 12
2 5 7 19
3 5 8
6 5 8 11
2 5 8 11 12
3 5 8 15
2 5 9 16
15 5 12
3 5 13
1 5 13 16
2 5 13 18
2 5 13 22 23
2 5 13 23
1 5 13 28
2 5 18
2 5 23
2 6
4 6 7
4 7
1 7 9 15
6 7 30
51 8
16 8 9
1 8 9 14
12 8 11
10 8 11 14
12 8 11 14 27
7 8 14
2 8 15
1 8 15 17
1 8 25
1 8 27
153 9
1 9 13
2 9 15 26 32
1 9 17
1 9 22 23 24
10 9 25
5 10
2 10 13 19 21
1 10 13 23
2 10 15
2 10 15 21
5 10 21
1 10 21 24
1 10 21 26 32
1 10 21 32
3 10 24
1 11 14 27
9 12 16
76 13
35 13 18
1 13 18 23
1 13 19
10 13 23
9 15
10 16
3 19
1 22
2 22 23
8 23
1 32
1688
hm12=his:country
ethm=poss-1:PERSON:country
hmhm=poss-1:his:country
hm12=his:people
hmhm=poss-1:his:people
wm2=world
hm2=world
hm12=Arab:world
hmet=Arab:LOCATION
ethm=PERSON:world
hmhm=Arab:world
hmhm=nameMod-1:Kurdish:fighters
hm12=your:country
hmhm=poss-1:your:country
et1sub2sub=Group:Population-Center
wbnull
#wb=0
chpbnull
not_a_relative
ml12=PRO:NOM
ml12=NAM:NOM
bm1f=of
am2f=,
ml12=NOM:NOM
am2f=.
am2f=in
am2f=is
bm1f=and
bm1f=by
am2f=for
bm1f=for
bm1f=the
bm1f=in
ml12=PRO:NAM
bm1f=.
wm1=our
hm1=our
am2f=and
bm1f=to
bm1f=,
am2f=of
am2f=as
bm1f=with
am2f=that
bm1f=a
bm1f=on
am2f=from
am2f=who
bm1f='s
am2f=with
wm1=american
hm1=american
bm1f=other
am2f=)
bm1f=or
wm1=Muslim
wm1=Shiite
wm2=groups
hm2=groups
am2f=after
wm2=government
hm2=government
et12=PERSON:PERSON
et12+m1>m2=PERSON:PERSON:true
et12+m1<m2=PERSON:PERSON:false
hm12+m1>m2=PERSON:PERSON:true
hm12+m1<m2=PERSON:PERSON:false
et12sub=PERSON:Group
wm1=their
hm1=their
am2f=--
wm1=his
hm1=his
wm1=my
hm1=my
et1sub2=Individual:PERSON
etet=poss-1:PERSON:PERSON
et1sub2sub=Individual:Group
et12=PERSON:ORGANIZATION
et12+m1>m2=PERSON:ORGANIZATION:true
et12+m1<m2=PERSON:ORGANIZATION:false
hm12+m1>m2=PERSON:ORGANIZATION:true
hm12+m1<m2=PERSON:ORGANIZATION:false
et1sub2=Individual:ORGANIZATION
et1sub2=Group:ORGANIZATION
etet=nameMod-1:PERSON:ORGANIZATION
etet=PERSON:ORGANIZATION
wm2=troops
hm2=troops
am2f=are
et1sub2=Group:PERSON
et1sub2sub=Group:Group
bm1f=all
bm1f=is
et12sub=PERSON:Individual
etet=PERSON:PERSON
wm1=your
hm1=your
#wb=1
hmet=poss-1:his:PERSON
et1sub2sub=Individual:Individual
wm1=Arab
bm1f=Some
wm2=fighters
hm2=fighters
bm1f=--
bm1f=)
etet=nameMod-1:PERSON:PERSON
wm2=people
hm2=people
am2f=since
wm1=Kurdish
wm2=community
hm2=community
wm2=men
hm2=men
am2f=took
am2f=moved
am2f=also
am2f=can
bm1f=what
ml12=NOM:NAM
hm12=Kurdish:fighters
hmet=Kurdish:PERSON
hm1=Arab
wm1=Jewish
hm1=Jewish
ethm=PERSON:fighters
hmhm=Kurdish:fighters
hm1=Muslim
wm2=clerics
hm2=clerics
wm1=Islamic
hm1=Shiite
hmet=nameMod-1:Kurdish:PERSON
hm1=Kurdish
ethm=nameMod-1:PERSON:fighters
wm2=state
hm2=state
wm2=states
hm2=states
wm2=city
hm2=city
wm2=neighborhood
hm2=neighborhood
wm2=nation
hm2=nation
wm2=home
hm2=home
wm2=town
hm2=town
wm2=countries
hm2=countries
wm2=country
hm2=country
et12sub=PERSON:Population-Center
wm1=own
hm1=own
wm2=station
hm2=station
et1sub2sub=Individual:Population-Center
wm1=terrorist
hm1=terrorist
et12=PERSON:GPE
et12+m1>m2=PERSON:GPE:true
et12+m1<m2=PERSON:GPE:false
hm12+m1>m2=PERSON:GPE:true
hm12+m1<m2=PERSON:GPE:false
et1sub2=Individual:GPE
etet=PERSON:GPE
ethm=poss-1:PERSON:home
et1sub2sub=Group:Non-Governmental
wm2=militia
hm2=militia
hmet=poss-1:his:GPE
ethm=poss-1:PERSON:government
et12sub=PERSON:Non-Governmental
et1sub2sub=Individual:Nation
et12sub=PERSON:Nation
etet=poss-1:PERSON:GPE
hmet=his:ORGANIZATION
wm2=region
hm2=region
wm2=area
hm2=area
hmet=poss-1:your:GPE
hmet=poss-1:their:GPE
wm1=Her
hm1=Her
hmet=poss-1:Her:PERSON
ml12=PRO:PRO
et12sub=PERSON:Media
hm12=his:state
hmhm=poss-1:his:state
etet=nameMod-1:PERSON:GPE
et12sub=PERSON:State-or-Province
et1sub2sub=Individual:State-or-Province
ethm=poss-1:PERSON:state
et1sub2=Group:GPE
et12+m1>m2=PERSON:GPE:false
hm12+m1>m2=PERSON:GPE:false
et1sub2sub=Group:Nation
ethm=poss-1:PERSON:people
et12=PERSON:LOCATION
et1sub2=Group:LOCATION
et12+m1>m2=PERSON:LOCATION:true
et12+m1<m2=PERSON:LOCATION:false
hm12+m1>m2=PERSON:LOCATION:true
hm12+m1<m2=PERSON:LOCATION:false
etet=PERSON:LOCATION
et12sub=PERSON:Region-General
et1sub2sub=Group:Region-General
hm12=their:country
hmhm=poss-1:their:country
ethm=GPE:military
hmet=u.s:ORGANIZATION
ethm=GPE:police
et1sub2=Non-Governmental:ORGANIZATION
et1sub2sub=Non-Governmental:Non-Governmental
ethm=nameMod-1:GPE:army
wm2=Army
hm2=Army
ethm=GPE:Army
hmhm=Iraqi:military
hm12=U.S:Army
hmhm=U.S:Army
am2f=spokesman
wm2=Foreign
hmet=its:ORGANIZATION
wm2=navy
hm2=navy
ethm=nameMod-1:GPE:navy
wm2=Security
hm2=Security_Council
ethm=ORGANIZATION:Security_Council
hmhm=U.S:military
wm2=ministry
hm2=ministry
hmet=North_Korean:ORGANIZATION
am2f=forces
hmhm=nameMod-1:Iraqi:army
am2f=had
wm2=unit
hm2=unit
am2f='s
wm2=administration
hm2=administration
wm2=regime
hm2=regime
wm2=business
hm2=business
wm2=companies
hm2=companies
wm2=company
hm2=company
am2f=says
am2f=to
bm1f=that
am2f=have
am2f=on
am2f=will
am2f=has
am2f=were
bm1f=from
am2f=today
bm1f=said
am2f=said
bm1f=And
bm1f=as
bm1f=at
am2f=gave
hm12=U.S:forces
hmhm=nameMod-1:U.S:forces
wm1=United
hm12=Iraqi:military
wm1=States
hm1=United_States
ethm=nameMod-1:ORGANIZATION:units
wm2=police
hm2=police
wm1=u.n.
hm1=u.n
bm1f=many
ethm=GPE:force
wm1=Indonesian
hm1=Indonesian
hmet=state:ORGANIZATION
ethm=nameMod-1:GPE:police
bm1f=retired
wm2=force
hm2=force
wm1=british
hm1=british
bm1f=''
wm1=Florida
hm1=Florida
et12=ORGANIZATION:PERSON
et12+m1>m2=ORGANIZATION:PERSON:true
et12+m1<m2=ORGANIZATION:PERSON:false
hm12+m1>m2=ORGANIZATION:PERSON:true
hm12+m1<m2=ORGANIZATION:PERSON:false
etet=nameMod-1:ORGANIZATION:PERSON
et1sub2=Government:PERSON
et1sub2sub=Government:Group
bm1f=some
bm1f=top
ml12=NAM:NAM
wm1=its
hm1=its
bm1f=an
wm1=Republican
wm1=Guard
bm1f=A
et12sub=ORGANIZATION:Group
wm1=Chinese
hm1=Chinese
wm1=Iraqi
hm1=Iraqi
wm1=Palestinian
hm1=Palestinian
bm1f=-
wm1=British
hm1=British
wm1=American
wm1=iraqi
hm1=iraqi
wm1=Russian
hm1=Russian
wm1=New
am2f=last
et12=GPE:ORGANIZATION
et12+m1>m2=GPE:ORGANIZATION:true
et12+m1<m2=GPE:ORGANIZATION:false
hm12+m1>m2=GPE:ORGANIZATION:true
hm12+m1<m2=GPE:ORGANIZATION:false
et1sub2=Nation:ORGANIZATION
nationality_et2=ORGANIZATION
etet=nameMod-1:GPE:ORGANIZATION
wm1=u.s.
hm1=u.s
wm1=israeli
hm1=israeli
am2f=a
wm1=U.S.
hm1=U.S
hm1=American
wm1=US
hm1=US
wm1=Israeli
hm1=Israeli
bm1f=The
bm1f=three
wm2=forces
hm2=forces
et12sub=GPE:Government
et1sub2sub=Nation:Government
hmet=nameMod-1:Iraqi:ORGANIZATION
wm2=Republican
bm1f=old
wm2=division
hm2=division
hmet=nameMod-1:Republican_Guard:PERSON
et1sub2sub=Government:Government
wm1=House
wm2=divisions
hm2=divisions
ethm=nameMod-1:ORGANIZATION:team
et12=ORGANIZATION:ORGANIZATION
et12+m1>m2=ORGANIZATION:ORGANIZATION:true
et12+m1<m2=ORGANIZATION:ORGANIZATION:false
hm12+m1>m2=ORGANIZATION:ORGANIZATION:true
hm12+m1<m2=ORGANIZATION:ORGANIZATION:false
hm1=Republican_Guard
et1sub2=Government:ORGANIZATION
wm1=coalition
hm1=coalition
wm1=U.N.
hm1=U.N
wm1=military
hm1=military
am2f=would
wm2=team
hm2=team
et12sub=ORGANIZATION:Government
bm1f=former
wm1=Turkish
hm1=Turkish
wm1=European
hm1=European
wm1=state
hm1=state
wm1=North
etet=ORGANIZATION:ORGANIZATION
wm1=York
et1sub2=Population-Center:ORGANIZATION
hm1=New_York
wm1=army
hm1=North_Korean
hm1=army
am2f=at
wm1=Korean
bm1f=Four
bm1f=seen
bm1f=how
ethm=nameMod-1:GPE:forces
etet=GPE:ORGANIZATION
country_et2=ORGANIZATION
wm2=military
hm2=military
ethm=nameMod-1:GPE:military
wm2=units
hm2=units
et1sub2=State-or-Province:ORGANIZATION
et1sub2sub=Population-Center:Government
et1sub2sub=State-or-Province:Government
hmet=nameMod-1:U.S:ORGANIZATION
bm1f=new
etet=poss-1:GPE:ORGANIZATION
hmet=poss-1:our:ORGANIZATION
wm1=University
wm2=service
hm2=service
wm1=Kuwaiti
hm1=Kuwaiti
et12sub=GPE:Non-Governmental
et1sub2sub=Nation:Non-Governmental
hm12=Republican_Guard:divisions
ethm=nameMod-1:ORGANIZATION:divisions
hmhm=nameMod-1:Republican_Guard:divisions
hm1=House
etet=nameMod-1:ORGANIZATION:ORGANIZATION
am2f=members
et12sub=ORGANIZATION:Sports
et1sub2=Sports:ORGANIZATION
et1sub2sub=Sports:Sports
wm1=Party
etet=nameMod-1:GPE:FACILITY
hmet=poss-1:its:FACILITY
wm2=plant
hm2=plant
et12=GPE:FACILITY
et12+m1>m2=GPE:FACILITY:true
et12+m1<m2=GPE:FACILITY:false
hm12+m1>m2=GPE:FACILITY:true
hm12+m1<m2=GPE:FACILITY:false
et12sub=GPE:Building-Grounds
wm2=bureau
hm2=bureau
wm1=baghdad
hm1=baghdad
et1sub2=Population-Center:FACILITY
et1sub2sub=Population-Center:Building-Grounds
hmet=nameMod-1:Russian:ORGANIZATION
et1sub2=Educational:ORGANIZATION
bm1f=abandoned
et12=ORGANIZATION:FACILITY
et12sub=ORGANIZATION:Building-Grounds
et12+m1>m2=ORGANIZATION:FACILITY:true
et12+m1<m2=ORGANIZATION:FACILITY:false
hm12+m1>m2=ORGANIZATION:FACILITY:true
hm12+m1<m2=ORGANIZATION:FACILITY:false
et1sub2=Commercial:FACILITY
et1sub2sub=Commercial:Building-Grounds
etet=poss-1:ORGANIZATION:FACILITY
wm1=Carnival
hm1=Carnival
wm2=department
hm2=department
wm2=court
hm2=court
wm2=office
hm2=office
et12sub=ORGANIZATION:Non-Governmental
wm2=program
hm2=program
et1sub2=Commercial:ORGANIZATION
hmet=Iraqi:ORGANIZATION
hmet=U.S:ORGANIZATION
wm2=Central
wm2=Command
hm2=Central_Command
hm12=U.S:Central_Command
ethm=GPE:Central_Command
hmhm=U.S:Central_Command
et12sub=GPE:Media
et1sub2sub=Nation:Media
hmet=nameMod-1:iraqi:ORGANIZATION
et12+m1>m2=GPE:ORGANIZATION:false
hm12+m1>m2=GPE:ORGANIZATION:false
wm2=media
hm2=media
ethm=nameMod-1:GPE:media
et12sub=GPE:Commercial
et1sub2sub=Nation:Commercial
et12=LOCATION:ORGANIZATION
et12+m1>m2=LOCATION:ORGANIZATION:true
et12+m1<m2=LOCATION:ORGANIZATION:false
hm12+m1>m2=LOCATION:ORGANIZATION:true
hm12+m1<m2=LOCATION:ORGANIZATION:false
wm2=Council
et1sub2=Special:ORGANIZATION
ethm=nameMod-1:GPE:court
hm12=U.S:military
hm12=Iraqi:army
ethm=GPE:army
wm2=club
hm2=club
wm2=television
hm2=television
ethm=nameMod-1:GPE:television
hmhm=nameMod-1:U.S:military
ethm=nameMod-1:GPE:companies
hm12=Russian:companies
hmhm=nameMod-1:Russian:companies
wm2=giants
hm2=giants
hmet=nameMod-1:British:ORGANIZATION
ethm=nameMod-1:GPE:government
am2f=chief
hmet=nameMod-1:Israeli:ORGANIZATION
etet=LOCATION:ORGANIZATION
et1sub2=Region-General:ORGANIZATION
et1sub2sub=Population-Center:Non-Governmental
wm2=army
hm2=army
et1sub2sub=Educational:Sports
etet=poss-1:ORGANIZATION:ORGANIZATION
et12sub=ORGANIZATION:Commercial
et1sub2sub=Commercial:Commercial
hmet=poss-1:its:ORGANIZATION
wm1=her
hm1=her
hmet=poss-1:my:PERSON
bm1f=think
hmet=poss-1:his:ORGANIZATION
etet=poss-1:PERSON:ORGANIZATION
et12sub=PERSON:Commercial
et1sub2sub=Individual:Commercial
wm1=Clinton
hm1=Clinton
hmet=poss-1:their:ORGANIZATION
et12sub=PERSON:Government
et1sub2sub=Individual:Government
ethm=nameMod-1:PERSON:administration
ethm=poss-1:PERSON:company
hm12=his:company
hmhm=poss-1:his:company
wm2=cabinet
hm2=cabinet
ethm=poss-1:PERSON:cabinet
hm12=his:cabinet
hmhm=poss-1:his:cabinet
am2f=next
hm12=your:cabinet
hmhm=poss-1:your:cabinet
wm2=Cabinet
hm2=Cabinet
ethm=PERSON:Cabinet
ethm=poss-1:PERSON:lawyer
wm2=boss
hm2=boss
ethm=poss-1:PERSON:boss
wm1=Our
hm1=Our
wm2=marines
hm2=marines
wm2=secretary
hm2=secretary
wm2=chief
hm2=chief
wm2=minister
hm2=minister
wm2=attorney
hm2=attorney
am2f=Vladimir
wm2=ministers
hm2=ministers
hmet=poss-1:Our:PERSON
wm2=analyst
hm2=analyst
bm1f=against
wm2=lawyer
hm2=lawyer
am2f=get
hmet=poss-1:our:PERSON
wm2=commanders
hm2=commanders
am2f=was
wm2=members
hm2=members
am2f=(
wm2=counterpart
hm2=counterpart
wm2=spokesman
hm2=spokesman
wm2=officer
hm2=officer
am2f=or
bm1f=told
hmet=poss-1:their:PERSON
am2f=when
bm1f=because
bm1f=was
wm2=staff
hm2=staff
hmet=our:PERSON
wm2=pilot
hm2=pilot
wm2=employees
hm2=employees
wm1=board
hm1=board
hmet=board:PERSON
hm12=board:members
hmhm=board:members
am2f=face
wm2=teacher
hm2=teacher
wm2=colleagues
hm2=colleagues
wm2=advisers
hm2=advisers
wm2=lawyers
hm2=lawyers
wm2=allies
hm2=allies
et1sub2sub=Group:Individual
wm2=doctors
hm2=doctors
am2f=the
wm2=ship
bm1f=about
am2f=right
wm1=Bush
hm1=Bush
hmet=her:PERSON
am2f=still
et1sub2sub=Indeterminate:Individual
hmet=poss-1:her:PERSON
wm1=My
hm1=My
hmet=poss-1:My:PERSON
ethm=PERSON:members
hmet=poss-1:your:PERSON
et1sub2=Indeterminate:PERSON
et1sub2sub=Indeterminate:Group
hmet=his:PERSON
hmet=my:PERSON
wm2=crew
hm2=crew
wm2=client
hm2=client
ethm=poss-1:PERSON:client
ethm=poss-1:PERSON:employees
hm12=his:doctors
ethm=poss-1:PERSON:doctors
hmhm=poss-1:his:doctors
ethm=poss-1:PERSON:friends
ethm=poss-1:PERSON:teacher
wm2=friends
hm2=friends
hm12=coalition:forces
hmhm=coalition:forces
hm12=British:forces
hmhm=nameMod-1:British:forces
ethm=nameMod-1:GPE:soldiers
hmet=U.S:PERSON
hm12=U.S:troops
hmhm=nameMod-1:U.S:troops
hm12=British:troops
hmhm=nameMod-1:British:troops
hm12=Iraqi:soldiers
hmhm=nameMod-1:Iraqi:soldiers
am2f=moving
hm12=coalition:troops
ethm=GPE:troops
hmhm=coalition:troops
am2f=push
wm1=CNN
hm1=CNN
wm2=correspondent
hm2=correspondent
hmet=CNN:PERSON
hm12=Iraqi:officials
hmhm=nameMod-1:Iraqi:officials
hm12=our:analyst
ethm=poss-1:ORGANIZATION:analyst
hmhm=poss-1:our:analyst
wm1=ITN
hm1=ITN
wm2=CORRESPONDENT
hm2=CORRESPONDENT
hmet=ITN:PERSON
ethm=ORGANIZATION:CORRESPONDENT
ethm=ORGANIZATION:correspondent
hm12=CNN:correspondent
hmet=u.s:PERSON
hm12=u.s:troops
hmhm=nameMod-1:u.s:troops
hmet=nameMod-1:coalition:PERSON
hm12=u.s:forces
hm12=military:officials
hmhm=military:officials
ethm=nameMod-1:GPE:marines
wm2=president
hm2=president
hm12=u.s:marines
hmhm=nameMod-1:u.s:forces
wm2=general
hm2=general
wm2=executive
hm2=executive
hm12=u.s:officials
ethm=poss-1:ORGANIZATION:correspondent
am2f=believe
hmhm=nameMod-1:u.s:officials
wm1=fbi
hm1=fbi
ethm=ORGANIZATION:chief
hmet=nameMod-1:fbi:PERSON
wm2=authorities
hm2=authorities
ethm=poss-1:ORGANIZATION:reporters
wm1=white
hm1=white_house
ethm=GPE:minister
hm12=our:correspondent
hm12=police:chief
hmhm=police:chief
hmet=government:PERSON
hm12=US:official
hmhm=nameMod-1:US:official
ethm=GPE:officials
wm2=President
hm2=President
ethm=GPE:President
ethm=GPE:president
wm2=Minister
am2f=George
hm12=government:sources
hmhm=government:sources
hm2=Minister
ethm=GPE:Minister
ethm=nameMod-1:GPE:minister
hm12=US:President
hmhm=US:President
hmet=Russian:PERSON
hm12=British:Minister
am2f=Tony
hmhm=British:Minister
hmet=German:PERSON
wm2=Chancellor
hm2=Chancellor
hm12=German:Chancellor
am2f=Gerhard
ethm=GPE:Chancellor
hmhm=German:Chancellor
et1sub2=GPE-Cluster:PERSON
et1sub2sub=GPE-Cluster:Group
wm2=Marines
hm2=Marines
ethm=GPE:Marines
hm12=Iraqi:troops
hmhm=nameMod-1:Iraqi:troops
wm2=Secretary
hm2=Secretary
hm12=U.S:soldiers
hmhm=nameMod-1:U.S:soldiers
wm1=White
hm1=White_House
hmet=nameMod-1:Turkish:PERSON
wm1=Pentagon
hm1=Pentagon
hmet=nameMod-1:Pentagon:PERSON
hm12=U.S:officials
hmhm=nameMod-1:U.S:officials
hm12=U.S:President
hmhm=U.S:President
ethm=nameMod-1:GPE:commanders
hm12=American:forces
hm12=U.S:Marines
hmhm=U.S:Marines
ethm=nameMod-1:ORGANIZATION:forces
ethm=nameMod-1:GPE:soldier
hm12=Pentagon:officials
hmhm=nameMod-1:Pentagon:officials
hm12=Iraqi:President
hmhm=Iraqi:President
hm12=Iraqi:fighters
hmhm=nameMod-1:American:forces
wm2=Prime
hm12=Russian:President
hmhm=Russian:President
ethm=nameMod-1:GPE:authorities
hm12=U.S:official
hmhm=nameMod-1:U.S:official
hmet=Marine:PERSON
am2f=John
ethm=nameMod-1:ORGANIZATION:inspectors
wm2=Ambassador
hm2=Ambassador
ethm=GPE:Ambassador
hm12=U.N:inspectors
hmhm=nameMod-1:U.N:inspectors
wm1=State
wm1=Department
ethm=GPE:Secretary
ethm=ORGANIZATION:Secretary
wm1=Defense
hm1=Defense
ethm=ORGANIZATION:official
hmhm=U.S:forces
hm12=Israeli:troops
hmhm=nameMod-1:Israeli:troops
wm1=Military
hm1=Military
hmet=Military:PERSON
ethm=ORGANIZATION:sources
ethm=nameMod-1:GPE:lawmakers
hmet=nameMod-1:South_Korean:PERSON
wm1=ministry
hm1=ministry
hmet=ministry:PERSON
hm12=South_Korean:officials
hmhm=nameMod-1:South_Korean:officials
hm12=U.S:lawmakers
hmhm=nameMod-1:U.S:lawmakers
hm12=government:officials
hmhm=government:officials
ethm=ORGANIZATION:officer
wm2=source
hm2=source
am2f=now
wm1=EU
hm1=EU
hmet=nameMod-1:EU:PERSON
ethm=nameMod-1:GPE:ministers
hmet=nameMod-1:Indonesian:PERSON
hmet=Our:PERSON
ethm=GPE:soldiers
hm12=our:troops
ethm=poss-1:GPE:troops
hmhm=poss-1:our:troops
wm1=CIA
hm1=CIA
hmet=state:PERSON
et1sub2=County-or-District:PERSON
et1sub2sub=County-or-District:Individual
ethm=poss-1:GPE:president
hm12=British:officials
ethm=nameMod-1:GPE:diplomats
hm12=American:officials
hmet=nameMod-1:European:PERSON
hmhm=nameMod-1:American:officials
ethm=nameMod-1:GPE:president
wm2=diplomat
hm2=diplomat
ethm=nameMod-1:GPE:diplomat
hmet=army:PERSON
hmet=nameMod-1:British:PERSON
hmet=nameMod-1:Iraqi:PERSON
ethm=GPE:forces
ethm=nameMod-1:GPE:troops
hmet=nameMod-1:U.S:PERSON
hmet=nameMod-1:American:PERSON
ethm=nameMod-1:GPE:officials
hm12=American:troops
hmhm=nameMod-1:American:troops
et1sub2sub=State-or-Province:Individual
hmet=nameMod-1:u.s:PERSON
hmet=nameMod-1:iraqi:PERSON
wm2=reporter
hm2=reporter
hmet=nameMod-1:american:PERSON
wm2=journalist
hm2=journalist
hmet=nameMod-1:palestinian:PERSON
wm2=soldier
hm2=soldier
hmet=nameMod-1:israeli:PERSON
hmet=police:PERSON
wm2=reporters
hm2=reporters
wm2=officers
hm2=officers
hm12=police:officers
ethm=ORGANIZATION:officers
hmhm=police:officers
et1sub2sub=Special:Individual
hmet=nameMod-1:british:PERSON
hmet=nameMod-1:US:PERSON
ethm=nameMod-1:GPE:official
ethm=nameMod-1:GPE:sources
hmet=British:PERSON
hmet=nameMod-1:Russian:PERSON
hmet=US:PERSON
hmet=nameMod-1:Israeli:PERSON
wm2=workers
hm2=workers
hmet=American:PERSON
am2f=Saddam
hm12=Iraqi:leader
ethm=nameMod-1:GPE:leader
ethm=nameMod-1:GPE:leaders
bm1f=four
hmet=Israeli:PERSON
hm12=Palestinian:officials
hmhm=nameMod-1:Palestinian:officials
bm1f=first
ethm=GPE:leader
hmet=nameMod-1:Chinese:PERSON
wm2=scientists
hm2=scientists
ethm=nameMod-1:GPE:scientists
bm1f=Iraqi
hmet=nameMod-1:Japanese:PERSON
wm2=scientist
hm2=scientist
wm1=Virginia
hm1=Virginia
hm12=Palestinian:leader
hmhm=nameMod-1:Palestinian:leader
et1sub2sub=Continent:Group
et1sub2=Non-Governmental:PERSON
wm2=leader
hm2=leader
et1sub2sub=Non-Governmental:Individual
et12sub=ORGANIZATION:Individual
etet=ORGANIZATION:PERSON
wm2=officials
hm2=officials
am2f=do
wm2=leaders
hm2=leaders
wm2=sources
hm2=sources
wm2=official
hm2=official
ethm=nameMod-1:ORGANIZATION:officials
bm1f=several
bm1f=had
bm1f="
bm1f=senior
am2f=?
bm1f=his
wm1=Indian
hm1=Indian
wm1=police
hm1=police
wm1=city
hm1=city
bm1f=two
bm1f=when
bm1f=are
wm1=palestinian
hm1=palestinian
wm1=German
hm1=German
et12=GPE:PERSON
et1sub2=Nation:PERSON
et12sub=GPE:Group
et1sub2sub=Nation:Group
et12+m1>m2=GPE:PERSON:true
et12+m1<m2=GPE:PERSON:false
hm12+m1>m2=GPE:PERSON:true
hm12+m1<m2=GPE:PERSON:false
nationality_et2=PERSON
etet=nameMod-1:GPE:PERSON
et12sub=GPE:Individual
etet=GPE:PERSON
country_et2=PERSON
etet=poss-1:GPE:PERSON
et1sub2sub=Nation:Individual
hmet=Iraqi:PERSON
et1sub2=State-or-Province:PERSON
et1sub2=Population-Center:PERSON
et1sub2sub=Population-Center:Group
et1sub2=Special:PERSON
et1sub2sub=Special:Group
et1sub2sub=Population-Center:Individual
hmet=nameMod-1:Palestinian:PERSON
et1sub2=Continent:PERSON
et1sub2sub=State-or-Province:Group
et1sub2sub=Continent:Individual
am2f=could
am2f=but
am2f='
hm12=Iraqi:forces
wm1=Japanese
hm1=Japanese
bm1f=while
bm1f=any
wm2=personnel
hm2=personnel
bm1f=this
am2f=saying
am2f=Monday
et1sub2sub=Media:Individual
et1sub2=Media:PERSON
ethm=nameMod-1:ORGANIZATION:leader
et1sub2=Commercial:PERSON
et1sub2sub=Commercial:Individual
etet=poss-1:ORGANIZATION:PERSON
am2f=here
am2f=say
hmet=military:PERSON
et1sub2sub=Media:Group
et1sub2sub=Government:Individual
et1sub2sub=Non-Governmental:Group
hmet=nameMod-1:Army:PERSON
ethm=ORGANIZATION:officials
wm2=ambassador
hm2=ambassador
wm2=Senator
hm2=Senator
ethm=ORGANIZATION:members
wm1=administration
hm1=administration
hmet=administration:PERSON
wm1=republican
ethm=nameMod-1:ORGANIZATION:troops
wm1=house
wm1=hamas
hm1=hamas
hmet=nameMod-1:hamas:PERSON
wm1=PLO
hm1=PLO
hm12=PLO:leader
am2f=Yasser
hmet=PLO:PERSON
ethm=ORGANIZATION:leader
hmhm=PLO:leader
ethm=ORGANIZATION:spokesman
ethm=nameMod-1:ORGANIZATION:members
ethm=nameMod-1:ORGANIZATION:official
wm2=diplomats
hm2=diplomats
wm2=leadership
hm2=leadership
wm1=Ministry
wm2=lawmakers
hm2=lawmakers
am2f=killed
hmet=nameMod-1:U.N:PERSON
hmet=U.N:PERSON
wm1=Security
wm1=Hamas
hm1=Hamas
hmet=nameMod-1:Hamas:PERSON
wm1=party
hm12=administration:officials
hmhm=administration:officials
wm2=Judge
hm2=Judge
wm1=-
bm1f=those
wm1=Army
hm1=Army
bm1f=these
wm1=Navy
hm1=Navy
hmet=coalition:PERSON
hmet=poss-1:its:PERSON
bm1f=But
wm2=teams
hm2=teams
am2f=General
et1sub2=Sports:PERSON
et1sub2sub=Sports:Group
wm1=Bank
wm1=Saudi
hm1=Saudi
wm1=school
hm1=school
wm1=Canadian
hm1=Canadian
wm1=hotel
hm1=hotel
wm1=Marine
hm1=Marine
wm1=force
wm1=government
hm1=government
wm1=guard
wm1=cnn
hm1=cnn
wm1=department
bm1f=As
bm1f=after
am2f=outside
am2f=over
bm1f=but
wm2=-
bm1f=have
am2f=there
am2f=out
am2f=went
wm2=inspectors
hm2=inspectors
ethm=poss-1:GPE:forces
am2f=may
bm1f=where
bm1f=see
bm1f=between
bm1f=be
bm1f=tell
am2f=came
bm1f=?
hmhm=nameMod-1:Iraqi:forces
wm1=French
hm1=French
am2f=reported
wm1=South
hm1=South_Korean
wm2=soldiers
hm2=soldiers
et1sub2=Educational:PERSON
et1sub2sub=Educational:Group
et1sub2sub=Educational:Individual
hmet=school:PERSON
wm2=players
hm2=players
et1sub2sub=Commercial:Group
et1sub2sub=Sports:Individual
wm2=woman
hm2=woman
ethm=nameMod-1:GPE:woman
ethm=nameMod-1:GPE:people
wm2=exiles
hm2=exiles
hm12=Iraqi:exiles
wm2=boy
hm2=boy
ethm=nameMod-1:GPE:boy
hm12=Palestinian:boy
hmhm=nameMod-1:Palestinian:boy
wm2=civilians
hm2=civilians
ethm=nameMod-1:GPE:civilians
hm12=Iraqi:civilians
hmhm=nameMod-1:Iraqi:civilians
hm12=Iraqi:people
hmhm=nameMod-1:Iraqi:people
et1_relative=GPE
etet=nameMod-1:LOCATION:PERSON
hm1=Republican
wm2=bomber
hm2=bomber
wm1=African
wm2=militants
hm2=militants
wm2=member
hm2=member
et12sub=GPE:Nation
wm1=Iraq
hm1=Iraq
et12=GPE:GPE
et12+m1>m2=GPE:GPE:true
et12+m1<m2=GPE:GPE:false
hm12+m1>m2=GPE:GPE:true
hm12+m1<m2=GPE:GPE:false
et1sub2=Nation:GPE
wm1=Baghdad
hm1=Baghdad
wm1=Asian
hm1=world
wm1=world
wm2=carriers
hm2=carriers
et12+m1>m2=GPE:PERSON:false
hm12+m1>m2=GPE:PERSON:false
wm2=Kurds
hm2=Kurds
hm12=Iraqi:Kurds
hmhm=Iraqi:Kurds
ethm=nameMod-1:GPE:militants
et12=LOCATION:PERSON
et12+m1>m2=LOCATION:PERSON:true
et12+m1<m2=LOCATION:PERSON:false
hm12+m1>m2=LOCATION:PERSON:true
hm12+m1<m2=LOCATION:PERSON:false
et12sub=LOCATION:Group
et1sub2=Region-General:PERSON
etet=LOCATION:PERSON
am2f=did
wm2=grandmother
hm2=grandmother
am2f=because
wm2=families
hm2=families
wm2=children
hm2=children
wm2=family
hm2=family
am2f=told
wm2=girl
hm2=girl
wm2=friend
hm2=friend
wm2=founder
hm2=founder
wm1=al
wm1=qaeda
hm1=al_qaeda
hmet=nameMod-1:al_qaeda:PERSON
bm1f=Controversial
et1sub2=Non-Governmental:GPE
wm1=Council
etet=nameMod-1:ORGANIZATION:GPE
am2f=!
et12=ORGANIZATION:GPE
et12+m1>m2=ORGANIZATION:GPE:true
et12+m1<m2=ORGANIZATION:GPE:false
hm12+m1>m2=ORGANIZATION:GPE:true
hm12+m1<m2=ORGANIZATION:GPE:false
et12sub=ORGANIZATION:Nation
hmet=nameMod-1:Iraqi:LOCATION
etet=nameMod-1:GPE:GPE
nationality_et2=GPE
wm2=desert
hm2=desert
hm12=Iraqi:desert
et12sub=GPE:Land-Region-Natural
et1sub2sub=Nation:Land-Region-Natural
ethm=nameMod-1:GPE:desert
hmhm=nameMod-1:Iraqi:desert
hmet=nameMod-1:Iraqi:GPE
et1sub2sub=Nation:Boundary
wm2=capital
hm2=capital
hm12=Iraqi:capital
ethm=nameMod-1:GPE:capital
hmhm=nameMod-1:Iraqi:capital
et1sub2=Continent:GPE
et1sub2sub=Continent:Nation
et12sub=FACILITY:Subarea-Facility
hm12=Paris:hospital
hmet=nameMod-1:Paris:FACILITY
hmhm=nameMod-1:Paris:hospital
et12=LOCATION:FACILITY
et12+m1>m2=LOCATION:FACILITY:true
et12+m1<m2=LOCATION:FACILITY:false
hm12+m1>m2=LOCATION:FACILITY:true
hm12+m1<m2=LOCATION:FACILITY:false
etet=LOCATION:FACILITY
hm12=Iraqi:border
hmhm=nameMod-1:Iraqi:border
et1sub2=Region-General:GPE
etet=nameMod-1:LOCATION:GPE
country_et2=LOCATION
et1sub2=GPE-Cluster:GPE
et1sub2sub=GPE-Cluster:Nation
et1sub2=Region-General:FACILITY
ethm=nameMod-1:GPE:countries
et1sub2sub=Region-General:Population-Center
ethm=nameMod-1:GPE:neighborhood
wm1=West
hm1=West_Bank
country_et2=GPE
hmet=nameMod-1:West_Bank:GPE
ethm=nameMod-1:LOCATION:city
et12sub=LOCATION:Nation
et1sub2=Building-Grounds:FACILITY
et1sub2sub=Building-Grounds:Subarea-Facility
ethm=GPE:border
et1sub2sub=Nation:Region-General
et1sub2=State-or-Province:LOCATION
et1sub2=Nation:FACILITY
nationality_et2=FACILITY
et1sub2sub=Nation:Building-Grounds
wm2=room
hm2=room
wm2=hospital
hm2=hospital
ethm=nameMod-1:GPE:hospital
wm2=house
hm2=house
etet=poss-1:GPE:FACILITY
et1sub2=State-or-Province:FACILITY
et1sub2sub=State-or-Province:Building-Grounds
et12sub=GPE:Path
wm2=airport
hm2=airport
etet=GPE:FACILITY
et1sub2=Nation:LOCATION
nationality_et2=LOCATION
et12sub=GPE:Population-Center
et1sub2sub=Nation:Population-Center
wm2=border
hm2=border
et12sub=GPE:Boundary
ethm=nameMod-1:GPE:border
et12sub=GPE:State-or-Province
etet=GPE:GPE
et1sub2=Population-Center:GPE
etet=GPE:LOCATION
et12=FACILITY:FACILITY
et12+m1>m2=FACILITY:FACILITY:true
et12+m1<m2=FACILITY:FACILITY:false
hm12+m1>m2=FACILITY:FACILITY:true
hm12+m1<m2=FACILITY:FACILITY:false
etet=FACILITY:FACILITY
et12+m1>m2=LOCATION:LOCATION:true
hm12+m1>m2=LOCATION:LOCATION:true
etet=nameMod-1:LOCATION:LOCATION
wm1=Gulf
et12=GPE:LOCATION
et12+m1>m2=GPE:LOCATION:true
et12+m1<m2=GPE:LOCATION:false
hm12+m1>m2=GPE:LOCATION:true
hm12+m1<m2=GPE:LOCATION:false
etet=nameMod-1:GPE:LOCATION
et12sub=GPE:Region-General
et1sub2=Population-Center:LOCATION
et1sub2sub=Population-Center:Region-General
et12=LOCATION:LOCATION
et12+m1<m2=LOCATION:LOCATION:false
hm12+m1<m2=LOCATION:LOCATION:false
et12=LOCATION:GPE
et12+m1>m2=LOCATION:GPE:true
et12+m1<m2=LOCATION:GPE:false
hm12+m1>m2=LOCATION:GPE:true
hm12+m1<m2=LOCATION:GPE:false
et12sub=LOCATION:Population-Center
etet=LOCATION:GPE
wm1=Paris
hm1=Paris
bm1f=its
hmet=poss-1:their:LOCATION
etet=poss-1:GPE:LOCATION
et12=GPE:WEA
et1sub2=Nation:WEA
et12+m1>m2=GPE:WEA:true
et12+m1<m2=GPE:WEA:false
hm12+m1>m2=GPE:WEA:true
hm12+m1<m2=GPE:WEA:false
et12=GPE:VEH
et1sub2=Nation:VEH
et12sub=GPE:Air
et1sub2sub=Nation:Air
et12+m1>m2=GPE:VEH:true
et12+m1<m2=GPE:VEH:false
hm12+m1>m2=GPE:VEH:true
hm12+m1<m2=GPE:VEH:false
et12=PERSON:WEA
et12+m1<m2=PERSON:WEA:false
hm12+m1<m2=PERSON:WEA:false
et12=ORGANIZATION:VEH
et1sub2=Government:VEH
et12+m1>m2=ORGANIZATION:VEH:true
et12+m1<m2=ORGANIZATION:VEH:false
hm12+m1>m2=ORGANIZATION:VEH:true
hm12+m1<m2=ORGANIZATION:VEH:false
et1sub2=Group:WEA
et12+m1>m2=PERSON:WEA:true
hm12+m1>m2=PERSON:WEA:true
etet=poss-1:PERSON:WEA
etet=GPE:VEH
et12=PERSON:VEH
et12+m1>m2=PERSON:VEH:true
et12+m1<m2=PERSON:VEH:false
hm12+m1>m2=PERSON:VEH:true
hm12+m1<m2=PERSON:VEH:false
etet=nameMod-1:GPE:VEH
et12sub=GPE:Land
et1sub2sub=Nation:Land
et12sub=PERSON:Building-Grounds
et12sub=PERSON:Shooting
et1sub2=Government:FACILITY
et1sub2sub=Government:Building-Grounds
etet=ORGANIZATION:FACILITY
etet=nameMod-1:GPE:WEA
nationality_et2=WEA
country_et2=VEH
hmet=nameMod-1:U.S:VEH
nationality_et2=VEH
hmet=nameMod-1:Iraqi:VEH
wm2=aircraft
hm2=aircraft
et1sub2=Group:VEH
et12sub=PERSON:Land
etet=PERSON:VEH
wm2=base
hm2=base
et1sub2=Individual:VEH
et1sub2sub=Individual:Land
etet=poss-1:PERSON:VEH
et1sub2=Group:FACILITY
hmet=coalition:VEH
et1sub2sub=Group:Land
et12sub=GPE:Exploding
et1sub2sub=Nation:Exploding
et12sub=PERSON:Air
wm2=missile
hm2=missile
ethm=nameMod-1:GPE:missile
et1sub2sub=Individual:Air
hmet=poss-1:his:VEH
et1sub2sub=Individual:Building-Grounds
wm2=weapons
hm2=weapons
et1sub2=Individual:WEA
etet=nameMod-1:ORGANIZATION:FACILITY
hmet=military:FACILITY
et1sub2sub=Group:Building-Grounds
etet=ORGANIZATION:VEH
et12sub=ORGANIZATION:Land
hmet=poss-1:our:VEH
hmet=poss-1:their:FACILITY
hmet=poss-1:his:FACILITY
wm2=tanks
hm2=tanks
ethm=nameMod-1:GPE:tanks
wm2=headquarters
hm2=headquarters
ethm=nameMod-1:ORGANIZATION:headquarters
et12sub=GPE:Projectile
et1sub2sub=Nation:Projectile
hm2=ship
et1sub2=Commercial:VEH
et12sub=PERSON:Water
wm1=royal
et12sub=ORGANIZATION:Water
wm2=car
hm2=car
etet=PERSON:FACILITY
etet=GPE:WEA
hmet=police:FACILITY
et12sub=GPE:Underspecified
et1sub2sub=Nation:Underspecified
ethm=poss-1:PERSON:house
hmet=poss-1:its:WEA
et12sub=ORGANIZATION:Air
etet=nameMod-1:ORGANIZATION:VEH
wm2=helicopters
hm2=helicopters
et12sub=GPE:Water
et1sub2sub=Nation:Water
et1sub2sub=Government:Air
hmet=nameMod-1:Iraqi:FACILITY
et12+m1>m2=PERSON:WEA:false
hm12+m1>m2=PERSON:WEA:false
hm12=U.S:tanks
hm12=Iraqi:tanks
hmhm=nameMod-1:Iraqi:tanks
et1sub2=Media:FACILITY
et1sub2sub=Media:Building-Grounds
hmet=nameMod-1:Iraqi:WEA
hmet=U.S:VEH
hmet=poss-1:their:VEH
wm2=helicopter
hm2=helicopter
et1sub2sub=Government:Land
hmet=military:VEH
et12sub=PERSON:Exploding
et12sub=GPE:Nuclear
et1sub2sub=Nation:Nuclear
etet=poss-1:GPE:WEA
hm12=its:weapons
ethm=poss-1:GPE:weapons
hmhm=poss-1:its:weapons
country_et2=FACILITY
wm2=warplanes
hm2=warplanes
country_et2=WEA
hmet=poss-1:my:FACILITY
ethm=poss-1:PERSON:car
et1sub2sub=Group:Subarea-Facility
wm2=missiles
hm2=missiles
hmet=poss-1:their:WEA
et12sub=ORGANIZATION:Subarea-Facility
et1sub2sub=Commercial:Water
et12+m1>m2=GPE:WEA:false
hm12+m1>m2=GPE:WEA:false
et12sub=ORGANIZATION:Underspecified
hm12=my:house
hmet=poss-1:our:FACILITY
hmet=poss-1:my:VEH
wm2=vehicles
hm2=vehicles
hm12=my:car
hmhm=poss-1:my:car
am2f=does
wm2=school
hm2=school
wm2=guns
am2f=_
et12=PERSON:FACILITY
et12+m1>m2=PERSON:FACILITY:true
et12+m1<m2=PERSON:FACILITY:false
hm12+m1>m2=PERSON:FACILITY:true
hm12+m1<m2=PERSON:FACILITY:false
etet=poss-1:PERSON:FACILITY
et1sub2=Individual:FACILITY
et12sub=PERSON:Subarea-Facility
hmet=poss-1:her:FACILITY
et1sub2sub=Individual:Subarea-Facility
ethm=PERSON:group
hmet=terrorist:ORGANIZATION
hm12=terrorist:organization
ethm=PERSON:organization
hmhm=terrorist:organization
wm1=His
hm1=His
bm1f=If
wm2=group
hm2=group
wm2=organization
hm2=organization
hm12=his:government
hmhm=poss-1:his:government
wm2=party
hm2=party
ethm=poss-1:PERSON:party
et1sub2sub=Individual:Non-Governmental
hmet=poss-1:your:ORGANIZATION
et1sub2=Indeterminate:ORGANIZATION
hm12=Bush:administration
hmet=nameMod-1:Bush:ORGANIZATION
hmhm=nameMod-1:Bush:administration
ethm=nameMod-1:GPE:area
et12=FACILITY:PERSON
et1sub2=Building-Grounds:PERSON
et12+m1<m2=FACILITY:PERSON:false
hm12+m1<m2=FACILITY:PERSON:false
et12sub=FACILITY:Group
et1sub2sub=Building-Grounds:Group
et12+m1>m2=FACILITY:PERSON:true
hm12+m1>m2=FACILITY:PERSON:true
etet=FACILITY:PERSON
wm2=wife
hm2=wife
ethm=poss-1:PERSON:wife
hm12=his:family
hmhm=poss-1:his:family
hm12=his:wife
hm12=their:families
hmhm=poss-1:their:families
hm12=their:son
hmhm=poss-1:their:son
hmhm=poss-1:his:wife
wm2=sons
hm2=sons
hm12=his:sons
ethm=poss-1:PERSON:sons
hmhm=poss-1:his:sons
wm2=baby
hm2=baby
ethm=poss-1:PERSON:baby
wm2=mother
hm2=mother
ethm=poss-1:PERSON:mother
ethm=PERSON:wife
hmhm=his:wife
wm2=child
hm2=child
ethm=poss-1:PERSON:child
wm2=kids
hm2=kids
ethm=poss-1:PERSON:kids
bm1f=murdering
am2f=Laci
hm12=my:husband
hmhm=poss-1:my:husband
hm12=her:family
hmhm=poss-1:her:family
hm12=my:wife
hmhm=poss-1:my:wife
hm12=her:sister
hmhm=poss-1:her:sister
wm2=mom
hm2=mom
ethm=poss-1:PERSON:mom
bm1f=seeing
wm2=brothers
hm2=brothers
ethm=poss-1:PERSON:brothers
wm2=in
hm12=her:parents
hmhm=poss-1:her:parents
wm2=dad
hm2=dad
ethm=poss-1:PERSON:dad
hm12=my:dad
hmhm=poss-1:my:dad
hm12=his:daughter
hmhm=poss-1:his:daughter
hm12=his:brother
hmhm=poss-1:his:brother
hm12=his:mother
hmhm=poss-1:his:mother
hm12=my:kids
hmhm=poss-1:my:kids
hmhm=my:wife
wm2=ex
hm2=ex
ethm=poss-1:PERSON:ex
hm12=my:ex
hmhm=poss-1:my:ex
wm2=uncle
hm2=uncle
ethm=poss-1:PERSON:uncle
hm12=your:uncle
hmhm=poss-1:your:uncle
hm12=My:wife
wm2=law
wm2=brother
hm2=brother
ethm=poss-1:PERSON:brother
wm2=daughter
hm2=daughter
ethm=poss-1:PERSON:daughter
wm2=sister
hm2=sister
ethm=poss-1:PERSON:sister
wm2=father
hm2=father
ethm=poss-1:PERSON:father
wm2=parents
hm2=parents
ethm=poss-1:PERSON:parents
wm2=husband
hm2=husband
hm12=her:husband
ethm=poss-1:PERSON:husband
hmhm=poss-1:her:husband
ethm=poss-1:PERSON:families
wm2=son
hm2=son
ethm=poss-1:PERSON:son
hm12=her:daughter
hm12=his:father
hmhm=poss-1:his:father
hmhm=poss-1:her:daughter
hm12=her:father
hm12=My:brother
hmhm=poss-1:My:brother
hm12=his:son
hmhm=poss-1:her:father
hm12=my:parents
hmhm=poss-1:my:parents
et1_relative=PERSON
hmet=poss-1:His:PERSON
ethm=poss-1:PERSON:family
wm2=ones
hm2=ones
hm12=their:ones
ethm=poss-1:PERSON:ones
hmhm=poss-1:their:ones
ethm=poss-1:PERSON:children
hm12=my:family
hmhm=poss-1:my:family
bm1f=like
et1sub2sub=Population-Center:Commercial
et12sub=GPE:Sports
et1sub2sub=Nation:Sports
hmet=nameMod-1:Japanese:ORGANIZATION
ethm=nameMod-1:GPE:group
et1sub2sub=Special:Non-Governmental
hmet=nameMod-1:US:ORGANIZATION
ethm=nameMod-1:GPE:company
hmet=nameMod-1:French:ORGANIZATION
et12=VEH:PERSON
et12+m1>m2=VEH:PERSON:true
et12+m1<m2=VEH:PERSON:false
hm12+m1>m2=VEH:PERSON:true
hm12+m1<m2=VEH:PERSON:false
etet=VEH:PERSON
et1sub2=Air:PERSON
et12sub=VEH:Individual
et12sub=VEH:Group
et1sub2sub=Air:Group
hm12=board:member
ethm=PERSON:member
hmhm=board:member
ethm=ORGANIZATION:students
wm2=students
hm2=students
ethm=poss-1:PERSON:friend
hm12=my:friend
hmhm=poss-1:my:friend
wm2=girlfriend
hm2=girlfriend
wm2=roommate
hm2=roommate
ethm=poss-1:PERSON:roommate
et12sub=PERSON:Educational
12.751265924562851
12.656834544407811
12.751265924562851
30.710537392898452
30.710537392898452
12.29953667119912
12.29953667119912
12.29953667119912
12.29953667119912
12.29953667119912
12.29953667119912
24.890877286783407
13.558243659950456
13.558243659950456
20.303033742879013
-2.1455094604799916
1.2715775647752139
-10.644222583975068
-2.9576815144580664
6.411131104410848
3.333870369678057
-19.720978833628028
-1.1718630429183268
0.6839639565281681
2.3403395583799087
-3.818868866380222
-10.483952504641767
-11.54211950210034
3.703249349930365
-18.545342454374467
-1.3447492742579055
-2.1430739220005552
-21.954650037189413
-10.317686981005417
-10.788319611154904
-17.87085503409335
-9.984015661697217
-14.085659078449147
-7.281122842448616
-21.514328740891678
-12.28250838721491
-18.331054297000772
-25.361230131256423
-19.518599109964775
-19.582649570506966
-14.535945315181843
-16.306363590847482
-20.15090033720276
-37.24609635821448
-31.022211609287137
-2.1455094604799916
1.2715775647752139
-10.644222583975068
-2.9576815144580664
6.411131104410848
3.333870369678057
-19.720978833628028
-1.1718630429183268
0.6839639565281681
2.3403395583799087
-3.818868866380222
-10.483952504641767
-11.54211950210034
3.703249349930365
-18.545342454374467
-1.3447492742579055
-2.1430739220005552
-21.954650037189413
-10.317686981005417
-10.788319611154904
-17.87085503409335
-9.984015661697217
-14.085659078449147
-7.281122842448616
-21.514328740891678
-12.28250838721491
-18.331054297000772
-25.361230131256423
-19.518599109964775
-19.582649570506966
-14.535945315181843
-16.306363590847482
-20.15090033720276
-37.24609635821448
-31.022211609287137
-2.1374360460514943
1.2014582605132889
-10.628310273588689
-2.9510663519181026
6.4122141108798365
3.3348642071269827
-19.700730513365215
-1.1680859320522226
0.6863810897456686
2.344200213868941
-3.8124806497427324
-10.462122030529345
-11.516306508032288
3.7052359520780813
-18.521878167834096
-1.3231054881498743
-2.121312762391324
-21.92047142684492
-10.312268022694703
-10.776592746415274
-17.83006407253752
-9.974195581338265
-14.071436611931745
-7.272990748729361
-21.49606933677585
-12.25561898353
-18.31713198332688
-25.324231864249892
-19.496163063275773
-19.557589041649265
-14.506067909962091
-16.28959050051238
-20.076717633261882
-37.20535640941798
-30.995655476539874
-0.3287721534761383
1.937695672474649
-8.556394432304945
9.22788236256085
6.619719618135986
3.6540758063422043
-18.293431001602723
-0.8765013597939157
1.3931098876545756
3.500248600430395
-3.2838502903584175
-8.9439263595459
-7.61059757950404
-30.781196919530103
-16.47508663528127
-0.4889141485803883
-0.9640316446558255
-18.215880760671613
-47.36308354227923
-5.727733869881458
-14.141985802890215
-8.141584052308893
-13.789168458210922
-3.006120216140745
-20.065778289081912
-10.762668307022334
-21.569329628482045
-15.026024854681634
-17.79750880515666
-18.418153589715256
-11.834077308698399
-14.358094993924304
-17.818823676326172
-28.287488569940738
0.26443591722221704
-14.626788993288933
-5.8170697085179555
5.284875266166523
0.5975680314417935
-61.369857544949525
-23.2978093316087
-13.528071795915729
-20.089947158827695
4.033239196011123
-0.16311302787032034
-27.220926902328863
-44.329179367316094
7.530658972884831
-41.15848707618532
-36.400505190733696
-3.839269584412544
0.24941161989786043
-20.267221357974556
-3.390927750185693
6.042686266255803
-28.215891035962574
-14.593070589531271
-1.22624882996885
-13.811603716361908
-36.40161067877593
-22.17957958217352
-15.668963454941451
-26.085961984338844
-1.7645764973302425
-36.10981735453032
1.4915718575743488
-30.577277395645766
-34.195256364937045
6.911947939843008
6.18616142752303
-3.936940420509398
0.9912169997300233
4.324822841620434
0.8124048358734486
-15.452062582529711
-15.748705318543553
-10.805152495807306
-17.689074699445648
1.732028093678763
-42.896761632501864
-2.798629899907533
-53.14775941511148
-7.902296467144656
-3.9377303935478576
-22.098012564324222
-18.778433001095586
-39.31949428256907
0.461110115742444
-25.00949089505076
-4.541030904180646
-4.998650360149706
7.9360503303480705
-11.095977201890623
8.453701302085593
6.999888099919657
-0.9345036734364784
13.855279866769903
21.164391831278863
14.803827815118947
-11.865370800096818
1.525200827086684
-0.630718129009207
42.89413756984119
6.314575084038484
4.364045445857606
-9.857375316875194
13.121613050023424
13.412088794167103
-12.628670926369573
-13.50594488003383
19.75977917691612
0.4128821768622047
5.354737495375035
-12.950134598640044
-1.965948232850947
8.065717118275648
-0.16178466296723437
1.6517133065101053
0.4912183502531029
2.999538386969067
3.326789584146599
4.49749986844739
-7.218603969494102
7.074128691969719
24.399378666161237
3.8312015748681993
-11.968766279124573
-1.4848664844079789
0.20248907276304573
16.80177393607261
2.503264550703406
-2.0074810692377536
34.16486024725545
-11.269123862507493
30.538940219561695
-0.18522769105196124
17.811581194880898
-7.582645124212192
16.278469712033065
-15.95915211644945
28.342226055059353
-6.636918321252077
13.357523402435588
5.229662469053977
-2.6915676121995684
2.4286521526193106
-34.98528832678949
6.920154975975405
3.709065082016851
-0.5904958685356885
-5.163050773149235
6.0142714237761945
1.7346372664305876
10.429348708659186
-5.055686765424646
-52.28412772504236
-0.9404636060071572
-32.60464225791801
16.88802358646235
16.605277388585645
-4.631589410537243
56.30358739683079
-13.587114315930291
-4.612158163955382
-36.34027070613367
10.291599653716128
7.670272349971977
1.3537861850262183
-29.043987450177212
5.065406025089609
0.9046773286841798
4.080609864363082
-14.43342145751561
-1.1811672921818643
2.4001163117617987
10.657904296690262
-4.157995461111051
1.9053804874712954
5.201067320309944
6.1635046117818275
18.276913997685345
-22.52645885757988
0.3258210369140495
22.442878250173283
-18.67007108887039
-4.967502812865719
34.99875180211149
-39.783195437328295
-13.372771112325806
-5.935650313938405
-13.403654159576714
-2.821566850021027
-23.337979850596895
3.985432898661923
30.29342403319703
-17.277039193245137
-18.322645882654857
5.694118640264458
3.673361938839329
-0.037196249808768
5.95645609336276
5.072723566909527
5.626879183130211
-30.06625989168673
11.58119913942593
6.5262449386340595
7.397954836717313
25.25751711330796
5.083818601981687
0.0842225889047592
19.18206764948889
-10.476763709184558
47.91181110446414
33.60765712901326
5.625667304638008
-0.15142717975250308
-4.178517344447032
-1.5112806848230083
-5.205689802741194
23.303036305206575
27.78538446748254
8.641162443062418
-5.065605923198482
13.861108633821413
3.2825133924224907
4.401888812526632
-12.019726043319201
44.9944664894334
5.713302111489249
-7.628369101900687
-5.920262279578205
4.235595108191909
5.9320924041573235
9.841683383111441
7.308025957603226
-21.84921645611455
9.906911745102903
-32.61893400590096
0.10778760905576079
18.064767985146347
6.085530937459719
-0.6815379817952212
3.45828429943701
0.12225303741031124
23.483237722315028
24.670473699636627
58.297972863688244
44.21127879638834
23.774250757893427
12.133130730466338
13.566099502599503
36.30666893205057
6.198441782149384
6.34159352660248
6.49658178794593
3.8274401181971296
0.7258338428248198
-11.536759778385068
43.79503276647428
2.085924605591833
-7.383292989045015
24.378947717305323
-7.49492198198471
-3.1686449154353404
0.7627709352232804
0.5074278248258367
7.194557315592613
2.8086787773178084
9.190598799877657
25.656943083421048
10.689181599632471
47.077474614921606
19.615090893153003
15.034853188174061
49.32087019405715
-0.7646719783188042
6.2645423115164345
4.375968639492544
-15.748692729700045
16.87469058871184
-5.078469598729489
-5.306937998596592
0.23802093056274226
32.9748175906267
2.608620291235199
-11.342574142074637
1.9160812764201007
0.7777403130043806
7.056302067221358
-3.178991896786429
20.538651013473373
0.40600515285279926
7.540641700118143
3.6916950892774465
1.1403739650188762
-3.927064884169029
-0.8200811801078356
10.768882791045954
3.230939284543563
-34.88586125718401
5.49630847538524
-0.040154297338385936
26.14057120090093
6.256639840746518
15.959941271167404
13.129568084457608
37.14479798876381
10.823062782007387
9.869601269934696
-1.768368441962312
20.922714336953526
-6.984080807160915
25.080962706716
-1.1619300671149844
3.8991246175437926
7.39038101320948
-7.368095965646492
17.684090357995892
2.5492371256473754
49.79737641598525
1.9800842878056035
7.627573978625554
12.814900148020957
8.275843722047899
6.334897629136137
13.716418086282467
16.16635983189806
20.106687697277803
5.754304661559621
56.64423380896316
24.351070933525182
31.534757918591747
5.938201677193673
-3.9798400519558204
1.4148351733271243
7.361517026599455
-19.030386709110562
14.495946285390596
-28.139977553891708
-3.2372535426683675
-6.415484086684711
26.638506589355604
7.069800784899778
1.1585412569036129
-14.049056339459694
-11.560210931877554
5.123389940703388
26.77867010619032
35.82914793149875
28.45177759227171
-8.655767647087046
-5.358406157433811
-3.825043863406264
9.039153223702808
-2.356971894298505
9.81382956642506
4.02869002082066
4.930379619383486
9.120874021690314
7.029552127317727
8.125643927521878
8.66157114909212
-3.067953453283445
13.704021567376337
-8.655767647087046
-5.358406157433811
-3.825043863406264
9.039153223702808
-2.356971894298505
9.81382956642506
4.02869002082066
4.930379619383486
9.120874021690314
7.029552127317727
8.125643927521878
8.66157114909212
-3.067953453283445
13.704021567376337
-0.612307609895987
0.5268393508648741
4.6419753530158445
4.216348504286428
12.678926098127386
-9.918074172857517
0.4359414175939551
2.127547395664147
-9.885606869501098
-1.073249042912769
5.631062818671748
0.7600866958964476
-16.37485952371662
-5.366284888121725
9.258519329831877
-37.59691460132716
27.016060241959657
30.01046886145469
12.221912644587453
10.695367839719292
-12.512037675824825
2.366182348545046
-3.059447362129144
12.736656776614106
18.044058841400584
-0.313507539263716
1.9822122443198413
-2.265436836467001
7.786431142973688
8.072790249905303
13.893763836551155
-0.8104880697482257
-17.683806465508873
-2.313768122702378
17.200551809941523
13.793061061365796
3.7195281822829505
1.8449343367447328
2.5246321677331176
7.52562000428171
2.1902780865459497
-6.739602207170686
-7.010212287497199
1.6332932535528366
4.977335921480442
0.404781847102309
-6.962725332460278
-11.014730678932464
16.89827680085563
12.4849697815941
26.32224678042218
21.464571536459076
18.293792964683764
22.904155088596294
9.416960604919764
1.9983453391881218
-6.794710883081403
-19.420686607137533
11.309800136285164
10.958230113466971
1.2590431487413984
29.10781641526272
-19.71475474751064
12.530936794258137
-6.692041164243825
20.949601285654108
-10.359865478879103
18.526588016866057
23.696378339212323
40.19851758371824
14.829952646779061
8.754707876353635
12.428211919604937
-11.472887180617544
22.272460541369313
5.850266648865955
-7.166469668916575
24.37564830322097
46.31500931657208
-7.052479265373291
-1.1039591609285315
7.254728829495592
-0.40257843916994074
-14.974089182446333
-7.112499863431334
8.944231269192201
4.094559598411962
25.04395346380929
-6.627990456825806
73.29350287913343
42.674031161374714
17.37373540725525
20.08696171867659
11.978488394991055
-5.960135926877612
1.7625937287332083
-15.587636347367837
11.927976756886109
12.004336435306158
15.642985115778185
11.813048974742124
35.33246499438952
-12.805306972616378
1.0471621752701763
0.9001405857247691
12.84380217279602
-13.403489832894905
2.569724684269834
9.731921384711061
4.673078323988401
19.094998923430126
40.59487455254402
6.4470004162299475
17.13064291077065
52.221000231308345
16.16388655373682
6.768313645854574
23.914274104065218
6.877348132640251
-1.6814113150233083
-8.71338805888588
7.142683061453585
20.30643366807375
-11.574834592586246
6.119688268050123
37.78746789023062
-18.60400207668699
70.6581378343583
19.72984276048057
15.14096286944636
57.83068944390879
18.36849390739466
3.201825536086242
-5.721198519114769
26.084976036658247
32.44595125595889
-1.3622078030549956
-7.087712266043168
60.933271974841425
28.726740625535115
6.923315020407179
-3.531762304966791
17.959102650716286
-2.564324663149903
47.221877468099194
17.259859318501153
-1.548484519332054
44.47986583687009
3.592751399148703
0.9559109314258961
-0.859683512896081
9.992959080254138
16.028592799553657
13.473048313938111
71.26383802461814
5.011904053991472
-0.021288260771477968
0.6026423410144464
15.682810248409979
19.437225950331552
5.895256286209926
0.13294768714204344
-3.030057104504457
54.73366465652915
8.650405605765698
-18.373740776786693
-0.1795438174862336
17.12477060535139
8.409313567732902
24.123500242803907
9.652209569050877
-17.50835540917388
0.501818763749386
17.592841027067752
2.4839147800251857
25.20668003848997
12.018513498169456
10.451781701930017
-4.009417501302695
1.6544044014921913
5.548568314189055
-1.003093972140373
3.528994506725633
27.84586056638084
42.97128473841211
8.225222684112783
11.137527226658982
30.80714336826004
2.1134372267235544
12.450022762020911
5.415401730330914
22.072613674989658
-20.74728578590758
15.972526019767557
72.48860520353304
20.187132627579423
16.360103681559533
17.466477118520796
15.714431553309398
16.927688965202933
18.55124926651127
11.945329133517347
11.649352817198583
31.043758246055965
4.450434001165645
-4.8404230630872185
-5.3831613240678875
20.412807140877625
31.043758246055965
4.450434001165645
-4.8404230630872185
-5.3831613240678875
20.412807140877625
14.40631701885696
2.4482619474922864
13.15493887266261
11.664874107774153
18.414565955720235
57.97529989789487
1.5999710538920124
8.389370599411354
25.039468491533007
10.65014739643879
17.209777657798302
15.402619378150192
1.5999710538920124
8.389370599411354
25.039468491533007
10.65014739643879
17.209777657798302
15.402619378150192
2.50326970227022
-8.274370133454209
8.022671601606646
-21.81916366697696
3.8512022908502015
-15.465982186809368
-11.43853026815139
8.350787443288592
4.386037286403413
6.632072781731147
7.752992934742369
-2.9060378210335873
2.917638701627158
-7.746856886759884
7.242495548633712
-21.268562178556113
4.025627259460378
-15.18181537352336
-11.043284980194615
8.36879256720476
4.427858973116583
6.937306166096434
7.825897002719354
2.8508938256636824
2.50326970227022
-8.274370133454209
8.022671601606646
-21.81916366697696
3.8512022908502015
-15.465982186809368
-11.43853026815139
8.350787443288592
4.386037286403413
6.632072781731147
7.752992934742369
-2.9060378210335873
2.917638701627158
-7.746856886759884
7.242495548633712
-21.268562178556113
4.025627259460378
-15.18181537352336
-11.043284980194615
8.36879256720476
4.427858973116583
6.937306166096434
7.825897002719354
2.8508938256636824
2.50326970227022
-8.274370133454209
8.022671601606646
-21.81916366697696
3.8512022908502015
-15.465982186809368
-11.43853026815139
8.350787443288592
4.386037286403413
6.632072781731147
7.752992934742369
-2.9060378210335873
6.607329022995978
13.497924386098417
9.57448955116347
10.586341791361422
7.658599201614576
6.441650653436137
9.539927881572625
7.46994539566804
-9.218547465776206
6.592068924215799
4.530276287820522
16.048912404569812
-4.027181281581619
5.57523353969035
-0.18292779745032028
-0.923905511841995
5.646654816582643
-6.168224262442939
5.632692030988688
1.4448946117875425
9.123619194988757
9.333154765316529
3.848596956570512
-1.6166994668569528
11.245534479832498
1.5270322517935089
12.412758320101164
8.786997771081598
1.117501522662548
13.936688624679215
18.1195279912506
-4.027181281581619
5.57523353969035
-0.18292779745032028
-0.923905511841995
5.646654816582643
-6.168224262442939
5.632692030988688
1.4448946117875425
9.123619194988757
9.333154765316529
3.848596956570512
-1.6166994668569528
11.245534479832498
1.5270322517935089
12.412758320101164
8.786997771081598
1.117501522662548
13.936688624679215
18.1195279912506
15.168806586634783
27.09780036730804
-18.10182699014512
26.29039768944498
12.68318535454403
6.131243527652339
-4.016776179526422
7.949995716161845
3.9012215181210674
2.323582883008555
5.907658322726407
2.0347276197266533
5.104501909692112
4.654394770906948
9.567532163752922
13.978628248712257
6.131243527652339
-4.016776179526422
7.949995716161845
3.9012215181210674
2.323582883008555
5.907658322726407
2.0347276197266533
5.104501909692112
4.654394770906948
9.567532163752922
13.978628248712257
-3.9614774035864917
20.507280013291744
0.31168790785573797
-0.330063407746763
1.1970419439534343
9.059097800684938
-0.6279282866128291
3.0343294900734015
8.872805074027873
-3.9614774035864917
20.507280013291744
0.31168790785573797
-0.330063407746763
1.1970419439534343
9.059097800684938
-0.6279282866128291
3.0343294900734015
8.872805074027873
2.0752060560005994
-0.5296488734488393
7.345633362984119
8.18115508479589
4.9407257463021335
10.496159369787236
9.938179983581636
-11.555690591666998
-1.768970962873258
6.6405891950458855
8.932675064640042
6.424387188957917
-9.530290087886302
10.954563615797147
4.186918565319587
21.508335695119957
10.939106492097828
7.094848623030751
-13.211365467518807
14.109657421030779
7.438956392719071
11.477855004385153
13.089885619321873
-10.674900909078355
14.317638164037739
-5.215756455469886
14.242114978030477
9.794246959665587
17.43831261063764
13.091913137072853
0.7120794137127886
14.121529659168242
-8.020834848757135
14.146026584962863
-1.4667924795730232
14.964766031959142
14.908164990897076
9.424701437420223
13.78542808999829
11.477855004385153
13.089885619321873
-10.674900909078355
14.317638164037739
-5.215756455469886
14.242114978030477
9.794246959665587
17.43831261063764
13.091913137072853
0.7120794137127886
14.121529659168242
-8.020834848757135
14.146026584962863
-1.4667924795730232
14.964766031959142
14.908164990897076
9.424701437420223
13.78542808999829
11.477855004385153
13.089885619321873
-10.674900909078355
14.317638164037739
-5.215756455469886
14.242114978030477
9.794246959665587
17.43831261063764
13.091913137072853
-7.6252778713226474
14.706853300785822
5.270514378683272
13.440594592663427
13.327559947925659
15.752993945508225
9.750077437991239
20.186783856127246
23.265782408719414
21.363621029796484
16.667321411540733
31.969824248138508
9.601503149916443
17.99086157006228
53.21737863220398
36.32001180432068
9.666897662068006
30.874735683847447
-4.033882397874504
34.60673798433406
7.696392512595901
16.745221896274256
18.450464690436853
15.78564860265784
12.560021929206151
17.644841134405638
19.49183497478624
18.18505990936885
9.154116289568393
-43.622214371826075
-14.783901811401295
19.49183497478624
18.18505990936885
9.154116289568393
-43.622214371826075
-14.783901811401295
15.470859922179017
-24.89109724323196
6.104224670074018
20.69701661176176
22.430773268473533
-14.895405007078718
-2.6671335121087103
12.639370603970997
10.649926159103012
15.165740529902326
-1.2578982004321766
4.9706010629966535
7.361024668920432
11.49758846932258
17.976447155185188
7.643970156431738
15.516376413965812
9.032674426221684
6.211428408392494
4.692660048063172
0.7499665949054404
16.504194513964592
9.611224605320137
4.960289232534542
29.84770171973882
16.272899313753683
19.480400574503527
25.13902287843292
8.524105141223458
1.6047501461578395
-2.409898936536516
-3.688550965691204
29.754204936787154
23.546922499444623
12.205152875333402
15.9848907527555
8.584306592251759
58.56355654915254
-2.3976285703394105
7.967955825306252
35.632913187308084
17.279063034229015
69.19568425267838
15.002033706388934
6.138481546610453
23.760065455130956
-21.234120565370233
4.752004194416928
-7.279061454649594
8.814631001139261
7.585166016387278
7.508614150117479
9.588718265408167
14.01071838145498
18.08498992002042
18.672114697700223
6.859225857649786
-9.9705599212941
5.43240848906908
-27.843598101028316
29.331739918944557
2.5599462443310115
5.571970061203817
2.0214456561290217
11.839344818147362
14.613304311775513
7.938296860321568
3.377228573244841
10.16852204793484
12.111670364264013
17.015070232750123
16.522253801448553
9.870309204609477
2.5599462443310115
5.571970061203817
2.0214456561290217
11.839344818147362
14.613304311775513
7.938296860321568
3.377228573244841
10.16852204793484
12.111670364264013
17.015070232750123
16.522253801448553
9.870309204609477
17.18299614918348
89.18988539607122
22.20475908202282
24.58006761929951
25.708770184287424
31.453956025928782
6.033930435332455
9.593271012432371
6.128940791991287
8.749860457698608
14.263799121454335
12.26909333461188
8.944690691642284
3.40284133543102
8.629783270618828
8.193626756737736
7.545010238581816
11.01040010690097
16.789997203446575
10.381030220248597
5.166411127793901
15.671302581577837
0.7981045254068776
42.67928172668596
15.79896771013307
18.731174163762255
-32.86892008094686
23.607988727712957
15.79896771013307
18.731174163762255
-32.86892008094686
23.607988727712957
35.5704258992542
1.4815405545729057
3.1103675734236074
6.962470933775177
18.828179584764975
-3.780537227219603
3.537511245933144
7.45426159119431
62.24015070258155
9.695557834759287
-35.80354540763144
1.578073144714895
5.234509032494307
9.680437087819081
23.245190476666963
14.715953158611347
62.75590720306815
18.948766329302515
44.98950302963664
47.1424627698907
47.63508266294748
25.30091922672507
-0.901503573052586
19.58997269791351
-10.97404181746402
3.1250716286864333
25.30091922672507
-0.901503573052586
19.58997269791351
-10.97404181746402
3.1250716286864333
5.852315863960238
7.8071608501139
20.40475372840786
2.6752554962664465
8.550389017540782
15.2897970389494
10.171076729906186
19.415740128663508
-1.2769712791523518
20.99241033855603
22.431211902038402
29.076979517156705
22.197078063938196
26.637870430699575
24.14088465754557
29.076979517156705
22.197078063938196
26.637870430699575
24.14088465754557
35.781683196709906
-13.184241891230899
24.084891780591327
57.06965966314629
35.781683196709906
-13.184241891230899
24.084891780591327
57.06965966314629
32.6456307276181
10.085903184649897
1.9297550105502814
5.604799940911375
15.066408623818539
19.528043273247977
34.876314278455034
7.796444588037974
14.377482557858364
7.772301891819144
7.3453543994205654
23.20159603555727
10.670405175136326
3.313653342742505
10.787979997560038
14.671576717889637
8.924801511033932
14.499558475119091
12.117323836652599
12.289528392753322
40.37909188407522
72.41106220277186
29.55152931461469
48.61400253664036
18.603383392512765
2.7818356788098137
18.913277585907352
20.315934549693484
16.977934823125796
13.56271575004818
25.0069017473834
14.218667065226015
25.0069017473834
14.218667065226015
10.82512996055923
23.496054080496965
10.82512996055923
23.496054080496965
21.68513113217593
23.167811718469885
49.930429968830815
17.34293457681251
49.930429968830815
17.34293457681251
42.76878239504889
36.73724549650872
20.55703843205832
19.558332389917943
24.42567631424605
13.526029313373112
12.73059848183932
14.049411454144682
27.638224984139057
49.799634936020446
15.681085735363418
21.910990368619043
1.7987376486339068
33.46983244079872
22.92528214790421
22.004073655924667
76.13215929243181
10.145333975252715
14.08945147223663
17.038311736567117
6.302097692184452
18.91838959587433
10.145333975252715
14.08945147223663
17.038311736567117
6.302097692184452
18.91838959587433
0.13845855227228723
12.923838046676812
13.125596910098333
40.11811210984288
22.385228207155873
11.991269671748165
14.346375678722866
14.519019176983527
38.031335897546064
17.612044255742667
11.080136124111705
17.612044255742667
11.080136124111705
16.165385147824082
18.966715687481333
16.165385147824082
18.966715687481333
22.275131942855996
11.011014716617115
22.275131942855996
11.011014716617115
20.653989027667816
22.104479443910115
-0.6542672986614748
33.608878759022915
20.653989027667816
22.104479443910115
-0.6542672986614748
33.608878759022915
18.591247052853696
9.363702372949705
32.94993701052953
18.591247052853696
9.363702372949705
32.94993701052953
5.804286387091086
13.772277128799578
31.91454551014561
5.804286387091086
13.772277128799578
31.91454551014561
13.422178432572133
10.251199228081434
17.15039124657923
13.422178432572133
10.251199228081434
17.15039124657923
19.84932102453151
32.23405220265106
13.044805901185097
13.291820917245634
13.044805901185097
13.291820917245634
38.14746957060131
11.238800218333626
38.14746957060131
11.238800218333626
19.30839974817203
47.703683553490656
21.187364608949718
15.261593522394302
12.638037392294521
21.187364608949718
15.261593522394302
12.638037392294521
13.15777050702679
-10.692692100038647
-3.2796332605028797
9.91805489624538
8.763125197460624
15.91898250204113
13.467741621728937
3.6553860252330774
-1.3358139639218463
3.2603128952484846
12.78631987810839
7.546298781909995
13.15777050702679
-10.692692100038647
-3.2796332605028797
9.91805489624538
8.763125197460624
15.91898250204113
13.467741621728937
3.6553860252330774
-1.3358139639218463
3.2603128952484846
12.78631987810839
7.546298781909995
13.15777050702679
-10.692692100038647
-3.2796332605028797
9.91805489624538
8.763125197460624
15.91898250204113
10.775070760399416
15.948484476662506
8.81821567870562
11.698213506974787
22.490226535630907
3.6883796626362777
10.024976202774067
36.98491660119659
11.790506498034958
32.94166168115127
22.86057162397566
6.205668884899736
35.40402375324749
11.459482521200286
29.761766365224688
22.997207701039894
59.74472070433493
22.997207701039894
59.74472070433493
8.886267295152381
18.29713153224339
20.1754421575496
11.331083056347873
19.563931684762558
13.435087535342934
-7.9457402056257775
23.52161317939258
-8.276383509831263
11.601004016323524
8.54290039006867
15.931392044883848
21.583161470701405
29.725695663918955
13.32097170829045
3.7929845300370975
18.360861895234613
15.870371341800269
-19.989438836441366
14.2035840150591
5.858750275199759
-0.2796103359014379
-7.1800776284458045
62.15809261211387
11.014445198141651
36.95421610900653
20.53438810546541
31.81324682763597
34.44522051989934
20.53438810546541
31.81324682763597
34.44522051989934
24.04878500430499
38.04526557213689
24.136974064879972
27.753004898569397
24.04878500430499
38.04526557213689
24.136974064879972
27.753004898569397
11.308148249694153
42.67615641499486
26.35272092325187
16.686791024511617
46.74113740736775
20.286591360332924
23.734290657859187
5.260593437146017
23.793258556655914
18.458673287671925
23.734290657859187
5.260593437146017
23.793258556655914
18.458673287671925
29.598458665388037
5.665020377403111
24.54846794572106
19.709730382851305
14.342384357794176
15.607392874984383
27.035485183395227
11.195871437219392
65.65474466632298
51.10682441507921
41.24499501510372
8.907831188352112
28.414943820553418
8.907831188352112
28.414943820553418
16.034817377150816
47.85735822777216
41.632464245562815
6.148127309957255
-4.842004352112837
32.21628875323597
10.374094548393478
3.0898954862485404
22.752583985838182
14.442631183375976
12.795610679164035
-6.66098607000536
17.04545684986927
9.110322940513926
26.03536986201343
7.661705026729389
26.87433288408703
27.943545076165837
7.661705026729389
26.87433288408703
27.943545076165837
16.906871462099094
15.185370784499565
15.142506385537743
27.607987079410858
13.60415235030974
15.912900979813006
27.263258079257614
12.466196513691207
18.52331870659902
17.209383763619094
7.3278340779799365
15.912900979813006
27.263258079257614
17.209383763619094
7.3278340779799365
15.912900979813006
27.263258079257614
12.430009643935163
39.35655564634235
20.86539696278467
32.82759533119468
13.091304123785847
26.114884034237406
9.86212833936028
23.804395277344007
9.86212833936028
23.804395277344007
13.407001139879934
16.42724984624386
23.917015464715636
17.66025756922115
16.3246919685086
15.738954755043904
9.603120101168471
9.603120101168471
9.603120101168471
14.606280066670855
8.265976091424177
8.265976091424177
18.908624071047967
17.430911108126327
25.02635833750733
15.28153543436815
15.28153543436815
15.28153543436815
11.63992628550624
11.63992628550624
11.63992628550624
8.415301846884553
14.395960450554727
14.395960450554727
13.897005342319007
15.345968287966752
16.30524470135656
-10.183679537585066
36.96877719196757
19.37603060050819
11.417616310893536
-10.695540230966465
-4.208307563560481
4.90875744381958
-28.415247407359303
8.838130998371662
32.661350199392544
48.11861682846387
-11.462753889854932
-1.242800023176194
58.43500495774321
9.108310591545811
17.231565486767334
16.990656591473357
-1.242800023176194
58.43500495774321
9.108310591545811
17.231565486767334
16.990656591473357
4.932009179319459
6.861057661676704
4.771485433206949
-28.347299677435775
4.3251644519381856
20.867552164394066
10.969647498142653
19.325622488109534
6.65859795396443
-1.1511108101601237
23.45569479137932
1.561737671470247
8.350615308739993
15.574696874176821
17.821897719313675
9.586426511936985
-3.896760315119028
1.561737671470247
8.350615308739993
15.574696874176821
17.821897719313675
9.586426511936985
-3.896760315119028
10.232933125814684
39.60476681055786
23.038346101931637
12.60369005264722
10.232933125814684
39.60476681055786
23.038346101931637
12.60369005264722
16.465099833610417
32.179766805887716
17.32361672683919
16.465099833610417
32.179766805887716
17.32361672683919
14.301510172405647
30.664736114024404
7.832364274929769
14.301510172405647
30.664736114024404
7.832364274929769
-4.409479315753763
17.37837670969666
11.577965578866651
34.77710452981159
16.81476394621709
20.94698364458457
-4.409479315753763
17.37837670969666
11.577965578866651
34.77710452981159
16.81476394621709
20.94698364458457
15.14265750121192
12.795686121447506
21.01006042583379
-9.855254484035713
-7.1583073841897
3.030030685098317
11.842198981480303
36.469475952131816
12.213892246728271
3.276975824781756
9.22402231739676
6.633120337882233
21.487999913769443
-1.6191724086887338
4.687942049193847
18.22287057797259
-1.8972464923724572
47.11658751278544
11.695599915319924
15.07774899374915
6.274848157044442
-5.5364732354339
46.25960144198659
-0.32422800736739266
4.17941929865062
36.550459732312774
-2.7701692321650038
-13.992241328311918
7.427494813626721
25.60753198514961
7.495215695395805
-21.24482680093624
19.0606281047311
11.278253764215883
-4.739988318901209
-7.703990579652924
-19.801993231391563
0.3624942098917051
13.085427668954015
-8.17060708393326
6.85850339521651
47.755244255351805
-20.039226826538798
18.79941528247217
20.89856651592957
1.6256308915261064
2.0828450187210055
19.664726138982417
36.56213026647675
-22.09871395748751
3.8846590800268013
2.0387735361820027
6.205232562326164
9.148723119761293
-0.5694237816081218
6.386099658874478
18.08315469047033
11.392251767964131
19.502386708726014
12.643837911183834
18.9897629228486
23.43859672530708
70.44675115556588
13.742426939266519
9.273623949341468
-1.5330707685736271
13.141668757313445
8.814971800430662
9.706813999293546
43.40464303204943
3.194901273552155
24.69600794484177
4.806826938590871
15.61673514438219
0.914280239225051
20.356595066299494
6.51743391218131
22.06130515140999
-7.771235115422433
5.371933013626551
27.760505258734046
-4.652992317761569
7.759189700091415
30.60347427910219
-1.7557434489661183
-11.879736050708576
-10.133806086418407
14.163674525612027
20.569906066541133
1.5741152398201899
3.3340203654840184
1.555399601426358
5.812345524746703
17.060663671886246
80.3843635504579
22.13070016078394
8.631847346437343
24.956263787513826
39.159800882015034
15.661935686994937
24.432604214552875
-6.830102898495089
20.807501592824103
8.012750996659793
13.653674152021226
28.226925923547434
4.226052715805449
6.758241229432786
21.06445984983019
48.36238215674106
18.459814418853956
7.148680321258216
0.6047116416756935
3.202498856174151
13.256353659601098
3.387479524370285
-17.581766033457708
-5.005900103535783
53.20839742664453
9.74144165920241
51.644755001814936
-21.314929443039265
36.99829148434089
72.48551713138791
49.857314129733886
22.076149141995206
-12.970172142887783
0.279395972796884
29.11658395490634
1.1526752208031623
8.630994679990195
55.6269093556307
21.06711881288071
75.67599580200614
25.069906097843322
7.207521927679687
24.718121068427568
-22.992288194851263
15.075361311664341
23.44038096096123
-6.246641153283741
67.77368598572819
26.099980918865985
13.80209744038088
-7.38761955100319
25.89207912340829
55.872156537791234
30.588497977703714
27.510656056294295
7.500515726036113
29.1306752684507
7.469258907122912
14.172573301690512
13.123006473053763
11.607751861202626
69.6768028945923
11.642898367635876
14.081021648122178
11.642898367635876
14.081021648122178
55.451054569943906
11.574511333668369
19.66463190332011
21.956206391716954
19.66463190332011
21.956206391716954
13.336323202824932
22.51336994440943
13.336323202824932
22.51336994440943
35.27786574274389
27.523270420660907
17.479597512635543
11.707554639593234
15.837318144310538
11.28417578296686
15.837318144310538
11.28417578296686
17.20010834553519
36.02260689541363
14.840084737076406
28.03014790710168
19.858657166223008
16.84086046035252
12.857284543003669
14.360809783498683
4.351660071782371
12.857284543003669
14.360809783498683
4.351660071782371
21.98053577633265
7.0178022015900074
12.385057565162743
21.98053577633265
7.0178022015900074
12.385057565162743
5.239554555199625
11.512552688253356
0.5690630532439893
26.79245540008273
11.283255172081324
14.843093891940672
26.79245540008273
11.283255172081324
14.843093891940672
-12.805130722617283
9.801786604225846
-10.311434858179517
5.764627467251115
10.865643185022595
-12.44461169471024
9.404671419107808
8.363036391887437
7.374908174021663
9.185329780651156
-12.537773249147719
9.657093076017446
-10.143969480465717
6.309952492226982
10.92097946117934
-4.567127373270533
9.49854047835894
9.744355912390102
8.079199848702007
9.356597704519457
-12.805130722617283
9.801786604225846
-10.311434858179517
5.764627467251115
10.865643185022595
-12.44461169471024
9.404671419107808
8.363036391887437
7.374908174021663
9.185329780651156
-12.537773249147719
9.657093076017446
-10.143969480465717
6.309952492226982
10.92097946117934
-4.567127373270533
9.49854047835894
9.744355912390102
8.079199848702007
9.356597704519457
-12.805130722617283
9.801786604225846
-10.311434858179517
5.764627467251115
10.865643185022595
-12.44461169471024
9.404671419107808
8.363036391887437
7.374908174021663
9.185329780651156
7.70518770175567
8.405870760651272
2.7107252155149824
-6.387361931117706
12.229770851357705
20.55544076322166
18.87643097430168
19.577971443233643
5.884925242293692
8.374726904596038
11.687393710982874
7.1705240229910965
4.312455591915791
16.913381986366378
10.82891975605744
15.96370314095173
6.450172397511157
24.766174994996614
10.561576712579491
-4.3969009669836705
23.212857844920613
6.603994838536272
5.436424432649977
9.61563656512038
25.365258367919235
11.482429437438626
-6.640850938984472
2.2927146623937644
-1.3381961405661187
-3.3710810007693635
-7.357321862162573
-1.6678669608834729
12.932264735310971
5.926333210145671
20.04407805709622
9.63284576087291
3.4554579145766704
-3.027051239454743
24.723348944399188
45.713907274892456
14.364562756668633
3.9974987167504548
19.910551167725277
3.0508066721989673
5.642229873274481
6.248248162117147
17.560006911412433
-7.82653401440061
9.811984695455783
49.827427998529544
27.823177363051453
9.608265787663752
12.07374090000595
20.84865262065764
15.63732461556968
4.611766255055175
21.889979435583076
3.6970832480038993
5.959007120391627
4.108895361971085
18.04386157218238
-6.3800667656133045
10.137799834521012
50.5914272875732
28.211044102414004
9.947385899695982
12.331329446240465
21.386701157924467
3.712237105705958
0.3713495131353808
19.343574444732884
-12.346494638076347
-14.727493783511568
11.270368151764613
41.25566271036467
27.244384552979774
-10.250248698498568
30.781939725985843
13.54838600885579
3.541039026716287
26.04473488992446
5.664283650243194
48.474758280879335
-18.291796344394296
4.69767910936714
3.0773962929791647
13.85495973831717
-20.446763400767935
-0.9054261367980244
5.967139919711453
8.604173711223838
51.69325705836961
3.952597766765721
9.159376033738955
-7.370359466681004
12.266905843515548
14.829573818688274
7.649751149444534
10.397340645517662
1.3428078522743305
10.078153061030768
1.3044897043791683
15.370530154779473
13.87136961831968
7.260087413148672
10.078153061030768
1.3044897043791683
15.370530154779473
13.87136961831968
7.260087413148672
1.8206905214788414
3.3323494811284333
11.161005505903727
3.7616156942788272
4.1521234516653704
-10.076226279724805
3.755772216400324
-0.9080670819884555
3.975587652214318
11.216444491796125
3.790572286773471
4.22489499552211
-9.916634422791214
3.871342503059391
-2.4180053989179524
5.054057605555881
7.655240558483391
3.7027271312518844
11.051120545061991
7.146104788880629
-0.8594479994249536
-2.4180053989179524
5.054057605555881
7.655240558483391
3.7027271312518844
11.051120545061991
7.146104788880629
-0.8594479994249536
25.274464709773273
-7.7607773356961
30.842406133357798
10.641089438572013
5.405359736227931
5.3723252037824745
9.831743405562
6.986902370567368
9.782095626197073
-2.864511119857737
-5.586584848983002
-6.132584784741915
9.831743405562
6.986902370567368
9.782095626197073
-2.864511119857737
-5.586584848983002
-6.132584784741915
-24.758747691435904
5.40562668834507
10.568038421478724
-6.587461368097149
3.0869503747966673
13.844151583857876
6.005644036384085
-1.214790259625585
14.544492142784193
4.245214716400327
5.510448079972882
0.8786778617867805
6.005644036384085
-1.214790259625585
14.544492142784193
4.245214716400327
5.510448079972882
0.8786778617867805
8.176285792608226
9.216749895965716
-16.46600185287393
20.672545332644685
3.7719056903587713
-0.8243741425387956
8.176285792608226
9.216749895965716
-16.46600185287393
20.672545332644685
3.7719056903587713
-0.8243741425387956
-0.08471460710066851
-7.486755027728562
25.907011045499353
5.203996717444091
32.48026482599529
27.80650147953507
13.34248527801119
2.1731904018679717
7.159384075265073
5.071468968375569
11.310772480237228
61.721552151022586
10.225961054892949
-6.334654946962049
-12.916687371739778
-5.140977854016926
12.581569282578066
10.088392007327684
-4.404154748829191
-10.75298953442037
-3.206795774254149
12.46658763356137
10.225961054892949
-6.334654946962049
-12.916687371739778
-5.140977854016926
12.581569282578066
10.088392007327684
-4.404154748829191
-10.75298953442037
-3.206795774254149
12.46658763356137
10.225961054892949
-6.334654946962049
-12.916687371739778
-5.140977854016926
12.581569282578066
10.635786117228934
-7.803100799797271
-1.057206483791656
-19.776701195604968
10.40808872414965
8.934029716085899
-27.622811536558753
12.777660944675247
-0.432937191560442
11.59838667087913
5.821348240577262
-5.110522695869419
14.598612406383742
20.02816596900396
13.898094650912416
8.771349535837183
8.794708402621056
-7.957618074349347
5.830400128725005
8.938736075214596
8.420947379406671
-7.778903158910744
6.517184956802147
9.087812371157913
7.611539091356459
4.68269026565855
12.406910739815052
9.087812371157913
7.611539091356459
4.68269026565855
12.406910739815052
29.189094611391287
-9.358850505336639
17.217287415948725
13.952112962364868
7.444295642105759
60.22441091084474
6.523961121322536
8.133726563510699
-14.485175946820583
4.27686529116136
-19.83309779457716
6.5945823986275665
7.934219970054737
-14.376850611574465
3.854920811195215
-19.263710569592135
-24.46709615406815
5.48735348589438
10.711851529503758
3.3057007631620365
14.05436212468153
0.2795750101747336
6.969554125647514
7.777549641307643
-1.2510535810394492
7.301588956518274
0.2795750101747336
6.969554125647514
7.777549641307643
-1.2510535810394492
7.301588956518274
5.792631045637699
5.909253623713143
10.642627374953722
0.31693992752096767
-4.56678511250542
5.792631045637699
5.909253623713143
10.642627374953722
0.31693992752096767
-4.56678511250542
14.897145709725411
11.117866402016785
-44.49396243130468
17.3895060272166
7.412530140896642
15.01777694224295
5.390109058769785
13.186180894634917
14.921268133609745
87.80990937866237
-15.532786968841126
10.207178950466616
-28.536655619918786
-8.883458798715198
0.29222128902650824
36.939770086910414
-15.532786968841126
10.207178950466616
-28.536655619918786
-8.883458798715198
0.29222128902650824
36.939770086910414
13.879564429793284
12.156721904933281
-2.073968391794719
-10.732075385475014
13.413409785239526
6.852240489779787
6.255972794641043
-11.03852018674374
6.626877995415484
19.953065727855435
63.75332410010017
2.5035640630953964
15.47395945779849
-0.19789892962676675
32.25713661810619
10.802874494867716
14.973374123895606
-6.9943373142705845
18.04215697540425
87.49525778675279
33.41726609504011
21.151104106493726
2.5503941316200778
21.691661446112274
55.4674408438408
19.23021020607863
4.791794596758143
23.461183517088095
58.05834003912083
18.617751278584336
11.641223091773716
-0.21607065845914408
12.317887108919336
40.42292002743137
23.642959105920312
-0.4210581021053688
-7.159612488998253
35.99844045428778
18.827675666821914
-9.371264949259423
11.575486297619234
18.827675666821914
-9.371264949259423
11.575486297619234
11.266171653764003
1.3226147747092676
27.616761549173614
14.187494973096443
-13.58616599199824
-3.160818190632891
-4.756339045787636
-7.036661438368433
8.486235785494811
13.500269927199472
6.848570289123562
14.47651387986889
-12.280237465455368
-1.529983425279669
-3.9757087178687933
-6.331616574422329
-18.927631760699274
14.532364792253293
7.006778627234522
14.187494973096443
-13.58616599199824
-3.160818190632891
-4.756339045787636
-7.036661438368433
8.486235785494811
13.500269927199472
6.848570289123562
14.47651387986889
-12.280237465455368
-1.529983425279669
-3.9757087178687933
-6.331616574422329
-18.927631760699274
14.532364792253293
7.006778627234522
14.187494973096443
-13.58616599199824
-3.160818190632891
-4.756339045787636
-7.036661438368433
8.486235785494811
13.500269927199472
6.848570289123562
9.613087319401197
10.797637053559923
-1.5570392766151522
7.913751842875722
7.786898492491231
36.984140173061306
20.201351415408347
46.69049631896833
2.4453461931047924
9.425461064772367
1.3454305290564197
5.78068893709527
13.184385155024671
2.4453461931047924
9.425461064772367
1.3454305290564197
5.78068893709527
13.184385155024671
3.4393678734932402
11.069632680932065
1.751855960103842
-0.9522649208297879
22.494654796762077
3.4393678734932402
11.069632680932065
1.751855960103842
-0.9522649208297879
22.494654796762077
10.000092078235951
8.328434122881836
2.4472635087800843
7.698308058163694
40.3043688853626
10.000092078235951
8.328434122881836
2.4472635087800843
7.698308058163694
40.3043688853626
0.3128739954954445
12.933502543561213
21.58905513060024
45.289462737571725
21.100716442458065
45.302944590876336
11.671381741521941
19.464292441649626
16.448092693199346
14.260028474661127
0.5466363865954007
11.671381741521941
19.464292441649626
16.448092693199346
14.260028474661127
0.5466363865954007
14.937643987618975
29.697407741889325
20.192621360883113
19.183554273512637
14.725680358214056
18.904760764753572
1.640823445952167
48.01099933974374
59.08085382310463
18.80970778907719
13.218385464137324
20.1452336946534
18.80970778907719
13.218385464137324
20.1452336946534
23.910134427491137
18.63367391121925
9.701216576698283
26.359204887652584
16.754541736835737
9.69564060913843
15.38179914686587
14.62889925221987
10.020492975102734
5.928880679168254
15.59047325925643
14.381152192308386
11.131484491994458
7.803719228305535
9.2359053068569
10.837228280241755
6.298651355233548
8.738145702530957
22.705004758899975
13.94088488785663
26.104292263597294
22.63390723217551
34.8924553176391
-5.373900483140109
10.882222224825638
28.685235432844898
9.075389129350572
35.33605678353963
9.926252817728903
-0.5023122458205531
-7.621125573471978
36.24392142825556
20.01465441552233
11.564015235450642
29.686143266661404
17.2415058233807
10.494413314509176
22.707045333552042
13.459142801246976
6.239407194256034
9.772216248667563
13.582466469902593
9.805613582422136
23.81087039583787
12.768831818847381
8.493557122212179
55.78772846250494
-2.383678227414563
15.72281301590982
32.7357911356673
6.232920061281858
10.895240595866204
7.468866944517224
-3.0671406628836206
5.192003515860966
0.6187046775052478
91.73287455465086
14.258759426303046
8.254708597052085
36.64479510025598
10.406829287501798
26.14137281590707
0.18768689561253393
50.8658857968852
-4.328506214715882
11.00830072565562
8.509407531883618
13.510333960131485
-33.42697328820005
8.54358177813496
9.663196539366066
4.898962488281207
10.742431788945257
10.217473021826589
1.5640876785862647
-4.752381905834739
10.217473021826589
1.5640876785862647
-4.752381905834739
4.669827057483699
19.70097177429309
29.10832849852868
19.063309162759236
12.040653939339084
25.98484206265807
19.063309162759236
12.040653939339084
25.98484206265807
11.213038904049423
13.714793142259
20.386071614928174
13.497624811096875
28.867768656825323
2.6561424775701714
14.124962219030806
26.881891318392537
-0.4333334820661423
9.772893764532682
33.05571048666432
-2.8668791640257005
-5.150411432756922
15.141042976992669
36.94106676176453
-8.218703396187356
39.15801760692099
36.18946958845036
13.026301255976554
31.06132255065528
13.883241180705408
25.57148337645962
22.683981105900347
23.27570740377791
23.589462532097286
20.254597149697318
10.304181261473632
46.272282220757816
20.254597149697318
10.304181261473632
46.272282220757816
30.4397662006714
17.527273225397416
8.697470047411901
10.74040335687233
30.4397662006714
17.527273225397416
8.697470047411901
10.74040335687233
-0.9638707719272781
27.00028619307597
16.849905149845355
1.4667439167272631
42.09082524535948
12.651590430550849
19.431675580681823
19.237545481475593
19.431675580681823
19.237545481475593
19.431675580681823
19.237545481475593
3.0404161293730536
37.59375834354996
15.154138509886005
25.138190067978325
31.95329313187081
12.127922212655776
61.76425439538084
24.8415347984027
14.073366607439116
9.014106010410842
14.563993604806807
17.63040895022943
-1.1886656367372939
29.235637735917134
20.67245611339581
26.920087892655005
1.914817645377052
30.55173838360307
22.94289872262968
25.268848613158674
19.336455305840797
41.9139674528056
100.0635408110747
18.86872520040837
14.059387153116473
10.280350041972968
39.604673342752406
25.835724197316793
7.719222246130713
4.644213665837409
35.896800526238046
20.327275508745355
4.644213665837409
35.896800526238046
20.327275508745355
-5.487016991823281
13.993332138785652
11.465165062221253
8.78850987373223
-5.487016991823281
13.993332138785652
11.465165062221253
8.78850987373223
-5.487016991823281
13.993332138785652
11.465165062221253
8.78850987373223
-5.487016991823281
13.993332138785652
11.465165062221253
8.78850987373223
-5.487016991823281
13.993332138785652
11.465165062221253
8.78850987373223
5.848042369524219
14.772099339804333
8.712658053360414
16.57086458957979
7.544220435192086
6.4619217996004314
4.652925088813275
29.117641331363956
7.544220435192086
6.4619217996004314
4.652925088813275
29.117641331363956
14.393881162579053
5.6920972232734774
41.39146891140551
18.448569093178826
35.24429911031947
14.393881162579053
5.6920972232734774
41.39146891140551
18.448569093178826
35.24429911031947
27.469690825786206
21.60588223744171
28.2820757048492
36.16755086675184
18.948598582485346
33.53419326711935
13.739448317985271
64.24637950423264
-3.6356245877602458
15.170628152403475
36.61709064801816
23.48885489905344
11.195658155855599
10.244378332759203
-5.489097645411623
14.56476564825638
6.997354109260432
13.493279415413975
-5.489097645411623
14.56476564825638
-5.489097645411623
14.56476564825638
-5.489097645411623
14.56476564825638
-5.489097645411623
14.56476564825638
33.90872680434043
14.02554537506856
39.71818609683924
11.320240268139981
32.169765107473744
12.931849112894698
16.284733023125128
11.838012173633338
16.284733023125128
11.838012173633338
17.78532173182268
4.464581734391104
24.05607827932484
10.227954979933044
17.78532173182268
4.464581734391104
24.05607827932484
10.227954979933044
23.017124818632
-3.5316542774640767
-5.750683838108623
23.017124818632
-3.5316542774640767
-5.750683838108623
4.650252349684105
11.722170703773887
27.941035605316674
4.650252349684105
11.722170703773887
27.941035605316674
12.39262478647531
56.10894300664711
19.438725482557878
31.67140126297479
19.438725482557878
31.67140126297479
13.726685818717133
52.77827849684319
20.39021904634523
1.1886550122774455
30.195138109335826
11.323984003875813
-15.541462315558107
10.06575443484796
5.766413160955407
4.499911799828462
24.031639779513885
4.499911799828462
24.031639779513885
4.499911799828462
24.031639779513885
4.499911799828462
24.031639779513885
4.499911799828462
24.031639779513885
3.8028317570020738
17.62120317512846
4.421570729171587
14.946436458074064
5.928217684611065
14.569324403860293
13.32445431608251
18.717112642984905
13.32445431608251
18.717112642984905
2.7336257798170482
17.36383072051162
2.7336257798170482
17.36383072051162
3.3552474030766137
12.625729398903252
-10.794043979485394
19.21146658901956
-3.7531300136234096
17.440531286894966
9.368700427838236
24.590878785869197
9.368700427838236
24.590878785869197
9.368700427838236
24.590878785869197
9.368700427838236
24.590878785869197
9.368700427838236
24.590878785869197
8.842534245006462
27.86975405790062
5.651433596964454
13.850885291991565
18.88208175344169
36.73785281117866
7.955955051575195
32.19108762019011
7.634978946416297
19.68532075057926
3.5770820198008337
34.9162605840499
7.836265151780673
19.248770031961968
7.836265151780673
19.248770031961968
9.91655049970681
11.83514409455732
9.91655049970681
11.83514409455732
9.91655049970681
11.83514409455732
7.658383141136568
39.32968394546293
10.836418807012693
8.813193599657321
16.73128095755576
0.8079868416499235
16.73128095755576
0.8079868416499235
30.232352510872275
-16.49907626273032
30.232352510872275
-16.49907626273032
7.012178699015799
18.9608216341957
18.738107802057694
10.087518840964062
18.320226815239053
11.78051227890855
10.288269295016688
6.442045880716515
19.2507776817653
21.557648409277924
26.728818666808404
18.585130243914353
23.71155699970721
16.18346707067426
11.965929061005221
-7.063532352657441
49.581159122565154
11.965929061005221
-7.063532352657441
49.581159122565154
18.226515670828128
5.347005840219447
13.35464751697913
26.99501885374927
25.95863158544761
9.727721107467234
25.596932968363152
33.773934353267194
12.107340221814278
36.792841060901445
15.519327022050716
31.37385300597031
18.86042211227501
7.884215417899018
0.5476933096806595
8.041910719091494
12.112080088625401
5.084402494455445
10.104496070098415
18.86042211227501
7.884215417899018
0.5476933096806595
8.041910719091494
12.112080088625401
5.084402494455445
10.104496070098415
29.348851277237532
0.07973187309805141
9.570961389759155
2.498374425813582
9.354443781733496
12.729014073320926
7.364729635423188
11.686588376201321
25.274744205144366
21.05943008114002
6.903582948107511
50.59269259337418
3.985959923142608
15.393860407531545
37.922147941967324
6.700649521428138
17.426000499862443
9.661120070274052
17.388208960311733
21.746961340532163
21.933947344005443
35.88347430597119
34.87254444262196
16.386087697000445
30.222697445915806
43.389876740529665
0.5688101249663275
32.83207209028347
15.724873328631926
32.83207209028347
15.724873328631926
31.22242203430063
2.4462401447278155
38.62676805983155
32.46800706081241
35.14225287039552
-1.5024655143496735
16.461896569696655
32.115863824060845
25.501998005593713
8.322387304216896
17.9409489848834
0.2531900233995872
27.339113372320504
30.403789103081664
10.03410632750376
12.468132999174378
18.982798800838797
18.347347900209755
20.33193863504196
7.719694093563003
20.33193863504196
7.719694093563003
18.320660701312185
18.320660701312185
18.320660701312185
15.785441235734037
15.785441235734037
13.746822218417426
17.81709199626296
17.81709199626296
26.564326772697036
26.564326772697036
26.564326772697036
29.3716057138459
36.54717300874694
36.54717300874694
36.54717300874694
16.086886038223298
12.110420371788134
16.086886038223298
12.110420371788134
29.417544378683576
13.526994799606767
29.417544378683576
13.526994799606767
25.682061071379014
18.472770415451944
25.682061071379014
18.472770415451944
30.295622655028044
13.697901813843112
30.295622655028044
13.697901813843112
33.53017702747276
19.979630239514186
33.53017702747276
19.979630239514186
30.37690991445379
11.627796294203227
30.37690991445379
11.627796294203227
29.676264257901536
9.724080911445046
39.89912798854452
14.874193690726571
39.89912798854452
14.874193690726571
21.499056137428656
11.023830709884217
24.129028856632004
6.147642325377881
48.515178185992745
24.129028856632004
6.147642325377881
48.515178185992745
32.274566868207785
15.905288265651599
0.3929770741819406
28.260621400273322
19.528971949365204
20.605913632095135
28.260621400273322
19.528971949365204
20.605913632095135
47.314992734454655
-0.21988460619130212
32.319163743176375
1.9643420247196766
8.28705493959485
21.846302171005846
24.721585739344125
10.785351708177751
-12.317622616871374
15.149872196948431
14.322381446816395
12.189892268167537
-0.6578629873321007
48.11844446282722
14.322381446816395
12.189892268167537
-0.6578629873321007
48.11844446282722
6.744060021876465
15.594526260634703
-34.92291846512847
16.97435297842463
0.14934875071284104
14.596598413959017
13.46948194828088
3.200773219579198
47.910461895261754
17.990937060830827
6.840626500906136
-3.9191317968586166
-10.283539194761612
16.51190517256342
19.271549478958026
18.754522287599496
21.069054023506077
6.840626500906136
-3.9191317968586166
-10.283539194761612
16.51190517256342
19.271549478958026
18.754522287599496
21.069054023506077
45.93457089936233
9.44131754462936
11.859789862796069
3.365341403224006
5.007415067367331
24.23512335754209
9.827239164669216
15.691580382927757
33.41877304286466
24.23512335754209
9.827239164669216
15.691580382927757
33.41877304286466
34.82398465778674
13.746145247577065
-10.643538212502994
34.82398465778674
13.746145247577065
-10.643538212502994
27.899351854753128
8.941164973656658
26.505131359597623
27.899351854753128
8.941164973656658
26.505131359597623
37.572518520585106
11.808185021641604
2.7144092135742413
8.088087771051178
18.85873612059787
-14.849510895687422
5.979934589076737
22.787821924193718
16.16697209967426
27.573393477097945
9.398108251634396
33.662232758266875
8.601989704192022
9.326148110317236
16.61554901999856
10.40327386586913
3.5851445917882145
21.333153754668974
9.160266153209065
19.59394947506767
19.192420420256152
30.43807015334489
5.113999299990638
0.1427099033262706
37.10970548863239
33.28080224793343
2.99251107129689
9.72654694789014
51.75107452494097
22.084503849834025
33.12399096017046
5.365171129544425
20.172767189719
-18.266067716916144
30.627824067339205
12.759669182099168
44.33857880600957
30.627824067339205
12.759669182099168
44.33857880600957
11.81322882458215
15.506668058365673
13.06737386086626
54.277722316315845
24.419821288409533
11.33156405340502
17.531016988451867
24.419821288409533
11.33156405340502
17.531016988451867
21.75528223970432
21.81405119178373
35.75181024044362
21.75528223970432
21.81405119178373
35.75181024044362
13.614512074715932
13.131274912244486
19.90195291597172
13.614512074715932
13.131274912244486
19.90195291597172
13.614512074715932
13.131274912244486
19.90195291597172
22.008889205287154
15.90021223717715
21.84329179324361
22.008889205287154
15.90021223717715
21.84329179324361
28.70191695559762
-0.277617726651733
35.535137182394834
29.640462158983325
23.2516247134947
21.540019112694765
29.640462158983325
23.2516247134947
21.540019112694765
34.67162810195525
17.827142116379104
34.67162810195525
17.827142116379104
29.199809606576977
21.694701139294583
29.199809606576977
21.694701139294583
36.025612441067736
21.479745310195145
36.025612441067736
21.479745310195145
34.10704362546379
16.912840117530845
20.537680208806293
17.001266839069064
34.10704362546379
16.912840117530845
20.537680208806293
17.001266839069064
-6.248987676773474
19.15490778813634
9.720656512203124
9.351346552905095
10.817343816685462
10.165766812403325
14.39188719874857
41.01949469168786
14.723637905266374
14.39188719874857
41.01949469168786
14.723637905266374
13.620057188439453
9.019294516636931
9.307855872345339
23.375115670829103
12.812438895003885
35.60471526595898
2.0968505802240855
20.335729375942492
6.435997551116429
30.57990091176207
21.33322104480496
38.76298184766686
5.329570297440503
-28.075963521595014
24.05584714182709
44.39256204068458
20.666772096380235
12.18823482083657
28.79957395918995
32.22963833986838
20.666772096380235
12.18823482083657
28.79957395918995
32.22963833986838
17.189915787388394
15.604188267244524
25.406392553211266
1.5440504066372962
26.697056294532317
11.534583954753463
8.245049755611683
7.548181325969815
16.487135346900313
8.797744039947501
-7.693241652829395
10.914304161590263
-5.6477316928995
2.1749751104139987
-7.693241652829395
10.914304161590263
-5.6477316928995
2.1749751104139987
-6.000248559180077
10.811733315028079
-4.833193443624126
2.3969284971819853
17.82411906324709
47.964115628578696
20.062317813384933
4.250943368699279
11.327679665332418
12.305877343724399
17.09276819689197
16.673975286507446
10.576006664062856
31.676752655627485
-35.95528739919356
7.925180576251121
9.154709848404927
48.01051966162327
-5.090515850733376
10.652082939549768
10.908365567424742
10.283076712140332
21.941149776125584
7.129909963913631
17.944241854268938
32.99793100803593
14.8259977614742
32.99793100803593
14.8259977614742
24.641011814156155
44.45108517381023
24.641011814156155
44.45108517381023
24.641011814156155
44.45108517381023
24.66245923018019
40.76687174126233
14.919222588635769
15.859203694565405
14.919222588635769
15.859203694565405
14.919222588635769
15.859203694565405
9.378836533064247
40.985645963111
30.921967739589626
23.259527122564478
5.722591642364974
38.425512677371586
59.553454764089274
5.722591642364974
38.425512677371586
59.553454764089274
9.621189852572911
9.537153826817221
9.363208170285946
9.264547830604657
19.288491586996933
10.105929364636257
8.329296322180284
8.334910307872596
8.534834164335004
8.534834164335004
18.918871105357493
18.918871105357493
10.882922146526777
9.457142223602453
10.155971781709423
9.457142223602453
8.892331510403853
9.277913963918873
9.277913963918873
10.404781543551891
10.07230126494388
8.983454807241504
12.746461326610323
12.746461326610323
10.34847864029549
9.551381055704432
9.551381055704432
9.402766191936122
9.402766191936122
8.594370725592476
8.594370725592476
9.402766191936122
8.594370725592476
10.178128208343415
9.194865490460728
11.994353005896754
8.96048510868747
8.875460242999527
11.52932667900757
9.327484294647126
7.9704516826776555
7.9704516826776555
13.825160853999867
18.61628578924198
18.61628578924198
14.018774128500489
9.407011166452294
20.34146903352984
20.34146903352984
22.9809664280652
22.9809664280652
8.102184538635406
9.864385440980772
11.507344457288625
8.046373762846132
17.587394166109533
17.587394166109533
11.401009145885235
16.794476332672126
21.62428958739301
21.62428958739301
14.828223898597845
23.509046665927375
23.509046665927375
20.70353593561228
9.468321853077827
8.399950121200545
8.399950121200545
14.612378467671324
10.723525713781516
10.723525713781516
13.751762677282
11.925996059436681
11.925996059436681
11.61323304639877
20.910232280628108
17.300998010738994
9.101130294877484
17.055966055214956
17.055966055214956
17.080732133736603
17.080732133736603
19.90445234181392
11.195399558039393
11.195399558039393
10.008028110076065
12.868956968438049
14.188303537157415
12.868956968438049
14.964077029568417
11.419859847929295
11.419859847929295
11.419859847929295
11.419859847929295
11.419859847929295
11.419859847929295
14.043257816503154
13.037255704181517
15.116360157165818
15.116360157165818
15.116360157165818
10.74488086322633
10.74488086322633
16.73991934855567
13.809832541374373
9.299113265375983
9.299113265375983
13.278394040665066
13.278394040665066
16.37913101625432
9.989208475470479
9.989208475470479
9.989208475470479
7.78866814274765
7.78866814274765
7.755708664301315
7.755708664301315
17.468465640915117
14.523070977515713
9.005196399906747
9.005196399906747
15.482098816162534
17.102140891097683
7.7881675940199475
7.7881675940199475
17.321711053387364
17.321711053387364
21.551982494507445
14.04204804497616
20.63201648166059
8.011190319372036
8.011190319372036
23.205760889110344
8.386783663750894
8.386783663750894
15.027524168337077
16.4971612909898
17.922626929589374
10.933593030979145
10.933593030979145
10.933593030979145
14.178600166947245
14.178600166947245
20.543069274345786
12.99163223883512
14.181211221751536
13.356779830271293
10.68429405876821
10.68429405876821
14.9148429118968
7.712432604329505
10.21915561645636
10.21915561645636
11.433488408925847
11.433488408925847
11.433488408925847
13.814413738903296
