GIS
9
0.0
27

Population-Center
Nation
Commercial
Government
Other
State-or-Province
Region-Subnational
Water-Body
Educational
Bounded-Area
Building
Region-International
Region-Local
Continent
Air
Non-Profit
County-or-District
Region-National
Land-Region-Natural
Celestial
Subarea-Building
Address
Path
Water
Conduit
Plant
66
638 0
102 1
8 1 2
1 1 2 5 6 14 17
6 1 2 6
6 1 5
10 1 6
5 1 17
73 2
6 2 5
1 2 5 6 14
1 2 5 14
2 2 6
1 2 6 14
1 2 14
211 3
18 3 4
16 3 4 5
3 3 4 5 9 16
4 3 4 5 16
2 3 4 9
16 3 5
1 3 5 9 16
5 3 5 16
8 3 9
1 3 9 16
5 3 16
34 4
21 4 5
1 4 5 9
6 4 9
2 4 16
56 5
2 5 6 17
5 5 9
1 5 9 16
1 5 10
1 5 10 11 21 23 25 26
2 5 11
4 5 14
8 5 16
48 6
2 7
1 7 8 12 13 18 19 20 22
3 7 12
1 7 12 13 18
5 7 18
8 8
9 9
1 9 16
6 10
5 10 11
12 11
1 11 21
1 11 23
3 12
1 13
1 14
1 15
1 15 24
5 16
12 17
2 19
3 21
4 24
2 25
1433
PER
PER=schumacher
PER=hakkinen
PER=guei
PER=ouattara
PER=clement
PER=fox
PER=vicente
PER=madrazo
PER=andrade
PER=ojeda
PER=diaz
PER=roy
PER=patrick
PER=michele
PER=stein
PER=nixon
PER=staples
PER=fisher
PER=david
PER=devito
PER=meyer
PER=avery
PER=druckenmiller
PER=austin
PER=zaanoun
PER=robert
PER=gelbard
PER=wahid
PER=anwar
PER=clinton
PER=mulcahy
PER=e.
PER=shea
PER=terry
PER=john
PER=gary
PER=bob
PER=eddington
PER=abu
PER=talb
PER=ali
PER=abdurrahman
PER=forrester
PER=margiou
PER=george
PER=w.
PER=bush
PER=al
PER=kains
PER=kain
PER=bloom
PER=mike
PER=rogers
PER=minge
PER=steve
PER=holt
PER=dick
PER=zimmer
PER=mubarak
PER=rania
PER=ventura
PER=mohammed
PER=cheney
PER=weisschuh
PER=melvin
PER=doug
PER=modano
PER=phillips
PER=rodriguez
PER=alex
PER=scott
PER=boras
PER=hicks
PER=manning
PER=straw
PER=michael
PER=snyder
PER=smith
PER=koetter
PER=franchione
PER=owens
PER=bill
PER=carlos
PER=gore
PER=mark
PER=krikorian
PER=arebalo
PER=yasser
PER=arafat
PER=strom
PER=watts
PER=donnan
PER=jim
PER=dooley
PER=pinochet
PER=guzman
PER=szczaranski
PER=feduccia
PER=alan
PER=zhang
PER=zhou
PER=martin
PER=novacek
PER=holtz
PER=alexandrov
PER=yavlinsky
PER=yeltsin
PER=putin
PER=vladimir
PER=a.
PER=chirac
PER=don
PER=brown
PER=parkhurst
PER=joe
PER=larry
PER=little
PER=duncan
PER=thomas
PER=william
PER=h.
PER=o'connor
PER=kessler
PER=jack
PER=greenspan
PER=skrainka
PER=watson
PER=adams
PER=jefferson
PER=marshall
PER=chase
PER=taney
PER=hanlon
PER=proper
PER=freeman
PER=julie
PER=larson
PER=sandra
PER=bullock
PER=motamed
PER=brian
PER=park
PER=roelands
PER=perry
PER=lyczkowski-shultz
PER=graham
PER=bonds
PER=barry
PER=joseph
PER=lieberman
PER=andrew
PER=lehane
PER=dan
PER=d.
PER=douglas
PER=chapman
PER=lennon
PER=ono
PER=god
PER=jones
PER=roye
PER=mercer
PER=r.
PER=evensky
PER=levitt
PER=sullivan
PER=schwartz
PER=letterman
PER=madden
PER=magner
PER=joaquin
PER=karl
PER=paul
PER=ii
PER=danneels
PER=west
PER=maschino
PER=howard
PER=capellas
PER=king
PER=wolf
PER=jeff
PER=sarah
PER=wright
PER=steven
PER=ballmer
PER=murray
PER=bagri
PER=singh
PER=hayer
PER=malik
PER=dosanjh
PER=mounties
PER=haverty
PER=tom
PER=roger
PER=reif
PER=schreiber
PER=levin
PER=arthur
PER=ronald
PER=reagan
PER=johnson
PER=dailey
PER=buchanan
PER=pat
PER=peter
PER=shenson
PER=richard
PER=geraldine
PER=beatles
PER=sanders
PER=chaboudy
PER=ralph
PER=nader
PER=ruth
PER=quastler
PER=barbara
PER=mohtaseb
PER=monakhov
PER=obaiyat
PER=shaked
PER=barak
PER=ehud
PER=tony
PER=cenicola
PER=gingrich
PER=brooks
PER=hussein
PER=bashar
PER=kim
PER=gilbert
PER=kristen
PER=james
PER=perrault
PER=welch
PER=greg
PER=l.
PER=shaw
PER=robinson
PER=perkin
PER=suzanne
PER=koppelo
PER=sargent
PER=williams
PER=card
PER=baker
PER=iii
PER=sauls
PER=n.
PER=f.
PER=coburn
PER=stremlow
PER=carl
PER=fales
PER=gresser
PER=kahn
PER=jr
PER=cone
PER=kevin
PER=laurent
PER=zucker
PER=ancier
PER=garth
PER=kellermann
PER=dennis
PER=s.
PER=o'leary
PER=mcnamara
PER=haider
PER=navarro-valls
PER=wolfgang
PER=frank
PER=karan
PER=weiss
PER=idol
PER=anthony
PER=aristide
PER=jordan
PER=lemieux
PER=mario
PER=jagr
PER=craig
PER=presley
PER=gans
PER=b.
PER=dole
PER=kennedy
PER=white
PER=electoral
PER=college
PER=daghlian
PER=charles
PER=keele
PER=towne
PER=palestinians
PER=al-masri
PER=gillian
PER=findlay
PER=jamieson
PER=von
PER=fremd
PER=ashcroft
PER=clark
PER=glascoff
PER=ron
PER=lee
PER=boris
PER=marino
PER=m
PER=rick
PER=kostunica
PER=hosni
PER=hastings
PER=blystone
PER=engler
PER=sharon
PER=ariel
PER=fionnuala
PER=sweeney
PER=ben
PER=bradley
PER=jeb
PER=cain
PER=pope
PER=martha
PER=stewart
PER=tommy
PER=powell
PER=beard
PER=duane
PER=brad
PER=valarie
PER=morris
PER=myron
PER=barbie
PER=kathleen
PER=roberts
PER=jonathan
PER=aiken
PER=allison
PER=nicky
PER=gloria
PER=hillard
PER=holly
PER=firfer
PER=kandel
PER=edmond
PER=mitchell
PER=chuck
PER=kitty
PER=pilgrim
PER=natalie
PER=pawelski
PER=denise
PER=dillon
PER=spalla
PER=doof
PER=morelli
PER=rodney
PER=sutton
PER=gregory
PER=campbell
PER=ridge
PER=karen
PER=jay
PER=kerry
PER=jackson
PER=jesse
PER=warren
PER=claire
PER=barnicle
PER=yitzhak
PER=rabin
PER=debbie
PER=clock
PER=lewis
PER=gregg
PER=jarrett
PER=ginsberg
PER=abrams
PER=laura
PER=breaux
PER=joyce
PER=deborah
PER=hillary
PER=and
PER=thompson
PER=jensen
PER=scalia
PER=pete
PER=hager
PER=florence
PER=kramer
PER=tipper
PER=anne
PER=johns
PER=bryan
PER=hunt
PER=lisa
PER=myers
PER=colin
PER=shipman
PER=miklaszewski
PER=daley
PER=christopher
PER=chip
PER=reid
PER=pildes
PER=delay
PER=ken
PER=owen
PER=benajones
PER=alexander
PER=slobodan
PER=milosevic
PER=vojislav
PER=yates
PER=sidney
PER=sheryl
PER=corley
PER=brady
PER=maurice
PER=grammond
PER=dale
PER=gavlak
PER=harding
PER=master
PER=p.
PER=stephen
PER=drummond
PER=amre
PER=moussa
PER=albright
PER=al-assad
PER=mugabe
PER=grant
PER=ferrett
PER=mullins
PER=embeke
PER=florencen
PER=gubeni
PER=carolyn
PER=demster
PER=winfred
PER=horan
PER=eagan
PER=mcclauklin
PER=mcclauclin
PER=chezan
PER=awadi
PER=marco
PER=amidu
PER=berry
PER=carlo
PER=margaret
PER=deek
PER=london
PER=jennifer
PER=glass
PER=corey
PER=flintoff
PER=hewat
PER=ray
PER=tinku
PER=nesan
PER=catwell
PER=slate
PER=gordon
PER=boyd
PER=sander
PER=riche
PER=lucy
PER=craft
PER=daniels
PER=blair
PER=eddie
PER=mair
PER=rudy
PER=giuliani
PER=ginsburg
PER=day
PER=judith
PER=spencer
PER=gregor
PER=shu
PER=mu
PER=yeng
PER=lu
PER=yo
PER=ching
PER=dunkin
PER=kealty
PER=de
PER=philippe
PER=shatiney
PER=netanyahu
PER=benjamin
PER=ahmed
PER=marianne
PER=mcguire
PER=rob
PER=gifford
PER=garith
PER=mcclain
PER=mccartney
PER=madonna
PER=guy
PER=ritchie
PER=anderson
PER=mcclary
PER=maria
PER=delapasvela
PER=sherwin
PER=jessica
PER=levi
PER=firgossy
PER=ash
PER=hasina
PER=fujimori
PER=monticenos
PER=gbagbo
PER=alassane
PER=coller
PER=jeffery
PER=codover
PER=olson
PER=mcalary
PER=hymline
PER=w
PER=valentine
PER=baken
PER=belida
PER=abdullah
PER=bowa
PER=madeleine
PER=erekat
PER=sayeb
PER=kofi
PER=annan
PER=peres
PER=laurie
PER=cassman
PER=elaine
PER=bendrel
PER=boon
PER=katherine
PER=harris
PER=adam
PER=dave
PER=ted
PER=dangerfield
PER=will
PER=andy
PER=eve
PER=connan
PER=al-kidwa
PER=breck
PER=ardery
PER=christina
PER=paction
PER=alicia
PER=reu
PER=lawrence
PER=o'grossman
PER=christine
PER=carey
PER=taylor
PER=mary
PER=grinch
PER=hu
PER=dr.
PER=seuss
PER=lou
PER=silverman
PER=boucher
PER=garry
PER=coler
PER=zidane
PER=pele
PER=maradona
PER=semion
PER=lameu
PER=deforest
PER=beck
PER=mel
PER=martinez
PER=richardson
PER=o'
PER=berman
PER=westaway
PER=shlomo
PER=ben-ami
PER=hummer
PER=christian
PER=engenvick
PER=fidel
PER=castro
PER=li
PER=chen
PER=duan
PER=qihua
PER=jing
PER=kehenen
PER=daojia
PER=disheng
PER=ye
PER=xianglong
PER=dai
PER=alberto
PER=azis
PER=saddam
PER=igor
PER=peilice
PER=dekuliar
PER=cai
PER=solana
PER=tairan
PER=hao
PER=ding
PER=wu
PER=xie
PER=zhu
PER=mclauren
PER=jiahua
PER=zou
PER=hun
PER=sen
PER=ranaridh
PER=weidiaunuo
PER=sihanouk
PER=luo
PER=ramos
PER=xiaotong
PER=fei
PER=jierong
PER=kinkerl
GPE=suzuka
GPE=korhogo
GPE=dortmund
GPE=chicago
GPE=baghdad
GPE=amman
GPE=jakarta
GPE=jerusalem
GPE=london
GPE=banda
GPE=bellevue
GPE=shaw
GPE=copenhagen
GPE=frankfurt
GPE=matamoros
GPE=brownsville
GPE=santiago
GPE=austin
GPE=seattle
GPE=st.
GPE=tuscaloosa
GPE=geneva
GPE=rome
GPE=tokyo
GPE=vancouver
GPE=boston
GPE=chattanooga
GPE=portland
GPE=bethlehem
GPE=cambridge
GPE=saigon
GPE=hanoi
GPE=park
GPE=philadelphia
GPE=tallahassee
GPE=city
GPE=traverse
GPE=fife
GPE=lake
GPE=detroit
GPE=athens
GPE=phoenix
GPE=burlington
GPE=toronto
GPE=springfield
GPE=ramallah
GPE=decatur
GPE=berlin
GPE=cairo
GPE=arlington
GPE=beit
GPE=jala
GPE=gilo
GPE=hebron
GPE=moscow
GPE=grand
GPE=rapids
GPE=atlanta
GPE=nashville
GPE=louis
GPE=ho
GPE=chi
GPE=belgrade
GPE=beirut
GPE=harare
GPE=johannesburg
GPE=los
GPE=angeles
GPE=dakar
GPE=bronx
GPE=brooklyn
GPE=hollywood
GPE=beijing
GPE=delhi
GPE=shanghai
GPE=belfast
GPE=inverness
GPE=dornoch
GPE=quito
GPE=stockholm
GPE=aden
GPE=jericho
GPE=petersburg
GPE=seoul
GPE=chongming
GPE=nanning
GPE=beihai
GPE=hailar
GPE=manchuria
GPE=tianjin
GPE=helsinki
GPE=nanchang
GPE=zhangzhou
GPE=quanzhou
GPE=xiamen
GPE=special
GPE=jinan
GPE=chengdu
GPE=madrid
GPE=hangzhou
GPE=phnom
GPE=penh
GPE=houston
GPE=san
GPE=francisco
GPE=paris
GPE=tampa
GPE=costa
GPE=dallas
GPE=baltimore
GPE
GPE=mexico
GPE=washington
GPE=florida
GPE=new
GPE=york
GPE=of
GPE=hong
GPE=kong
GPE=palestine
GPE=zone
GPE=valley
GPE=economic
GPE=texas
GPE=aceh
GPE=west
GPE=island
GPE=denver
GPE=columbia
GPE=d.c.
GPE=kansas
GPE=ontario
GPE=urumchi
GPE=beach
GPE=miami
GPE=palm
GPE=district
GPE=pudong
GPE=ivory
GPE=coast
GPE=germany
GPE=iraq
GPE=united
GPE=states
GPE=israel
GPE=indonesia
GPE=japan
GPE=britain
GPE=china
GPE=jordan
GPE=denmark
GPE=lebanon
GPE=saudi
GPE=arabia
GPE=kuwait
GPE=egypt
GPE=afghanistan
GPE=italy
GPE=korea
GPE=russia
GPE=france
GPE=iran
GPE=yemen
GPE=sweden
GPE=canada
GPE=syria
GPE=taiwan
GPE=malaysia
GPE=greece
GPE=haiti
GPE=u.s.
GPE=yugoslavia
GPE=israelis
GPE=americans
GPE=australia
GPE=cuba
GPE=israeli
GPE=morocco
GPE=zimbabwe
GPE=thailand
GPE=brazil
GPE=senegal
GPE=us
GPE=india
GPE=japanese
GPE=ireland
GPE=northern
GPE=scotland
GPE=ecuador
GPE=bangladesh
GPE=bahrain
GPE=qatar
GPE=egyptians
GPE=bosnia
GPE=macedonia
GPE=albania
GPE=croatia
GPE=switzerland
GPE=russian
GPE=federation
GPE=finland
GPE=singapore
GPE=argentina
GPE=uk
GPE=peru
GPE=soviet
GPE=poland
GPE=tunisia
GPE=spain
GPE=cambodia
GPE=kingdom
GPE=east
GPE=union
GPE=vietnam
GPE=palestinian
GPE=authority
GPE=kosovo
GPE=north
GPE=america
GPE=timor
GPE=serbia
GPE=south
GPE=africa
ORG=francisco
ORG=boj
ORG=associated
ORG=press
ORG=ba
ORG=british
ORG=airways
ORG=go
ORG=airbus
ORG=nbc
ORG=wrestling
ORG=xfl
ORG=gema
ORG=hewlett-packard
ORG=mets
ORG=dallas
ORG=rangers
ORG=hollinger
ORG=copley
ORG=sun
ORG=daily
ORG=nokia
ORG=los
ORG=angeles
ORG=cycle
ORG=road
ORG=&
ORG=track
ORG=northwest
ORG=airlines
ORG=mls
ORG=soccer
ORG=johnson
ORG=wall
ORG=street
ORG=inc
ORG=broncos
ORG=plc
ORG=cisco
ORG=onvia.com
ORG=corp
ORG=micro
ORG=j.p.
ORG=morgan
ORG=nasdaq
ORG=market
ORG=co
ORG=paper
ORG=exxon
ORG=at&amp;t
ORG=exciteathome
ORG=time
ORG=warner
ORG=aol
ORG=microsoft
ORG=times
ORG=giants
ORG=pirates
ORG=atlanta
ORG=braves
ORG=sox
ORG=fox
ORG=channel
ORG=magazine
ORG=fidelity
ORG=camelot
ORG=music
ORG=trans
ORG=entertainment
ORG=merrill
ORG=lynch
ORG=citigroup
ORG=citifinancial
ORG=associates
ORG=compaq
ORG=journal
ORG=disney
ORG=online
ORG=capital
ORG=artists
ORG=marketwatch.com
ORG=word
ORG=net
ORG=group
ORG=voter
ORG=cbs
ORG=campbell
ORG=company
ORG=reader's
ORG=digest
ORG=blue
ORG=abc
ORG=investments
ORG=motors
ORG=tivo
ORG=comcast
ORG=sony
ORG=replay
ORG=replaytv
ORG=cable
ORG=directv
ORG=media
ORG=geographic
ORG=television
ORG=ge
ORG=royals
ORG=today
ORG=network
ORG=gabrielle
ORG=studio
ORG=donna
ORG=karan
ORG=lvmh
ORG=aic
ORG=ltd
ORG=c.i.
ORG=caisse
ORG=de
ORG=depot
ORG=mackenzie
ORG=financial
ORG=penguins
ORG=nhl
ORG=firestone
ORG=delta
ORG=mariners
ORG=cltv
ORG=nickelodeon
ORG=pepsi
ORG=quaker
ORG=oats
ORG=variety
ORG=nyse
ORG=boston
ORG=jingle
ORG=cats
ORG=msnbc
ORG=bridgestone/firestone
ORG=etoys
ORG=mcdonalds
ORG=dominos
ORG=ntt
ORG=mahiyan
ORG=guardian
ORG=ford
ORG=yahoo
ORG=jay's
ORG=denver
ORG=post
ORG=tribune
ORG=cincinnati
ORG=reds
ORG=major
ORG=phillies
ORG=amazon
ORG=kansas
ORG=city
ORG=chrysler
ORG=goldman
ORG=sachs
ORG=daimler
ORG=yle
ORG=rci
ORG=football
ORG=pittsburgh
ORG=reuters
ORG=ein
ORG=california
ORG=edison
ORG=corporation
ORG=manchurian
ORG=factory
ORG=appliance
ORG=equipment
ORG=bank
ORG=household
ORG=textile
ORG=import
ORG=export
ORG=rongheng
ORG=jiaxing
ORG=tianfa
ORG=silk
ORG=cr
ORG=first
ORG=duan
ORG=firm
ORG=panasonic
ORG=daewoo
ORG=deutsch
ORG=imperial
ORG=chemicals
ORG=southern
ORG=shandong
ORG=company,
ORG=siemens
ORG=motorola
ORG=mobil
ORG=ibm
ORG=chase
ORG=manhattan
ORG=ocean
ORG=electrical
ORG=affiliation
ORG=industrial
ORG=paris
ORG=templeton
ORG=hsbc
ORG=oil
ORG=communication
ORG=weir
ORG=electric
ORG=service
ORG=management
ORG=weather
ORG=white
ORG=power
ORG=america
ORG=corp.
ORG=communications
ORG=board
ORG=european
ORG=shanghai
ORG=office
ORG=xinhua
ORG=investment
ORG=resources
ORG=people's
ORG=co-operation
ORG=the
ORG=national
ORG=trade
ORG=u.s.
ORG=general
ORG=agency
ORG=industry
ORG=securities
ORG=united
ORG=budget
ORG=us
ORG=voa
ORG=voice
ORG=foreign
ORG=china
ORG=bureau
ORG
ORG=of
ORG=and
ORG=international
ORG=news
ORG=exchange
ORG=bbc
ORG=state
ORG=florida
ORG=ap
ORG=san
ORG=world
ORG=federation
ORG=chicago
ORG=east
ORG=league
ORG=2000
ORG=cnn
ORG=fund
ORG=gartner
ORG=in
ORG=sugar
ORG=newspaper
ORG=palestinian
ORG=medical
ORG=american
ORG=stock
ORG=research
ORG=organization
ORG=red
ORG=cross
ORG=arizona
ORG=washington
ORG=texas
ORG=massachusetts
ORG=law
ORG=business
ORG=artificial
ORG=hangzhou
ORG=hospital
ORG=new
ORG=york
ORG=association
ORG=park
ORG=radio
ORG=supreme
ORG=court
ORG=senate
ORG=taliban
ORG=commons
ORG=parliament
ORG=lords
ORG=duma
ORG=county
ORG=congress
ORG=marine
ORG=fisheries
ORG=fbi
ORG=appeal
ORG=electoral
ORG=transportation
ORG=federal
ORG=aviation
ORG=protection
ORG=fed
ORG=epa
ORG=circuit
ORG=congressional
ORG=representatives
ORG=knesset
ORG=consumer
ORG=defense
ORG=navy
ORG=customs
ORG=inspection
ORG=railway
ORG=ministry
ORG=affairs
ORG=economy
ORG=republicans
ORG=party
ORG=house
ORG=command
ORG=commission
ORG=committee
ORG=division
ORG=sec
ORG=nations
ORG=commerce
ORG=natural
ORG=joint
ORG=on
ORG=security
ORG=council
ORG=forces
ORG=economic
ORG=chamber
ORG=hong
ORG=kong
ORG=cambodian
ORG=chinese
ORG=emergency
ORG=department
ORG=high
ORG=college
ORG=administration
ORG=intelligence
ORG=immigration
ORG=states
ORG=rally
ORG=democratic
ORG=revolution
ORG=gop
ORG=scarlet
ORG=knights
ORG=palestine
ORG=popular
ORG=struggle
ORG=front
ORG=korean
ORG=unions
ORG=institutional
ORG=revolutionary
ORG=republican
ORG=conference
ORG=gridiron
ORG=bulldogs
ORG=union
GPE=eu
ORG=victory
ORG=coast
ORG=vatican
ORG=german
ORG=green
ORG=hezbollah
GPE=middle
ORG=monetary
ORG=imf
ORG=movement
ORG=campaign
ORG=democracy
ORG=solace
ORG=pbs
ORG=black
ORG=soul
ORG=positive
ORG=democrats
ORG=likud
ORG=technion
ORG=northern
ORG=olympic
ORG=socialist
ORG=team
GPE=integrated
GPE=reform
GPE=experimental
GPE=development
GPE=welfare
GPE=open
GPE=belt
GPE=tibet
GPE=southeast
ORG=un
ORG=physics
ORG=nato
GPE=autonomous
GPE=region
ORG=oklahoma
ORG=laboratory
ORG=institute
ORG=south
ORG=science
ORG=center
FAC=airport
FAC
FAC=rachel's
FAC=tomb
GPE=europe
GPE=european
GPE=asia
GPE=and
ORG=pri
ORG=for
ORG=club
ORG=boy
ORG=scouts
ORG=npr
ORG=museum
ORG=information
GPE=rhine-westphalia
GPE=minnesota
GPE=michigan
GPE=california
GPE=calif
GPE=alabama
GPE=iowa
GPE=wisconsin
GPE=nebraska
GPE=mississippi
GPE=louisiana
GPE=n.c.
GPE=hawaii
GPE=delaware
GPE=fla.
GPE=maine
GPE=british
GPE=state
GPE=wis.
GPE=pennsylvania
GPE=tennessee
GPE=arkansas
GPE=mass
GPE=massachusetts
GPE=mass.
GPE=carinthia
GPE=illinois
GPE=missouri
GPE=ohio
GPE=connecticut
GPE=virginia
GPE=carolina
GPE=jersey
GPE=dakota
GPE=indiana
GPE=oklahoma
GPE=oregon
GPE=sichuan
GPE=yunnan
GPE=guizhou
GPE=henan
GPE=province
GPE=zhejiang
GPE=jiangxi
GPE=shandong
GPE=xinjiang
GPE=jiangsu
GPE=bosnia-herzegovina
LOC=texas
LOC=abruzzo
LOC
LOC=east
LOC=south
LOC=northern
LOC=west
LOC=gaza
LOC=midwest
LOC=strip
LOC=bank
LOC=northeast
LOC=pacific
LOC=gulf
LOC=of
LOC=mexico
LOC=adriatic
LOC=sea
LOC=harbor
LOC=river
ORG=rutgers
ORG=university
ORG=georgia
ORG=north
ORG=carolina
ORG=school
ORG=academy
ORG=stone
ORG=shantou
ORG=studies
FAC=international
FAC=square
FAC=o'hare
FAC=zoo
FAC=la
FAC=guardia
FAC=st.
FAC=peter's
FAC=park
FAC=center
FAC=bletchley
FAC=university
FAC=capitol
FAC=vatican
FAC=white
FAC=house
FAC=supreme
FAC=court
FAC=hospital
FAC=hotel
FAC=securities
FAC=building
FAC=un
FAC=hall
FAC=hill
LOC=middle
LOC=mideast
LOC=asia
LOC=jerusalem
GPE=europeans
VEH=flight
VEH
ORG=sierra
ORG=zoo
ORG=oregon
ORG=public
ORG=amnesty
GPE=dale
GPE=county
GPE=leon
GPE=miami-dade
GPE=guangxi
GPE=zhuangzu
GPE=hulun
GPE=buir
GPE=league
GPE=lujiazui
GPE=financial
GPE=trading
LOC=popo
LOC=mt.
FAC=ward
FAC=c
FAC=office
VEH=blue
VEH=merlin
VEH=cole
VEH=uss
FAC=suez
FAC=canal
30.12063362131583
27.394101139004572
28.108385687086127
25.338637773612948
20.723208269346582
23.340677703722193
25.79745532849628
15.171935218620852
28.108385687086113
28.108385687086127
28.108385687086127
23.75333050062683
25.87252670884153
20.14491167318489
18.75988602090772
23.710681818950796
24.514508494400093
28.108385687086127
26.768186484713926
20.325198523952892
28.108385687086127
25.131226145906805
23.647321005732532
23.782100845906026
23.17311220394159
28.108385687086113
19.347450465662835
26.989862797806953
25.918489643841788
28.108385687086127
26.427735452372385
23.626584003233862
10.211407892316567
27.458734182701093
20.431326625051014
20.237360520536654
25.45684762858418
18.83294756772009
28.108385687086113
19.494715933900128
16.00760875128048
25.19389353464582
15.133816866995089
24.425931202479184
28.108385687086127
13.271341578849164
11.416465037471282
25.426817553314695
16.49055594156489
28.108385687086127
24.94933547262317
23.340677703722193
21.107699393080154
23.347724585951553
23.60585124183945
25.38304084507375
26.05743846175198
17.497025313807477
23.811779234590237
22.82953615137767
28.108385687086127
25.510087214832392
24.337310671974688
22.488825716502586
28.108385687086127
25.945584047496375
23.125261361730804
23.565188468775577
26.279291769837485
27.450482145462352
20.6045806417563
21.25495090011377
23.510284922030976
23.125261361730804
28.108385687086113
23.341587415886003
20.04278027160114
24.652358162958382
22.902507471433918
28.10838568708614
24.15722157486891
26.11450905541838
18.01350949584182
28.108385687086113
25.497674519909232
20.282304764181113
23.63042925541819
28.108385687086113
15.789503362321334
23.784619692692015
28.108385687086127
28.108385687086127
27.258098139735363
17.932267140878032
28.108385687086127
28.10838568708612
28.108385687086127
28.108385687086127
25.29474704681519
19.74666290096507
26.591313889912715
26.215715644247258
17.29154291716413
23.61003965208624
25.977631357219067
23.340677703722193
28.108385687086127
25.510087214832403
25.236728260268055
21.03013650167127
11.560273038758849
28.108385687086127
20.078740485855786
22.818566327177287
25.292561596873796
19.911361760377993
15.418391187064241
24.042362249735234
25.41711702217958
21.436366690482746
22.781948839226384
12.19412856639056
19.978238997302903
28.108385687086127
23.3154762542689
22.527155966599167
23.632400450186726
23.340677703722193
23.628677645737483
25.25190049405921
25.304696177260322
28.108385687086113
21.968622687165105
26.779413499141537
23.60585124183945
23.330232933329302
21.133196819650884
27.63610068730714
13.298142232054058
24.356083997901344
23.858586362732737
27.057853874218193
23.03137711354749
25.13491284531452
25.01891913586734
28.108385687086127
28.108385687086113
25.741890949537996
19.602452114442844
18.96969075801017
22.054259275103846
21.443234466584382
28.108385687086113
24.366415009717574
17.944145923006396
23.267373752022156
27.012138391610012
22.54500476412054
28.108385687086127
28.10838568708612
23.071116551345302
25.56616331852617
28.108385687086127
13.599276830909798
24.31550643767872
26.49260159910839
19.16894614902208
23.888200374191324
28.108385687086127
23.63042925541819
28.108385687086127
16.969697561865328
28.108385687086127
14.06762546587185
17.637653883966067
28.108385687086113
28.108385687086127
28.108385687086113
23.498812035362185
25.281883726474472
18.729513580097247
22.055578057045288
22.051472874816177
23.453889105224064
26.515773797623176
20.227720956581077
23.688362981731988
16.51284593517166
26.05287317962402
19.84900924639306
23.62777087976443
25.291967121954094
28.108385687086127
28.108385687086113
25.5334672099987
25.945584047496382
24.38499022077996
23.597818134482512
26.49715695169735
28.108385687086113
19.759104432795443
16.046974739718852
22.91790739102918
20.288556886421613
23.510284922030976
27.280280198582776
23.46849623414154
25.514812317069666
28.10838568708612
22.144020823223062
28.108385687086127
28.108385687086127
21.121583995626057
25.34209679690393
17.16358644531165
25.797948517040034
21.5101400484122
23.52182119996389
24.351028646500662
28.108385687086113
28.108385687086127
23.95751135241871
28.108385687086127
24.10739461400763
15.692401926732503
17.5940671928905
17.547408692101
28.108385687086127
23.047533342577474
15.737577079724623
24.366415009717574
25.13491284531452
26.215715644247258
15.039686248618992
21.281083814383244
23.618857580653405
25.26793519036073
28.108385687086127
12.228962189818759
28.108385687086113
27.229803358929267
28.108385687086113
21.093373965618923
26.74764912452776
24.38531830112468
21.25076608090102
26.945413356254182
11.996245790752742
8.530833088269288
23.39327242331547
10.785444995031778
10.69760096139566
26.49715695169735
27.356650898055065
23.340677703722193
23.340677703722193
25.293149107013445
16.925211636399435
16.841218947370407
27.11586975248241
25.936764898620936
23.192907160800715
26.728894089224802
27.0725514539844
23.029989622531062
23.637286945186638
14.639436585047637
14.06075928507419
24.477963424812312
23.61003965208624
28.108385687086134
17.714256340789195
23.340677703722193
23.555643573276736
28.108385687086134
28.108385687086127
25.365720334019326
28.108385687086113
28.108385687086127
25.281883726474472
27.672006686654708
20.815304276750076
28.108385687086127
16.454929698609078
28.108385687086127
25.73951269621595
12.813498317992845
17.20896696556587
14.248471489101124
28.108385687086127
17.5558242249738
17.5558242249738
23.59641437225182
22.055578057045288
23.565188468775577
22.101183243327394
28.108385687086127
23.26104127185716
17.555824224973808
17.555824224973808
17.208966965565878
11.607693554721079
11.607693554721079
26.06232377871774
25.510087214832403
17.208966965565878
23.25965971880537
20.80476469885625
15.261959723613296
23.26104127185716
19.507544136311974
25.661617202812284
21.779587207812547
16.068991894660382
28.108385687086127
16.262662636535328
23.647321005732532
21.167697145132582
16.553865306093588
17.555824224973808
17.555824224973808
22.14662702336799
16.676798559235415
18.53218075757885
10.74356262736908
25.918489643841788
16.553865306093588
21.167697145132582
21.797312873482312
22.903042741187363
17.070485222026218
23.192907160800715
23.467229297577877
17.555824224973808
17.555824224973808
20.05681472421643
26.609828638949658
24.229911337081305
15.208045781000044
22.171067533949504
16.265282089258548
28.108385687086113
28.108385687086127
17.555824224973808
17.555824224973808
16.265282089258548
22.171067533949504
16.856443404586816
15.133816866995089
20.93236901457245
24.71054100736354
17.555824224973808
17.555824224973808
17.555824224973808
17.555824224973808
17.555824224973808
17.555824224973808
25.257130055784152
28.108385687086127
17.456562151312454
16.118383116532456
23.919986999606824
16.837559914128597
16.126768151711964
23.125261361730804
25.945584047496375
28.10838568708612
16.85525051618238
25.510087214832403
15.26195972361329
16.91832295359728
20.943585829579423
16.683368339940127
23.340677703722193
23.340677703722193
23.340677703722193
23.618903454068136
23.63558090080956
17.555824224973808
17.555824224973808
16.26984565948121
15.608871939485695
21.974173353734013
23.647321005732532
28.108385687086113
28.108385687086113
17.246294016075247
13.710133076286795
15.549093926666066
16.683368339940127
28.108385687086127
21.547088434560358
17.1797737619734
17.555824224973808
17.555824224973808
28.108385687086127
20.843967889174525
16.8924579512329
28.108385687086127
25.38122159256487
17.555824224973836
17.5558242249738
16.049885752079867
16.61682748343809
17.456562151312454
23.388702413505513
22.09286710393568
17.5558242249738
17.5558242249738
15.210069646289464
23.125261361730804
23.50487634084682
22.171067533949504
16.265282089258548
23.340677703722193
16.186115172724573
22.443141728590795
16.378493534611415
24.9133592223222
15.446834340521466
17.555824224973808
17.555824224973808
16.297245381991424
16.963720330254322
17.71554113019453
17.555824224973808
17.555824224973808
16.538444903364674
28.108385687086113
16.450570454356065
19.819743929961735
16.836297360012107
17.5558242249738
17.5558242249738
23.95751135241871
15.608871939485695
26.794162573048972
17.555824224973808
17.555824224973808
17.5558242249738
28.108385687086127
17.555824224973808
17.555824224973808
17.555824224973808
17.555824224973808
17.555824224973808
17.555824224973808
28.108385687086127
21.26248662902809
23.331144295979172
16.837559914128576
28.108385687086113
28.108385687086127
17.215372654407574
17.641187254436353
25.945584047496375
28.108385687086127
28.108385687086127
23.125261361730804
20.074933959946243
16.862615570656644
20.07493395994625
16.862615570656644
15.284984140491291
23.957511352418706
15.737577079724623
16.86261557065665
23.846783682675188
17.555824224973808
17.555824224973808
15.261959723613296
11.456346685147052
23.706744936536136
17.555824224973808
17.555824224973808
21.677413190587
17.547408692101
17.299274190422942
17.620683100963078
17.555824224973808
17.555824224973808
23.486430354847105
11.663827908570562
17.555824224973808
17.555824224973808
28.108385687086113
20.121605502315578
11.949971076637043
11.949971076637043
18.757369888360163
12.130045045684433
12.130045045684433
28.108385687086127
16.845995214948882
23.125261361730804
23.957511352418706
15.737577079724623
22.171067533949504
16.265282089258545
28.108385687086127
17.555824224973808
17.555824224973808
17.206377163967314
17.64509953329717
23.957511352418706
15.737577079724623
24.255083507218384
28.108385687086127
22.91790739102918
16.046974739718852
22.067378129654863
16.837559914128576
17.113046558913748
17.67513145257351
23.706744936536136
20.22537034741932
23.52191566505105
26.115572662439366
28.108385687086127
28.108385687086113
23.957511352418706
28.108385687086127
25.13491284531452
16.67868513845345
16.837559914128576
25.046805834267577
25.046805834267577
28.108385687086127
16.837559914128576
15.257630304313658
10.65451283065725
28.10838568708612
25.933198804811724
16.722638770722813
23.187825337866897
25.5334672099987
15.737577079724618
23.957511352418706
15.737577079724623
16.553865306093588
21.167697145132582
28.108385687086113
17.555824224973808
17.555824224973808
23.340677703722193
28.108385687086127
25.34009348516335
16.265282089258548
22.171067533949504
28.108385687086127
23.644003574008533
23.511626439047753
22.186915510906548
16.050113951377643
23.056642196872325
17.555824224973808
17.555824224973808
28.108385687086113
17.555824224973808
17.555824224973808
23.192907160800715
15.936310679861045
17.555824224973808
17.555824224973808
24.496723325451867
16.8924579512329
28.108385687086127
20.969150973836403
23.77965840904155
19.317439530415307
28.108385687086127
14.402831335331376
16.18804795865453
18.133537715280426
22.13952793785944
16.94019107371451
16.262662636535328
28.108385687086127
16.837559914128573
28.108385687086127
28.108385687086113
28.108385687086113
23.811779234590237
26.023519894085965
15.832305547525943
17.720716969925647
23.340677703722193
23.340677703722193
17.44881826289196
15.378000314232917
16.81647010378289
23.60585124183945
17.555824224973808
17.555824224973808
26.707824177906403
23.061000089725407
28.108385687086113
16.265282089258548
22.171067533949504
25.918489643841788
28.108385687086127
22.237471929199543
15.822433699440072
17.681939654140052
28.108385687086113
15.133816866995089
17.5558242249738
17.5558242249738
17.5558242249738
17.5558242249738
15.737577079724623
28.108385687086127
23.95751135241871
28.108385687086127
17.555824224973808
17.555824224973808
28.108385687086113
28.108385687086113
18.846848601645842
16.553865306093595
21.16769714513256
28.108385687086113
28.108385687086127
28.108385687086127
28.108385687086127
17.555824224973808
17.555824224973808
17.555824224973808
17.555824224973808
28.108385687086127
28.108385687086113
28.108385687086127
28.108385687086127
28.108385687086127
15.516081317991
15.516081317991
15.039686248618992
28.108385687086127
32.64529635657599
32.64529635657599
32.64529635657599
32.64529635657599
32.64529635657598
32.645296356575976
32.645296356575976
32.64529635657599
32.64529635657599
28.631648297542096
32.64529635657599
30.653012418026965
32.645296356575976
32.64529635657599
32.645296356575976
32.645296356575976
32.64529635657599
32.64529635657598
32.645296356576004
23.677954447406467
32.645296356575976
32.64529635657599
32.645296356575976
32.645296356575976
32.64529635657598
32.645296356575976
32.64529635657599
32.645296356575976
32.645296356575976
32.64529635657599
32.64529635657599
32.645296356575976
32.64529635657599
32.64529635657598
32.645296356575976
28.045068284740378
18.356410183636473
19.86113714643654
19.86113714643654
32.645296356575976
32.64529635657599
32.64529635657599
32.64529635657599
32.64529635657598
32.64529635657599
32.64529635657598
32.645296356575976
32.64529635657599
32.64529635657598
32.64529635657599
24.482126474191936
18.47962876420986
32.645296356575976
32.64529635657599
32.645296356575976
19.86113714643654
19.86113714643654
32.64529635657599
32.645296356575976
18.72647679718935
12.546554220672629
12.546554220672629
32.645296356575976
32.645296356575976
32.64529635657598
32.64529635657599
19.861137146436533
19.861137146436533
32.645296356575976
32.64529635657599
32.64529635657599
32.645296356575976
32.64529635657598
26.440849821058162
32.64529635657598
32.645296356575976
32.64529635657599
32.645296356575976
32.645296356575976
32.64529635657599
32.64529635657599
32.64529635657599
18.72647679718935
32.64529635657599
32.645296356575976
32.64529635657599
30.770162294062363
29.348146469813454
32.64529635657599
32.26031064939605
32.64529635657599
32.645296356575976
32.645296356575976
32.645296356575976
24.37307008501043
14.52683483193742
32.64529635657599
32.64529635657599
32.64529635657599
32.64529635657599
19.86113714643654
19.86113714643654
29.89172575406302
14.64880898464469
21.82424342313532
2.000588260311645
16.807480252523522
20.00322403627
26.7668287572767
25.060504743763296
26.7668287572767
25.060504743763296
23.723706525687664
28.25565929450885
23.723706525687664
28.25565929450885
23.723706525687664
28.25565929450885
28.640893331652393
23.704791056337974
-2.1775509157381077
19.75192710373596
-1.5929796570708152
2.280549895540011
-8.968477249604003
30.22303858117449
13.497340166201202
27.992764472292656
4.705548512160052
14.024885033541741
-14.231075499063005
-9.682988423518962
33.7082307685196
13.829417563775852
-6.267236948970019
23.473508368457654
18.134335750199924
13.000582690328912
8.716154814944101
22.815709716403045
10.093274641030705
-3.0575586764928073
19.138524570916438
22.81097985625761
19.138524570916438
22.81097985625761
22.480660157764245
52.482834294105835
4.27728904186995
20.66909096942589
27.97364799552949
15.616388456872636
4.802097948082727
20.096317844894745
-5.814255296527998
36.3113131970127
16.155511997606364
32.49750988827032
24.60229413767272
29.524450812435838
14.732931344514302
34.215432744006
29.586417919237572
23.588387706693062
11.541405219031885
21.738748239919566
23.925796327360842
32.412596239402546
13.131642063041062
35.17866973078581
23.925796327360842
32.412596239402546
27.093271829698395
29.341794959405508
21.11955442504553
26.346526391349826
29.083778401954454
28.23798010335584
-10.371355799280618
28.05109586277306
0.19297191900257288
33.16149615726188
13.17817572296882
46.595871500213875
20.993116443564134
20.993116443564134
35.00382920916076
35.00382920916076
20.8220091808877
21.267100762920116
35.00382920916074
35.00382920916076
35.003829209160756
35.00382920916075
35.24583180959874
35.00382920916076
35.00382920916075
35.00382920916075
20.993116443564134
20.993116443564134
35.00382920916075
35.00382920916076
35.00382920916075
35.00382920916076
30.388170585095203
35.00382920916076
35.00382920916075
35.00382920916075
35.00382920916075
35.00382920916075
35.00382920916076
35.00382920916075
35.00382920916076
35.00382920916075
35.00382920916075
35.00382920916075
35.00382920916075
35.00382920916076
35.00382920916075
35.00382920916075
35.00382920916075
35.00382920916076
35.00382920916075
35.00382920916075
35.00382920916075
35.00382920916075
35.00382920916075
35.00382920916075
35.00382920916076
35.00382920916075
35.00382920916075
28.633593012714634
18.490822453132278
35.00382920916075
35.00382920916076
35.00382920916076
35.00382920916075
35.00382920916075
35.00382920916075
35.00382920916075
35.00382920916075
35.00382920916075
35.00382920916075
35.00382920916075
27.63722723203091
18.83038376882696
35.00382920916075
35.00382920916075
35.00382920916075
35.00382920916075
35.00382920916075
30.752950163322467
35.00382920916075
35.00382920916075
35.00382920916075
32.44029770375242
15.777575452573878
13.400638877345527
37.092553350150226
8.741550187416602
34.68736322586875
34.785883618638934
33.09467828292329
15.374037452096411
30.042862885422487
15.374037452096411
30.042862885422487
26.462414934900288
51.9326363024207
-4.309719723593147
29.83661870940562
18.10612203719931
44.46984219424545
33.487507969030965
26.266487795799087
23.0182145336047
27.381060303511305
21.85688136377086
30.373696978010337
28.09026733889627
20.017375647061805
11.695150688043952
-8.710275364752418
15.568781133029528
55.0701954429886
22.474784391470926
31.555672972994866
18.923940373311876
18.612745127674735
31.555672972994874
18.14787870720686
18.14787870720686
31.555672972994874
31.555672972994866
28.89288221604355
17.983776806197813
31.555672972994866
31.555672972994866
30.18005671215228
29.87184232790733
28.21723089365656
27.516595666332936
29.399779705974346
29.865114009405417
24.68449092528539
25.704269215253245
31.555672972994866
16.957581246444327
16.957581246444327
22.28946612421061
14.61828572927369
9.854685172376135
14.61828572927369
27.957381811477354
22.850990684710098
31.555672972994866
22.865934054788827
15.607725755622106
16.857276040234975
19.188614500651223
25.67396672577823
30.5507916706702
28.64913221502023
31.555672972994866
26.292549396844603
18.94080902210928
26.909755438409757
17.504455862510593
17.504455862510593
28.76871892123813
15.97606301298077
22.296537837367556
21.834177639791
27.571809358114898
31.555672972994863
31.555672972994866
20.63824265659571
20.63824265659571
31.555672972994874
31.484339456124246
21.73012867479602
28.022999118611565
31.555672972994866
19.29951787127142
19.29951787127142
22.107865965113202
27.582810900706818
20.94908797180035
26.036463832600738
28.51764397944938
24.866153664511465
17.636873955698135
13.559228795051302
17.327927180637623
19.299517871271412
19.299517871271412
31.555672972994866
31.555672972994866
31.555672972994866
31.555672972994874
15.513290427670356
29.307625105238447
23.168468414475075
28.83442975238367
28.854167422929237
31.555672972994866
20.901569246950807
20.901569246950807
25.535060520411765
23.761780873904364
29.984753145355832
26.589224831045776
18.059507095954828
14.991450595717703
14.991450595717703
23.025075039484914
29.0603826906548
21.843052293661096
21.7197327696153
29.69983680844065
31.555672972994866
31.555672972994866
31.555672972994866
28.29490724715561
24.617990548427095
31.555672972994866
32.36085201297522
26.41858381319245
9.961613534658735
30.43019149872653
25.553552064527672
31.555672972994863
30.196490721805368
28.688136946234987
16.396074110350362
17.77017770522294
17.77017770522294
31.55567297299488
29.877213447857077
21.15183103603725
25.182503778318143
14.230582329166959
14.230582329166959
14.230582329166959
30.34930631923168
16.80067443321571
28.016917854536135
31.555672972994866
31.555672972994874
28.409700096493985
31.555672972994866
31.555672972994866
31.555672972994866
31.555672972994863
25.73537023859683
17.363575020251783
26.34764486858429
31.555672972994866
28.83471998588526
26.931286377178047
16.979564728320415
31.555672972994866
27.34758826002964
31.555672972994874
31.555672972994866
31.555672972994866
31.555672972994866
31.555672972994866
32.961058130103204
31.555672972994866
31.555672972994866
18.44445604638981
16.369501051896943
26.997851027950464
26.92701033752359
16.97956472832041
26.93128637717804
17.02254217267569
31.555672972994866
31.555672972994866
12.260564195868856
12.260564195868856
26.206436446196797
19.29951787127142
19.29951787127142
26.206436446196797
26.450920765796624
31.555672972994866
21.784068911358716
16.621963070537106
26.847516456705105
31.555672972994866
16.98436957614589
25.52292027041915
26.206436446196797
19.943176782326944
20.658512726707336
15.736920598527607
14.94627545391849
23.083555172424827
6.175450933485523
9.93394775176993
6.691587617005313
6.691587617005313
7.249822445297351
6.324485891217376
6.324485891217376
6.324485891217376
21.18467780994222
14.952385081388947
9.82711346158245
9.827113461582469
31.555672972994866
26.206436446196797
31.555672972994866
19.29951787127142
19.29951787127142
10.252179720635446
24.415314459273944
11.776344951138357
29.487845116462097
25.252752485853932
15.655385571162046
31.555672972994866
13.013665790965671
13.013665790965671
21.397717370796006
7.215388559847986
7.215388559847986
18.812249845597087
29.286405320417753
21.184677809942237
31.555672972994866
23.703484477171475
26.267314082364916
17.66734858889546
18.316721616300292
14.061641234512948
8.350547878511566
29.172336762416293
-1.4362867309829526
16.347492712528187
8.992556702592905
20.409346595948286
6.7181616956088686
21.277726793123847
0.21206805995931977
19.22149034746227
15.83598629547317
17.672538092546155
5.509637959048953
23.677710984118296
25.65996069224874
9.341772149983958
8.446372041729544
34.39502050349802
12.781323765869619
25.139214894900533
12.669803308119182
12.400426873683758
21.78165263875954
20.37822717462554
11.334117081976505
17.746301731468172
14.55454459134846
14.34636638524232
19.514540227180845
16.087584515132413
13.991763775644415
16.923193862491477
13.50377176188488
21.087998941661766
12.308571826690306
-0.8866264785901496
15.699912546919332
9.120042827498708
14.312823195766395
11.999465698748805
1.0778714356658605
17.133156518200433
10.537536467267678
4.570625912279968
11.27531838522338
20.286161053829723
19.330453274091887
4.419398838007239
22.201450358572306
10.162091190507978
17.840800829224257
-0.403956345805991
15.556073802945782
10.189948238502579
12.486836617796715
22.831283396738236
8.621686956614449
17.988127738504907
9.012928552175971
12.838007233081205
18.525972866132324
10.904889103828967
13.308359663500584
23.307851720453428
1.51934995544563
12.725197253766702
11.311234715901312
5.081809548937824
26.16938438978585
26.800295632261804
15.494413547868506
24.280264284745066
8.98896876369998
11.330046730856669
3.0814083226703195
16.873601896418695
10.047074929217342
2.458022633197799
9.328465912896906
23.28598707336511
20.32490880374364
7.967545585576107
27.7166174558326
15.422295370245113
17.571175729692264
3.269776776032168
2.0642406576419496
-1.5955708181977482
11.409608950214638
14.644779507655228
16.2379817080626
-4.6674869044649
5.301372923952833
12.449402420359643
-1.8167937205244409
14.477541587706183
10.485000563277827
8.93927323451514
11.059867400755191
18.224627457240825
16.27734144176982
15.53482888434269
8.70603239405149
8.892991645177094
13.578895252731366
3.452879266047559
7.87924099405063
-1.6386565317269652
17.41405873715449
10.814178578529221
10.77119310668702
29.429632083439294
29.50767892409789
-15.343729438792224
22.80134728556047
29.39261746056291
21.239490410911397
7.690128663042631
28.507519720600524
29.993917241442396
14.576478122816983
15.597187496728772
24.016342221412263
18.921322378077445
17.999455880491006
12.642519143803977
10.300561287359251
25.746519611186987
18.191483541470433
12.629674299265071
31.040974222620513
20.048343201153237
8.654177973842476
3.228178505012636
21.875244614002572
27.186345036801782
17.18849771095151
13.485718293349262
24.974723860557965
12.984794170060141
35.53975414426831
17.15784658416291
4.727986297026985
23.20965308946162
33.11271623322346
8.67699689126485
33.577625119248246
5.577974307170808
30.42506821225724
11.430193063947664
27.243683660571104
20.57641929264182
7.190982434787497
8.838746924160278
23.411636177892177
4.39951424032894
23.883032652958335
17.81231079271077
26.348632216728266
8.194205601005121
15.769003980410247
-5.732458669495295
23.38065982461469
26.222442776155596
-2.915305207380184
17.554761696258975
26.140436358364347
-1.5042504042037408
17.02037206272722
25.969514098440616
28.6227265143006
26.8043002056016
25.851993141936404
26.961862133968367
17.548542251875762
18.684870893028865
23.567888568266035
22.623294188412284
8.635615333917912
9.205407924586787
26.709828542738027
21.44001659462783
16.495145735228206
25.109305328818472
9.936825264641422
26.955228262110612
6.963276399096534
40.54549326712158
44.113207105997894
12.336189755559571
15.018586686629419
12.336189755559571
15.018586686629419
8.273501069302927
29.760464785067544
15.724609695954742
32.87962139430872
26.590411509377255
19.745630843719237
22.953889939101323
24.703252805993763
41.170141219356694
41.170141219356694
17.199087291380728
41.170141219356694
17.199087291380728
38.986494673549906
14.981303299622725
40.06669701605659
13.840133767039502
13.840133767039502
41.170141219356694
19.672478816063037
29.885910493774208
22.149397721915463
30.868287670538756
13.715133342804632
24.55570980077355
41.170141219356694
41.1701412193567
20.99827096483133
35.75594160017105
17.199087291380728
41.170141219356694
16.890228253579355
19.785729649108454
41.1701412193567
37.199298912790134
21.832674705624544
26.124498120673163
21.74973896413796
18.926315176775987
19.325486170594925
26.58924892204247
30.373528396920968
11.966968703909266
27.161153716940078
31.14033817512436
-4.937914051144543
40.453974067865715
5.570521725803623
30.434218715243578
23.57615309200322
15.893263365334885
20.47069498245904
30.894505627926566
28.850001671502984
39.633723595524195
16.075969501937593
22.850082981743114
26.454050896119675
17.807086148113076
8.108390011314865
11.473927423489332
20.97263286768495
11.33122782793038
8.374171669552434
3.972748661420479
22.23829163608863
17.806983269026706
22.253231989099298
21.919826434767735
18.96022352050094
37.0332262489166
15.407412392079971
16.991355194748184
24.856966570564175
7.354695049484289
15.581445657495733
19.668155670091217
3.0432847739360556
19.668155670091217
3.0432847739360556
27.53113918465119
6.70525831037977
15.838074822269295
8.715821308492375
12.367111702104106
10.96346381928107
17.490159342677345
28.477133284048953
11.616779529491575
19.42025985053845
29.989397174145623
20.643587403244155
38.37399590070561
36.48850242944722
11.765459105180451
29.8314468788463
24.552417951193654
19.277349819880214
22.488406438751472
11.151947051334144
37.40147869503387
15.416434925707241
24.734365163129144
19.732479151815845
40.07973017317594
23.574310582501298
23.574310582501298
13.594532755071512
13.594532755071512
13.594532755071512
13.048042585412173
15.757289624024741
15.757289624024741
15.11438504062162
15.11438504062162
25.058626826574685
26.486974408444624
23.409627691945378
40.07973017317594
35.664767434536905
57.707766928299755
25.622463654036167
20.34246452793942
40.07973017317594
21.64627543571895
23.376743763293497
39.2904721330913
39.526721034666636
23.46648195403136
40.07973017317594
35.88109743249598
40.07973017317594
23.578206596317234
40.07973017317594
40.07973017317593
19.214009158477023
19.214009158477023
15.787750892924082
40.07973017317594
23.3767437632935
27.631786175536398
40.345915572767716
23.276224482676017
23.3767437632935
37.50053195392205
18.07923829920637
17.98139196837965
20.493535680375313
28.84391289167433
18.538672016190908
18.538672016190908
18.538672016190908
50.09300835170309
46.34533922389112
40.07973017317594
25.041209017496033
40.07973017317594
15.63499621674199
8.784324930853598
10.731892060890877
15.63499621674199
8.784324930853598
10.731892060890877
35.08594569815882
34.005198191527086
28.23607334343303
26.215158989097077
19.608395313570746
24.727373882758506
9.640507621484742
11.910130471295648
13.742520607281394
37.31517254933488
19.805673542421452
43.744610258068036
19.825418159258305
27.2949213255402
32.29644508605467
8.293890858932812
21.435791274700243
30.956918679652862
10.058060043074068
25.483331922507592
0.39043853294285635
7.979201222640908
26.14752565411023
14.875920096762464
26.14752565411023
14.875920096762464
30.72939410795015
56.60844761911417
34.68700682116169
42.00421389574635
27.728932202445673
55.06377790029954
15.930740871739395
71.26073098712058
34.775277032995966
45.482482377576716
9.541222443789275
24.4801557898649
29.68681297304847
26.54600246660163
19.65034728666225
27.358564560272722
19.65034728666225
27.358564560272722
31.52607953398605
44.87841692466045
19.958543554183123
32.12985622384649
12.445753500312739
24.635919633539658
30.20732912871519
38.87613219713159
38.876132197131604
38.87613219713159
38.87613219713159
38.87613219713159
38.87613219713159
38.87613219713159
38.87613219713159
38.87613219713159
38.87613219713159
38.87613219713159
38.87613219713159
38.87613219713159
38.87613219713159
38.87613219713159
26.663346445335822
41.05086314150111
38.87613219713159
38.876132197131604
38.876132197131604
38.87613219713159
38.87613219713159
38.87613219713159
38.87613219713159
38.87613219713159
38.87613219713159
38.87613219713159
38.87613219713159
38.87613219713159
32.01090391440696
30.207329128715187
28.11562069192289
34.43943314223581
38.87613219713159
38.87613219713159
38.87613219713159
38.87613219713159
38.87613219713159
38.87613219713159
28.542856009265666
19.400244597497935
29.46588718515479
36.12337834287445
35.49156950246362
37.581000557443836
36.42781923151785
38.87613219713159
36.50949984724816
35.4335347702648
25.967861051685816
17.8914589848947
13.249814730533878
24.050874851851237
14.158507136915548
24.040796305898077
12.591026300703852
12.591026300703852
2.5613329335837696
25.275921267094468
31.85951660331283
20.705532136067834
27.09347161465723
39.36388037373288
20.17152717001173
21.353885164367078
-2.24966802037799
30.73872363448467
30.63466281318393
0.4539511298525662
32.11546509660489
33.8892708641492
16.107002254783083
34.74954342335054
22.70048108082729
-0.1696985011292932
30.91688419812917
36.33984795245864
42.62456426999673
17.89188326400755
17.89188326400755
17.89188326400755
35.66926198635341
35.66926198635341
42.62456426999673
42.62456426999673
52.52569290608158
36.12869011247033
43.80624722179586
25.63758927048819
22.771632657595923
31.821866844029262
45.09199065935789
25.261497121636133
28.41816503238382
17.56699171236337
21.303120750620675
26.532570225827232
36.91900780861361
28.104507637970396
31.99100017848286
21.805537501484377
21.805537501484377
12.091997963475455
16.687430280431062
12.091997963475455
16.687430280431062
18.8445767241691
20.99351824883151
28.958020758600576
26.081510943247622
21.733278909189668
10.68631270774863
26.422267551078015
32.96330952772167
31.81149584098982
18.94636317293899
21.081127477535908
19.42884164372207
19.42884164372207
26.422267551078015
31.81149584098982
19.42884164372207
19.42884164372207
31.81149584098982
22.431735261527088
42.83315900317355
11.847942811728878
33.37766057398775
27.13025500540189
45.257907141647756
41.51708628805212
45.44118318597946
57.16276685989147
33.85170931697444
22.803953912331174
23.954315965745316
40.1475855200255
27.97088875790888
29.583623242230928
39.10235446821614
50.40304871911038
26.181018960107995
44.49683453642756
26.181018960107988
50.9663096605292
51.9057119755382
13.99623214159725
19.67655171100867
19.67655171100867
32.367506850645064
13.250882108904559
13.250882108904559
13.465771660219367
36.76666068982074
34.52148138341102
27.913362636931012
27.913362636931012
48.7571953903017
20.002797181675582
20.002797181675582
30.542697956314353
16.57766256490744
44.94558764943607
26.561732917251266
