GIS
10
-4.695306887063554
39
Individual
Media
Commercial
State-or-Province
Government
Non-Governmental
Nation
Population-Center
Building-Grounds
Continent
GPE-Cluster
Indeterminate
Group
Air
Airport
Projectile
Water-Body
Land
Special
Region-International
Land-Region-Natural
Path
Region-General
Educational
Water
Sports
Celestial
Entertainment
Religious
Biological
Shooting
Subarea-Facility
County-or-District
Exploding
Medical-Science
Plant
Underspecified
Subarea-Vehicle
Address
110
870 0
3 0 11
1 0 11 12
25 0 12
50 1
14 1 2
1 1 2 4
1 1 2 4 5
1 1 2 4 5 23 25 27 28 34
1 1 2 4 5 23 25 28
1 1 2 4 5 23 28 34
1 1 2 4 5 34
2 1 2 4 25
3 1 2 5
5 1 4
6 1 4 5
1 1 4 5 23
1 1 4 5 25 34
1 1 4 5 34
2 1 4 25
2 1 5
2 1 23
4 1 25
1 1 27
1 1 28
1 1 28 34
121 2
8 2 4
3 2 4 5
1 2 4 5 23
1 2 4 5 23 25
1 2 4 23
9 2 5
1 2 5 34
3 2 23
5 2 27
48 3
3 3 6
1 3 6 7
1 3 6 7 9 10 18 32
1 3 6 7 32
1 3 6 9
2 3 6 10
8 3 7
1 3 7 10
56 4
22 4 5
2 4 5 23
1 4 5 23 25 34
1 4 5 23 28 34
1 4 5 23 34
2 4 5 28
2 4 5 34
2 4 23
1 4 23 25
2 4 25
3 4 34
67 5
1 5 23 34
3 5 25
4 5 28
1 5 34
115 6
8 6 7
1 6 7 10
2 6 9
12 6 10
124 7
1 7 10
3 7 18
5 7 32
60 8
7 8 14
1 8 14 21 31 35
5 8 21
1 9
4 9 10
6 10
41 12
10 13
1 13 17
1 13 17 24 36 37
7 14
5 15
1 15 29 30 33 36
17 16
1 16 19
2 16 19 20 22
1 16 19 20 22 26 38
1 16 26
3 17
6 18
3 19
3 19 22
4 20
13 21
1 21 31
17 22
12 23
6 23 25
1 23 34
17 24
39 25
1 25 28
3 26
7 27
4 28
7 32
2 34
1 35
1984
PER=phil
PER=donahue
PER=carlson
PER=begala
PER=sharpton
PER=al
PER=carol
PER=moseley-braun
PER=moseley
PER=braun
PER=charlie
PER=king
PER=peter
PER=daschle
PER=michael
PER=jackson
PER=saddam
PER=hussein
PER=chad
PER=paul
PER=fabian
PER=christina
PER=wright
PER=ridge
PER=tom
PER=crowley
PER=candy
PER=duke
PER=cunningham
PER=hagel
PER=chuck
PER=woodruff
PER=wolf
PER=gary
PER=tuchman
PER=judy
PER=greg
PER=milam
PER=banham
PER=male
PER=blitzer
PER=richard
PER=myers
PER=geoff
PER=andy
PER=gooch
PER=mcchrystal
PER=chris
PER=plante
PER=bowden
PER=david
PER=pollack
PER=ken
PER=ben
PER=wedeman
PER=rusty
PER=dornin
PER=bessam
PER=al-husaini
PER=martin
PER=geissler
PER=cnn
PER=correspondent
PER=craig
PER=c.
PER=k.
PER=kaycee
PER=martin,
PER=cooper
PER=kevin
PER=sites
PER=rodgers
PER=walter
PER=kelly
PER=wallace
PER=penhaul
PER=karl
PER=jessica
PER=jamie
PER=mcintyre
PER=stanley
PER=byrd
PER=robert
PER=lynch
PER=patrick
PER=lang
PER=anchor
PER=miles
PER=o'brien
PER=tim
PER=ewart
PER=brent
PER=sadler
PER=vincent
PER=u.s.
PER=carl
PER=dinnon
PER=brig.
PER=gen.
PER=brooks,
PER=central
PER=command
PER=itn
PER=question
PER=d.
PER=jessie
PER=g.
PER=lynch,
PER=lynch's
PER=ryan
PER=(voice-over)
PER=chilcote
PER=sutton
PER=sgt.
PER=rod
PER=unidentified
PER=col.
PER=army
PER=leonard
PER=leonhard
PER=o'brien,
PER=james
PER=mates
PER=nic
PER=robertson
PER=arraf
PER=jane
PER=mohammed
PER=juliet
PER=bremner
PER=barbara
PER=starr
PER=mccann
PER=j.
PER=ewart,
PER=clark
PER=steve
PER=kroto
PER=kyra
PER=phillips
PER=lukeman
PER=chilcote,
PER=julian
PER=manyon
PER=melony
PER=pfc
PER=tiffany
PER=joe
PER=lt.
PER=tony
PER=blair
PER=bill
PER=neely
PER=jeff
PER=flynn
PER=pearl
PER=analyst
PER=larry
PER=greenfield
PER=rumsfeld
PER=franks
PER=chalabi
PER=savidge
PER=daryn
PER=kagan
PER=cupolo
PER=christine
PER=roberts
PER=mike
PER=(on
PER=camera)
PER=uday
PER=irvine
PER=kubba
PER=laith
PER=saeed
PER=aldouri
PER=ambassador
PER=to
PER=u.n.
PER=female
PER=roth
PER=sanjay
PER=gupta
PER=rula
PER=amin
PER=saba
PER=cook
PER=gregory
PER=thurmond
PER=powell
PER=colin
PER=sen.
PER=lugar
PER=chairman
PER=dodd
PER=christopher
PER=(d),
PER=osama
PER=bin
PER=laden
PER=abbas
PER=carrie
PER=eustachy
PER=nichols
PER=davis
PER=qusay
PER=galanos
PER=rudolph
PER=nick
PER=jim
PER=waksal
PER=alvarez
PER=coleman
PER=willie
PER=williams
PER=jasmine
PER=kim
PER=jong
PER=il
PER=ii
PER=zoran
PER=djindjic
PER=william
PER=elizabeth
PER=smart
PER=brian
PER=mitchell
PER=don
PER=mom
PER=shepperd
PER=arnett
PER=geraldo
PER=rivera
PER=alexis
PER=walt
PER=frankly
PER=president
PER=brooks
PER=padilla
PER=andrew
PER=edward
PER=tucker
PER=wolfowitz
PER=susan
PER=michelle
PER=young
PER=abu
PER=ensor
PER=leon
PER=klinghoffer
PER=vercammen
PER=laci
PER=peterson
PER=lou
PER=mary
PER=taha
PER=germ
PER=boettcher
PER=longo
PER=rhonda
PER=schaffler
PER=donald
PER=carty
PER=eric
PER=jay
PER=garner
PER=paula
PER=jack
PER=anna
PER=gregg
PER=aziz
PER=tariq
PER=ahmed
PER=anderson
PER=johnson
PER=denise
PER=bob
PER=mazen
PER=terry
PER=ali
PER=zarqawi
PER=dr.
PER=page
PER=rogers
PER=betsy
PER=dean
PER=farmer
PER=turner
PER=ted
PER=bennet
PER=bennett
PER=lawrence
PER=serwer
PER=miller
PER=saa
PER=sal
PER=sahaf
PER=bolden
PER=teeterman
PER=jose
PER=schwarzkopf
PER=thomas
PER=beth
PER=o'conner
PER=leung
PER=katrina
PER=jordan
PER=kelli
PER=arena
PER=steven
PER=hatfield
PER=katherine
PER=khatami
PER=burns
PER=kennedy
PER=jfk
PER=jonathan
PER=dallic
PER=dee
PER=laney
PER=dallek
PER=clarkin
PER=carrot
PER=top
PER=lee
PER=lebron
PER=o'neal
PER=whitman
PER=dan
PER=hamid
PER=knight
PER=derrick
PER=tee
PER=mia
PER=hamm
PER=allan
PER=chernoff
PER=williamson
PER=serious
PER=ariel
PER=sharon
PER=norgay
PER=edmund
PER=hillary
PER=linda
PER=malvo
PER=typhus
PER=frank
PER=rob
PER=dennis
PER=sammy
PER=sosa
PER=sam
PER=ozzy
PER=hanna
PER=fred
PER=ari
PER=fleischer
PER=rantissi
PER=delay
PER=blunt
PER=clinton
PER=arafat
PER=mahmoud
PER=kent
PER=mark
PER=abby
PER=abigail
PER=kramer
PER=thelma
PER=gutierrez
PER=hilary
PER=duff
PER=feldman
PER=ashley
PER=ferris
PER=luster
PER=heidi
PER=chapman
PER=dog
PER=buckley
PER=harry
PER=di
PER=potter
PER=rudy
PER=giuliani
PER=zahn
PER=roger
PER=putin
PER=curtis
PER=jds
PER=jeb
PER=candiotti
PER=aaron
PER=tonkin
PER=ford
PER=burrow
PER=strom
PER=jimmy
PER=sean
PER=law
PER=a
PER=his
PER=ashcroft
PER=geragos
PER=alithia
PER=amber
PER=frey
PER=allred
PER=jean
PER=marco
PER=gandhi
PER=yasser
PER=sue
PER=mayor
PER=carter
PER=rainia
PER=barb
PER=columbo
PER=blake
PER=baretta
PER=oj
PER=winnette
PER=irvin
PER=dave
PER=satan
PER=lynn
PER=obo
PER=ralph
PER=nader
PER=nixon
PER=ivan
PER=derek
PER=ed
PER=britt
PER=deirdre
PER=mother
PER=mildred
PER=kate
PER=tenet
PER=bernard
PER=davies
PER=howard
PER=mccarthy
PER=brown
PER=vladimir
PER=chirac
PER=schroeder
PER=hariri
PER=lahoud
PER=naotia
PER=w.
PER=jacques
PER=gerhard
PER=khakamada
PER=anwar
PER=mahathir
PER=crichton
PER=anne-marie
PER=yoon
PER=li
PER=ayub
PER=masih
PER=ranjha
PER=rafiq
PER=boucher
PER=roh
PER=harris
PER=fourtou
PER=mohammad
PER=mohamad
PER=ibrahim
PER=haji-ioannou
PER=mahmud
PER=shalom
PER=straw
PER=ebbers
PER=bremer
PER=pachachi
PER=fedotov
PER=trenin
PER=dmitry
PER=hu
PER=jintao
PER=chretien
PER=laleh
PER=ladan
PER=igor
PER=ivanov
PER=stephen
PER=vajpayee
PER=kalam
PER=singh
PER=nancy
PER=hunter
PER=kofi
PER=annan
PER=negroponte
PER=milosevic
PER=markovic
PER=blix
PER=elbaradei
PER=ueki
PER=odai
PER=erdogan
PER=gul
PER=ozkan
PER=de
PER=villepin
PER=fischer
PER=solana
PER=diller
PER=barry
PER=jean-rene
PER=hoon
PER=ramadan
PER=ahmad
PER=campbell
PER=gordon
PER=daniel
PER=webb
PER=welch
PER=beasley
PER=collins
PER=nemeth
PER=toefting
PER=perkins
PER=pace
PER=toyoda
PER=cho
PER=kiichiro
PER=al-sahhaf
PER=al-douri
PER=jeremy
PER=timothy
PER=mcveigh
PER=shacifwa
PER=chiluba
PER=megawati
PER=suharto
PER=sudarsono
PER=khalilzad
PER=abdul
PER=cross
PER=mukhliss
PER=f.
PER=reznik
PER=pasko
PER=h.
PER=barzan
PER=hasan
PER=al-tikriti
PER=tommy
PER=gibson
PER=sukma
PER=black
PER=bryant
PER=shaquille
PER=sabliere
PER=hans
PER=cruz
PER=jones
PER=gun
PER=nathan
PER=judith
PER=hanover
PER=caroline
PER=bruce
PER=skyler
PER=bloomberg
PER=cole
PER=mcginty
PER=jiang
PER=abdullah
PER=hashim
PER=ngor
PER=moo-hyun
PER=rantisi
PER=sharif
PER=omar
PER=faisal
PER=alexander
PER=downer
PER=sarid
PER=weldon
PER=mohamed
PER=hartzenberg
PER=nelson
PER=mandela
PER=basson
PER=nam
PER=cam
PER=hanh
PER=chien
PER=naxakis
PER=ocalan
PER=korb
PER=ronald
PER=silas
PER=cheeks
PER=essy
PER=liu
PER=samuel
PER=wong
PER=chui
PER=ba'asyir
PER=musharraf
PER=rashid
PER=karzai
PER=reyes
PER=estrada
PER=joseph
PER=gloria
PER=tiglao
PER=spidla
PER=kostelka
PER=tvrdik
PER=papandreou
PER=the
PER=peggy
PER=tatyana
PER=sz.
PER=case
PER=
PER=strev
PER=h
PER=john_h
PER=mcgill
PER=diesel
PER=damo
PER=tori
PER=lauren
PER=rouse
PER=marcella
PER=smith
PER=norman
PER=marc
PER=todd
PER=dagny
PER=mc
PER=eliyahu
PER=jacobs
PER=a.
PER=weeks
PER=iii
PER=independent
PER=clackamas
PER=county
PER=junk
PER=ill
PER=hitler
PER=shyster1040
PER=superprimen...@gmail.com
PER=healy
PER=btk
PER=joan
PER=jeanne
PER=ketterer
PER=vinny
PER=r
PER=nepveu
PER=rich
PER=erikson
PER=snafu
PER=johnh
PER=bert
PER=robbins
PER=mccrary
PER=sloan
PER=niro
PER=beatriz
PER=randy
PER=marinello
PER=petrel
PER=talent
PER=corey
PER=names
PER=please
PER=moondog
PER=swenson
PER=fried
PER=frederick
PER=rapid
PER=t.
PER=rabbit
PER=charlotte
PER=dinger
PER=d-c...@northwestern.edu
PER=cesa
PER=len
PER=c
PER=howie
PER=rebecca
PER=rieker5.nospam.e...@hotmail.com
PER=tobie
PER=vaughan
PER=ringo
PER=langly
PER=noonan
PER=lincoln
PER=surfact
PER=whit
PER=mitchum
PER=ltlee1
PER=ltlee
PER=urillan
PER=neohmong
PER=zhen
PER=born2behmong
PER=rice
PER=powers
PER=lozada
PER=mathews
PER=sistani
PER=tilly
PER=deborah
PER=sharavi
PER=fdr
PER=abraham
PER=tenner
PER=t
PER=major
PER=seymour
PER=douglas
PER=breckinridge
PER=bell
PER=machiavegli
PER=garber
PER=lnma
PER=ross
PER=freddie
PER=newsgroup
PER=anonym
PER=ejercito
PER=gogarty
PER=defendario
PER=blackwater
PER=o
PER=ould
PER=l
PER=bauer
PER=marshall
PER=white
PER=manning
PER=marino
PER=simpson
PER=yates
PER=andrea
PER=karen
PER=norwood
PER=taylor
PER=lindsey
PER=malkin
PER=rytel
PER=baxley
PER=kottkamp
PER=arroyo
PER=hernandez
PER=l.
PER=sheila
PER=werkheiser
PER=albo
PER=m
PER=will
PER=leslie
PER=byrne
PER=sisson
PER=bacon
PER=vehrs
PER=wilder
PER=graham
PER=chap
PER=sabato
PER=warner
PER=allen
PER=faulk
PER=robinson
PER=spottswood
PER=m.
PER=lazarus
PER=robb
PER=rodokanakis
PER=mickey
PER=kaine
PER=tugle
PER=chichester
PER=barnie
PER=day
PER=gerald
PER=kaus
PER=k
PER=armstrong
PER=ward
PER=ebbin
PER=grayson
PER=fayyad
PER=matt
PER=suha
PER=curt
PER=barghouti
PER=marwan
PER=baker
PER=hassan
PER=matthews
PER=thompson
PER=van
PER=fasulo
PER=brokaw
PER=philip
PER=gourevitch
PER=hentoff
PER=condoleezza
PER=silvan
PER=captain
PER=mischie
PER=iliescu
PER=ion
PER=sheikh
PER=mu'awiya
PER=imam
PER=abi
PER=muhammed
PER=benjamin
PER=franklin
PER=anonymous
PER=backer
PER=alberts
PER=greene
PER=quentin
PER=tuberville
PER=schrenko
PER=marion
PER=bonds
PER=jason
PER=giambi
PER=pete
PER=kobe
PER=shaq
PER=darius
PER=ferguson
PER=joyce
PER=ashlee
PER=leinert
PER=tressel
PER=maurice
PER=geiger
PER=bettman
PER=lord
PER=ellison
PER=wynn
PER=muckdog
PER=spitzer
PER=gates
PER=jobs
PER=jontait
PER=mel
PER=karmazin
PER=ira-cam
PER=carly
PER=granville
PER=alan
PER=greenspan
PER=lucas
PER=mikhail
PER=adam
PER=greenberg
PER=sr
PER=sullivan
PER=dad
PER=rangel
PER=god
PER=charles
PER
PER=john
PER=cheney
PER=dick
PER=of
PER=bush
PER=marine
PER=brigade
PER=1st
PER=scott
PER=stewart
PER=martha
PER=george
PER=osbourne
PER=edwards
PER=olsen
PER=la
PER=house
PER=b
PER=kerry
PER=christian
PER=wall
PER=martins
PER=qawasmeh
PER=british
PER=no
ORG=nbc
ORG=msnbc
ORG=vanity
ORG=cnn
ORG=sky
ORG=news
ORG=itv
ORG=itn
ORG=post
ORG=journal
ORG=magazine
ORG=westchester
ORG=abu
ORG=dhabi
ORG=television
ORG=reuters
ORG=free
ORG=today
ORG=associated
ORG=tv
ORG=cbs
ORG=afp
ORG=kommersant
ORG=bbc
ORG=rodong
ORG=times
ORG=hamshahri
ORG=interfax
ORG=ap
ORG=babil
ORG=anatolia
ORG=broadcasting
ORG=tv2
ORG=kcna
ORG=newspaper
ORG=al-jazeera
ORG=itar-tass
ORG=korean
ORG=xinhua
ORG=monitor
ORG=israel
ORG=yediot
ORG=ahronot
ORG=beijing
ORG=augusta
ORG=npr
ORG=courier
ORG=chronicle
ORG=fortune
ORG=week
ORG=wall
ORG=daily
ORG=time
ORG=usa
ORG=abc
ORG=australian
ORG=entertainment
ORG=spain
ORG=south
ORG=fox
ORG=radio
ORG=corp
ORG=richmond
ORG=king
ORG=street
ORG=general
ORG
ORG=national
ORG=of
ORG=and
ORG=new
ORG=york
ORG=china
ORG=&amp;
ORG=youth
ORG=fair
ORG=command
ORG=press
ORG=finance
ORG=asian
ORG=the
ORG=iraqi
ORG=army
ORG=central
ORG=african
ORG=public
ORG=business
ORG=association
ORG=agency
ORG=los
ORG=angeles
ORG=u.n.
ORG=black
ORG=british
ORG=harvard
ORG=washington
ORG=detroit
ORG=san
ORG=12
ORG=espn
ORG=catholic
ORG=in
ORG=hooters
ORG=amr
ORG=silver
ORG=harrod
ORG=imclone
ORG=motorola
ORG=airlines
ORG=electric
ORG=enron
ORG=vitac
ORG=aol
ORG=warner
ORG=nike
ORG=at&amp;t
ORG=airbus
ORG=jpmorgan
ORG=citigroup
ORG=nasdaq
ORG=exxon
ORG=mobil
ORG=microsoft
ORG=martha
ORG=stewart
ORG=omnimedia
ORG=taco
ORG=bell
ORG=kmart
ORG=johnson
ORG=caribbean
ORG=fidelity
ORG=stock
ORG=planet
ORG=vivendi
ORG=blackstone
ORG=music
ORG=barclays
ORG=zaragozano
ORG=banco
ORG=easycinema
ORG=easyjet
ORG=mci
ORG=worldcom
ORG=chase
ORG=jp
ORG=morgan
ORG=america
ORG=merrill
ORG=lynch
ORG=plc
ORG=ge
ORG=aig
ORG=star
ORG=co
ORG=edison
ORG=life
ORG=insurance
ORG=ltd
ORG=interactive
ORG=vue
ORG=shearman
ORG=sterling
ORG=toyota
ORG=motor
ORG=gateway
ORG=dell
ORG=micro
ORG=systems
ORG=s
ORG=carnival
ORG=princess
ORG=hal
ORG=bechtel
ORG=corporation
ORG=ukrops
ORG=giant
ORG=harris
ORG=teeter
ORG=swam
ORG=communications
ORG=living
ORG=movie
ORG=gallery
ORG=walmart
ORG=netflix
ORG=yahoo
ORG=tyco
ORG=oracle
ORG=peoplesoft
ORG=yukos
ORG=gazprom
ORG=everlast
ORG=moret
ORG=ebay
ORG=merck
ORG=marsh
ORG=gm
ORG=google
ORG=ask
ORG=jeeves
ORG=bloglines
ORG=cisco
ORG=sirius
ORG=satellite
ORG=hp
ORG=blockbuster
ORG=northshore
ORG=pharmaceuticals
ORG=mylan
ORG=inc
ORG=krispy
ORG=kreme
ORG=southwest
ORG=delta
ORG=us
ORG=airway
ORG=airways
ORG=nortel
ORG=wal-mart
ORG=starbucks
ORG=barnes
ORG=noble
ORG=air
ORG=intel
ORG=exchange
ORG=financial
ORG=service
ORG=la
ORG=enterprise
ORG=shanghai
ORG=relations
ORG=health
ORG=food
ORG=department
ORG=united
ORG=royal
ORG=international
ORG=cross
ORG=group
ORG=millennium
ORG=bank
ORG=travel
ORG=carousel
ORG=management
ORG=brothers
ORG=american
ORG=northwestern
ORG=&
ORG=texas
ORG=universal
ORG=hollywood
ORG=studios
ORG=home
ORG=vpaf
GPE=california
GPE=virginia
GPE=carolina
GPE=indiana
GPE=texas
GPE=florida
GPE=michigan
GPE=georgia
GPE=hawaii
GPE=tennessee
GPE=kansas
GPE=missouri
GPE=arkansas
GPE=connecticut
GPE=maryland
GPE=jersey
GPE=louisiana
GPE=ohio
GPE=alabama
GPE=arizona
GPE=illinois
GPE=iowa
GPE=delaware
GPE=pennsylvania
GPE=wisconsin
GPE=massachusetts
GPE=idaho
GPE=tripura
GPE=province
GPE=guangdong
GPE=shandong
GPE=az
GPE=fla
GPE=fl
GPE=md
GPE=oregon
GPE=co
GPE=state
GPE=hampshire
GPE=nevada
GPE=ny
GPE=nj
GPE=tx
GPE=maharashtra
GPE=va
GPE=ga
GPE=n.j
GPE=anbar
GPE=british
GPE=mexico
GPE=colombia
GPE=new
GPE
GPE=washington
GPE=north
GPE=south
GPE=peninsula
GPE=york
GPE=al
GPE=basra
GPE=colorado
GPE=oklahoma
GPE=richmond
GPE=,
GPE=columbia
GPE=west
ORG=force
ORG=pentagon
ORG=division
ORG=u.s.
ORG=7th
ORG=cavalry
ORG=guard
ORG=3rd
ORG=infantry
ORG=joint
ORG=chiefs
ORG=marine
ORG=navy
ORG=marines
ORG=special
ORG=cia
ORG=coast
ORG=mukhabarat
ORG=docs
ORG=senate
ORG=fbi
ORG=fedayeen
ORG=states
ORG=homeland
ORG=centcom
ORG=brigade
ORG=3-7th
ORG=airborne
ORG=1st
ORG=white
ORG=naval
ORG=epa
ORG=police
ORG=irs
ORG=fsa
ORG=authority
ORG=superior
ORG=staff
ORG=4th
ORG=ministry
ORG=federal
ORG=immigration
ORG=checkpoints
ORG=appeal
ORG=intelligence
ORG=affairs
ORG=sandiganbayan
ORG=palace
ORG=lpdr
ORG=appeals
ORG=drug
ORG=administration
ORG=board
ORG=dmbe
ORG=delegates
ORG=fed
ORG=republican
ORG=security
ORG=congress
ORG=committee
ORG=forces
ORG=house
ORG=foreign
ORG=court
ORG=center
ORG=taliban
ORG=justice
ORG=assembly
ORG=office
ORG=commission
ORG=strategic
ORG=assistance
ORG=social
ORG=development
ORG=southern
ORG=on
ORG=legislative
ORG=securities
ORG=studies
ORG=services
ORG=virginia
ORG=for
ORG=institute
ORG=council
ORG=supreme
ORG=european
ORG=information
ORG=defense
ORG=college
ORG=state
ORG=devil
ORG=sec
ORG=baghdad
ORG=nasa
ORG=nuclear
ORG=al
ORG=qaeda
ORG=u.n
ORG=jihad
ORG=ba'ath
ORG=party
ORG=nations
ORG=peace
ORG=coalition
ORG=nato
ORG=baath
ORG=world
ORG=organization
ORG=hezbollah
ORG=hamas
ORG=democratic
ORG=plo
ORG=un
ORG=mdp
ORG=gnp
ORG=humanitarian
ORG=program
ORG=reconstruction
ORG=al-qaida
ORG=likud
ORG=workers
ORG=brookings
ORG=institution
ORG=union
ORG=au
ORG=polar
ORG=foundation
ORG=who
ORG=farc
ORG=democrats
ORG=iaea
ORG=habitat
ORG=humanity
ORG=
ORG=m
ORG=doctors
ORG=without
ORG=ot
ORG=:
ORG=nca
ORG=society
ORG=acs
ORG=planned
ORG=parenthood
ORG=brady
ORG=d
ORG=republicans
ORG=fund
ORG=democracy
ORG=p.l.o
ORG=al-qaeda
ORG=fatah
ORG=palestine
ORG=tanzim
ORG=brigades
ORG=campaign
ORG=psd
ORG=scholars
ORG=net
ORG=impact
ORG=students
ORG=responsible
ORG=museum
ORG=red
ORG=hamburg
ORG=green
ORG=islamic
ORG=iraq
ORG=revolution
ORG=muslim
ORG=energy
GPE=pakistan
GPE=france
GPE=russia
GPE=germany
GPE=iraq
GPE=u.s
GPE=great
GPE=britain
GPE=iran
GPE=vietnam
GPE=iraqi
GPE=u.k
GPE=united
GPE=states
GPE=american
GPE=u.s.-l
GPE=israel
GPE=coalition
GPE=jordan
GPE=soviet
GPE=german
GPE=cuba
GPE=korea
GPE=koreans
GPE=syria
GPE=russian
GPE=italian
GPE=saudi
GPE=arabia
GPE=afghanistan
GPE=pakistani
GPE=turkey
GPE=qatar
GPE=cuban
GPE=israeli
GPE=white
GPE=house
GPE=bosnia
GPE=lebanese
GPE=italy
GPE=canada
GPE=china
GPE=spanish
GPE=spain
GPE=chinese
GPE=lebanon
GPE=afghan
GPE=india
GPE=egypt
GPE=japanese
GPE=rwanda
GPE=england
GPE=us
GPE=algeria
GPE=israelis
GPE=kremlin
GPE=french
GPE=dprk
GPE=australian
GPE=australia
GPE=japan
GPE=malaysia
GPE=qatari
GPE=canadian
GPE=singapore
GPE=iranian
GPE=serbia
GPE=yugoslavia
GPE=turkish
GPE=greece
GPE=belgium
GPE=belgian
GPE=netherlands
GPE=kuwaiti
GPE=denmark
GPE=danish
GPE=english
GPE=zambia
GPE=indonesia
GPE=indonesian
GPE=timor
GPE=republic
GPE=czech
GPE=iraqis
GPE=malaysian
GPE=austria
GPE=portugal
GPE=portuguese
GPE=polish
GPE=philippines
GPE=sudan
GPE=sudanese
GPE=libya
GPE=yemen
GPE=jordanian
GPE=zealand
GPE=sweden
GPE=greek
GPE=syrian
GPE=usa
GPE=dutch
GPE=ukraine
GPE=uk
GPE=laos
GPE=sino
GPE=uncle
GPE=sam
GPE=indian
GPE=bolivia
GPE=ameircans
GPE=u.s.
GPE=swiss
GPE=rwandan
GPE=romania
GPE=switzerland
GPE=baghdad
GPE=kuwait
GPE=beijing
GPE=moscow
GPE=pyongyang
GPE=seoul
GPE=jakarta
GPE=luxembourg
GPE=east
GPE=america
GPE=africa
GPE=union
GPE=congo
GPE=korean
GPE=of
GPE=g-8
GPE=group
GPE=eight
GPE=arab
GPE=axis
GPE=evil
GPE=central
GPE=n
GPE=najaf
GPE=umm
GPE=qasr
GPE=mosul
GPE=kalak
GPE=san
GPE=francisco
GPE=safwan
GPE=chamchamal
GPE=kirkuk
GPE=netanya
GPE=karbala
GPE=kut
GPE=nasiriya
GPE=mogadishu
GPE=atlanta
GPE=azubayr
GPE=belfast
GPE=london
GPE=tikrit
GPE=chicago
GPE=city
GPE=tulia
GPE=belgrade
GPE=nasiriyah
GPE=los
GPE=angeles
GPE=fort
GPE=hood
GPE=modesto
GPE=martinez
GPE=long
GPE=beach
GPE=toronto
GPE=orlando
GPE=diego
GPE=jackson
GPE=hamburg
GPE=l.a
GPE=beirut
GPE=stockholm
GPE=dallas
GPE=houston
GPE=jerusalem
GPE=miami
GPE=vancouver
GPE=benton
GPE=harbor
GPE=st.
GPE=louis
GPE=bethlehem
GPE=boston
GPE=la
GPE=redwood
GPE=paris
GPE=denver
GPE=munich
GPE=detroit
GPE=birmingham
GPE=fallujah
GPE=philadelphia
GPE=petersburg
GPE=saint
GPE=agartala
GPE=hollywood
GPE=faisalabad
GPE=sydney
GPE=melbourne
GPE=tehran
GPE=kuala
GPE=lumpur
GPE=evian
GPE=creek
GPE=byrds
GPE=tokyo
GPE=beit
GPE=gaza
GPE=deir
GPE=al-balah
GPE=rafah
GPE=oslo
GPE=macau
GPE=brussels
GPE=irbil
GPE=copenhagen
GPE=lusaka
GPE=temelin
GPE=ur
GPE=geneva
GPE=minneapolis
GPE=afula
GPE=ramallah
GPE=hebron
GPE=tel
GPE=aviv
GPE=ankara
GPE=riyadh
GPE=hanoun
GPE=nablus
GPE=lome
GPE=bali
GPE=manila
GPE=prague
GPE=yantai
GPE=anniston
GPE=toelle
GPE=q
GPE=wichita
GPE=crossville
GPE=windsor
GPE=seattle
GPE=niagara
GPE=falls
GPE=red
GPE=nyc
GPE=austin
GPE=cochabamba
GPE=washington,
GPE=cape
GPE=alexandria
GPE=athens
GPE=auburn
GPE=tuscaloosa
GPE=pittsburgh
GPE=bank
GPE=palestine
GPE=hong
GPE=kong
GPE=d.c
GPE=fairfax
GPE=manhattan
GPE=richland
GPE=dc
FAC=pentagon
FAC=ali
FAC=mosque
FAC=camp
FAC=lejeune
FAC=park
FAC=yarmuk
FAC=hospital
FAC=hotel
FAC=palestine
FAC=white
FAC=arlington
FAC=ft.
FAC=hood
FAC=stock
FAC=exchange
FAC=new
FAC=york
FAC=press
FAC=club
FAC=building
FAC=fort
FAC=lima
FAC=pier
FAC=field
FAC=wrigley
FAC=buckingham
FAC=palace
FAC=center
FAC=world
FAC=trade
FAC=theater
FAC=central
FAC=united
FAC=nations
FAC=alfred
FAC=p.
FAC=murrah
FAC=federal
FAC=gracie
FAC=mansion
FAC=mall
FAC=australian
FAC=embassy
FAC=david
FAC=army
FAC=depot
FAC=station
FAC=victoria
FAC=london
FAC=tower
FAC=harrods
FAC=eye
FAC=silent
FAC=pearl
FAC=harbor
FAC=and
FAC=washington
FAC=stadium
FAC=jordan-hare
FAC=ramstein
FAC=saddam
FAC=international
FAC=air
FAC=base
FAC=force
FAC=national
FAC
FAC=house
FAC=red
FAC=state
FAC=of
FAC=square
GPE=african
GPE=europe
GPE=european
GPE=asia
GPE=asian
GPE=middle
GPE=mideast
GPE=balkans
GPE=eu
GPE=southeast
GPE=as
PER=3rd
PER=squadron
PER=7th
PER=cavalry
PER=infantry
PER=division
PER=republican
PER=guard
PER=medina
PER=101st
PER=airborne
PER=peshmerga
PER=fedayeen
PER=gray
PER=knights
PER=kurdish
PER=americans
PER=marines
PER=kramers
PER=palestinians
PER=arab
PER=democrats
PER=shiite
PER=sunni
PER=173rd
PER=desert
PER=rats
PER=shiites
PER=muslim
PER=eb
PER=sunni's
PER=sunnis
PER=shi'ites
PER=hmong
PER=chao
PER=fa
PER=kurds
PER=shia
PER=nazi
PER=african-american
PER=shi'ite
VEH=apache
VEH=soyuz
VEH=one
VEH=force
VEH=air
VEH=flight
VEH=mars
VEH=express
VEH=two
VEH=columbia
VEH=lander
VEH
FAC=lax
FAC=airport
FAC=baghdad
FAC=andrews
FAC=hussein
FAC=heathrow
FAC=lhr
WEA=cruise
WEA=tomahawk
WEA=al
WEA=samoud
WEA=2
WEA
LOC=river
LOC=euphrates
LOC=khoser
LOC=tigris
LOC=guantanamo
LOC=bay
LOC=lake
LOC=superior
LOC=berkeley
LOC=marina
LOC=ocean
LOC=san
LOC=francisco
LOC=sea
LOC=yellow
LOC=atlantic
LOC=arabian
LOC=pacific
LOC=persian
LOC=gulf
LOC
LOC=red
VEH=m1-a1
VEH=bradley
VEH=impala
GPE=palestinian
GPE=authority
GPE=palestinians
GPE=taiwan
GPE=kurdish
GPE=macao
LOC=korean
LOC=peninsula
LOC=african
LOC=east
LOC=west
LOC=asia
LOC=mt.
LOC=everest
LOC=island
LOC=islands
FAC=wall
FAC=street
FAC=kissufim
FAC=netzarim
FAC=guest
FAC=highway
FAC=welsh
FAC=texas
FAC=ave
FAC=parkway
FAC=sw
FAC=south
FAC=road
FAC=west
LOC=iraq
LOC=northern
LOC=ireland
LOC=mansour
LOC=coast
LOC=upper
LOC=side
LOC=gaza
LOC=bank
LOC=strip
LOC=south
LOC=central
LOC=jakarta
LOC=district
LOC=england
LOC=new
LOC=southside
ORG=university
ORG=school
ORG=london
ORG=polyu
ORG=polytechnic
ORG=qinghua
ORG=uva
ORG=uva-wise
ORG=georgetown
ORG=ucla
ORG=colorado
ORG=stanford
ORG=chicago
ORG=hong
ORG=kong
ORG=tech
ORG=auburn
ORG=uga
ORG=federation
VEH=uss
VEH=truman
VEH=achille
VEH=lauro
VEH=abraham
VEH=lincoln
VEH=stennis
VEH=john
VEH=c.
VEH=constellation
VEH=of
VEH=the
VEH=seas
VEH=ming
VEH=legend
VEH=kido
VEH=butai
ORG=major
ORG=league
ORG=baseball
ORG=wizards
ORG=nba
ORG=cavaliers
ORG=yankees
ORG=cubs
ORG=cleveland
ORG=jockey
ORG=club
ORG=bolton
ORG=lakers
ORG=timberwolves
ORG=sixers
ORG=philadelphia
ORG=portland
ORG=nets
ORG=uscf
ORG=bay
ORG=georgia
ORG=bcs
ORG=bama
ORG=alabama
ORG=usc
ORG=oklahoma
ORG=tennessee
ORG=blazers
ORG=heat
ORG=packers
ORG=nfl
ORG=jaguars
ORG=sox
ORG=ncaa
ORG=miami
ORG=ohio
ORG=nhl
ORG=flames
ORG=soccer
ORG=conference
LOC=earth
LOC=mars
LOC=planet
ORG=dixie
ORG=chicks
ORG=jackson
ORG=five
ORG=grateful
ORG=dead
ORG=orlando
ORG=hindu
ORG=shiite
ORG=church
ORG=lds
GPE=prince
GPE=georges
GPE=county
GPE=district
GPE=42nd
GPE=wise
GPE=loudoun
ORG=space
ORG=technology
FAC=bushehr
17.18049251453181
20.84362460039667
29.246073513737798
29.09977026838142
21.389408382508908
19.222257090831178
29.036325377272966
14.916939325088766
15.958250500678403
15.958250500678403
23.82165311077921
22.64618225696284
22.584953347966017
29.55809770723962
22.275148480734355
21.374404114673563
23.559835567869857
17.678321382411497
27.680940685054058
28.34766195074949
29.55809770723962
28.4228031137768
15.064345802120652
22.5527406772442
27.93575165666839
27.353403685035477
15.341190033471698
24.204781752159004
24.46520846919426
24.706400401841933
16.798760609909817
28.657785081038792
25.903444516606847
20.786129401433897
24.720107082132493
28.58832237321706
24.181668974770954
24.263085989738002
24.77765447207092
21.000542956854282
27.536491206975334
16.62396056135171
21.855516301732454
15.764459617066189
23.99250669392261
16.161104251792075
21.07099583677442
24.225158418757196
22.896960628582185
21.066217274934697
21.48293276988815
24.02997373383094
28.8058670153462
27.556258077251233
22.598345424082556
20.44934498582367
25.90354648047821
15.790201968165777
25.54930804953396
18.500419529031436
23.39861721386243
9.371801418025647
9.150270612757941
22.185683490030694
16.94488641119546
16.817039842832603
22.17924695249225
13.786558852901555
28.612761019195165
20.92064358535922
17.019664859789653
18.605342849412164
18.663618327411417
26.746865459558208
19.893630567202052
22.641540841403412
19.349990749483233
19.38023719092074
26.331816965631507
19.540028516864467
21.07099583677442
22.343769497354643
19.876513213718304
18.409362160834092
20.607702366958108
25.93907687775471
10.71329013177928
23.694208970619872
27.969598786345536
17.233974005930044
22.76718306589918
16.09866814397722
21.779780032145432
11.696823580821357
9.17038896306925
22.17785268050798
22.311293979195774
5.79310513034039
5.79310513034039
5.79310513034039
5.79310513034039
5.79310513034039
9.423421465702575
29.55809770723962
17.437643288958935
29.55809770723962
17.461693803664218
9.635038783124129
7.8479686031911
26.67538651093147
11.01786738170339
26.33009377640717
24.74858404788734
13.175327711652686
17.018746768421284
16.88379947389314
7.959538506312174
9.08836329050141
17.349405197407624
29.558097707239618
8.126793640570007
28.30854404484041
21.504264583016624
21.729197215237825
21.729197215237825
18.763652628281886
27.666887561501202
25.297273234355234
15.980496846698495
24.760197130441416
23.137132656234012
16.362581421576035
28.629110039647045
11.430214900640634
10.697390630460578
29.558097707239618
17.080486821323465
17.701983568427504
18.63399049576452
26.317309409780968
24.179003946780092
7.6742174234837215
16.87339269117744
20.882583204925147
13.440695716893675
9.73474385523937
12.865609310622114
29.32041563407651
8.721870932776865
18.301566067982936
25.602607277831545
22.353550367334975
25.540268152968995
23.663745345568945
24.72668730293047
26.12933314078902
8.459907828427195
22.35655599144618
16.37317451471279
27.427246377821024
25.386298059067233
27.1758093509388
17.410841522467017
19.60765899212654
23.66469986493446
27.678869431403193
23.280875166064444
28.147984022146563
27.99089655458057
11.31402807730716
11.31402807730716
28.079801652204576
22.30101949656654
27.535083964087118
15.294767090029744
13.012284055077757
28.37904501456125
10.441603252810795
10.441603252810795
8.300867902089688
17.734025921542354
27.983226340634587
15.074666078152504
18.626915449343574
19.727914743421508
22.432002493893496
29.55809770723962
29.55809770723962
24.619871920719802
24.760197130441416
24.608120918154654
18.343551469049537
8.831849483480092
27.726763012697173
29.558097707239618
27.523281169997325
21.84575899573986
8.077327039226853
12.286404598589417
13.809784518865794
13.815518867033866
22.23581750522905
29.307849362890263
24.420759901112994
25.30144548475478
27.203312504376022
29.558097707239618
15.184127455490035
18.737140712680343
29.558097707239618
24.8714176844014
25.22183789036426
29.55809770723962
27.74941219497378
16.39122547376658
24.774496865572154
29.55809770723962
20.07927337288896
11.769739745771046
11.769739745771046
14.690742622201602
17.59058735472455
17.59058735472455
29.558097707239618
24.3835651606313
16.35017883796833
23.110881883174994
22.551072311371676
19.244347035596455
29.558097707239618
17.490818598577157
20.958594827780054
24.374323287251546
21.929096344855672
22.491951165992987
24.68324218639395
24.701806580847606
23.995970657590153
27.241004517475314
24.082956348943917
20.87373476252683
29.558097707239618
16.01985277997021
24.67021487347966
26.539089330503224
24.61639442044726
27.97426832925817
19.63248827173005
16.80546342572301
26.678027786004428
26.106482467600884
15.10480997553131
23.654384535287463
23.22471643671379
29.558097707239618
27.637495598608027
27.058979077411188
22.733496103384944
15.184127455490035
31.107597034294777
17.59058735472454
17.59058735472454
16.2948576444123
25.855521479113623
25.2851925699623
15.46350961636218
26.870259049210823
23.882349867655464
26.176559853485816
23.92584766674558
24.74775579507492
25.17187326950052
15.880042956872973
21.893207769464826
22.60166572076551
24.58317770592113
20.669729975162102
27.68403702725846
20.84108357469925
20.52947382295708
27.96668477371544
27.726142338759097
16.45502894621771
29.55809770723962
15.772615522720425
25.850084935467706
21.54410558319193
24.290949023757953
18.735067361103596
27.581117680025212
16.572864656217185
29.558097707239618
24.425255464961076
16.161104251792075
25.350858255432076
22.543150018142168
11.476048507112768
9.280257530976057
15.953957369926847
26.344814124493674
26.21205963107695
24.220721269819737
19.17120686212196
29.558097707239618
29.558097707239618
25.54930804953396
15.790201968165777
28.90993899824729
21.604143456339198
16.711806000060374
21.362748293366174
22.24483825154528
23.981000298617815
28.20342024036694
16.10193889481485
27.176894418361915
29.558097707239618
22.513857623934335
29.55809770723962
13.928520655705073
25.041419336652805
22.52666945613218
16.105760497223315
17.59058735472455
17.59058735472455
23.671871584536312
15.107006484329233
27.08048499285561
24.0104259085465
28.017360331682337
22.733496103384944
29.55809770723962
14.89064709803731
12.39272319767413
22.733496103384944
16.45502894621771
28.338334302619042
15.086539482528107
29.55809770723962
24.359780426425566
15.326952854812433
27.518198857131615
29.55809770723962
14.964248344442876
28.800366804632894
24.249322355833115
27.15442831437126
29.55809770723962
23.023858469424496
29.558097707239618
27.11825687275308
18.653553174735023
21.092955858584265
18.659462464413004
28.818257279970766
15.184127455490035
21.850032942201448
16.211911894670184
23.78202212394941
29.55809770723962
27.003767221078043
29.55809770723962
28.130798069912714
27.555705610129777
16.565469074138
29.55809770723962
25.42782872123719
28.012233460874373
24.391496745397383
21.729938781880858
17.59058735472455
17.59058735472455
17.59058735472454
17.59058735472454
16.180221789930066
29.55809770723962
29.55809770723962
20.676367099210974
27.79462281900806
22.733496103384944
16.45502894621771
16.381501437637695
22.733496103384944
16.178177523757345
16.45502894621771
15.505519376123118
26.67604266071177
13.367771413796357
28.488555960343593
27.61434138263366
16.572864656217185
29.558097707239632
15.362389644608985
15.546441356756652
20.803353886786738
23.193951587816546
29.558097707239618
16.4985716760902
15.980496846698502
24.373502495805187
16.46728340774536
24.31672177237707
28.993617586093777
29.55809770723962
16.897430676236603
24.14013561962786
29.558097707239618
26.81361498036332
21.664718549067647
24.220721269819737
28.651542357997677
29.558097707239618
29.558097707239625
15.289482678250094
29.558097707239625
23.86415570098323
21.93826785459659
29.558097707239618
29.558097707239618
29.55809770723962
17.34940519740762
29.558097707239618
29.55809770723962
29.558097707239625
29.268474897925017
29.22325739615419
29.558097707239618
29.558097707239625
29.558097707239618
22.16019535721937
22.16019535721937
22.586515025922587
29.558097707239618
29.558097707239625
29.28976683773616
29.402344672679185
29.558097707239625
23.18144840307159
29.558097707239618
28.816438116638427
25.564895964735594
22.814561270213854
26.49630225288317
16.568753931056957
29.558097707239618
25.723341327226272
15.299112778657097
23.92584766674558
22.733496103384955
27.11825687275308
29.55809770723962
29.55809770723962
10.765964643128124
16.178177523757338
16.455028946217706
29.55809770723962
28.470080811011677
25.54930804953396
27.67514905282305
29.55809770723962
29.558097707239618
27.11825687275308
17.704441923960154
17.095301144323436
26.47728335456611
24.01851505902937
25.87114232844848
27.135759876613047
25.460806360218736
22.733496103384944
29.558097707239618
15.790201968165777
15.155202912295822
29.55809770723962
24.354839369564505
26.539089330503224
15.628655325094314
24.31672177237707
28.14316144809496
29.558097707239618
29.55809770723962
26.21205963107695
24.082956348943917
27.00992966526038
15.428314136823904
21.456133446681097
29.55809770723962
29.55809770723962
22.16019535721937
22.16019535721937
25.25443065690036
29.558097707239618
24.764236605117155
29.558097707239618
29.55809770723962
29.558097707239618
19.168238073015335
26.640891848534586
16.897430676236596
29.558097707239618
29.558097707239618
27.353403685035477
21.82064453765799
29.558097707239618
29.55809770723962
29.558097707239618
27.70331836422836
29.55809770723962
15.97656278331207
18.382006678984904
29.55809770723962
29.55809770723962
28.711251968582527
24.11473675625524
16.45502894621771
26.5288044997575
26.0906618260481
24.220721269819737
26.053616973215117
15.69789713544683
22.59963252304739
25.281725387271727
24.610981368484815
9.771862525000449
16.33428747467231
29.55809770723962
29.55809770723964
24.42798191169848
24.37100220780916
27.353403685035477
29.55809770723962
15.3411900334717
10.928734840685898
28.203420240366917
22.599529439912786
22.16019535721937
22.16019535721937
24.49363420255334
28.31722126751832
29.558097707239618
29.55809770723962
29.558097707239618
29.55809770723962
15.929991586501886
24.75087714988627
29.55809770723962
9.9958519554211
29.558097707239618
29.558097707239618
10.271457669098353
15.76105988102369
10.660581005167561
10.660581005167561
15.710985345938628
29.55809770723962
29.55809770723962
26.499330415977102
24.082956348943913
21.63383462553002
13.861026045148142
15.3411900334717
25.839284951088395
26.231590727015735
24.01851505902937
25.582521163395302
15.777631224442334
29.558097707239618
29.55809770723962
22.275917147747137
23.85822389271501
24.359780426425566
26.717444762618527
27.16840583189136
29.55809770723962
20.85037256982527
24.220721269819737
24.22072126981973
15.396492143299984
24.15777102726
27.331296059301177
16.05690121786699
29.558097707239618
17.38554043317874
24.66489328960461
29.55809770723962
28.320653566672007
26.29801401698294
24.733757410094867
17.68181889357545
17.574938070452042
29.558097707239618
21.6286848380851
16.531084195156875
29.558097707239618
29.55809770723962
29.558097707239618
28.254790640094534
26.198815279107812
23.956415453959924
23.93704499234303
26.20663275420341
29.55809770723962
29.55809770723962
24.75740718166818
16.020685010032633
29.55809770723962
29.558097707239618
29.55809770723962
22.193329419505126
16.45502894621771
29.55809770723962
28.159229580747468
14.620691815240129
24.220721269819737
29.55809770723962
26.551640684123292
29.55809770723962
29.558097707239618
25.564895964735594
14.976160092415967
22.733496103384955
16.455028946217706
16.362581421576035
17.26184228614422
10.817986585470528
13.521379607598472
16.897430676236596
29.558097707239618
29.55809770723961
17.59058735472455
17.59058735472455
29.55809770723962
22.733496103384944
16.45502894621771
29.558097707239618
16.569825945693687
24.220721269819737
29.55809770723962
22.54191443435926
29.55809770723962
16.178177523757345
29.55809770723962
14.493071767119721
8.925903771350022
8.925903771350022
8.714658147295651
8.283134422208141
8.283134422208141
8.283134422208141
11.536338745268546
13.37376445582566
29.558097707239618
29.55809770723962
29.55809770723962
16.316342153548025
29.558097707239618
29.55809770723962
25.853356941339616
15.715948824552958
17.59058735472455
17.59058735472455
14.960129565600722
29.55809770723962
15.818621396096932
29.55809770723962
29.55809770723962
17.59058735472455
17.59058735472455
24.44665927756712
17.365310739025748
20.827690774125106
25.256696749325783
16.850062343635305
27.796615616071097
29.55809770723962
29.558097707239618
24.74973605176889
18.413821283185843
18.413821283185843
29.558097707239618
29.55809770723962
17.06998819248384
16.46051427283072
12.64048912994675
12.64048912994675
12.64048912994675
17.59058735472454
17.59058735472454
29.55809770723962
29.55809770723962
26.515650212856002
16.07501758969838
29.55809770723962
24.320806997426494
29.558097707239618
29.55809770723962
15.620452932394874
24.760197130441416
15.980496846698502
16.455028946217706
29.558097707239625
29.55809770723962
29.558097707239618
15.104809975531321
29.55809770723962
29.55809770723962
29.55809770723962
29.55809770723962
29.558097707239618
29.55809770723962
24.760197130441416
16.931467288987765
18.382006678984894
17.375634330365358
29.558097707239625
29.55809770723962
24.760197130441416
15.980496846698502
29.558097707239618
29.55809770723962
16.80546342572301
12.206962674218483
12.206962674218483
29.55809770723962
27.057493138954666
29.55809770723962
24.44665927756712
29.55809770723962
15.777631224442334
29.55809770723962
16.80546342572301
17.59058735472455
17.59058735472455
29.55809770723962
16.58009975848676
29.55809770723962
29.55809770723962
29.558097707239618
16.61376512382944
16.61376512382944
16.897430676236603
17.42626159083638
22.97995553443833
24.62172147268337
29.558097707239618
21.502105411081175
25.065976940222118
27.11825687275308
24.01851505902937
26.12933314078902
29.55809770723962
29.558097707239618
24.088914803579378
16.01323709988543
29.55809770723962
24.01851505902937
24.30673823717334
24.809585770945652
21.872128978190027
13.74622047032875
13.532553165017138
27.980429358815915
26.16279215690051
29.55809770723962
20.768394868931992
14.9074665010497
29.01344262095531
16.955544194287604
15.95395736992688
16.898800413260137
27.030293697667062
21.758508157428604
22.989927430186494
27.195738233719535
24.140135619627852
28.061811748148116
29.558097707239618
22.106457502674605
22.106457502674605
14.730143696265388
22.79160998017806
17.765409344492163
17.673972113787165
24.760197130441416
25.531086418809338
29.558097707239618
29.558097707239618
21.20761887508996
16.80082883716666
29.55809770723962
15.980496846698502
16.897430676236603
24.760197130441416
15.980496846698502
27.317113494018944
23.28445849097636
29.55809770723962
26.21205963107695
29.558097707239618
28.671044353969148
26.53908933050325
15.546441356756642
23.9374822366658
28.159739835439037
16.10193889481485
29.558097707239618
24.720724300868667
27.111567055106285
23.959375944199245
24.220721269819737
24.220721269819737
29.55809770723962
15.980496846698502
15.546441356756652
23.85822389271501
29.558097707239618
24.760197130441416
15.980496846698502
24.206005387286353
23.24363746130698
10.571177341638696
9.680144539529739
29.55809770723962
16.892227492254825
16.953100309763403
29.558097707239618
15.818621396096926
24.14013561962786
16.80546342572301
29.55809770723962
27.808003874675443
27.111567055106285
24.080766645069613
24.23022698745231
21.132117656345955
24.424731843380652
29.55809770723962
26.212059631076972
29.558097707239618
29.558097707239618
28.289140258233942
29.55809770723962
22.262015789379404
24.082956348943917
29.55809770723962
24.19732803742486
24.23845144972345
22.3213382658881
29.55809770723962
26.32409099498031
24.687737582950206
29.558097707239618
29.55809770723962
16.572864656217185
22.674731367312223
29.55809770723962
21.929096344855672
24.374323287251546
29.55809770723962
29.558097707239618
27.86513718491049
21.929096344855672
24.374323287251546
20.44814274598004
29.55809770723962
16.64503192694433
22.813854589897847
12.486206699833682
14.465328450335681
29.55809770723962
22.899362697827808
68.68538155870579
28.821836326610278
60.20367756564145
24.917190066144567
55.985198144148235
29.941614439063624
-37.34387672648292
6.2341397631982325
22.901272164791127
15.44402205485196
23.351554973147465
16.981644739953254
14.333813968072457
27.81644638341684
8.995062656097026
37.80553122584253
27.363647459843342
4.0272875137020785
-5.47309554961694
48.753282028012066
-1.3615229243015943
21.6365947064515
-2.585338945618639
43.59839632911187
24.39589583687901
21.423008889065613
23.605883534956895
9.454921466730553
17.865783014441405
22.353146032532372
15.68046630571289
25.440879795234665
12.710517845867
43.955832003513045
18.940867421185086
31.062744206637554
4.556623708285335
46.382213616819215
14.757076847721063
37.06116469904959
-1.7580092767529714
29.693428874538828
29.001135990764297
5.1348283008212166
26.523635707435943
23.04682031143202
6.762650395125738
47.13841807343236
9.103069945648826
45.81369002318304
8.511782919930424
46.394306004139516
19.52347083801445
42.85005915289227
-1.999423282791035
50.01923786438497
7.2964542500282015
47.916503747500336
39.5775185888732
39.5775185888732
23.69720212708614
39.57751858887321
22.47952866078245
23.636265220041047
22.47952866078247
38.61119097521051
28.738392829734728
33.53980833066451
32.859806765270186
33.759681173629694
14.19427811173558
14.19427811173558
24.07651356475398
39.5775185888732
19.618992678083963
28.302739883412652
24.11416350186164
27.746140278838187
30.34246476683588
39.5775185888732
32.086525910722564
36.95690650723874
39.57751858887319
32.91811153910405
39.57751858887319
36.90738229743568
39.5775185888732
39.57751858887319
39.57751858887319
26.61103946628804
39.57751858887319
39.57751858887321
29.59143046233624
39.57751858887319
39.57751858887319
15.62420996480053
38.29960661749987
39.57751858887319
20.600010201166306
19.980438015510046
19.980438015510046
22.93615335691315
14.35533129434923
39.57751858887319
39.57751858887319
38.27757522583966
36.4917456007935
27.950655588562757
14.825993855262565
24.474595400179727
22.35158634371902
11.967932209473727
38.03889434784462
4.097252049498026
19.35247373589691
16.616334259698764
22.28321375265159
27.703687883739853
21.072492573058305
9.961233931085557
14.743483004694962
11.70960084038939
35.11533585031861
15.736841847754109
23.592905400049744
25.12640592119379
26.00357568903908
30.939428573569693
30.14136406476943
-3.7287457893450213
6.420004553759896
18.03259615771581
13.892969255709717
31.991810796597008
34.874410974518725
16.91848692842571
12.132551679533837
12.658685804625076
31.839563396045666
21.295094431127335
20.19570139131631
0.8393163903409645
13.671085968892184
20.891594202164743
25.885088332717444
17.80185235694806
20.436144090799353
6.311400662739773
16.976208091031182
-8.162206951524544
-4.2949185986980964
-6.626711418560664
15.500143883344958
1.9127518445951477
12.190201974522903
11.336087790685959
20.542414529659172
14.916931636174443
-4.913856721943306
-2.9159829337624266
-2.442562372988289
11.354931479742412
8.009855598484263
18.551382462397246
10.654024507611421
9.942434692810533
-11.053478294256188
-11.44509421251057
12.560068799348507
9.137084851748805
29.52184281390361
12.301039755652592
9.575428213738501
15.908514254566352
4.643303658467602
11.809055978462606
6.434456466440271
-0.3824957912132489
12.722766477598341
11.112356828355447
16.74165388553877
3.0750371019359104
8.284591026514898
11.766748884458517
34.86382457207331
12.186081008695936
12.996410150006279
8.391994802000548
21.8315803260252
10.15099228476221
5.495203131924771
23.519781345081654
23.337329583642287
18.284089637205202
13.216882603033305
24.171189240964782
19.255752310256206
13.212082812675785
9.205516599281232
5.201400804114902
18.067208022831704
8.869459884121389
-1.0517630760495615
21.773143996884908
-18.28039862855298
37.24998452157893
-1.0673158083776788
6.28643325726753
19.432589335182527
11.219326377487844
17.482074427980415
10.500653351346399
1.7068674901853342
17.325410615976736
13.310401831984807
29.982058303293844
18.288258466344306
11.350010546851074
7.228371725614324
14.007360580806633
-6.904384837042098
9.83419266089885
24.119383748249984
16.877846686760083
9.506649809480031
11.729751541154322
2.9782929944034153
-1.8044952797204117
29.60936885552874
10.899297642091561
8.378844651407332
11.192308626693203
10.899297642091561
8.378844651407332
11.192308626693203
31.053284111599393
17.13352848605587
13.63425216001426
28.70862727450097
14.069428804931313
33.11320274120553
22.989170926662357
21.10555468504974
19.185077252481484
24.35706973633842
11.352518683439573
40.98765806078326
14.954800729959143
40.13824276494809
4.148141536935696
42.562073043926304
30.436780940593646
59.24031899857132
14.582046301266846
51.61381926492331
16.414281959291664
28.238241349576917
23.541231969201224
35.67342553529347
36.715014877050265
29.230951755517523
36.71501487705028
36.05557040881525
36.71501487705027
22.197052353006413
23.682314844768072
36.48028863126769
36.71501487705028
31.589550436015834
19.259075425672602
36.715014877050265
36.71501487705027
36.71501487705028
31.25225070561328
36.715014877050265
36.715014877050265
21.00883154425903
21.00883154425903
36.71501487705028
13.834886288367521
13.834886288367521
12.181062334512342
26.70369150386498
19.57412842350129
36.715014877050265
21.680711887057928
25.85353277789018
36.71501487705027
18.964297387844375
26.69605938584175
27.584173078271995
32.57813540780628
18.503720085005362
33.31572209371829
33.09741500499216
17.807586315261922
36.715014877050265
36.71501487705028
36.715014877050265
36.715014877050265
15.898244461941637
18.479105389209746
18.479105389209746
31.692737271923516
21.00883154425903
21.00883154425903
20.19995217566052
29.12679037573334
34.52934163157659
27.514111202349653
11.97021091916953
15.757113553229228
7.988984630819632
7.988984630819632
24.164309596748947
26.61515127015413
36.71501487705028
19.817050702515193
19.817050702515193
34.80968606513817
20.70741498807996
36.71501487705028
36.71501487705028
30.940418958769033
17.682005829177427
22.76012563024424
31.982064638647287
36.71501487705028
36.715014877050265
34.38017111636408
18.554928203572192
36.71501487705028
36.71501487705028
21.00883154425903
21.00883154425903
36.71501487705028
31.120637133880564
13.109472444475662
21.00883154425903
21.00883154425903
36.715014877050265
36.71501487705027
36.71501487705027
36.71501487705028
36.715014877050265
36.715014877050265
36.71501487705028
36.715014877050265
36.71501487705028
36.71501487705028
36.715014877050265
36.715014877050265
36.715014877050265
36.71501487705028
36.715014877050265
21.00883154425902
21.00883154425902
36.715014877050265
36.715014877050265
22.90439344074006
22.90439344074006
36.71501487705028
36.715014877050265
30.499027510337545
31.25966985547594
36.71501487705027
21.70786717154858
21.00883154425902
21.00883154425902
36.71501487705028
36.71501487705028
21.00883154425903
21.00883154425903
21.00883154425903
36.715014877050265
36.71501487705028
36.71501487705028
22.408238576165775
22.408238576165775
3.0263543163374678
22.68220553634133
33.943403821768754
25.500186974436595
18.001446244744635
10.286227537692989
33.444099852757155
16.494630948658212
17.55981174320251
24.934722953705204
18.213420934406408
24.795284821988464
34.99785412912203
15.185020738094295
40.27063433148998
35.06803398457472
35.02314127692708
5.871134588012655
7.062259658412802
15.761943463105592
34.91915221548114
3.3753210644515237
33.45943029531246
8.631407169780658
8.363222058402439
-4.5385388242744975
22.508538355418622
0.687626799558122
7.083265939417839
-1.7755090399079976
-8.294850566463726
21.25285064310424
-1.584064753170731
6.759664950105584
16.349562820790442
13.328157405594293
21.204663815883862
6.275245118284408
18.719610618717045
11.806664891433304
19.87305677402451
11.629357484359659
23.81728391820282
30.64657032226046
9.614398532387442
29.157852058521836
16.730345182341615
16.47967996521129
16.101462784902154
21.407080255437798
21.163310330687327
31.919107230933722
11.197149976083821
31.552292576128362
19.386269138798017
25.88273910756487
9.48730414560531
18.501743358730636
13.454586196754056
50.61597496170795
7.792867721596412
51.8472290728334
33.545744868972236
19.569203290428078
22.713587458907064
27.775499169413738
33.14652379257762
44.76693118984771
-0.8437417407844295
36.19326363730464
26.32585616129415
59.790001645948536
26.32585616129415
59.790001645948536
43.93196787768336
42.51539275934647
43.249928144296426
43.93196787768336
43.93196787768336
43.93196787768338
43.93196787768336
43.93196787768338
43.93196787768336
43.93196787768336
43.93196787768336
43.93196787768336
43.93196787768336
43.93196787768336
43.93196787768336
35.88324933492339
43.93196787768336
43.93196787768336
43.93196787768336
43.93196787768336
43.93196787768336
43.93196787768336
43.93196787768336
43.93196787768336
43.93196787768336
43.93196787768336
43.93196787768336
43.93196787768336
41.09315816626015
36.32509078112663
38.75992758719245
43.93196787768338
43.93196787768336
43.93196787768336
43.93196787768336
43.93196787768336
43.93196787768337
49.55727564773097
31.754452248101515
43.93196787768337
43.93196787768336
43.93196787768336
43.93196787768337
43.93196787768336
43.93196787768336
43.93196787768337
43.93196787768337
43.93196787768336
1.3153605223537492
32.1608197480434
17.733811662455306
33.19098508175374
39.7476101504163
11.326131939844183
19.354833869209443
-19.947858276592086
16.980069015179556
14.702456926653912
27.184916602258596
24.37711202959069
-2.3952241146185536
-2.3863938806705534
3.238764453713747
-6.829473475976286
5.976615127101221
19.229056247345977
29.65151719147946
15.403556340650098
4.6749237908821595
20.328238492398143
24.008613925989877
13.283856218395892
20.466256342298472
24.531498442184876
9.715305724362269
-6.668417390227012
42.460064278551066
15.887478689071095
17.985602454542157
40.07761545523807
14.749825018201678
2.3422720435106843
35.79167133653158
41.39626863513153
15.954197428437755
40.8989669322942
14.665291395080208
25.759388583810857
34.328387788135146
37.455861387320596
28.10774181574406
46.87815112312035
39.84582627941027
15.74440808795224
16.5937202160267
50.50424937318361
24.803527394662666
41.85604662368197
24.90835776507783
16.75501160949605
27.281922309549753
26.877655732160175
33.30290991897308
18.438787551903026
17.745633870945852
16.88219468940383
16.88219468940383
41.381255663982586
41.34113304772221
34.66956276495837
34.931487439281234
41.85604662368197
21.135260571767024
41.85604662368194
32.002230283820076
38.80679981009039
41.856046623681955
41.856046623681955
22.95798698767631
34.57203976954073
41.85604662368194
33.397515240708564
22.363419991974077
23.628148132115427
19.9911028266891
20.5625997895851
34.48643131606681
41.856046623681955
35.45765942817306
41.856046623681955
41.856046623681955
23.99080211546363
22.511389168985605
12.103356671693067
14.162983911043352
28.37208334374488
25.806885354405583
19.586035632678065
10.99901569137265
11.511712029111436
30.749163728638685
18.32536337128971
41.85604662368194
41.85604662368194
41.856046623681955
15.943410007645639
18.37432753327142
18.37432753327142
27.188736287832512
41.856046623681955
15.301884629532648
41.856046623681955
20.490980307051682
32.25493561958345
9.514464500782674
21.686093556047368
38.04683699604856
12.499147298582574
15.702250161293723
20.125688498222647
13.811379740199545
27.329825218485944
33.82412083437935
4.418434065168588
22.782022123574382
1.5366416599248436
21.235503366198795
9.213235994224995
21.434669362485625
20.266679189952097
38.58493769163527
25.07362953228078
19.714124943163252
16.36996783497862
37.076642982602564
17.38483254401267
22.7791540141079
1.3078442320447206
20.672239954548246
-16.239566125221437
18.749956838910048
6.545356554922325
10.02949307908653
11.049184633609169
19.673814454049918
12.711592905597124
15.790274304618142
14.48687263404703
24.44111691548504
5.427255630909666
-0.6852612575592644
21.3283820143218
37.68807221612261
12.655713504888194
13.03090211878147
37.14042337546936
-0.6947827321168537
3.2912458948079317
29.187237548647772
15.70812480739102
29.179569809314224
18.329027864156306
24.521841181371386
9.386099461139043
17.438420405338114
16.067626862238928
17.454242177043724
0.5053217318176157
11.036041501730963
12.216920545587184
18.67128948112276
11.061463702983522
26.136289276119065
23.771768061380726
26.998978254107136
15.659430345400047
11.706040741182427
25.61266140259256
5.832865182990303
20.331844121504425
3.436344834642331
15.05957185367782
-0.529189902096898
10.333638324950124
51.615775079478794
16.60338656148168
19.65380824913621
23.52308164339989
39.58529796583894
13.61102927734332
33.12097857783042
40.749817342949484
29.25868283598175
27.417944430560784
4.865500399979229
20.452503385491113
16.89758283776284
35.2075938748319
35.13843104704129
20.793580095775212
33.742667054439806
35.90910501748002
56.353449833890636
11.412410559682751
21.359100051764198
22.47974810593904
22.47974810593904
39.964702420890184
24.060871727747454
21.75636359311055
25.46829477265351
22.833873614642663
10.168043602768172
18.019893332466705
39.96470242089018
21.75636359311055
30.790334078164207
21.562755758879184
39.96470242089018
39.701350957873416
32.048162275905916
39.96470242089017
39.964702420890184
39.96470242089018
39.964702420890184
22.635497845648075
21.482497423988793
17.10651115582369
39.96470242089016
33.346336077271474
21.756363593110557
22.47974810593905
22.47974810593905
27.514377193386235
39.964702420890184
16.313262101739802
25.271441982280383
39.96470242089016
39.96470242089017
37.277556069536544
39.96470242089018
15.701539429785045
15.701539429785045
32.85455943934854
39.964702420890184
22.47974810593905
22.47974810593905
39.96470242089016
39.964702420890184
39.964702420890184
34.845672520457995
39.964702420890184
22.47974810593905
22.47974810593905
25.52487322630965
39.964702420890184
39.964702420890184
29.561358800704557
24.445711639666126
39.96470242089016
39.964702420890184
35.5671042705532
22.34958789230092
35.5671042705532
39.964702420890184
21.386858605014886
37.6664265116225
14.910652108219793
22.47974810593904
22.47974810593904
16.32484516627977
16.32484516627977
8.91346587103823
29.161644402732914
39.16498116553466
28.229065894556648
3.7394931118866963
32.473060593759975
35.88245132776118
19.642857922102134
20.032137911093955
20.213727007851034
19.40685485605201
25.94349722079043
25.856428853853906
10.526394032969247
28.65507955714804
12.491462705051044
23.768826577062974
25.807239617362903
15.246642021395761
32.8459789918879
32.84597899188791
32.84597899188791
32.84597899188791
32.845978991887904
32.84597899188792
16.01276956268399
31.175787141951567
32.84597899188789
32.84597899188791
32.84597899188792
32.8459789918879
19.288277618726585
18.993276911323555
32.84597899188792
32.8459789918879
32.84597899188793
32.845978991887904
32.845978991887904
32.21756605907309
32.845978991887904
32.8459789918879
20.5012821699328
19.712324817288387
32.845978991887904
32.84597899188793
32.845978991887904
27.57108829344196
16.991942108126448
32.8459789918879
32.8459789918879
32.84597899188791
32.8459789918879
32.8459789918879
32.84597899188792
19.074715594872696
19.074715594872696
32.8459789918879
32.845978991887904
32.8459789918879
32.84597899188791
32.84597899188792
32.8459789918879
32.845978991887904
32.84597899188791
32.845978991887904
32.8459789918879
32.84597899188791
32.845978991887904
32.845978991887904
32.8459789918879
32.8459789918879
32.84597899188791
32.8459789918879
32.8459789918879
32.8459789918879
32.845978991887904
32.845978991887904
32.8459789918879
32.8459789918879
32.84597899188791
32.8459789918879
32.8459789918879
32.8459789918879
32.84597899188792
32.8459789918879
32.8459789918879
32.8459789918879
32.845978991887904
32.845978991887904
32.8459789918879
32.8459789918879
32.845978991887904
32.8459789918879
32.845978991887904
32.8459789918879
32.8459789918879
32.8459789918879
32.845978991887904
32.845978991887904
37.79507483237097
18.451657073581966
29.65013570424658
32.8459789918879
32.8459789918879
32.8459789918879
32.8459789918879
32.8459789918879
32.845978991887904
32.8459789918879
32.8459789918879
32.8459789918879
32.8459789918879
32.8459789918879
32.8459789918879
52.27085416705511
32.8459789918879
32.8459789918879
32.8459789918879
32.845978991887904
32.8459789918879
32.8459789918879
32.8459789918879
32.84597899188792
32.8459789918879
19.07471559487268
19.07471559487268
32.8459789918879
32.8459789918879
32.8459789918879
32.845978991887904
32.8459789918879
32.8459789918879
32.8459789918879
32.8459789918879
1.8200838603036176
34.06070405679052
31.17856476626579
1.031388029515591
1.5989951119663395
34.067756026217374
19.831011536675916
31.610619580240343
29.536514867895505
19.569183341097883
9.783731576953151
33.60274787175789
18.154868915979307
32.16585320263708
25.23399584988003
28.259149056648926
-10.084818339821181
0.0983227431719084
29.562129270397076
31.223281423371624
30.711448776095285
11.278751406272216
55.55967310470037
17.036433387053467
44.08986610054729
24.680715214692373
46.06472346215135
21.985681955363873
12.121495845979062
11.360094345640501
15.207123122764841
22.745541441853767
51.85056727181825
8.438774760943634
21.164268695622777
8.438774760943634
21.164268695622777
12.65160795945
53.79823117300254
10.678031940249372
19.93778997283477
10.678031940249372
19.93778997283477
16.451017197694526
44.30566336438891
25.79979213608654
25.916728108219488
36.58694931070478
22.760597422576243
20.47711318395915
36.58694931070478
36.58694931070478
22.76059742257625
20.477113183959144
36.58694931070479
36.58694931070478
36.58694931070478
36.58694931070479
36.586949310704796
35.644942544954965
36.58694931070479
36.58694931070479
36.586949310704796
36.58694931070479
36.58694931070481
36.586949310704796
36.58694931070478
36.58694931070478
29.99584330760942
36.58694931070479
36.58694931070478
36.58694931070478
20.931046665571365
20.931046665571365
29.331367793866256
18.766079304866818
36.58694931070478
36.58694931070479
26.995004189228045
30.227902062167278
36.58694931070481
36.58694931070478
20.47711318395915
36.58694931070479
36.58694931070479
36.58694931070479
36.58694931070478
36.58694931070479
36.58694931070479
36.58694931070479
36.586949310704796
36.58694931070478
36.58694931070478
20.93104666557137
20.93104666557137
20.931046665571383
20.931046665571383
36.58694931070479
36.586949310704796
36.58694931070481
23.838921601342882
36.586949310704796
36.58694931070479
36.58694931070479
36.58694931070479
36.58694931070479
36.586949310704796
36.58694931070478
23.227829860780627
20.360248685272513
36.58694931070479
36.58694931070478
36.58694931070478
36.58694931070478
36.58694931070479
36.58694931070479
20.93104666557137
20.93104666557137
36.58694931070479
28.12983279217579
19.09709133415415
36.58694931070478
26.612852773904173
19.40380532526298
20.931046665571383
20.931046665571383
36.58694931070478
36.58694931070478
36.58694931070478
36.58694931070478
36.58694931070478
36.58694931070479
36.58694931070479
36.58694931070479
36.58694931070479
36.58694931070479
36.58694931070479
36.58694931070478
36.58694931070478
36.58694931070479
20.93104666557137
20.93104666557137
36.58694931070478
36.58694931070478
19.496733686314947
36.58694931070479
36.58694931070479
36.58694931070479
36.58694931070479
36.58694931070479
30.252610481042392
36.58694931070478
36.58694931070479
36.58694931070478
36.58694931070479
36.58694931070478
24.531314029111613
36.58694931070478
20.405367006877288
23.047656382905323
25.4369831313892
36.58694931070478
36.58694931070479
36.58694931070479
25.551928880349394
36.58694931070479
36.58694931070479
36.58694931070479
36.58694931070478
36.58694931070479
36.58694931070479
18.179380289605923
29.48312703836524
11.558807222618276
50.70672460028427
20.07292366631719
18.95809689602418
20.07292366631719
18.95809689602418
29.59468042568892
52.930651826658476
13.430643061302746
38.03667607363713
21.948833139691022
59.62823439873051
31.048778055156703
32.68057579370468
19.234880919103272
55.861590442263314
32.57819487589597
25.02116572337722
17.65562746061136
19.05837906065384
19.05837906065384
23.475282155513053
28.852329253091078
27.57179683030555
24.16998613435944
17.861227178419895
22.381634089170365
28.51891657043174
19.058379060653838
19.058379060653838
12.869636915476445
12.869636915476445
10.627899170333121
10.627899170333121
20.36496402835723
20.36496402835723
20.447729449566488
32.57819487589596
19.05837906065384
19.05837906065384
24.298343485837776
17.832450592468735
17.65562746061136
25.02116572337722
24.248550270608202
20.018434990777525
11.639764518644405
26.491163246006845
18.027889901600627
19.05837906065384
19.05837906065384
8.119908144439892
8.119908144439892
8.119908144439892
8.119908144439892
19.058379060653838
19.058379060653838
28.906826646286756
19.05837906065384
19.05837906065384
19.058379060653838
19.058379060653838
19.058379060653838
19.617824061700745
24.89857796172541
18.06463289663901
16.707629317166543
32.57819487589595
19.50628752867496
13.609485557293066
28.52292385229787
16.761833150797084
13.14664635921398
26.52513429463445
25.02116572337722
17.65562746061136
10.755999119654277
23.550670186395077
3.8553186480413246
12.855063518105059
-11.256685399722919
15.144873361992587
11.24310790461264
14.458507900993522
1.6554689979801995
16.54680465647079
6.129931021984266
12.54324364724387
15.960664673198965
23.32324532718309
30.38468814592327
14.947600711811514
21.781674685391852
8.496728349808857
-8.758880643161023
18.920913103449493
12.532623478375513
19.900255652273408
25.433106970663154
2.8499634783149737
38.61499561745536
17.54697064462723
14.756311797838428
19.900255652273408
25.433106970663154
58.08599824361364
57.450305346122015
28.559568492584347
56.575001460233594
28.06754121225985
57.725782116412425
28.44710555764297
55.9416828399636
27.712902743412254
32.81140840645492
57.902736727768755
57.902736727768755
57.902736727768755
45.25001356108767
45.2535103070822
25.651707639470445
28.409002860478584
25.96239536633514
31.6557326784002
20.51000435352285
18.098322847164177
25.164435389991272
25.164435389991272
37.43570052068137
24.027725913915287
22.025642180177066
42.18652421194654
49.667541959032995
27.25757400691299
27.25757400691299
22.67056314218466
49.667541959032995
49.667541959032995
49.66754195903303
49.667541959032995
49.667541959032995
49.667541959032995
49.667541959032995
49.667541959032995
47.09602424056077
27.25757400691299
27.25757400691299
49.667541959032995
49.667541959032995
49.66754195903302
49.667541959032995
49.667541959032995
49.667541959032995
49.667541959032995
27.25757400691299
27.25757400691299
49.667541959032995
49.667541959032995
49.667541959032995
49.667541959032995
49.667541959032995
31.54284640271159
31.542846402711596
17.77769765803232
13.93780664300414
12.621489929067044
31.542846402711596
23.192335825789645
18.042124512757695
31.542846402711596
31.542846402711575
12.28530480002185
32.356980938522206
36.22296654319708
29.501976469784893
27.24718826577332
7.555784470922358
7.555784470922358
43.28102703721972
25.93758117413583
20.083543868071878
17.62250129006136
10.620871651941385
36.59738135145193
43.28102703721972
35.968302461229996
35.968302461229996
15.98569815817321
15.98569815817321
13.810663803268756
34.23185036271519
30.731326320658063
30.731326320658063
37.662614016670005
19.745495240769188
26.484240003086175
22.703014676422946
22.703014676422963
30.020663500966112
23.616468600784714
25.93583177799668
32.5299215197237
20.961729808058077
23.530957951749556
23.530957951749556
22.431348809585796
14.69292295744453
14.69292295744453
25.06248642838527
22.99906676701376
42.18360029823091
22.99906676701376
35.33846059905127
24.52185837598283
14.557882774584694
26.52417330670256
1.3417180239875033
22.60772819970919
29.24375836683442
2.4533204908901234
23.436478501999332
-13.680852692310925
18.360910171575892
18.24041990407015
16.44977555875269
31.221326539146297
19.05188694754396
0.9904749248129443
20.171743764901034
18.544576815079594
36.38811872647689
36.388118726476876
36.38811872647689
51.75079950472185
20.864573501534593
52.862027892794266
52.86202789279428
52.86202789279428
52.86202789279428
30.79140976644483
22.287244564083828
40.055544469352206
33.34319058999724
18.293883263777037
21.85976652312641
18.46927687762505
40.06958791282644
13.622179180439106
22.585186131042732
32.4363343600048
44.57144767962295
44.57144767962295
22.01914475686889
22.01914475686889
38.85763987293621
38.85763987293621
34.57249946453113
36.75721986083785
38.85763987293621
22.01914475686889
22.01914475686889
27.624777034215104
20.914793069516435
32.05078166902961
38.85763987293621
6.424236018553465
51.69912676549829
33.461373006988694
19.489055856745427
19.489055856745427
28.438812592356847
25.653320584476397
15.369437615414864
15.369437615414864
28.90412973269953
21.64771387393311
17.17890817124216
33.46137300698871
24.56732939757193
15.583889301060704
14.748686188874673
21.407029507139747
21.407029507139747
33.46137300698871
39.31709265643575
42.375203590832385
18.74896461988196
48.27899687594717
30.268136186584996
25.87025219582355
52.92267593389675
52.922675933896755
25.87025219582355
52.922675933896755
52.922675933896755
25.411912776490723
16.770481248733144
20.430144319291593
8.374974337751635
11.068803473668016
8.374974337751635
11.068803473668016
41.72046222263945
25.656216940717393
21.085742181149335
42.36200219759787
29.50340066080712
41.81901844520389
14.138828657971994
48.73803207461914
22.753063572735503
31.756102537611323
21.40352000832268
21.40352000832268
13.151797413367902
19.96583343835315
22.763574625928307
11.31468394460082
11.31468394460082
30.19229136746577
14.301670109232997
14.301670109232997
15.175454095527218
37.76632190996429
30.09512269809118
21.403520008322687
21.403520008322687
15.495033523638355
22.58380370016767
15.792090099941193
35.74010278999434
42.97442742180178
31.268146420863136
41.72922748311896
33.90777238172717
21.905328766955655
18.06041787013505
18.06041787013505
42.97442742180177
39.44399223692889
42.97442742180178
42.97442742180177
42.97442742180177
35.45170611494174
42.97442742180178
42.97442742180178
31.109822024184027
42.97442742180178
42.97442742180178
42.97442742180178
42.97442742180178
42.97442742180178
42.97442742180178
42.97442742180178
35.45170611494174
35.45170611494174
42.97442742180177
42.97442742180177
42.97442742180178
43.92868708064006
42.97442742180178
35.45170611494174
43.704016948506926
42.97442742180178
42.97442742180178
27.708333552196166
39.07001151764855
31.620807714188533
40.48668536384702
40.48668536384702
33.115033454906936
34.7610188509846
34.7610188509846
34.761018850984605
34.761018850984605
34.761018850984605
34.761018850984605
47.28224385346627
62.50355907768619
59.06766780313505
29.869776082265513
62.503559077686184
17.836448503485958
17.836448503485958
50.247873531886356
54.22831790670495
27.320373439718292
53.148132803172196
63.37784449377588
21.05332749567687
25.856580076944113
62.65400663873169
