GIS
12
-0.46635054971437206
2
merge
dontMerge
3
4 0
112 0 1
23 1
139
overlap=Attacker:1
subtype=Be-Born
anchor=birth/n
overlap=Instrument:5
subtype=Attack
nomAnchor
anchorMatch
anchor=war/n
subtype=Sentence
anchor=sentence/n
distance=9
distance=6
conflict=Crime:4
distance=0
subtype=Meet
distance=2
subtype=Elect
anchor=election/n
distance=3
distance=1
distance=8
subtype=Marry
conflict=Entity:3
overlap=Place:2
subtype=Transport
conflict=Attacker:1
anchor=destroy
anchor=targeted
anchor=hit
conflict=Place:0
anchor=marriage/n
conflict=Place:2
conflict=Attacker:2
conflict=Target:4
conflict=Target:3
conflict=Instrument:4
distance=5
anchor=attack/n
conflict=Place:3
anchor=fighting/n
conflict=Place:1
conflict=Attacker:0
distance=4
subtype=Die
anchor=kill
anchor=shoot
conflict=Victim:5
conflict=Target:2
conflict=Attacker:3
anchor=drop
anchor=die
anchor=talk/n
conflict=Entity:5
conflict=Time-Within:1
anchor=meeting/n
overlap=Entity:5
conflict=Time-Within:0
anchor=meet
conflict=Time-Within:2
overlap=Place:5
conflict=Attacker:4
conflict=Entity:2
conflict=Entity:1
conflict=Time-Within:4
conflict=Person:3
conflict=Time-Within:3
anchor=summit/n
conflict=Place:5
anchor=cross
conflict=Destination:5
anchor=invasion/n
subtype=Convict
anchor=convict
conflict=Crime:3
overlap=Entity:2
overlap=Place:0
anchor=sentence
anchor=visit/n
conflict=Target:0
subtype=Charge-Indict
subtype=Trial-Hearing
anchor=charge
conflict=Crime:1
conflict=Target:5
overlap=Place:1
overlap=Defendant:4
overlap=Defendant:5
overlap=Person:5
anchor=attack
conflict=Agent:0
overlap=Target:5
conflict=Target:1
conflict=Victim:1
conflict=Victim:4
anchor=trial/n
conflict=Defendant:2
anchor=strike/n
anchor=suicide/n
conflict=Attacker:5
anchor=fire/n
overlap=Victim:5
subtype=Injure
overlap=Place:3
anchor=blow
overlap=Victim:4
conflict=Agent:1
anchor=use
conflict=Instrument:5
overlap=Destination:5
anchor=fly
overlap=Destination:4
anchor=fire
anchor=death/n
anchor=ambush
anchor=come
overlap=Artifact:3
anchor=fight
distance=7
conflict=Destination:4
anchor=invade
anchor=bomb
conflict=Victim:2
conflict=Artifact:2
conflict=Defendant:5
conflict=Sentence:5
subtype=Appeal
anchor=appeal/n
conflict=Crime:5
conflict=Artifact:5
anchor=targeting
conflict=Instrument:2
anchor=arrive
conflict=Artifact:4
anchor=battle/n
conflict=Artifact:1
conflict=Agent:3
conflict=Agent:4
anchor=murder
conflict=Agent:2
22.53656676745099
15.633800162330099
17.115766631171
9.65523819125148
-9.074419356607283
2.2680366465815203
0.9414219996678268
-0.003781086226692487
7.315855142304359
-3.1055369552440473
5.5451776302345355
-2.7296946812376675
-2.9162277678962205
1.2065592579173456
-3.2617893638953186
1.322570522703082
-16.71134089547772
2.554431904313276
-0.7356657475406441
0.4746589611253311
-10.988673343335918
4.530073307298131
8.94440879319342
-10.304938627955272
-6.263481067571511
2.3704746815814297
-14.539559695216262
2.827736331269206
1.3669656502676595
-0.741897007082813
-3.875636021841587
1.7671496315330053
-10.689754433202607
2.7919070024349946
-3.922147844060305
1.3995370918875523
-16.38027250706045
2.8092137709846834
12.521633364483668
-8.394980498112218
7.457859469574229
-2.8578303062180623
1.3755068013667329
-0.26492793703012607
-20.06840181619416
3.673589775108188
1.4287411435295698
0.1933091253208521
3.9625170565411456
-0.07941509954176507
5.806257418747617
-2.000000988649926
-7.887517334711799
2.1688404592617663
5.87156100400712
-0.9377052126953274
-17.692321897302016
5.399128302466897
1.2552513939170973
0.7093015667800708
-5.546231523129208
1.2859047028118478
-12.87629481862702
2.0802850682346072
-1.3447058384478625
0.772517855890116
-3.6244732940321773
1.0285613181905053
-20.00551198773269
2.6500660220469183
-4.521373081842475
1.2076852169356411
-11.263236370018067
2.098129071935979
-14.543136320661596
1.7140265458596313
-13.225536956313647
1.8111383242217984
6.12098562554075
-1.6421073596679596
-8.68063441588434
2.0801789657812244
-14.515319535143389
2.0774856505912958
-14.83226823473308
1.775094787561534
-11.068539304084434
1.9661801091088371
-20.565323750926275
1.6948816910021796
-2.8700083097465567
0.9564841007737157
-5.259243289053188
1.2036268509521828
-10.975682498833045
1.7716171165675156
-1.9230946034842133
0.8106789173290325
-20.724443174057658
3.3623611320508973
-2.0045449446933747
0.8468580956142286
-11.052325451934443
1.9088071013866221
0.6741259154064971
-0.2382041390821179
12.263443341167385
-7.497168149832968
8.85380902452948
-2.782249534758943
-26.257621300917794
3.095996282437456
3.4816084485190903
-0.836989261725217
7.641270647156292
-6.52787726204611
-20.665470084752506
2.2364596443837392
-8.230479673180762
1.7450185480769287
15.187674663658255
-17.691513591046267
7.9322915769930225
-0.9193353750086874
-3.4149627079240057
3.77558917471728
8.46311999225496
-4.799920786190865
-0.3580997172533906
0.5406392243561557
-13.792669933362935
2.7038251391378307
3.862513065357933
-0.5273566324234535
5.392233281241021
-0.6763396907597863
5.294747804242464
-3.0829580134080907
-6.355676418507096
1.9639327755762026
-6.355676418507096
1.9639327755762026
-12.682192876905898
2.8689129167748297
8.437816965184448
-18.73179755664731
13.656089309370547
-5.663796214816528
-2.4809687158834253
1.1172438351681777
-7.301467729332017
2.2721918731879045
1.0145657736906735
-0.17415076794554274
-7.845848131536016
3.0324172187444285
3.5558001592007384
-4.933154255984823
-1.9907575846953485
1.0567337382133124
-2.246591308899883
0.9764601721013217
-11.467391424594954
3.0525538867714337
2.1411779911810345
-2.623922069557444
15.218206575147526
-12.128391788391134
11.563719894037098
-10.016668306077742
4.984578729919649
-19.012483995897828
0.21671955534788823
0.001759219898625819
17.659436367581957
-2.49802407474244
12.609911926512398
-1.8120635588822587
-1.25860142258802
0.6654317648750037
-0.7494150107758195
0.515449678601589
9.163682714995664
-4.794247805760756
2.1819722553595535
-1.945686742618957
3.631664247205046
-2.298554327694841
5.844574638509647
-2.610362734504453
-4.013642916486418
2.2093390235143495
10.33964361290515
-5.732691292405994
-19.011941877072058
2.275847427864715
13.649496107185884
-7.537060205804939
-19.89498554307058
6.464705789285469
7.233289867205968
-10.886781311952102
15.051590887830569
-12.199139640191671
7.452655537624775
-13.491702894206504
9.875294733423194
-0.1720043788603003
1.8649437195367677
-0.3579238680100503
15.687737372486964
-12.836826677659776
19.155812363700676
-3.7702795681020733
3.4025563923517854
-0.45307104291323985
24.800330494553638
-9.86760839403018
-1.8722800208977113
2.060164671118315
-2.682873785541049
0.8644880301844822
-5.621256741459567
2.189182574575765
-3.0989565795434926
1.1407676409807919
17.46544685952484
-9.354871835538633
10.504488457403426
12.655522202560578
5.739611381426158
8.644233046216113
11.393454508118927
12.343272938515057
10.022296733049675
13.33332755724815
15.883256848401167
18.812092316214983
18.124422263817163
16.603717886676197
10.449987648690183
8.646385071873091
21.474648615886778
9.754997948493017
12.556603643893984
12.345082638413059
8.033760602602628
4.074988543486735
4.869809863554752
12.04475208607061
7.954287464024172
