GIS
7
-0.6646319810115271
2
noEvent
event
3
7 0
125 0 1
18 1
150
Time-Holds+3
slice
hit
Agent+3
deadly
riot
cost
successRate=3
successRate=4
successRate=2
Time-Within+2
appeal/n
Time-Within+1
Place+1
Place+0
election/n
successRate=5
Place+4
Entity+1
Place+2
Time-Within+4
war/n
Time-Within+0
Place+3
Attacker+4
Attacker+0
Attacker+1
Entity+2
Person+1
Attacker+3
combat/n
meeting/n
Target+0
fighting/n
Target+1
Artifact+4
bomb
attack/n
Time-Within+3
Person+4
Entity+4
Entity+3
Target+2
Destination+1
Person+3
Person+0
Instrument+1
Destination+4
Entity+0
Attacker+2
Destination+2
trial/n
Defendant+2
fight
convict
Instrument+0
conflict/n
postwar
terror/n
Target+4
hearing/n
Defendant+4
Defendant+0
suicide/n
step
assault/n
murder/n
Victim+4
Agent+1
Instrument+2
battle/n
fire/n
explosion/n
fire
strike/n
Target+3
meet
raid/n
war
Defendant+1
Artifact+0
telephone/n
death/n
Victim+2
shot/n
summit/n
appeal
Adjudicator+1
targeted
Victim+3
wound
Agent+0
Artifact+1
birth/n
Victim+0
charge
dead
violence/n
Artifact+2
blast/n
Victim+1
retire
Person+2
arrive
Agent+2
Artifact+3
engage
kill
Time-Holds+1
visit/n
terrorism/n
Agent+4
advance/n
born
Crime+1
Instrument+3
donation/n
Money+1
Giver+1
donate
Giver+2
Sentence+1
extradition/n
prosecution/n
sentence/n
smuggle
sue
wedding/n
sail
Vehicle+3
enter
seize
Time-Starting+0
Instrument+4
Crime+4
demonstration/n
bankruptcy/n
Org+0
Defendant+3
Org+1
Adjudicator+2
attack
indictment/n
marriage/n
divorce/n
injury/n
marry
Sentence+0
lawsuit/n
ambush
22.754335745917807
16.06153346575364
14.134904527588994
15.837497547633076
15.565520196446759
12.263676321206361
20.63857609074298
1.1203352472996118
-0.7448736810113274
-2.8314721529504787
1.1561751876801551
2.4685933174801153
-3.00541035217325
0.19907879301932718
-0.1469950324225633
-1.4559371950217679
0.7909357610650518
1.2255215048378392
-0.6013152528664336
-0.4917033654849017
0.3581762360052876
-1.9647519919072218
0.8989143430281685
-6.862192552479443
1.9841154908702978
2.770807263747648
-2.431732570134069
1.4887426250174505
-1.1428799544737456
3.9548321962656674
-3.2146873275950587
-2.3420334599455694
1.2138897557716932
-9.72091109995245
2.8328767342585097
-4.71396627232752
1.4030021423767263
1.1826775797492854
-0.580916375684319
-1.4363681161513009
0.8096092543222095
0.9846680180457978
-0.8548905257470163
-4.243924005842699
1.4785291494725095
-1.3960586524477763
0.7449919873701454
0.09525419124272783
0.10670270341114385
-3.493343338192655
1.760121695991494
-1.6147825950517753
0.8752475849524974
-8.311251710441338
3.5094189320232796
-4.161657375170663
1.8114136214209515
0.6784921546936826
-0.41931078831864355
-8.879352429450867
1.7015577086962899
-2.651693490625617
1.458502042773271
-0.3779780429507342
0.9900929150861295
-0.7249240191089508
0.47426428701400836
-13.182172037477454
1.6893996616805516
1.8770938879591244
-1.8702615455178493
-5.641577265255872
3.4522300293048658
3.6644173622561165
-3.716832467400889
-7.028992244750795
2.303277609254404
-0.4666789595337719
0.34791362032733053
4.762569608763819
-25.261014665487988
-7.576474972641984
2.833584677629166
-0.9765618531308111
0.617778691952235
2.521069658161401
-3.7053845087959365
-0.8009159709489488
0.8381632971405983
-5.740933667423407
1.6850676526557162
-7.2002406751693
2.0418906569321598
-4.235335370702665
4.644729316081804
0.20373210877182035
0.42837593328498413
-3.3932667732140787
3.0304711690501382
0.9435775915274741
-0.23903515278611565
2.007850124569025
-2.474744136426139
-0.10375689034621982
0.1362846471307897
-5.345748290065682
2.7503981566952467
2.66565216395947
-6.192106463151666
2.5822342242120384
-4.567537924732382
-6.856999440240247
2.222108431510753
5.305877502341905
-3.7433602170963853
-10.90285462628035
2.6164519165640883
-3.5653330773668164
1.924910817299431
-4.132476354471694
1.93098258850666
1.3678495880297028
-1.2936268131862296
-1.409782895239257
1.0578834230474035
1.7045078985307176
-4.454382366129189
-8.190194666787972
4.807833651212713
2.424737557774037
-2.6219466963046996
0.19378359998441352
-0.10412317400480964
-7.054366489909198
2.355872044369312
3.28275438862841
-1.8153918462798937
-0.7782921911767893
0.4893102248971155
3.179701528441346
-6.672072577492471
-7.986880974473009
1.8469600151439982
-8.857480163564446
2.144128103033238
0.7740481274714237
-0.727395854597066
3.22609603498267
-1.957290940903291
-4.987676624210403
3.5451078163461633
-3.7203065195775684
3.2356807591360903
0.4488516229431523
-0.5181156488181062
-5.4511180127846925
2.9575965182204293
-2.869843139004938
3.3102476807561048
-4.268854706830765
1.7443713543514894
4.404980575496914
-3.0942683799713055
-2.1726529169654194
1.0436343916859896
5.08524155969472
-4.786194308493148
-7.517063804149676
2.133713802508036
-3.735295416838927
1.5211224773346128
0.6052853978495452
-0.7142920811164462
-15.052850323927233
5.225353075357408
3.4581357400519233
-6.49214946359018
-3.704494372197156
3.9108632292071492
-10.600409127391389
2.97559040796693
-0.5443044363828928
0.4082482459560697
2.784166223891407
-7.817701255106511
1.069569834490884
-1.4489380199296764
-0.7277957637846105
1.3318911540478555
2.2560240249344825
-6.867243169056991
-7.404072515235095
2.4553242448935517
2.217707979883158
-4.8040143182168205
-0.5436716476409132
0.40945134864196575
-5.5264008604328065
2.718547612765642
-14.025850074725295
5.6864360051221166
3.9694457223690174
-9.848868345777984
-1.0758695526405762
2.5719786947631964
0.7226753658935781
-0.7695986749914057
-1.0844539892810698
0.6943071447573843
2.323210559131068
-0.49015092960915707
-0.18693327001226456
1.1336085107347855
2.352014657872511
-2.090127660044689
-0.9583436380777617
1.628001559988084
2.5027699325155854
-8.5165596059634
6.0593877473547
-4.049194961441759
1.6981529167733194
-4.6256530001108045
5.688620469594518
-9.73623676333679
-4.165810971259865
3.1249560566233177
-5.4581460755766615
2.1733858708808578
-1.2254505043284984
0.9070050598096291
-0.3067036912676778
0.3389880011508152
0.8930719497332609
-0.8674615747138148
-3.03364358956151
2.152511565871767
4.674053449597173
-12.242128364987327
4.845331524502646
-11.509410287266894
8.996979327157039
-1.197282215740449
-4.76030585939428
5.199909431100144
1.9295144558584398
-3.028047159960387
-0.9853282531605234
0.5792915922203736
0.9341115928344428
-1.6799431410206467
1.7706614593275338
-4.205954843639802
1.983055777826633
-4.514930084344785
-0.9612817393440756
0.7460981866728977
12.528791977486478
15.6939616713961
14.826895943294721
18.79740988772333
10.718253487699233
9.391143961583719
14.05561413938357
13.258823751811335
15.584109219619984
19.48087411744
8.007791770139448
11.007185476571951
17.869153494607563
17.845213559009807
12.245034476273686
19.367687292819912
14.432672735228936
20.569421233888022
