GIS
13
-9.616069023358543
35
Person
Position
Time-Within
Place
Entity
Attacker
Artifact
Destination
Giver
Time-Holds
Org
Time-Ending
Target
Instrument
Victim
Agent
Time-Starting
Recipient
Defendant
Crime
Plaintiff
Adjudicator
Sentence
Money
Seller
Origin
Buyer
Beneficiary
Price
Time-Before
Time-After
Time-At-Beginning
Time-At-End
Vehicle
Prosecutor
1052
54 0
8 0 1
1 0 1 2
4 0 1 2 3 4
3 0 1 2 3 4 5 6 7 8 9 10 11 12 13 14 15 16 17 18 19 20 21 22 23 24 25 26 27 28 29 30 31 32 33 34
1 0 1 2 3 4 5 6 7 8 9 10 11 12 13 14 15 16 17 18 19 20 21 22 23 24 25 26 27 28 29 30 31 33 34
2 0 1 2 3 4 5 6 7 8 9 10 11 12 13 14 15 16 17 18 19 20 21 22 23 24 25 26 27 28 29 30 32 33 34
1 0 1 2 3 4 5 6 7 8 9 10 11 12 13 14 15 16 17 18 19 20 21 22 23 24 25 26 27 28 29 30 33 34
1 0 1 2 3 4 5 6 7 8 9 10 11 12 13 14 15 16 17 18 19 20 21 22 23 24 25 26 27 28 31 33
1 0 1 2 3 4 5 6 7 8 9 10 11 12 13 14 15 16 17 18 19 20 21 22 23 24 25 26 27 29 30 31 32 33 34
1 0 1 2 3 4 5 6 7 8 9 10 11 12 13 14 15 16 17 18 19 20 21 22 24 25 26 27 30 31 32 33 34
1 0 1 2 3 4 5 6 7 8 9 10 11 12 13 14 15 17 18 19 20 21 22 23 25 26 27 33 34
1 0 1 2 3 4 5 6 7 8 9 10 11 12 13 14 16 17 18 19 21 23 25 27 29 30 31 32 33
1 0 1 2 3 4 5 6 7 8 9 10 12 13 14 15 16 17 18 19 20 21 22 23 24 25 26 27 29 31 32 33 34
1 0 1 2 3 4 5 6 7 8 9 10 12 13 14 15 16 17 18 19 20 21 24 26 27 29 33 34
1 0 1 2 3 4 5 6 7 8 9 10 12 13 14 15 17 18 19 20 21 22 23 24 25 26 33 34
1 0 1 2 3 4 5 6 7 8 9 10 12 13 14 15 18 19 20 21 23 24 25 26 27 28 32 33 34
1 0 1 2 3 4 5 6 7 8 9 12 13 14 15 16 17 18 19 21 27 28 30 32
1 0 1 2 3 4 5 6 7 8 10 12 13 14 15 16 17 18 21 22 23 25 27 28 33
1 0 1 2 3 4 5 6 7 8 10 12 13 14 15 17 18 20 21 24 26 27 33 34
1 0 1 2 3 4 5 6 7 8 10 12 13 14 15 17 24 25 26 29 33
1 0 1 2 3 4 5 6 7 8 12 13 14 15 19 21 24 25 26 27 33
1 0 1 2 3 4 5 6 7 8 12 13 14 16 17 19 21 24 25
1 0 1 2 3 4 5 6 7 9 10 11 12 13 14 15 17 18 19 20 21 23 24 26 27 31 32 33
1 0 1 2 3 4 5 6 7 12 13 15
1 0 1 2 3 4 5 6 8 10 12 13 14 15 17 18 19 20 23 25 26 27 33
1 0 1 2 3 4 5 6 8 10 13 14 17 18 20 26
1 0 1 2 3 4 5 6 9 10 12 13 14 15 18 19 21 24 26 32 34
1 0 1 2 3 4 5 7 8 9 13 14 15 17 18 25
1 0 1 2 3 4 5 7 8 9 13 14 15 17 19 22 25 26 27 30 31 32 34
1 0 1 2 3 4 5 12 13 16
1 0 1 2 3 4 6 7 10 15 16 17 25
1 0 1 2 3 4 6 24 26 28
1 0 1 2 3 4 9
1 0 1 2 3 4 9 11 15 16 29 30 31 32
2 0 1 2 3 4 15
3 0 1 2 3 4 16
1 0 1 2 3 4 16 30
1 0 1 2 3 4 16 31
1 0 1 2 3 4 29 32
1 0 1 2 3 4 30
1 0 1 2 3 4 31
1 0 1 2 3 6 14 15 25 33
1 0 1 2 3 14
1 0 1 2 4
1 0 1 2 4 5 6 8 10 14 17 20 26
1 0 1 2 4 5 6 9 10 12 13 14 15 17 18 20 22 30 33
1 0 1 2 4 6 7 15 25 29
1 0 1 2 4 6 8 14 17 18 21 22 23 24 26 27
1 0 1 2 4 6 10 15 25
1 0 1 2 4 30
1 0 1 2 10
1 0 1 2 14 32
1 0 1 2 23
2 0 1 3
3 0 1 3 4
1 0 1 3 4 5 6 7 8 10 13 14 15 18 21 24 26 27 33
1 0 1 3 4 5 6 7 10 11 12 14 15 17 18 19 21 22 25 26 27 29 33 34
1 0 1 3 4 5 6 8 10 12 13 14 15 17 18 19 20 21 24 25 26 27 33 34
1 0 1 3 4 5 6 14 19
1 0 1 3 4 5 8 13 21 24 25
1 0 1 3 4 6 7 10 15 19
1 0 1 3 4 9 16
1 0 1 3 4 15
1 0 1 3 4 16
12 0 1 4
1 0 1 4 5 6 14
1 0 1 4 10 30
1 0 1 4 12 14
1 0 1 4 14
1 0 1 4 15
1 0 1 4 16
2 0 1 4 30
1 0 1 6
1 0 1 6 12 14 17
1 0 1 6 18
1 0 1 7
1 0 1 12
1 0 1 12 14
2 0 1 15
1 0 1 18
1 0 1 34
7 0 2
4 0 2 3
2 0 2 3 4
1 0 2 3 4 5 6 7 8 9 10 12 13 14 15 16 17 18 19 20 21 23 24 25 26 32 33 34
1 0 2 3 4 5 6 7 8 9 11 12 13 14 15 17 18 19 20 21 22 23 25 26 30
1 0 2 3 4 5 6 7 8 10 12 13 14 15 16 18 19 21 30 33
1 0 2 3 4 5 6 7 8 12 13 14 15 16 17 18 20 21 22 23 24 25 26 29 33 34
1 0 2 3 4 5 6 7 9 10 11 12 14 16 17 18 19 21 25 29 30 33
1 0 2 3 4 5 6 7 9 10 13 14 15 25 32 33
1 0 2 3 4 5 6 7 10 11 12 13 15 17 18 19 21 25 26 33
1 0 2 3 4 5 6 8 9 10 12 13 14 15 17 21 25 26 28 30 33
1 0 2 3 4 5 6 8 10 14 15 18 21 25
1 0 2 3 4 5 6 8 12 14 15 16 17 18 33
1 0 2 3 4 5 6 10 12 13 14 15 17 18 23 26
1 0 2 3 4 5 6 10 12 14 15 18 20 21 24 29 30
1 0 2 3 4 5 6 12 13 20 22 33
1 0 2 3 4 5 7 8 12 13 15 18 19 21 22 25 26
1 0 2 3 4 5 15
1 0 2 3 4 6 7 9 14 19
1 0 2 3 4 6 7 9 15 18 25 32 33
1 0 2 3 4 6 7 9 18 19 21 28
1 0 2 3 4 6 7 15 16 25 30 33
1 0 2 3 4 6 7 15 25 30
1 0 2 3 4 6 8 9 10 12 14 16 30 31
1 0 2 3 4 7 9 11 12 14 16 18 21 24 25 28 33
1 0 2 3 4 7 9 11 15 16 18 19 20 21 22 23 25 29 30 31 32 34
1 0 2 3 4 8 15
1 0 2 3 4 8 19 23 27 30
1 0 2 3 4 9 15 16 18 19 20 21 34
1 0 2 3 4 12 25
1 0 2 3 4 15 18 19 20 21 22 23 34
1 0 2 3 4 19
1 0 2 3 4 21
1 0 2 3 5 6 7 9 14 15 18 19 32
1 0 2 3 5 6 24 26
1 0 2 3 5 12
1 0 2 3 5 12 13 14 15 16 29 31
1 0 2 3 6 7 8 10 11 14 15 17 18 19 21 22 23 25 26 33
1 0 2 3 6 15 24 26 27 29
1 0 2 3 9
1 0 2 3 9 11 13 14 15 16 29 30 31
1 0 2 3 9 13 14 15
1 0 2 3 9 15 16 18 19 20 21 22 34
1 0 2 3 9 16 18 19 20 21 22 23 31
1 0 2 3 10 11
1 0 2 3 11 14 15 16
1 0 2 3 11 15 19
1 0 2 3 11 29
3 0 2 3 13 14 15
1 0 2 3 13 14 15 18 22 30
1 0 2 3 13 14 15 29
1 0 2 3 14 15
1 0 2 3 14 19 31
1 0 2 3 14 31
1 0 2 3 15 18 19 20 21 22 23 34
1 0 2 3 15 19
1 0 2 3 16 18 19 21 22
1 0 2 3 18 19 21 22 29 34
1 0 2 3 19
1 0 2 3 29
1 0 2 4 5 6 8 9 10 14 15 18 21
1 0 2 4 5 6 10 12 13 14 23
1 0 2 4 5 6 12 13 14 15 18 25
1 0 2 4 5 6 12 14 15 18 21
2 0 2 4 6 7
1 0 2 4 6 7 16 25 29 30 32 33
1 0 2 4 6 7 18 25
1 0 2 4 6 7 25
1 0 2 4 6 15 20
1 0 2 4 9 14 18
1 0 2 4 10 15
1 0 2 4 16 18 19 21 29
1 0 2 5 6 10 18
1 0 2 5 6 12 14 15 17 18 19 25
1 0 2 5 6 26 34
1 0 2 6 15 25 33
1 0 2 7 15 25
1 0 2 8 12
1 0 2 8 17 23
1 0 2 9 15 19
1 0 2 9 18
1 0 2 12 14 18 19 25
1 0 2 13
1 0 2 13 14 15
1 0 2 15
1 0 2 18 19
1 0 2 18 20
1 0 2 19
1 0 2 20
1 0 2 23
3 0 3
4 0 3 4
1 0 3 4 5 6 7 8 10 12 14 15 17 18 20 21 24 26 33 34
1 0 3 4 5 6 7 8 10 15 18 24 34
1 0 3 4 5 6 7 12 13
1 0 3 4 5 6 8 10 12 13 14 15 18 21 24 25 26 33
1 0 3 4 5 6 8 10 12 15 17 21 34
1 0 3 4 5 6 8 12 14 15 17 18 20 25
1 0 3 4 5 6 10 12 13 14 15 17 18 19 21 23 25 26 33
1 0 3 4 5 6 10 12 13 19 21
1 0 3 4 5 6 10 13 21
1 0 3 4 5 6 10 14 15 20 33
1 0 3 4 5 6 12 13 15
1 0 3 4 5 6 12 14 15 18 20 24
1 0 3 4 5 6 12 14 18 26
1 0 3 4 5 6 13 14 15 18 25 33 34
1 0 3 4 5 12
1 0 3 4 5 15
1 0 3 4 6 7 8 9 10 12 13 14 19 22 23 25
1 0 3 4 6 8 9 10 12 13 14 19 20 23 26
1 0 3 4 6 10 12 15 17
1 0 3 4 7 12 14 17 18 19 21 22 25 26
1 0 3 4 8 21
1 0 3 4 12 13
1 0 3 4 15 18 19 20 21 22 23 34
1 0 3 4 15 18 20 21 34
1 0 3 4 15 18 21 22
1 0 3 4 17
1 0 3 5 6 8 18
1 0 3 5 6 14 15 17
1 0 3 5 6 20
1 0 3 5 12 18
1 0 3 6
2 0 3 6 7
1 0 3 6 7 8 9 17 18
1 0 3 6 7 19 22
1 0 3 6 8 14 15
1 0 3 6 13
1 0 3 6 14 30 33
1 0 3 7 15 18 19 21 22 25 34
1 0 3 9 18 19 22
1 0 3 11 14
2 0 3 13 14 15
1 0 3 13 14 16
2 0 3 14
1 0 3 14 15
1 0 3 15 18 19 20 21 34
1 0 3 19 22 23
10 0 4
1 0 4 5 6
1 0 4 5 6 7 8 13 14 15 17 21 22 24 26 29 33
1 0 4 5 6 8 10 12 13 14 15 18 19 21 24 26
1 0 4 5 6 8 10 12 14 15 17 18 20 21 24 26 27 34
1 0 4 5 6 8 10 12 14 15 17 18 20 21 26 27
1 0 4 5 6 8 10 12 14 15 17 18 20 27
1 0 4 5 6 8 12
1 0 4 5 6 8 12 13 14 15 17 18 20 21 24 26 33
1 0 4 5 6 8 12 14
1 0 4 5 6 8 12 14 15 17 18
1 0 4 5 6 8 12 14 15 18 26
1 0 4 5 6 8 12 15 18 24
1 0 4 5 6 8 13 15 16 20 21 22 24 25 26 34
1 0 4 5 6 8 14 15 18 20
1 0 4 5 6 8 15 18
1 0 4 5 6 10 12 13 14 17 18 21 26 27
1 0 4 5 6 10 12 14 15 17 18 20
1 0 4 5 6 12
1 0 4 5 6 12 13 14 15 17
1 0 4 5 6 12 14 15
1 0 4 5 6 12 14 15 17 18
1 0 4 5 6 12 14 15 17 18 25 27
1 0 4 5 6 12 14 15 18 20
1 0 4 5 6 12 14 15 18 20 26
1 0 4 5 6 13 15 18 20 21 33
1 0 4 5 6 13 15 29
1 0 4 5 6 13 24
1 0 4 5 6 14 17 20 24
2 0 4 5 6 15
1 0 4 5 6 20 24 26
1 0 4 5 8 12 14 15 17 26
1 0 4 5 12 14 15
1 0 4 5 12 14 17
1 0 4 5 26
1 0 4 6
1 0 4 6 7 9 11
1 0 4 6 7 10
1 0 4 6 8 12 14
1 0 4 6 8 12 15 18 20
2 0 4 6 12
2 0 4 6 12 14
1 0 4 6 12 14 17 18
1 0 4 6 12 14 19
1 0 4 6 12 14 27
2 0 4 6 14
1 0 4 6 14 18
1 0 4 6 15 18
1 0 4 6 15 21 24
1 0 4 6 17 18
2 0 4 6 18
1 0 4 6 18 20
1 0 4 6 25
1 0 4 7 10 15 17 18
1 0 4 9 16
1 0 4 12 14
1 0 4 12 14 15 17 18
1 0 4 12 15
1 0 4 12 18
1 0 4 12 19
1 0 4 12 30
2 0 4 14 15
1 0 4 14 15 18 21
1 0 4 14 18 27
1 0 4 14 33
2 0 4 15
1 0 4 15 17 18
2 0 4 15 18 21
1 0 4 15 29
1 0 4 17 23
2 0 4 18
1 0 4 18 20
1 0 4 18 20 21
1 0 4 21
1 0 5
1 0 5 6
1 0 5 6 8 12 13 14 15 18
1 0 5 6 9 12 13 14 20
1 0 5 6 12
1 0 5 6 12 14 15 18
1 0 5 6 12 14 15 18 20
1 0 5 6 12 14 15 18 21
1 0 5 6 12 14 17 18 24
1 0 5 6 14 15
1 0 5 6 14 15 18
1 0 5 6 26
1 0 5 7 8 9 10 12 13 14 21 23 26 29
1 0 5 8 13 14 15 26
1 0 5 8 15 17 20 24
1 0 5 10 14
1 0 5 12
1 0 5 12 15 18
1 0 5 13 14
1 0 5 15
1 0 5 15 18
2 0 5 18
1 0 6 7 10 12 25
1 0 6 8
1 0 6 8 12
1 0 6 8 17 27
1 0 6 12
2 0 6 12 14
1 0 6 13 14 15
2 0 6 14
1 0 6 14 15
1 0 6 14 18 20
1 0 6 15
1 0 6 15 18
1 0 6 15 26
1 0 7 15 25
1 0 7 18 28
1 0 9 13 14
2 0 12
1 0 12 14
1 0 12 14 15
1 0 12 15 18
1 0 13
5 0 13 14
1 0 13 14 15
9 0 14
12 0 14 15
1 0 14 15 19
2 0 14 17
1 0 14 18
1 0 14 29
7 0 15
1 0 15 16 19
1 0 15 18
1 0 15 18 20 21 34
2 0 17
4 0 18
1 0 18 19
1 0 18 19 20
2 0 18 19 21
3 0 18 20
1 0 18 20 21
1 0 18 20 22
3 0 18 21
1 0 19 20 23
1 0 19 22
1 0 25
6 1
1 1 2 3
1 1 2 3 4 5 6 8 12 14 15 17 18 19 23
1 1 2 3 4 5 7 9 13 15 19 21 22 23 24 25 28
1 1 2 3 4 6 8 12 13 18
1 1 2 3 5 12 14 15
4 1 3 4
1 1 3 23
4 1 4
1 1 4 7 10 12 14 15
1 1 4 12
1 1 6 9 12
1 1 14
1 1 18 22
1 1 26
38 2
10 2 3
14 2 3 4
1 2 3 4 5 6 7 8 10 13 16 17 19 26 34
1 2 3 4 5 6 9 11 12 14 15 18 20 33
1 2 3 4 5 9 11 12 13 14 15 16 29 30 31 32
1 2 3 4 5 9 11 12 13 14 16 29
1 2 3 4 5 9 12 13
1 2 3 4 5 9 12 13 15 16 29
2 2 3 4 5 9 12 13 29
1 2 3 4 5 9 12 13 29 30
1 2 3 4 5 9 13
1 2 3 4 5 11 12 13 14 16 31
1 2 3 4 5 12 13
1 2 3 4 5 12 13 17 23
1 2 3 4 5 31
2 2 3 4 6 7
1 2 3 4 6 7 9 14 18 19 23 24 25
1 2 3 4 6 7 29
1 2 3 4 6 8 9 14 17 21 23 26 27 30
1 2 3 4 7 12
4 2 3 4 9
2 2 3 4 9 11
1 2 3 4 9 11 16
1 2 3 4 9 11 16 29 30 31
1 2 3 4 9 30
1 2 3 4 11
1 2 3 4 13
1 2 3 4 13 18 19
1 2 3 4 16
1 2 3 4 16 29
1 2 3 4 16 30
1 2 3 4 16 30 31
1 2 3 4 19 21 23
1 2 3 4 31
2 2 3 5
1 2 3 5 6 7 10 11 12 13 15 16 25 30
1 2 3 5 6 7 10 11 12 17 23 25
1 2 3 5 6 8 12 13 14 15 16 17 18 19 21 25 26 27
1 2 3 5 6 12 13 15 25
1 2 3 5 9
2 2 3 5 9 12
4 2 3 5 9 12 13
1 2 3 5 9 12 13 16
1 2 3 5 9 12 13 29
1 2 3 5 9 12 14 15
1 2 3 5 9 13
1 2 3 5 9 32
1 2 3 5 10 12 13 14 15
1 2 3 5 10 12 13 15
1 2 3 5 11 12 13 16
1 2 3 5 11 12 13 18 19 21 34
10 2 3 5 12
7 2 3 5 12 13
1 2 3 5 12 13 14
1 2 3 5 12 13 14 15 16
1 2 3 5 12 13 15
2 2 3 5 12 13 16
2 2 3 5 12 13 29
1 2 3 5 12 14
1 2 3 5 12 14 15
3 2 3 5 12 16
3 2 3 5 13
1 2 3 5 13 14
1 2 3 5 14 15 16
1 2 3 5 15
1 2 3 5 18 20
1 2 3 6
1 2 3 6 7 9 11 14 15 16 25 29 30 31 32 33
1 2 3 6 7 10 12 18 19
1 2 3 6 7 11 16 19 23 29 33
1 2 3 6 7 18 19
1 2 3 6 7 25
1 2 3 6 7 26
1 2 3 6 8 9 11 16 17 23 24 26 27 28 29 30 31
1 2 3 6 8 9 11 17 23 27
1 2 3 6 8 16 17 23 24 26 27 28 31
1 2 3 6 8 17 24 26 27
1 2 3 6 15 25 26
1 2 3 6 17
1 2 3 6 24 26 27 28
1 2 3 6 24 26 28
1 2 3 7 11 16 18 19 21
1 2 3 7 29
1 2 3 8 13 15 19 25 29 32 33
1 2 3 8 16
1 2 3 8 17 23
4 2 3 9
1 2 3 9 12 16
1 2 3 9 13 14 15 29
1 2 3 9 16 18 19 21 34
1 2 3 9 19 20 21
1 2 3 9 33
2 2 3 10
1 2 3 10 11 15 16 29 30 31
1 2 3 10 15
1 2 3 10 15 29
1 2 3 10 31
1 2 3 11 16
4 2 3 12
1 2 3 12 13
1 2 3 12 13 14 15
1 2 3 12 14
1 2 3 12 14 33
5 2 3 13 14 15
1 2 3 13 14 15 30
1 2 3 13 14 31
4 2 3 14
4 2 3 14 15
1 2 3 15
1 2 3 15 18
1 2 3 16
1 2 3 16 18 19 21 34
1 2 3 16 29
2 2 3 18 19 21
1 2 3 18 19 21 22
1 2 3 18 19 21 34
1 2 3 19
1 2 3 20 21
1 2 3 23
1 2 3 24 28
8 2 4
1 2 4 5
1 2 4 5 6 15 26
1 2 4 5 12 13 14
1 2 4 6 7
1 2 4 6 7 8 15 17 23 25 30 31 33
1 2 4 6 7 9 15 16 25 29 33
1 2 4 6 7 9 15 25
1 2 4 6 7 14 25
1 2 4 6 15
1 2 4 7 14 25
2 2 4 9
1 2 4 9 16
1 2 4 12
2 2 4 16
2 2 4 21
1 2 5
1 2 5 6 9 12
3 2 5 9
2 2 5 9 12
1 2 5 9 12 13
1 2 5 11
6 2 5 12
1 2 5 12 13
1 2 5 12 14
2 2 5 13
1 2 6
2 2 6 7
1 2 6 7 9 11 15 16 25 33
1 2 6 7 9 14 15 16 25 32 33
1 2 6 7 9 15 25 30 33
1 2 6 7 9 25 33
1 2 6 7 10 18 22 23
1 2 6 7 11 15 25 29 32 33
1 2 6 7 11 16 25 32 33
1 2 6 7 15
1 2 6 7 15 16 25 33
1 2 6 7 15 16 33
1 2 6 7 15 25
2 2 6 7 15 25 33
1 2 6 7 15 33
1 2 6 7 16 25 33
4 2 6 7 25
1 2 6 7 25 29 30 33
1 2 6 7 25 29 32 33
1 2 6 7 25 33
1 2 6 7 32
6 2 6 7 33
1 2 6 8 17 23 24 26 27 28 29
1 2 6 8 17 24 26 27
1 2 6 8 17 27 28
1 2 6 10 12 27
1 2 6 14 21
2 2 6 15 25
3 2 6 15 25 33
1 2 6 17 23 24 26 27
1 2 6 23
2 2 6 24 26 28
1 2 6 31
1 2 6 32
1 2 7
1 2 7 11 25 33
1 2 7 15 33
2 2 7 25
1 2 8 16 17 23 27
1 2 8 17
1 2 8 17 23
1 2 8 17 23 27
3 2 9
3 2 9 11
1 2 9 11 16 29 30 31 32
1 2 9 16
1 2 9 16 18 19 21 32
1 2 9 18 19 20 21
1 2 9 18 19 21
1 2 9 23
1 2 9 29
1 2 9 29 30 31 32
1 2 9 30
1 2 9 32
2 2 10
3 2 10 15
4 2 11
4 2 11 16
1 2 11 16 29
1 2 11 16 29 30
3 2 12
1 2 12 14
1 2 13 14 15 29
3 2 14
1 2 14 15
1 2 14 16
1 2 15 18 22
1 2 15 25 32 33
1 2 15 30
12 2 16
2 2 16 29
1 2 17 23
1 2 17 23 27 29
5 2 18
3 2 18 19
1 2 18 19 20
1 2 18 19 34
2 2 18 20
1 2 18 22
3 2 19
1 2 22 30
1 2 23 24 28
4 2 29
1 2 29 31
2 2 32
42 3
17 3 4
2 3 4 5
1 3 4 5 6 7 10 12 13 14 17 18 20 21 24 25 27 33
1 3 4 5 6 12 14 15 18 19 20
1 3 4 5 6 15 19 27
1 3 4 5 7 8 15 17 18 20 21 24 25 26 27 34
1 3 4 5 7 8 15 25
1 3 4 5 7 12 18 20
1 3 4 5 7 15
1 3 4 5 7 15 17 24
1 3 4 5 7 15 24 25
1 3 4 5 7 18 25 27
1 3 4 5 7 25 26
1 3 4 5 8 10 15 17 20 34
1 3 4 5 12
3 3 4 5 12 13
1 3 4 5 12 13 16
1 3 4 5 12 13 30
1 3 4 5 15 17 26
1 3 4 5 25
1 3 4 5 26
1 3 4 6 7 11 13
1 3 4 6 15
1 3 4 6 17 25
3 3 4 7
1 3 4 7 8
1 3 4 7 8 17
1 3 4 7 12
1 3 4 7 12 25
1 3 4 7 15
1 3 4 7 15 17 25 27
5 3 4 7 25
1 3 4 7 26
2 3 4 9
1 3 4 9 12 13
1 3 4 9 15 18 19 21 34
1 3 4 11 15
1 3 4 15 17 21
2 3 4 16
1 3 4 16 29
1 3 4 19 21
1 3 4 25
19 3 5
1 3 5 6 7 9 12 13
1 3 5 6 7 12 15 25 32
1 3 5 6 25
1 3 5 7 12 18
1 3 5 7 15 17 20 21 25 26
1 3 5 7 15 24
2 3 5 7 25
1 3 5 7 25 34
1 3 5 9
1 3 5 9 11
1 3 5 9 12
1 3 5 9 16
1 3 5 11 12
13 3 5 12
13 3 5 12 13
1 3 5 12 13 31
1 3 5 12 14
2 3 5 12 14 15
1 3 5 12 16
1 3 5 12 18
1 3 5 12 29
1 3 5 12 30
1 3 5 13
1 3 5 13 15
1 3 5 14 15
1 3 5 15
1 3 5 15 25
1 3 5 17 24 26
1 3 5 18 21 30
1 3 5 26
2 3 6
2 3 6 7
1 3 6 7 10 14 15
1 3 6 7 12 17 25
2 3 6 7 12 25
1 3 6 7 14
1 3 6 7 25
1 3 6 8 17 23 24 26
1 3 6 8 17 23 24 26 27
1 3 6 12 13
1 3 6 12 15 26 27 30
1 3 6 13 33
1 3 6 24 25 32
1 3 6 26
27 3 7
1 3 7 11 25
5 3 7 12
1 3 7 12 17
6 3 7 12 25
1 3 7 14
1 3 7 14 25
1 3 7 15
1 3 7 18 19 21 22
17 3 7 25
1 3 8 9 17 26 28
1 3 8 15
1 3 8 17 18 22 23
1 3 8 17 24
2 3 8 17 27
1 3 8 24 26 27
1 3 9
1 3 9 12
1 3 9 12 13
1 3 9 12 16 30
1 3 9 16
1 3 9 18 19
2 3 10
1 3 10 12 25
3 3 10 15
16 3 12
3 3 12 13
1 3 13 14
1 3 13 14 15
2 3 13 15
1 3 13 16
1 3 14
2 3 14 15
1 3 15 18 20 21 34
1 3 15 18 21
1 3 15 20
1 3 15 26
1 3 17 26 27
1 3 18
1 3 18 19 20 21
1 3 18 19 21
1 3 18 19 21 34
1 3 18 19 22
1 3 18 19 34
1 3 18 21 25
2 3 18 21 32
1 3 18 34
3 3 19
1 3 19 21 22 23
6 3 21
1 3 23 27
9 3 25
73 4
4 4 5
1 4 5 6
1 4 5 6 7 12 24
1 4 5 6 7 14 18 33
1 4 5 6 8 10 12 15 17 18 20 21 24 26 27 34
1 4 5 6 8 12 14 15 18 21 26
1 4 5 6 8 15
1 4 5 6 9
1 4 5 6 12
2 4 5 6 12 14
1 4 5 6 12 14 15 26 27
1 4 5 6 12 15
1 4 5 6 12 15 30
1 4 5 6 14
1 4 5 6 15
1 4 5 6 33
1 4 5 7
1 4 5 7 10 13 15 16 25
1 4 5 7 12
2 4 5 8
1 4 5 8 10 14 15 24
1 4 5 8 14 17 27
1 4 5 10 12 15
1 4 5 10 14 15 20 24
1 4 5 10 15
1 4 5 10 26
3 4 5 12
1 4 5 12 14 18
1 4 5 12 17 18 20 27
1 4 5 13 16
3 4 5 14
1 4 5 14 15
1 4 5 15
1 4 5 15 19
1 4 5 16 18
1 4 5 17
1 4 5 17 24
4 4 6
1 4 6 8
1 4 6 8 18
1 4 6 10 13 15
1 4 6 10 17 18 24 26
3 4 6 12 14
2 4 6 12 15
1 4 6 12 27
1 4 6 14
1 4 6 14 15 17 26
2 4 6 14 15 18
1 4 6 14 17
2 4 6 15
1 4 6 15 17 20
1 4 6 15 18
1 4 6 17 25
1 4 6 18
1 4 6 18 21
1 4 6 23
1 4 6 25
1 4 7 10
1 4 7 12
1 4 8
1 4 8 10 12 17 18
1 4 8 15
1 4 8 18
1 4 8 23
1 4 8 26
1 4 10
1 4 10 12
1 4 10 18 26
1 4 10 20
1 4 11
1 4 12
2 4 12 14
1 4 12 14 15 19
1 4 12 14 25 33
1 4 12 15
1 4 12 15 17 20
1 4 13
1 4 14
1 4 14 15
1 4 14 18
1 4 14 18 26
1 4 15
1 4 15 17
1 4 15 20 21
1 4 15 21
1 4 15 26
1 4 16
1 4 17
1 4 17 21 34
1 4 17 23
1 4 18
2 4 18 20
1 4 20
1 4 21
1 4 23
1 4 24
1 4 25 33
1 4 30
17 5
1 5 6
1 5 6 7 12 16 25
1 5 6 10 12 15
2 5 6 12
2 5 6 12 14
1 5 6 12 14 15
2 5 6 12 14 15 26
1 5 6 12 14 24
1 5 6 12 15 26 27
1 5 6 12 25
1 5 6 12 26
1 5 6 13 14 33
1 5 6 14 15
4 5 6 15
1 5 6 17
1 5 7 22 23
1 5 8 12 14 18 24
1 5 8 13 17 26
2 5 9 12 13
1 5 10 12 15
42 5 12
7 5 12 13
2 5 12 14
4 5 12 14 15
1 5 12 14 20
1 5 12 14 24
2 5 12 15
10 5 13
1 5 13 14 15
1 5 13 18
2 5 14
2 5 14 15
2 5 15
2 5 15 18
1 5 15 26
1 5 15 26 27
1 5 15 34
1 5 17
30 6
11 6 7
1 6 7 8 15 17 25 33
1 6 7 9 11 15
1 6 7 9 15 30
1 6 7 9 16 33
1 6 7 9 25
1 6 7 10 16
1 6 7 11 15 25 33
1 6 7 12
1 6 7 12 20
1 6 7 13 15 16 33
1 6 7 14 18
2 6 7 15
1 6 7 15 18 21 25 30 33
3 6 7 15 25
4 6 7 15 25 33
3 6 7 15 33
6 6 7 25
1 6 7 25 31
3 6 7 25 33
4 6 7 33
1 6 8 15 26
1 6 8 17 23
2 6 8 17 23 26 27
1 6 8 17 23 27 28
1 6 8 17 24 26 29
1 6 8 23
1 6 8 26
1 6 9 23 24
2 6 10
1 6 10 15 23
1 6 10 18 20
1 6 12
1 6 12 13
1 6 12 13 15 27
5 6 12 13 33
2 6 12 14
1 6 12 14 15
1 6 12 15 25
2 6 12 33
5 6 13
1 6 13 14
1 6 13 14 16 33
1 6 14
1 6 14 15
1 6 14 18
24 6 15
1 6 15 17
1 6 15 18 21 25
5 6 15 25
3 6 15 25 33
1 6 15 29
3 6 15 33
1 6 17
1 6 17 23 26
1 6 17 27
2 6 18
3 6 23
3 6 24
3 6 24 26
3 6 25
1 6 25 33
3 6 26
2 6 26 27
2 6 26 28
1 6 26 31
1 6 28
12 6 33
27 7
1 7 8
1 7 9 25
2 7 12
2 7 15 25
1 7 16 25
1 7 21
1 7 22
1 7 22 23
1 7 22 25
35 7 25
3 8
1 8 9 17
1 8 9 17 23
5 8 17
1 8 17 23
1 8 17 23 24 26 29
1 8 17 23 27
2 8 17 24 26
3 8 17 24 26 27
2 8 17 26
5 8 17 27
3 8 24
4 8 24 26
1 8 24 26 27
1 9 15 16 30
15 10
1 10 14 15 23 28
5 10 15
1 10 17
1 10 31
15 12
10 12 13
1 12 13 14
3 12 13 33
8 12 14
1 12 14 17
1 12 14 18
1 12 14 30
1 12 14 33
1 12 18 25
1 12 33
40 13
4 13 14 15
1 13 14 18 26
1 13 18 20
2 13 20
3 13 33
38 14
29 14 15
1 14 15 17 23
1 14 17
1 14 19 22 23
10 15
3 15 18
1 15 18 20 21 22 34
1 15 18 21
1 15 20 21 22 34
1 15 29
7 17
1 17 18 20
1 17 18 23
3 17 23
1 17 23 26
1 17 26
2 17 27
26 18
2 18 19
1 18 19 20
1 18 19 21
1 18 19 21 31
1 18 19 34
4 18 20
1 18 20 21
6 18 21
2 18 22
1 18 34
16 19
2 19 20
2 19 20 34
2 19 21
2 19 22
3 20
1 20 26
1 20 34
2 21
3 22
3 23
2 23 28
1 24 26
2 25
2 25 33
1 26
2 26 27
1 27
4 33
3 34
2254
synPathTypes=Personnel_PERSON_object
prevTokenAndType=Personnel_)
arg=Tvrdik
evTypeArg=Arrest-Jail:people
evTypeArg=End-Position:she
evTypeArg=Arrest-Jail:he
chunkPath=follow_president
chunkPathAndType=Personnel_follow_president
prevTokenAndType=Personnel_fired
evTypeArg=Arrest-Jail:him
evTypeArg=Be-Born:child
evTypeArg=End-Position:him
synPathTypes=Personnel_PERSON_of
chunkPathAndType=Personnel_follow_of
synPathTypes=Personnel_PERSON_poss
arg=CEO
evTypeArg=End-Position:CEO
prevToken=hire
prevTokenAndType=Personnel_hire
evTypeArg=Start-Position:he
prevTokenAndType=Personnel_think
evTypeArg=Start-Position:people
prevToken=appoint
prevTokenAndType=Personnel_appoint
evTypeArg=Start-Position:they
evTypeArg=End-Position:he
evTypeArg=Elect:Bush
prevToken=Cabinet
prevTokenAndType=Personnel_Cabinet
evTypeArg=End-Position:members
evTypeArg=End-Position:Colin_Powell
evTypeArg=Start-Position:Who
chunkPath=precede_would_like_to_see
chunkPathAndType=Personnel_precede_would_like_to_see
arg=figures
evTypeArg=Start-Position:figures
prevTokenAndType=Personnel_which
chunkPath=precede_would_you
chunkPathAndType=Personnel_precede_would_you
evTypeArg=Divorce:his
prevTokenAndType=Personnel_when
chunkPathAndType=Personnel_precede_'m
evTypeArg=Start-Position:He
evTypeArg=Elect:he
chunkPathAndType=Personnel_precede_get
prevTokenAndType=Personnel_-
anchor=ceremony/n
evTypeArg=Release-Parole:your
evTypeArg=End-Position:people
prevTokenAndType=Personnel_fire
evTypeArg=End-Position:her
evTypeArg=Start-Position:her
arg=Sistani
evTypeArg=Elect:Sistani
evTypeArg=End-Position:minister
chunkPathAndType=Personnel_follow_ORGANIZATION
evTypeArg=End-Position:president
prevTokenAndType=Personnel_put
arg=general
evTypeArg=End-Position:general
prevToken=named
prevTokenAndType=Personnel_named
anchor=re/n
anchor=step
prevTokenAndType=Personnel_.
anchor=former
prevTokenAndType=Personnel_for
noSynPath
dist=2
dist=3
dist=0
dist=1
dist=4
chunkPath=precede_
chunkPath=follow_
dist=5
dist=6
prevToken=and
prevToken=in
prevToken=,
prevToken=.
prevToken=of
dist=8
prevToken=for
synPath=object
prevToken=that
anchor=take
prevToken=as
prevToken=from
dist=9
anchor=throw
chunkPath=precede_be
synPath=poss
prevToken=the
prevToken=is
noChunkPath
anchor=fire
anchor=be
anchor=win
prevTokenAndType=Personnel_the
evType=Personnel
chunkPathAndType=Personnel_precede_
anchor=name
chunkPathAndType=Personnel_follow_
anchor=elect
anchor=election/n
prevTokenAndType=Personnel_in
prevTokenAndType=Personnel_,
anchor=resign
anchor=retire
anchor=hire
anchor=remove
anchor=lose
chunkPathAndType=Personnel_precede_be
chunkPath=precede_'s
prevToken=after
anchor=leave
anchor=give
anchor=out
anchor=appoint
anchor=begin
chunkPath=follow_GPE
chunkPath=follow_ORGANIZATION
prevToken=become
prevTokenAndType=Personnel_is
prevTokenAndType=Personnel_of
prevTokenAndType=Personnel_to
synPathEvType=Personnel_poss
chunkPath=precede_have
prevToken=to
synPath=subject
prevToken=be
chunkPath=follow_from
anchor=put
anchor=become
prevTokenAndType=Personnel_and
prevTokenAndType=Personnel_from
synPathEvType=Personnel_object
prevTokenAndType=Personnel_as
chunkPathAndType=Personnel_precede_have
prevTokenAndType=Personnel_that
anchor=quit
anchor=retired
anchor=removal/n
chunkPathAndType=Personnel_precede_'s
anchor=new
prevToken=appointed
prevTokenAndType=Personnel_appointed
prevTokenAndType=Personnel_be
arg=president
anchor=replace
arg=minister
arg=chief
synPathEvType=Personnel_subject
anchor=introduce
anchor=appointment/n
prevTokenAndType=Personnel_after
prevToken=put
prevToken=among
arg=premier
anchor=return/n
arg=President
arg=governor
anchor=nominate
anchor=did
arg=executive
arg=prosecutor
anchor=divorce
prevToken=On
prevToken=arrested
prevTokenAndType=Justice_arrested
anchor=resignation/n
prevToken=fire
anchor=wedding/n
anchor=divorce/n
anchor=birth/n
anchor=born
anchor=wed
prevTokenAndType=Personnel_at
anchor=dismiss
dist=7
dist=11
dist=12
prevToken=by
prevToken=on
anchor=go
dist=10
chunkPath=precede_to
prevToken=but
chunkPath=precede_,
prevToken=:
prevToken=said
prevToken=or
dist=13
chunkPath=precede_for
dist=16
anchor=come
chunkPath=follow_for
anchor=head
anchor=drive
prevToken=since
prevToken=at
evType=Justice
prevToken=00
anchor=release
prevTokenAndType=Justice_.
dist=18
prevTokenAndType=Justice_,
anchor=release/n
prevToken=The
prevToken='s
anchor=seize
anchor=shot/n
anchor=kill
anchor=get
anchor=capture
anchor=marry
evType=Life
prevTokenAndType=Life_,
chunkPathAndType=Justice_precede_
chunkPathAndType=Justice_follow_
anchor=tie
anchor=execution/n
anchor=arrest
prevTokenAndType=Personnel_on
chunkPathAndType=Life_follow_
anchor=die
prevTokenAndType=Life_.
anchor=death/n
chunkPathAndType=Life_precede_
synPathEvType=Life_object
anchor=execute
prevTokenAndType=Life_in
prevTokenAndType=Justice_of
anchor=jail
anchor=sentence/n
anchor=charge/n
anchor=arrest/n
anchor=marriage/n
prevToken=before
prevToken=out
chunkPath=follow_,
prevToken=think
anchor=join
anchor=head/n
anchor=return
anchor=walk
anchor=transfer
prevToken=so
prevToken=only
anchor=start
prevTokenAndType=Justice_on
prevToken=until
chunkPath=precede_have_be
dist=19
anchor=lift
anchor=extradite
dist=21
anchor=sign
anchor=detain
prevToken=during
chunkPath=precede_,_be
chunkPath=precede_or
prevTokenAndType=Life_and
anchor=capture/n
chunkPathAndType=Justice_precede_,_be
synPathEvType=Justice_poss
anchor=parole/n
chunkPathAndType=Justice_precede_'s
prevToken=release
synPathEvType=Personnel_of
chunkPathAndType=Personnel_precede_,
anchor=married
prevTokenAndType=Personnel_said
prevTokenAndType=Personnel_:
synPathEvType=Personnel_nameMod
anchor=electoral
prevToken=)
synPath=nameMod
prevToken=-
prevToken=when
arg=we
arg=people
prevToken=with
chunkPath=follow_with
prevToken=says
chunkPath=precede_have_to
prevToken=time
prevToken=where
arg=their
prevToken=because
anchor=overthrow
prevToken=know
chunkPath=follow_of
synPath=of
arg=us
chunkPath=follow_to
arg=board
prevToken=were
prevTokenAndType=Justice_and
prevTokenAndType=Justice_that
synPathEvType=Justice_object
arg=jordan
prevToken=like
prevToken=how
prevToken=day
chunkPath=precede_face
prevToken=captured
prevToken=secure
anchor=report
anchor=have
prevToken=got
chunkPath=precede_who
chunkPath=precede_that_be
prevToken=took
prevTokenAndType=Justice_to
anchor=serve
prevTokenAndType=Life_to
prevTokenAndType=Life_of
prevTokenAndType=Life_when
prevTokenAndType=Life_from
synPathEvType=Life_poss
anchor=fall
chunkPathAndType=Life_precede_be
synPathEvType=Justice_subject
chunkPathAndType=Justice_follow_of
anchor=previously
arg=Al-Douri
prevTokenAndType=Personnel_with
chunkPathAndType=Personnel_follow_by
prevTokenAndType=Personnel_if
arg=Colin_Powell
arg=Rumsfeld
prevToken=elect
prevTokenAndType=Personnel_elect
prevTokenAndType=Personnel_says
arg=bush
prevToken=--
prevToken=if
menType=PERSON
arg=he
arg=him
arg=Saddam
arg=they
arg=Americans
arg=who
arg=you
arg=I
chunkPath=follow_by
arg=He
arg=your
arg=them
arg=his
prevToken=saying
arg=one
arg=Iraqis
arg=members
arg=her
arg=person
arg=she
chunkPath=precede_will
prevToken=have
chunkPath=precede_can
arg=i
arg=Bush
chunkPath=precede_go_to
chunkPath=precede_plan_to
arg=someone
arg=leaders
chunkPath=precede_get
chunkPath=precede_might
arg=Putin
anchor=end
anchor=run
arg=leader
arg=officials
prevToken=once
arg=our
prevToken=''
arg=son
arg=wife
chunkPath=follow_and
arg=children
chunkPath=precede_be_to
arg=daughter
chunkPath=precede_be_be
arg=head
chunkPath=precede_want_to
chunkPath=precede_be_on
chunkPath=precede_go_to_be
chunkPath=precede_could_be
arg=Anwar
anchor=force
prevToken=?
prevTokenAndType=Personnel_since
arg=employees
arg=She
arg=killer
arg=guy
anchor=hold
prevToken=has
arg=somebody
arg=parents
prevToken=And
synPath=object-1:have:subject
chunkPath=precede_'
prevTokenAndType=Personnel_by
prevTokenAndType=Personnel_--
arg=You
synPathTypes=Justice_PERSON_object
prevTokenAndType=Justice_when
anchor=select
prevToken=pay
arg=sam_waksal
chunkPathAndType=Justice_precede_be_be
arg=Pasko
prevTokenAndType=Justice_said
arg=judge
arg=terrorist
arg=militants
prevToken=say
prevToken=which
arg=personnel
arg=man
arg=woman
prevToken=are
prevToken=whether
arg=father
arg=men
prevToken=want
prevToken=about
prevToken=had
prevToken=If
chunkPath=precede_be_in
prevToken=engage
prevToken=allow
prevToken=why
arg=serious
arg=Tugle
arg=Toefting
arg=Ba'asyir
prevToken=see
arg=Giuliani
arg=girls
arg=member
chunkPath=precede_be_to_be
arg=boy
arg=baby
chunkPath=precede_could
arg=officers
arg=my
arg=pilots
arg=brother
chunkPath=precede_'m
arg=luster
chunkPath=precede_would
anchor=extradition/n
prevToken=bring
prevTokenAndType=Life_for
arg=minor
arg=sympathizers
arg=Shah
arg=Saddam_Hussein
arg=nichols
prevToken=fired
synPathEvType=Life_of
chunkPathAndType=Life_follow_of
prevTokenAndType=Life_with
prevTokenAndType=Life_out
prevTokenAndType=Life_--
synPathEvType=Life_subject
chunkPathAndType=Life_follow_to
synPathTypes=Life_PERSON_of
synPathTypes=Life_PERSON_poss
chunkPathAndType=Life_precede_have_be
arg=child
chunkPathAndType=Life_precede_'s
chunkPathAndType=Life_precede_'
arg=Who
arg=husband
synPathTypes=Life_PERSON_object
synPathTypes=Life_PERSON_subject
prevTokenAndType=Life_)
prevTokenAndType=Life_after
chunkPathAndType=Life_follow_,
chunkPathAndType=Life_precede_have
prevTokenAndType=Life_that
prevTokenAndType=Life_if
prevTokenAndType=Life_think
prevTokenAndType=Life_but
prevTokenAndType=Life_because
prevTokenAndType=Life_before
anchor=do
arg=infant
synPath=object:lot:of
arg=three
prevTokenAndType=Life_about
synPathTypes=Personnel_PERSON_subject
evTypeArg=Arrest-Jail:you
arg=cleric
arg=suspect
chunkPath=precede_should_be
evTypeArg=Arrest-Jail:they
prevToken=me
anchor=custody/n
arg=peterson
synPathTypes=Justice_PERSON_subject
arg=candidates
arg=Marinello
arg=martha_stewart
prevTokenAndType=Justice_say
arg=murderer
prevToken=sued
chunkPathAndType=Justice_precede_have_be
chunkPathAndType=Justice_precede_be
prevTokenAndType=Justice_with
prevTokenAndType=Justice_if
synPathTypes=Justice_PERSON_poss
arg=Chiluba
prevTokenAndType=Justice_where
chunkPathAndType=Justice_precede_will
prevTokenAndType=Justice_after
prevTokenAndType=Justice_before
prevTokenAndType=Justice_but
prevTokenAndType=Justice_think
synPathEvType=Justice_of
prevTokenAndType=Justice_got
anchor=departure/n
menType=Job-Title
synPathTypes=Personnel_Job-Title_object
arg=ceo
evTypeArg=Elect:president
prevToken=new
prevTokenAndType=Personnel_new
prevTokenAndType=Personnel_a
prevToken="
prevToken=a
prevToken=was
anchor=eliminate
prevToken=former
prevTokenAndType=Personnel_former
prevToken=retired
prevTokenAndType=Personnel_retired
chunkPath=follow_a
chunkPathAndType=Personnel_follow_as
chunkPathAndType=Personnel_follow_from
prevToken=elected
prevTokenAndType=Personnel_elected
prevToken=up
chunkPath=follow_as
chunkPath=follow_the
prevToken=lost
prevToken=serving
prevToken=became
arg=September
arg=early_Friday
evTypeArg=Attack:Monday
evTypeArg=Transport:Wednesday
evTypeArg=Attack:Sunday
evTypeArg=Injure:Tuesday
arg=last_week
evTypeArg=Die:Monday
arg=Sunday_morning
arg=April_30
arg=1995
arg=1991
arg=yesterday
arg=1985
evTypeArg=Meet:today
arg=february
evTypeArg=Attack:tonight
arg=january
prevToken=another
evTypeArg=Die:today
evTypeArg=Transport:now
prevTokenAndType=Conflict_during
arg=1992
arg=2001
evTypeArg=Attack:1994
arg=recently
evTypeArg=Die:last_week
prevToken=hospital
prevTokenAndType=Life_hospital
chunkPath=follow_in_hospital
chunkPathAndType=Life_follow_in_hospital
arg=recent
evTypeArg=Elect:recent
chunkPathAndType=Personnel_precede_GPE
evTypeArg=Elect:January
arg=this_weekend
arg=2004
evTypeArg=Attack:1991
prevTokenAndType=Contact_at
chunkPathAndType=Life_follow_in
prevTokenAndType=Life_In
chunkPathAndType=Contact_follow_on
chunkPath=follow_PERSON_in
chunkPathAndType=Business_follow_in
prevToken=died
prevTokenAndType=Life_died
prevTokenAndType=Justice_In
prevTokenAndType=Personnel_The
prevToken=meeting
prevTokenAndType=Contact_meeting
anchor=demonstrate
prevTokenAndType=Contact_from
anchor=conference/n
anchor=letter/n
anchor=demonstration/n
anchor=protest/n
anchor=speak
anchor=talk
anchor=rally/n
chunkPathAndType=Contact_precede_for
prevToken=call
prevTokenAndType=Contact_call
dist=17
dist=14
evType=Conflict
anchor=war/n
prevTokenAndType=Conflict_of
prevTokenAndType=Conflict_.
chunkPathAndType=Conflict_precede_
prevTokenAndType=Conflict_,
anchor=fight
prevTokenAndType=Conflict_a
chunkPathAndType=Conflict_follow_
prevTokenAndType=Conflict_and
chunkPath=precede_in
anchor=one
anchor=march
anchor=march/n
prevToken=over
anchor=visit
anchor=pay
chunkPath=follow_at
prevTokenAndType=Contact_.
prevTokenAndType=Contact_the
prevTokenAndType=Contact_on
anchor=call
anchor=summit/n
chunkPathAndType=Contact_precede_
anchor=meeting/n
evType=Contact
anchor=talk/n
anchor=discussion/n
chunkPath=precede_at
dist=20
chunkPathAndType=Contact_follow_
prevTokenAndType=Contact_in
anchor=call/n
anchor=meet
anchor=fine/n
prevTokenAndType=Contact_,
anchor=War
anchor=terrorism/n
anchor=launch
prevToken=into
dist=15
anchor=drop
anchor=uprising/n
prevTokenAndType=Conflict_for
anchor=bombings/n
prevTokenAndType=Conflict_the
anchor=bomb
anchor=fire/n
anchor=explosion/n
anchor=fighting/n
anchor=bombardment/n
anchor=slaughter
prevTokenAndType=Conflict_is
prevTokenAndType=Conflict_'s
anchor=destroy
anchor=open
prevTokenAndType=Conflict_in
anchor=charge
anchor=attack
anchor=wipe
anchor=front/n
anchor=assault
anchor=storm
anchor=battle
anchor=clash/n
anchor=airstrikes/n
anchor=raid
anchor=combat/n
chunkPathAndType=Conflict_precede_be
anchor=raid/n
prevTokenAndType=Conflict_from
anchor=detonate
anchor=hit/n
prevTokenAndType=Conflict_or
chunkPathAndType=Conflict_precede_in
anchor=hit
anchor=shoot
anchor=assault/n
anchor=strike
anchor=battle/n
anchor=attack/n
anchor=strike/n
prevToken=killed
anchor=blow
anchor=invasion/n
prevTokenAndType=Conflict_on
chunkPathAndType=Conflict_precede_,
anchor=terror/n
anchor=drop/n
anchor=fight/n
anchor=genocide/n
anchor=killing/n
anchor=it
anchor=action/n
prevToken=home
evType=Movement
chunkPath=follow_on
chunkPath=follow_in
chunkPath=follow_over
chunkPath=follow_into
anchor=deliver
evType=Transaction
prevTokenAndType=Transaction_in
chunkPathAndType=Transaction_follow_
anchor=provide
anchor=pick
prevTokenAndType=Transaction_on
anchor=buy
anchor=sell
prevTokenAndType=Justice_in
prevToken=within
chunkPath=precede_and
prevToken=At
anchor=contribution/n
prevTokenAndType=Conflict_In
prevTokenAndType=Conflict_over
anchor=nine
eleven
prevTokenAndType=Conflict_at
anchor=dead
anchor=trial/n
anchor=appeal/n
prevToken=In
chunkPathAndType=Business_follow_
prevTokenAndType=Business_in
evType=Business
anchor=found
anchor=set
anchor=bankruptcy/n
chunkPathAndType=Conflict_follow_in
chunkPathAndType=Conflict_follow_on
anchor=blast/n
prevTokenAndType=Conflict_hit
prevToken=attacked
anchor=airstrike/n
anchor=stab
anchor=slaughter/n
prevToken=hit
anchor=injure
anchor=wound
prevTokenAndType=Life_the
anchor=injury/n
anchor=casualty/n
chunkPathAndType=Life_precede_to
anchor=suicide/n
prevTokenAndType=Life_killed
prevTokenAndType=Life_on
prevTokenAndType=Life_at
chunkPath=precede_,_people
chunkPathAndType=Life_precede_,
anchor=assassination/n
anchor=murder/n
prevTokenAndType=Life_'s
chunkPathAndType=Life_follow_in_the
chunkPath=follow_in_the
chunkPathAndType=Personnel_follow_in
anchor=hearing/n
chunkPathAndType=Contact_follow_in
anchor=conviction/n
anchor=convict
anchor=sentence
anchor=indictment/n
chunkPathAndType=Justice_follow_in
anchor=appeal
chunkPathAndType=Transaction_follow_in
prevTokenAndType=Transaction_at
anchor=discuss
anchor=interview/n
anchor=e-mail
prevTokenAndType=Contact_as
prevTokenAndType=Contact_meet
anchor=protest
anchor=tell
prevTokenAndType=Contact_after
chunkPath=precede_engage_in
prevToken=then
prevTokenAndType=Conflict_that
anchor=attend
anchor=send
anchor=trip/n
anchor=visit/n
anchor=that
prevToken=meet
prevToken=left
prevTokenAndType=Contact_a
anchor=phone/n
prevTokenAndType=Contact_for
chunkPath=precede_by
prevToken=met
prevTokenAndType=Contact_met
anchor=hear
chunkPathAndType=Justice_precede_to
prevTokenAndType=Conflict_Iraq
chunkPath=precede_of
prevTokenAndType=Conflict_before
chunkPath=precede_engage_in_major
chunkPathAndType=Conflict_precede_engage_in_major
anchor=shootings/n
chunkPathAndType=Conflict_precede_of
prevTokenAndType=Conflict_after
prevToken=Iraq
prevTokenAndType=Conflict_said
prevTokenAndType=Conflict_killed
chunkPathAndType=Conflict_precede_have_be
anchor=abuse/n
prevToken=attack
prevTokenAndType=Conflict_"
prevTokenAndType=Conflict_:
anchor=assassinate
anchor=incursion/n
anchor=lob
prevTokenAndType=Movement_until
anchor=travel
anchor=advance/n
anchor=fly
prevTokenAndType=Movement_,
chunkPathAndType=Movement_precede_
anchor=journey/n
prevToken=get
anchor=arrive
prevTokenAndType=Movement_in
anchor=move/n
chunkPathAndType=Movement_follow_
prevTokenAndType=Movement_.
anchor=smuggle
anchor=move
prevTokenAndType=Movement_by
prevTokenAndType=Movement_that
anchor=rumble
anchor=advance
prevTokenAndType=Movement_over
anchor=push/n
anchor=travel/n
prevTokenAndType=Movement_on
anchor=cross
anchor=flee
anchor=enter
chunkPathAndType=Movement_follow_in
anchor=jump
anchor=arrival/n
anchor=traveling/n
anchor=flight/n
anchor=sail
chunkPathAndType=Transaction_precede_
prevTokenAndType=Transaction_.
prevTokenAndType=Transaction_for
prevToken=gave
prevToken=MALE
anchor=withdrawal/n
prevTokenAndType=Movement_but
chunkPathAndType=Movement_precede_be
anchor=carry
chunkPathAndType=Movement_precede_to
anchor=acquire
prevTokenAndType=Transaction_get
anchor=sale/n
anchor=export
prevTokenAndType=Movement_since
prevTokenAndType=Movement_the
chunkPathAndType=Movement_follow_on
prevTokenAndType=Movement_at
anchor=mission/n
prevTokenAndType=Movement_is
prevTokenAndType=Movement_left
anchor=loan/n
anchor=compensate
anchor=gift/n
anchor=donation/n
evTypeArg=Meet:Wednesday
evTypeArg=Attack:nine_eleven
arg=currently
prevToken=end
arg=two-day
evTypeArg=Meet:two-day
menType=Time
arg=Wednesday
prevTokenAndType=Justice_for
anchor=sue
chunkPathAndType=Justice_follow_for
chunkPath=precede_GPE
arg=now
menType=Age
arg=nine_eleven
arg=a_month
prevTokenAndType=Business_on
chunkPath=precede_file_for
chunkPathAndType=Business_precede_
prevTokenAndType=Business_that
anchor=form
evTypeArg=Meet:Friday
arg=January
arg=tonight
evTypeArg=Attack:today
arg=Thursday
arg=tomorrow
arg=this_morning
arg=1994
arg=today
arg=Friday
anchor=crossfire/n
prevToken=bombing
prevTokenAndType=Conflict_bombing
prevToken=injured
prevToken=been
anchor=injured
prevTokenAndType=Life_injured
anchor=loss/n
prevTokenAndType=Life_:
prevTokenAndType=Life_since
prevToken=sentenced
chunkPathAndType=Movement_precede_and
prevToken=just
arg=1998
arg=Tuesday
arg=last_year
arg=1999
evTypeArg=Meet:Tuesday
prevToken=began
arg=next_week
evTypeArg=Attack:Tuesday
prevToken=erupted
evTypeArg=Attack:March_20
evTypeArg=Transport:today
evTypeArg=Meet:tomorrow
arg=Monday
arg=March_20
anchor=steal
anchor=skim
prevToken=convicted
prevTokenAndType=Justice_convicted
prevToken=here
prevTokenAndType=Justice_:
prevTokenAndType=Justice_until
anchor=acquit
anchor=indict
anchor=pled
anchor=suit/n
anchor=prosecution/n
prevToken=sentence
prevTokenAndType=Justice_sentence
prevTokenAndType=Justice_sentenced
prevToken=his
prevTokenAndType=Justice_his
chunkPath=precede_,_PERSON
prevToken=her
prevTokenAndType=Transaction_a
arg=Saturday
arg=Sunday
evTypeArg=Transport:Sunday
evTypeArg=Transport:Monday
chunkPath=follow_in_GPE
chunkPath=follow_to_GPE
chunkPathAndType=Movement_follow_to_GPE
arg=Belgrade
evTypeArg=Attack:Baghdad
evTypeArg=Attack:Kut
evTypeArg=Attack:capital
arg=neighborhood
evTypeArg=Attack:city
evTypeArg=Meet:Beijing
evTypeArg=Attack:village
evTypeArg=Injure:Baghdad
evTypeArg=Die:Iraq
arg=Bali
evTypeArg=Attack:iraq
synPathTypes=Conflict_GPE_of
arg=new_york
evTypeArg=Attack:area
prevTokenAndType=Life_outside
arg=gaza
evTypeArg=Attack:gaza
evTypeArg=Die:there
arg=africa
arg=Vietnam
evTypeArg=Attack:here
prevTokenAndType=Conflict_across
evTypeArg=Attack:Karbala
chunkPath=follow_near
chunkPathAndType=Conflict_follow_near
prevTokenAndType=Conflict_around
evTypeArg=Attack:hills
evTypeArg=Attack:there
evTypeArg=Attack:bridge
evTypeArg=Die:checkpoint
evTypeArg=Attack:Vietnam
evTypeArg=Injure:mall
evTypeArg=Attack:place
arg=Rwanda
evTypeArg=Attack:Rwanda
evTypeArg=Die:hospital
evTypeArg=Elect:US
prevToken=recent
prevTokenAndType=Personnel_recent
evTypeArg=Attack:Fallujah
arg=Florida
evTypeArg=Meet:Pyongyang
synPathEvType=Contact_nameMod
synPathTypes=Contact_GPE_nameMod
prevTokenAndType=Contact_to
evTypeArg=Meet:Washington
evTypeArg=Meet:Seoul
evTypeArg=Elect:government
anchor=reunite
anchor=correspondence/n
chunkPathAndType=Contact_follow_from
chunkPath=precede_hold
anchor=telephone/n
synPath=object-1:hold:subject
evTypeArg=Meet:Iraq
arg=United_Nations
evTypeArg=Elect:Iraq
synPathTypes=Personnel_GPE_nameMod
arg=China
arg=israeli
arg=it
prevToken=including
prevToken=an
menType=GPE
arg=U.S
prevToken=against
arg=Israel
arg=Washington
arg=United_States
arg=Iraq
arg=country
arg=government
chunkPath=precede_take
synPathEvType=Conflict_object
prevTokenAndType=Conflict_with
synPathEvType=Conflict_subject
prevTokenAndType=Conflict_by
anchor=use
arg=nation
prevToken=persuade
arg=Japan
anchor=reach
chunkPath=precede_did
synPath=object-1:make:subject
arg=Seoul
arg=where
arg=there
arg=France
arg=Russia
arg=facility
arg=office
prevToken=headed
arg=Turkey
arg=Beijing
arg=city
arg=Jordan
arg=iraq
arg=here
arg=Pyongyang
prevTokenAndType=Contact_and
chunkPath=follow_be
synPathEvType=Conflict_of
prevTokenAndType=Justice_the
prevToken=A
arg=court
anchor=negotiation/n
synPathEvType=Contact_object
chunkPath=precede_with
prevTokenAndType=Justice_from
prevToken=leave
evTypeArg=Attack:Iraq
synPathEvType=Conflict_nameMod
synPathTypes=Conflict_GPE_nameMod
evTypeArg=Attack:United_States
evTypeArg=Attack:country
evTypeArg=Attack:Israel
arg=america
arg=united_states
synPathTypes=Conflict_GPE_subject
synPathTypes=Conflict_GPE_object
anchor=resistance/n
chunkPathAndType=Conflict_follow_from
anchor=warfare/n
evTypeArg=Attack:Israeli
evTypeArg=Attack:Iran
evTypeArg=Attack:nation
arg=iran
synPathTypes=Conflict_GPE_poss
evTypeArg=Attack:China
anchor=punch
anchor=invade
arg=side
chunkPath=follow_against
arg=state
arg=US
arg=region
arg=White_House
arg=u.s
anchor=bloodshed/n
anchor=riot
anchor=smash
anchor=conflict/n
prevTokenAndType=Conflict_into
prevTokenAndType=Conflict_against
chunkPathAndType=Conflict_follow_against
evTypeArg=Attack:people
anchor=targeted
evTypeArg=Attack:we
chunkPathAndType=Conflict_precede_take
chunkPath=precede_kill_in
anchor=firefight/n
anchor=engage
evTypeArg=Attack:their
anchor=conquer
anchor=massacre/n
anchor=air/n
evTypeArg=Attack:it
prevTokenAndType=Conflict_when
anchor=explode
prevTokenAndType=Conflict_-
anchor=violence/n
prevTokenAndType=Conflict_as
anchor=striking
chunkPathAndType=Conflict_follow_with
chunkPathAndType=Conflict_precede_to
anchor=defeat
anchor=shell
anchor=target/n
anchor=obliterate
anchor=ambush
anchor=torture
anchor=rape
anchor=gun
anchor=rape/n
synPath=object-1:face:subject
prevTokenAndType=Conflict_to
anchor=scald
synPathEvType=Conflict_poss
chunkPath=follow_when
arg=Israeli
arg=israel
arg=countries
arg=Iran
prevToken=this
arg=Indonesia
prevToken=seized
prevTokenAndType=Transaction_captured
arg=bridge
arg=prison
anchor=back
prevToken=through
menType=FACILITY
arg=hotel
arg=another
arg=airport
prevTokenAndType=Transaction_of
prevTokenAndType=Transaction_,
prevToken=use
chunkPath=precede_from
prevToken=take
anchor=abandon
anchor=secure
arg=Saint_Petersburg
prevToken=along
prevToken=entering
arg=Singapore
arg=mall
arg=camp
arg=village
arg=saudi_arabia
arg=port
prevToken=enter
prevToken=across
arg=washington
arg=florida
arg=mars
arg=Paris
arg=Umm_Qasr
arg=heart
arg=Basra
arg=compound
arg=Mosul
prevToken=inside
arg=Najaf
arg=place
arg=Middle_East
arg=territory
arg=areas
arg=room
prevTokenAndType=Movement_into
arg=buildings
prevToken=outside
arg=store
arg=checkpoint
prevToken=towards
arg=center
menType=LOCATION
prevToken=near
arg=home
arg=outskirts
arg=baghdad
arg=building
arg=part
arg=Pearl
arg=Greece
chunkPathAndType=Justice_follow_to
evTypeArg=Transport:Iraq
arg=border
arg=Baghdad
arg=area
chunkPathAndType=Movement_follow_into
arg=capital
arg=Kuwait
arg=town
arg=London
arg=hospital
prevToken=around
arg=france
arg=china
arg=desert
arg=Karbala
arg=New_York
arg=FL
chunkPathAndType=Transaction_precede_to
anchor=this
anchor=receive
prevTokenAndType=Transaction_from
anchor=raise
anchor=e
chunkPathAndType=Transaction_precede_have
chunkPathAndType=Conflict_follow_for
anchor=clash
chunkPathAndType=Conflict_follow_of
prevTokenAndType=Conflict_since
anchor=intifada/n
prevTokenAndType=Justice_'s
prevToken=create
prevTokenAndType=Business_create
prevToken=down
anchor=create
anchor=shape
chunkPathAndType=Business_precede_to
synPathTypes=Conflict_FACILITY_object
evTypeArg=Attack:buildings
prevTokenAndType=Conflict_near
arg=cafe
chunkPathAndType=Conflict_follow_at
evTypeArg=Attack:baghdad
evTypeArg=Attack:outskirts
anchor=shooting/n
evTypeArg=Attack:building
prevTokenAndType=Conflict_down
evTypeArg=Attack:us
prevTokenAndType=Conflict_outside
chunkPathAndType=Conflict_follow_to
arg=palace
evTypeArg=Attack:hotel
arg=houses
prevTokenAndType=Conflict_use
anchor=threat/n
prevTokenAndType=Conflict_was
anchor=wound/n
anchor=murder
chunkPathAndType=Life_follow_when
prevTokenAndType=Life_a
anchor=pound
prevTokenAndType=Life_said
chunkPathAndType=Life_precede_who
prevTokenAndType=Life_"
prevTokenAndType=Justice_)
chunkPathAndType=Justice_precede_have
synPathTypes=Justice_GPE_subject
arg=Pakistan
prevTokenAndType=Transaction_to
chunkPathAndType=Justice_precede_face
anchor=lawsuit/n
anchor=guilty
anchor=try
anchor=face
anchor=accuse
prevTokenAndType=Justice_at
anchor=case/n
anchor=pardon
synPathEvType=Justice_nameMod
prevToken=year
prevTokenAndType=Justice_year
prevTokenAndType=Justice_an
prevTokenAndType=Justice_a
evTypeArg=Appeal:court
evTypeArg=Convict:court
prevTokenAndType=Justice_The
evTypeArg=Trial-Hearing:court
evTypeArg=Sentence:court
evTypeArg=Charge-Indict:court
anchor=transfer/n
arg=Kut
arg=Malaysia
arg=West_Bank
arg=Gaza
arg=hills
arg=Northern_Ireland
arg=Jerusalem
arg=Fallujah
arg=Ohio
prevTokenAndType=Contact_with
chunkPathAndType=Contact_follow_with
prevTokenAndType=Contact_"
evTypeArg=Meet:Putin
evTypeArg=Meet:Bush
synPathTypes=Contact_PERSON_object
prevTokenAndType=Contact_of
chunkPathAndType=Contact_follow_of
synPathEvType=Contact_subject
synPathTypes=Contact_PERSON_subject
prevTokenAndType=Contact_between
evTypeArg=Meet:North_Korea
synPathEvType=Contact_poss
synPathTypes=Contact_PERSON_poss
prevTokenAndType=Contact_)
evTypeArg=Meet:Al-Douri
arg=Annan
evTypeArg=Meet:Annan
prevTokenAndType=Contact_''
evTypeArg=Meet:leaders
synPathTypes=Personnel_ORGANIZATION_object
synPathEvType=Contact_of
evTypeArg=Demonstrate:Iraqis
chunkPathAndType=Contact_follow_between
prevTokenAndType=Contact_that
evTypeArg=Meet:officials
evTypeArg=Meet:George_W._Bush
evTypeArg=Meet:He
prevTokenAndType=Contact_told
prevTokenAndType=Contact_``
evTypeArg=Meet:Tony_Blair
chunkPathAndType=Contact_follow_to
evTypeArg=Meet:minister
evTypeArg=Meet:they
evTypeArg=Meet:their
prevTokenAndType=Contact_when
evTypeArg=Phone-Write:us
chunkPathAndType=Contact_precede_hold
evTypeArg=Meet:he
evTypeArg=Meet:we
evTypeArg=Meet:shareholders
evTypeArg=Meet:bush
evTypeArg=Phone-Write:we
evTypeArg=Phone-Write:you
chunkPathAndType=Personnel_follow_to
evTypeArg=Meet:members
prevTokenAndType=Contact_where
anchor=write
evTypeArg=Demonstrate:protesters
evTypeArg=Meet:president
chunkPathAndType=Contact_precede_get
chunkPathAndType=Contact_precede_will
prevTokenAndType=Contact_is
evTypeArg=Phone-Write:they
evTypeArg=Phone-Write:he
prevTokenAndType=Contact_what
chunkPathAndType=Contact_precede_have
anchor=sit
evTypeArg=Phone-Write:I
prevTokenAndType=Contact_by
synPath=object-1:get:subject
synPathEvType=Contact_object-1:get:subject
synPathTypes=Contact_PERSON_object-1:get:subject
evTypeArg=Meet:who
evTypeArg=Phone-Write:who
evTypeArg=Phone-Write:people
anchor=message/n
chunkPathAndType=Contact_precede_can
evTypeArg=Phone-Write:He
prevTokenAndType=Contact_-
evTypeArg=Meet:I
evTypeArg=Meet:board
evTypeArg=Meet:us
arg=George_W._Bush
chunkPathAndType=Conflict_precede_go_to
chunkPath=precede_have_(_negated_)
chunkPath=precede_-_GPE
chunkPath=precede_may_have
arg=unit
arg=some
menType=ORGANIZATION
arg=They
chunkPath=precede_'ll
prevToken=what
arg=team
arg=sons
synPath=of-1
arg=troops
arg=We
prevToken=not
prevToken=reports
chunkPath=precede_'ve
arg=which
chunkPath=follow_between
prevToken=between
chunkPath=follow_in_GPE_,
prevToken=Because
arg=Germany
prevToken=while
arg=Arafat
arg=regime
arg=group
arg=administration
arg=army
synPathTypes=Conflict_PERSON_object
synPathTypes=Conflict_PERSON_subject
prevToken=sure
arg=two
prevToken=give
chunkPathAndType=Conflict_follow_by
prevToken=long
arg=Palestinians
chunkPath=precede_'d
arg=American
arg=Palestinian
prevToken=who
chunkPath=precede_on
arg=groups
arg=North_Korea
arg=Tony_Blair
chunkPath=precede_schedule_to
arg=Kelly
arg=representatives
arg=family
prevToken=ordered
arg=that
arg=company
arg=diplomats
arg=saddam_hussein
arg=many
arg=Kurds
arg=guys
arg=friends
prevToken=When
arg=women
arg=mother
chunkPath=precede_will_be
prevToken=do
prevToken=brought
arg=kramers
chunkPath=precede_expect_to
chunkPath=precede_didn't
chunkPath=precede_make
arg=friend
prevToken=told
arg=thousands
anchor=retreat/n
arg=sides
prevToken=visited
arg=EU
arg=companies
arg=fbi
arg=USCF
anchor=spend
arg=MCI
arg=party
arg=airline
arg=firm
arg=enron
anchor=talks/n
arg=protesters
arg=american
arg=me
prevToken=``
prevToken=leaving
arg=police
arg=families
chunkPath=precede_don't
arg=commanders
arg=Yasser_Arafat
chunkPath=follow_,_include
prevToken=let
arg=delegates
prevToken=tell
prevToken=But
prevToken=asked
arg=AIG
anchor=forum/n
prevToken=compensating
arg=SEC
prevToken=paid
arg=stewart
prevTokenAndType=Justice_against
arg=paper
arg=shareholders
arg=judges
anchor=fine
arg=Vivendi
chunkPath=follow_out-of
prevTokenAndType=Contact_said
evTypeArg=Attack:U.S
evTypeArg=Attack:military
evTypeArg=Attack:militants
evTypeArg=Attack:groups
evTypeArg=Attack:US
evTypeArg=Attack:u.s
evTypeArg=Attack:coalition
evTypeArg=Attack:terrorist
evTypeArg=Attack:america
evTypeArg=Attack:israeli
evTypeArg=Attack:group
synPathTypes=Conflict_ORGANIZATION_subject
chunkPathAndType=Conflict_follow_between
evTypeArg=Attack:Palestinian
evTypeArg=Attack:North_Korea
evTypeArg=Attack:Japan
chunkPathAndType=Conflict_precede_'s
arg=marines
anchor=push
arg=force
arg=7th_Cavalry
arg=division
arg=fighters
arg=Israelis
arg=soldiers
arg=Marines
arg=terrorists
arg=enemy
arg=forces
arg=parts
arg=units
prevToken=As
arg=soldier
arg=mob
arg=troop
arg=gunman
chunkPath=precede_--
prevToken=sent
prevToken=him
arg=others
chunkPath=precede_that
prevTokenAndType=Conflict_which
prevTokenAndType=Conflict_about
arg=hamas
evTypeArg=Attack:troops
evTypeArg=Attack:forces
prevTokenAndType=Conflict_)
evTypeArg=Attack:Iraqis
evTypeArg=Attack:Marines
evTypeArg=Attack:soldiers
prevTokenAndType=Conflict_whether
evTypeArg=Attack:who
evTypeArg=Attack:he
evTypeArg=Attack:she
evTypeArg=Attack:units
prevTokenAndType=Conflict_where
evTypeArg=Attack:iraqis
anchor=targeting
evTypeArg=Attack:hamas
evTypeArg=Attack:others
evTypeArg=Attack:those
evTypeArg=Attack:Saddam
evTypeArg=Attack:you
prevTokenAndType=Conflict_killing
evTypeArg=Attack:man
prevTokenAndType=Conflict_including
prevTokenAndType=Conflict_attack
evTypeArg=Attack:regime
evTypeArg=Attack:civilians
chunkPathAndType=Conflict_precede_kill_in
evTypeArg=Attack:members
evTypeArg=Attack:him
anchor=punch/n
arg=Republican_Guard
evTypeArg=Attack:Republican_Guard
evTypeArg=Attack:fighters
evTypeArg=Attack:They
evTypeArg=Attack:militia
prevTokenAndType=Conflict_engage
evTypeArg=Attack:We
evTypeArg=Attack:terrorists
prevTokenAndType=Conflict_are
evTypeArg=Attack:woman
evTypeArg=Attack:his
evTypeArg=Attack:her
evTypeArg=Attack:Israelis
evTypeArg=Attack:them
evTypeArg=Attack:they
prevTokenAndType=Conflict_say
prevTokenAndType=Conflict_if
evTypeArg=Attack:one
chunkPathAndType=Conflict_follow_,
prevTokenAndType=Conflict_out
arg=civilians
evTypeArg=Attack:person
anchor=poison
prevToken=killing
arg=those
anchor=beat
arg=victims
arg=iraqis
arg=commandos
arg=militia
prevTokenAndType=Conflict_have
prevTokenAndType=Conflict_between
evTypeArg=Attack:bomber
prevTokenAndType=Conflict_had
chunkPathAndType=Conflict_precede_have
anchor=use/n
chunkPathAndType=Conflict_precede_involve_in
prevToken=firing
prevTokenAndType=Conflict_why
prevTokenAndType=Conflict_--
arg=bomber
chunkPath=precede_involve_in
arg=israelis
arg=attacker
arg=attackers
arg=Sharif
arg=military
arg=sniper
arg=malvo
arg=militant
arg=extremists
arg=coalition
chunkPath=precede_begin
arg=gunmen
synPathTypes=Transaction_FACILITY_object
synPathTypes=Movement_PERSON_object
evTypeArg=Transport:Bush
synPathEvType=Movement_poss
synPathTypes=Movement_PERSON_poss
evTypeArg=Transfer-Ownership:airport
evTypeArg=Transport:bush
evTypeArg=Transfer-Ownership:weapons
synPathTypes=Transaction_WEA_object
evTypeArg=Transfer-Ownership:base
evTypeArg=Transport:their
evTypeArg=Transport:president
synPathTypes=Movement_PERSON_object-1:make:subject
evTypeArg=Transport:Iraqis
evTypeArg=Transport:journalists
prevTokenAndType=Movement_:
chunkPathAndType=Movement_precede_can
prevTokenAndType=Movement_sent
prevTokenAndType=Movement_before
chunkPathAndType=Movement_precede_'s
synPathEvType=Movement_of
evTypeArg=Transport:him
prevToken=send
prevTokenAndType=Movement_send
evTypeArg=Transport:person
chunkPathAndType=Movement_precede_want_to
prevToken=provides
evTypeArg=Transport:our
prevToken=sell
prevTokenAndType=Transaction_sell
anchor=penetrate
anchor=thrust
prevTokenAndType=Movement_get
arg=base
anchor=show
anchor=approach
anchor=withdraw
prevTokenAndType=Movement_make
prevTokenAndType=Movement_-
evTypeArg=Transport:unit
chunkPathAndType=Movement_follow_over
anchor=ship
anchor=deport
prevTokenAndType=Movement_for
anchor=voyage/n
anchor=pour
anchor=close
prevTokenAndType=Movement_and
prevToken=make
arg=house
anchor=launch/n
prevToken=now
anchor=tour/n
synPathEvType=Movement_nameMod
anchor=bring
anchor=deploy
anchor=airlifting
anchor=haul
prevTokenAndType=Movement_to
prevTokenAndType=Movement_of
prevTokenAndType=Movement_as
anchor=transport
prevTokenAndType=Movement_)
chunkPathAndType=Movement_precede_have
anchor=direct
prevTokenAndType=Movement_from
chunkPathAndType=Movement_follow_of
anchor=way/n
prevTokenAndType=Movement_through
anchor=follow
prevTokenAndType=Movement_see
anchor=due
synPathEvType=Movement_object
anchor=land
evTypeArg=Transport:it
anchor=landing/n
anchor=roll
evTypeArg=Transport:some
prevTokenAndType=Movement_--
chunkPath=precede_do
prevTokenAndType=Transaction_"
prevTokenAndType=Transaction_and
chunkPathAndType=Transaction_precede_be
synPathEvType=Transaction_object
prevTokenAndType=Transaction_--
chunkPathAndType=Transaction_follow_of
synPathEvType=Transaction_of
prevTokenAndType=Transaction_over
arg=silver_cross
arg=business
prevToken=than
prevToken=So
arg=target
menType=WEA
prevToken=prevent
menType=VEH
arg=tanks
arg=aircraft
arg=ship
arg=car
arg=more
arg=Most
arg=journalists
anchor=kick
arg=plane
arg=cars
arg=arms
arg=missiles
arg=weapons
arg=ammunition
arg=rifle
chunkPath=follow_off
prevToken=off
arg=passengers
evTypeArg=Transport:who
arg=sister
synPathTypes=Movement_PERSON_subject
evTypeArg=Transport:troops
evTypeArg=Transport:forces
evTypeArg=Transport:he
evTypeArg=Transport:she
prevTokenAndType=Movement_where
evTypeArg=Transport:soldiers
prevTokenAndType=Movement_say
evTypeArg=Transport:we
chunkPath=precede_try_to
evTypeArg=Transport:We
chunkPathAndType=Movement_precede_expect_to
evTypeArg=Transport:that
evTypeArg=Transport:you
evTypeArg=Transport:They
evTypeArg=Transport:officials
evTypeArg=Transport:I
evTypeArg=Transport:He
chunkPathAndType=Movement_precede_try_to
chunkPathAndType=Movement_precede_'ll
prevTokenAndType=Movement_have
chunkPathAndType=Movement_precede_will_be
evTypeArg=Transport:us
chunkPathAndType=Movement_precede_could
chunkPath=precede_be_able_to
anchor=clear
chunkPathAndType=Movement_follow_by
evTypeArg=Transport:people
anchor=expel
anchor=evacuate
chunkPathAndType=Movement_precede_have_be
synPathEvType=Movement_subject
prevTokenAndType=Movement_with
prevTokenAndType=Movement_when
prevTokenAndType=Movement_said
evTypeArg=Transport:they
chunkPathAndType=Movement_precede_will
chunkPathAndType=Movement_precede_have_to
synPathTypes=Transaction_ORGANIZATION_object
prevTokenAndType=Transaction_with
chunkPath=precede_would_be
arg=Ocalan
prevToken=ship
prevTokenAndType=Transaction_out
prevToken=acquiring
prevTokenAndType=Transaction_acquiring
prevToken=buy
prevTokenAndType=Transaction_buy
evTypeArg=Transfer-Ownership:it
anchor=bid/n
evTypeArg=Transfer-Ownership:company
evTypeArg=Transfer-Ownership:they
evTypeArg=Transport:her
chunkPathAndType=Movement_precede_make
synPathEvType=Movement_object-1:make:subject
prevTokenAndType=Movement_because
synPathTypes=Transaction_ORGANIZATION_of
anchor=acquisition/n
anchor=buys
anchor=control/n
evTypeArg=Transfer-Ownership:them
anchor=swallow
anchor=purchase/n
anchor=purchase
chunkPathAndType=Transaction_follow_for
synPathTypes=Movement_VEH_subject
prevTokenAndType=Movement_after
arg=rovers
evTypeArg=Transport:rovers
synPathTypes=Movement_VEH_object
evTypeArg=Transport:plane
prevTokenAndType=Movement_As
prevTokenAndType=Movement_take
prevToken=sending
prevTokenAndType=Movement_sending
prevTokenAndType=Movement_took
evTypeArg=Transport:car
prevTokenAndType=Movement_along
evTypeArg=Transport:Seoul
prevTokenAndType=Movement_entering
prevTokenAndType=Movement_enter
evTypeArg=Transport:center
prevToken=come
prevTokenAndType=Movement_come
arg=planet
evTypeArg=Transport:planet
chunkPathAndType=Movement_follow_at
evTypeArg=Transport:mars
evTypeArg=Transport:there
prevTokenAndType=Movement_visited
evTypeArg=Transport:base
prevTokenAndType=Movement_towards
prevTokenAndType=Movement_reached
chunkPath=follow_back_to
chunkPathAndType=Movement_follow_back_to
evTypeArg=Transport:territory
prevTokenAndType=Movement_up
evTypeArg=Transport:house
prevToken=coming
prevTokenAndType=Movement_coming
arg=New_England
evTypeArg=Transport:New_England
arg=Boston
evTypeArg=Transport:Boston
arg=lobby
prevTokenAndType=Movement_a
arg=site
chunkPath=follow_towards
evTypeArg=Transport:Turkey
evTypeArg=Transport:United_States
prevTokenAndType=Movement_between
prevToken=reached
chunkPath=follow_him_to
chunkPath=follow_him
chunkPath=follow_her_to
chunkPathAndType=Movement_follow_to
evTypeArg=Transport:border
evTypeArg=Transport:area
evTypeArg=Transport:Baghdad
evTypeArg=Transport:city
synPathTypes=Movement_GPE_object
synPathTypes=Movement_FACILITY_object
evTypeArg=Transport:country
synPathTypes=Movement_LOCATION_object
evTypeArg=Transport:home
evTypeArg=Transport:airport
evTypeArg=Transport:iraq
evTypeArg=Transport:baghdad
evTypeArg=Transport:town
prevToken=toward
prevTokenAndType=Movement_toward
chunkPath=follow_toward
chunkPathAndType=Movement_follow_toward
evTypeArg=Transport:here
evTypeArg=Transport:Kuwait
evTypeArg=Transport:capital
evTypeArg=Transport:desert
chunkPath=follow_through
chunkPathAndType=Movement_follow_through
evTypeArg=Transport:outskirts
evTypeArg=Transport:hospital
evTypeArg=Transport:building
arg=Afghanistan
evTypeArg=Transport:Afghanistan
evTypeArg=Transport:state
chunkPathAndType=Movement_follow_her_to
arg=jurisdiction
evTypeArg=Transport:London
arg=Niagara_Falls
evTypeArg=Transport:Niagara_Falls
synPathTypes=Transaction_GPE_nameMod
anchor=park
evTypeArg=Transfer-Money:USCF
anchor=feathering
anchor=fund
evTypeArg=Transfer-Money:they
anchor=support/n
evTypeArg=Transfer-Money:him
evTypeArg=Transfer-Money:government
evTypeArg=Transfer-Money:someone
anchor=pay/n
prevTokenAndType=Transaction_by
anchor=aid/n
prevTokenAndType=Transaction_)
synPathTypes=Transaction_ORGANIZATION_subject
synPathEvType=Transaction_subject
prevTokenAndType=Transaction_that
synPathTypes=Transaction_PERSON_subject
chunkPathAndType=Transaction_precede_'s
synPathEvType=Transaction_poss
anchor=donate
synPathTypes=Transaction_PERSON_object
evTypeArg=Transfer-Money:he
evTypeArg=Transfer-Money:Arafat
evTypeArg=Transfer-Money:member
arg=Vivendi_Universal
synPathEvType=Transaction_nameMod
chunkPathAndType=Transaction_follow_from
chunkPathAndType=Transaction_follow_by
prevTokenAndType=Transaction_if
synPathTypes=Transaction_GPE_subject
prevTokenAndType=Transaction_when
prevTokenAndType=Transaction_as
prevToken=After
synPathEvType=Business_object
synPathTypes=Business_ORGANIZATION_object
evTypeArg=Start-Org:government
evTypeArg=End-Org:regime
chunkPathAndType=Business_precede_file_for
evTypeArg=Declare-Bankruptcy:enron
chunkPathAndType=Business_precede_be
prevTokenAndType=Business_of
synPathEvType=Business_of
synPathTypes=Business_ORGANIZATION_of
anchor=merger/n
synPathTypes=Business_ORGANIZATION_subject
anchor=merge
prevTokenAndType=Business_with
prevTokenAndType=Business_up
prevToken=(
prevTokenAndType=Business_)
prevTokenAndType=Business_.
prevTokenAndType=Business_,
prevTokenAndType=Business_and
synPathEvType=Business_subject
arg=organizations
anchor=crumble
evTypeArg=Attack:boy
prevTokenAndType=Conflict_perhaps
prevToken=destroyed
prevTokenAndType=Conflict_destroyed
evTypeArg=Attack:convoy
evTypeArg=Attack:bus
prevToken=targeting
prevTokenAndType=Conflict_targeting
prevToken=slaughtered
prevTokenAndType=Conflict_slaughtered
arg=divisions
evTypeArg=Attack:divisions
evTypeArg=Attack:journalists
chunkPath=follow_and_kill
chunkPathAndType=Conflict_follow_and_kill
evTypeArg=Attack:tanks
synPathTypes=Conflict_VEH_object
prevTokenAndType=Conflict_shot
evTypeArg=Attack:aircraft
evTypeArg=Attack:ship
evTypeArg=Attack:helicopter
evTypeArg=Attack:planes
evTypeArg=Attack:car
arg=guns
evTypeArg=Attack:guns
prevToken=shot
arg=vehicles
arg=planes
arg=helicopter
prevToken=perhaps
prevToken=kill
prevToken=injuring
arg=civilian
prevToken=wounding
arg=grandmother
arg=Ferguson
prevToken=caused
arg=himself
arg=journalist
arg=4-year-old
arg=convoy
prevToken=clear
arg=bus
synPathTypes=Conflict_VEH_subject
arg=explosives
prevToken=detonated
prevTokenAndType=Life_detonated
arg=bomb
evTypeArg=Attack:bomb
synPathTypes=Conflict_WEA_object
synPathTypes=Conflict_WEA_subject
evTypeArg=Attack:arms
arg=missile
arg=warplanes
evTypeArg=Attack:warplanes
evTypeArg=Attack:missile
evTypeArg=Die:explosives
evTypeArg=Attack:explosives
prevTokenAndType=Conflict_detonated
evTypeArg=Attack:weapons
evTypeArg=Attack:missiles
arg=artillery
evTypeArg=Attack:artillery
arg=bombs
evTypeArg=Attack:bombs
arg=anthrax
evTypeArg=Attack:anthrax
prevTokenAndType=Conflict_dropped
prevToken=second
prevTokenAndType=Life_second
prevTokenAndType=Conflict_using
prevTokenAndType=Conflict_drop
arg=rounds
prevTokenAndType=Conflict_fired
prevToken=opened
arg=bullet
arg=knife
evTypeArg=Die:bomb
prevToken=suicide
arg=mortars
evTypeArg=Injure:bullet
arg=gun
evTypeArg=Attack:gun
anchor=hurt
prevTokenAndType=Life_by
anchor=deadly
anchor=blind
prevToken=keep
prevToken=represent
prevToken=dropped
prevToken=drop
arg=carrier
arg=rocket
prevToken=using
evTypeArg=Die:Marines
arg=crew
evTypeArg=Die:crew
chunkPathAndType=Life_follow_,_include
evTypeArg=Injure:people
prevTokenAndType=Life_whether
evTypeArg=Die:civilians
prevTokenAndType=Life_kill
evTypeArg=Injure:others
evTypeArg=Die:wife
evTypeArg=Injure:he
prevTokenAndType=Life_which
evTypeArg=Die:civilian
evTypeArg=Die:journalist
chunkPathAndType=Life_precede_,_be
evTypeArg=Die:He
evTypeArg=Die:Americans
evTypeArg=Die:children
prevTokenAndType=Life_wounding
prevTokenAndType=Life_injuring
evTypeArg=Die:son
prevToken=murdering
prevTokenAndType=Life_murdering
chunkPath=follow_PERSON_and
chunkPathAndType=Life_follow_PERSON_and
evTypeArg=Die:Arafat
evTypeArg=Injure:children
prevToken=leader
prevTokenAndType=Life_leader
prevToken=surrounding
prevTokenAndType=Life_surrounding
chunkPath=precede_illness_and
chunkPathAndType=Life_precede_illness_and
prevTokenAndType=Life_lost
arg=THOUSANDS
evTypeArg=Die:THOUSANDS
arg=Jews
evTypeArg=Die:Jews
evTypeArg=Die:people
evTypeArg=Die:bomber
prevTokenAndType=Life_including
evTypeArg=Die:troops
evTypeArg=Die:members
prevTokenAndType=Life_killing
evTypeArg=Die:her
evTypeArg=Die:soldiers
prevTokenAndType=Life_where
evTypeArg=Die:journalists
prevTokenAndType=Life_say
evTypeArg=Die:woman
evTypeArg=Die:mother
evTypeArg=Die:who
evTypeArg=Die:he
evTypeArg=Die:soldier
evTypeArg=Die:you
evTypeArg=Die:man
evTypeArg=Die:they
evTypeArg=Die:Iraqis
evTypeArg=Die:women
evTypeArg=Die:person
evTypeArg=Die:terrorists
evTypeArg=Die:Yasser_Arafat
evTypeArg=Die:his
evTypeArg=Die:she
evTypeArg=Injure:one
evTypeArg=Die:men
evTypeArg=Die:group
prevToken=plus
arg=reporter
chunkPath=follow_include
chunkPathAndType=Business_follow_by
synPathTypes=Movement_GPE_subject
evTypeArg=Arrest-Jail:police
evTypeArg=Arrest-Jail:we
chunkPathAndType=Life_follow_by
evTypeArg=Die:Scott_Peterson
prevTokenAndType=Life_Trial
chunkPath=precede_find_guilty_of
chunkPathAndType=Life_precede_find_guilty_of
evTypeArg=Start-Org:they
arg=Scott_Peterson
prevToken=Trial
arg=Peterson
prevTokenAndType=Justice_by
prevTokenAndType=Justice_are
chunkPathAndType=Justice_follow_by
prevTokenAndType=Business_by
evTypeArg=Transfer-Money:reporter
prevToken=paying
prevTokenAndType=Transaction_paying
anchor=compensation/n
arg=Member
evTypeArg=Transfer-Money:Member
evTypeArg=Transfer-Money:members
arg=lawyers
prevToken=given
prevTokenAndType=Transaction_pay
anchor=out-raised
prevTokenAndType=Transaction_paid
prevTokenAndType=Transaction_:
chunkPathAndType=Transaction_follow_to
prevTokenAndType=Transaction_give
evTypeArg=Transfer-Money:her
evTypeArg=Sentence:his
evTypeArg=Sentence:He
arg=Basson
chunkPathAndType=Justice_follow_against
arg=executives
evTypeArg=Charge-Indict:executives
arg=terry_nichols
synPathTypes=Justice_ORGANIZATION_object
evTypeArg=Charge-Indict:she
evTypeArg=Charge-Indict:her
evTypeArg=Sentence:sam_waksal
evTypeArg=Convict:he
evTypeArg=Sentence:him
prevTokenAndType=Justice_Trial
evTypeArg=Convict:Scott_Peterson
chunkPath=precede_find
chunkPathAndType=Justice_precede_find
synPathTypes=Justice_PERSON_nameMod
evTypeArg=Sue:companies
arg=Dell
evTypeArg=Sue:Dell
evTypeArg=Sentence:your
prevToken=suing
prevTokenAndType=Justice_suing
synPathTypes=Justice_GPE_object
prevTokenAndType=Justice_sued
chunkPathAndType=Justice_follow_on
prevTokenAndType=Justice_over
prevTokenAndType=Justice_including
anchor=find
anchor=verdict/n
anchor=prosecute
arg=Anwar_Ibrahim
anchor=lawsuits/n
prevTokenAndType=Justice_give
evTypeArg=Sue:he
synPathTypes=Justice_ORGANIZATION_subject
evTypeArg=Sentence:he
evTypeArg=Charge-Indict:he
evTypeArg=Sentence:they
prevTokenAndType=Justice_this
evTypeArg=Charge-Indict:they
evTypeArg=Convict:they
prevTokenAndType=Justice_serving
prevTokenAndType=Justice_get
prevTokenAndType=Justice_because
menType=Crime
arg=corruption
arg=blasphemy
arg=sodomy
evTypeArg=Sentence:corruption
evTypeArg=Sentence:sodomy
arg=treason
evTypeArg=Appeal:sodomy
evTypeArg=Convict:sodomy
arg=murder
chunkPath=follow_on_charge_of
chunkPathAndType=Justice_follow_on_charge_of
evTypeArg=Trial-Hearing:murder
arg=obstruction_of_justice
arg=murdering_his_wife_Laci_and_their_unborn_son
evTypeArg=Convict:murdering_his_wife_Laci_and_their_unborn_son
synPath=object-1:file:subject
synPathEvType=Justice_object-1:file:subject
chunkPath=precede_file
chunkPathAndType=Justice_precede_file
chunkPathAndType=Justice_follow_with
prevTokenAndType=Justice_as
prevToken=faces
prevTokenAndType=Justice_faces
evTypeArg=Appeal:his
evTypeArg=Appeal:Anwar
synPathTypes=Justice_PERSON_object-1:file:subject
arg=Bechtel
arg=Sam_Sloan
evTypeArg=Trial-Hearing:judge
arg=jury
menType=Sentence
arg=the_death_penalty
evTypeArg=Sentence:the_death_penalty
chunkPathAndType=Justice_precede_in
chunkPath=follow_:
chunkPathAndType=Transaction_follow_:
menType=Numeric
synPathTypes=Transaction_Numeric_object
evTypeArg=Transfer-Ownership:Iran
chunkPathAndType=Movement_follow_from
prevTokenAndType=Movement_leave
prevTokenAndType=Movement_leaving
chunkPathAndType=Movement_follow_out-of
evTypeArg=Transfer-Ownership:she
evTypeArg=Transfer-Ownership:forces
evTypeArg=Transfer-Ownership:troops
evTypeArg=Transfer-Ownership:him
evTypeArg=Transport:tanks
evTypeArg=Transport:vehicles
prevToken=aboard
prevTokenAndType=Movement_aboard
arg=prosecutors
evTypeArg=Trial-Hearing:prosecutors
evTypeArg=Charge-Indict:prosecutors
10.101270511574112
18.250075027787826
19.096616801200494
25.05100775345394
11.747270715755905
19.393844572033235
11.439118432796455
11.439118432796455
6.69916428551627
18.7991953970552
27.864786440712006
10.82040511906113
10.008397887799678
13.449708038786495
13.10415983255082
17.972052401943618
15.0714539168444
6.921552021949433
6.921552021949433
13.005687607011641
15.575514984098737
6.560666966866363
5.945645404672018
5.945645404672018
15.697659928974815
15.23606185534529
8.075119025382891
8.075119025382891
8.075119025382891
11.369626620735009
13.26966079632237
7.3788571498663496
7.3788571498663496
7.3788571498663496
6.861565438576479
6.861565438576479
6.861565438576479
6.861565438576479
6.861565438576479
20.26469649595599
13.296283910358348
10.109852783608861
10.875350942266099
11.122213634262652
14.663065960536663
14.10814176366737
28.14513146455736
15.357692972027687
20.170521585227174
6.85827970633059
20.683349235927427
13.653403028132715
10.210529697794456
10.210529697794456
12.820937735126034
8.587346541402846
7.057359882309843
12.820996733064897
13.216259864215298
6.119152481667058
2.8646890780263803
12.865532444891702
8.179301963939068
8.738897174379288
8.179301963939068
8.738897174379288
6.185276531988981
9.339503071567362
6.185276531988981
9.339503071567362
17.575452874557612
5.899505034689001
20.91800777569308
7.983007460358338
10.182153522915659
20.75248557910256
7.935524570481707
1.5113565748911935
13.00067699539066
11.898217988162365
4.560711547386479
3.6315082358750006
3.79942897986526
15.565681118635537
7.53630178898109
-6.009767345100256
4.4267964234976285
-0.8350516727363342
14.272891528012604
9.180187293911743
11.50650581030852
7.996009931913924
8.318664315445137
1.3034687142978036
-1.4423909898496747
5.026983223245856
3.848471576760418
3.0473629620167024
0.4218547327357305
0.5771951389185359
2.0915853558007225
-4.096134903029185
-4.069711209845822
-1.496674396438074
-9.347561481259115
1.2331771493670916
-0.8892326254183898
2.0029341895684523
0.5390339209984578
-6.325926918633007
-4.5887927598593246
-1.0435051652593295
1.0559154950756078
-8.040999813853754
-5.411613596033604
-3.6401970122302574
-1.378153438936807
-10.323990237989705
-3.475231157734269
-4.636133152695971
-11.224654872694748
-17.315513549661794
-10.193217261645918
-7.983448099123303
-10.75416347523231
-14.182004419003224
-4.997809565035432
-11.841227626417258
-1.4095311607406256
0.41024549574326574
3.9274053389509396
4.413866017196388
3.7410576163176295
1.4927013088083267
5.896955574272729
2.0532720933552797
-6.1098188543576395
-8.401521320806928
1.1264544438134916
-7.218255842898612
1.766434980090703
-4.968668405252259
4.865834446365375
-3.3265702745323087
-1.847565513569088
-5.304565747558229
0.09944882063276905
-1.4505108064714487
-3.3918498909585053
-12.236710506150184
-13.484670211251794
-11.826067943945299
-15.29068139524886
-8.334305520916994
-8.253267766755975
-6.326788436640755
-7.555694764941445
3.6492228549137424
-12.555264027606897
-6.583034404237495
-32.10243226641072
-6.290166085204694
-13.112297821992314
-1.3777671074362159
1.0449508885436176
3.5362596288036965
4.564974868471486
4.324149348949932
0.8386881860647235
0.3389217122853512
1.5202741454798319
-6.482265077050568
-6.885547364522083
-2.5738372183424385
-4.378878191818963
0.11040039862659246
1.273461238269058
5.5989715655440975
-2.038233520759895
-4.339151079215295
-5.37344750482127
0.45241072897744994
1.222630930697119
-8.348999090178342
-6.0506119734078805
-4.284889178633825
-3.2889181861384613
-7.41567397314216
-2.6776084484916276
-6.860270335791801
-9.945020902687983
-24.431768877546716
0.06169700686386337
-23.256769059772186
-5.726152397916056
-11.030922784011837
-3.990974297906652
-19.724261318841958
2.7021805908167744
1.149033722340906
2.513830404209597
-0.08803852268557044
1.2897903242769093
0.1381840027907062
2.4934128760449292
0.5986694054397246
-4.373308985332363
0.06306968551934089
0.5567070873861741
-9.749307508510952
0.6131825356432792
0.7122215432742305
3.897386649936826
-1.1306488772454273
-6.6513984411618425
-0.9100637064374517
-1.6113733342577383
-1.2504485858411107
-3.08946359571935
-5.964833850884822
-2.502641035642788
-0.14452281957827173
-8.767272181239841
-5.218289228534572
-2.1344188087717266
-8.155148421677765
-9.88611841987755
-12.833982846765633
-24.14730498022939
-7.8605559353257854
-2.2680709254068563
-18.72735123337686
4.242593088336122
-2.7793822728708206
3.886953638536294
2.806228510458525
4.71397065457483
-1.0429318806053418
0.4103876667789246
2.096500724461361
-3.1775159014386882
-9.503642756337113
0.9511784959588288
-35.91937853574014
-0.06384591115214366
-3.256204373431056
2.0829479237605826
-0.49530516890201515
-6.8362577756211245
-1.0700700420464075
0.9799063565587529
-1.191116895569575
-6.937831603334088
-6.385040522219728
-1.3805666231892544
1.3973285229933063
-11.540695248661393
-2.3542636661385865
-9.668300116021916
-19.582849090022524
-19.377712092425337
-13.105668512024453
-15.738157653429235
-25.458374821104677
-7.034938300366873
-10.027739641594852
0.6473906536531855
-4.066412614960834
3.879801155494307
4.131480456185428
3.3182373624631207
0.6064911496104504
1.464670555218575
2.260214045112992
-4.117593789686008
-1.2220629562694023
-4.794822390136938
-5.4564232163712765
2.398839108965422
-3.669153800044958
-0.28003065113786363
-0.08963811402673505
-6.2898728383829035
1.8815735880870885
2.8270777680448
-3.5762843313409642
-0.17908133590934017
4.6049406474700625
-13.025773187420004
-10.740895072018397
-13.870956130891074
-8.717854180419804
5.444885125525138
-24.626175460342285
-4.3405416738383185
-0.6426210384067732
-15.70438704482518
-4.620560514180075
-5.542445836474537
-2.006142928395544
1.9773542191900884
-12.507125754033321
0.45856708111536815
0.21544278277771722
2.1157434982181096
1.8242165353916349
2.746217436707635
-10.889293752823848
-1.8792536081533693
3.8008390098656046
-1.960429849129373
-9.333700362445384
-20.541242659296643
3.4353466567606437
3.2769141473481147
1.4274023549308859
-25.841443462937622
-0.9575173475233814
-2.4989454398095976
0.1875718018143826
0.18296666647615956
-2.709675538513276
-5.175529086155595
-11.142346160222138
-8.22422534242272
-16.62433065134631
0.3388865675788626
-8.068272461296761
-6.429182472137725
3.439943558059561
-4.49068756034119
0.9724697691248485
-4.3172591747687195
3.339258651442914
2.806212141709664
3.806238791138609
-0.41585981230651203
0.22577998055061066
-7.9468865449687165
2.1903453410809517
2.07104155011299
-16.409158749209947
-23.341479604144578
1.6490118672442118
-9.964868499871669
2.8947838416482705
-3.619679858066898
4.356204737237707
-21.269799574691035
-1.9449954173257298
-0.8571595321576595
-0.6114956931185285
-3.6068387597510774
-23.785652706186028
-18.578564177657775
-1.0896936054374935
2.3841585960803076
-9.332554350584784
-3.3261884804410475
-16.13249318894905
-7.275964709285377
-13.146853472497627
2.2847180376780374
-10.235868912639189
0.2843031341315059
-12.924718250282666
4.505859399316348
5.88965959656354
-1.6649508058377993
1.399795738377557
-1.3906437274756835
2.554076425424347
-2.892604436796715
-4.480668103622243
-9.029681979152187
1.4099259694347053
-0.22867165965225045
-2.7262411627681895
-0.14917207503804297
2.5461451000075916
0.7460163791270702
0.6257243408020638
1.883631813574449
1.36458787899342
-11.433318633861743
-0.010906233374649688
-4.887235200484121
-6.5592000885469215
-10.86097887984801
-1.4257102152403016
-0.8116393412989364
-2.1654330348770903
-2.562464060897845
-3.4380038637645622
11.939851298666527
1.0152171984383327
-8.606013202927812
-22.36978521342745
-2.41548715914632
-7.925148798489372
0.6657396030370353
8.871814700099133
4.348354635539733
-0.7143146472485002
-9.016019917539117
-9.947497528451262
0.7105409669842748
-11.178488330627092
4.7579479176417045
-2.211383987252976
-0.6456999665569654
-3.9666999092555915
3.4955542519765985
-0.19301099471757577
2.618384090641153
-7.1286088184724825
-1.2900905928589548
-0.33887258881619275
0.3391460418677579
-12.258582500559278
-14.249683971221264
4.001165090108749
12.800982567366773
-13.467015073681754
9.64665469910912
15.782228105280504
10.643225408069249
-2.251875831865278
-24.057301203653385
-8.009660564047023
1.4099520720784362
-5.011773565150554
-11.008366212598137
-4.715074101837728
5.217263643987195
1.9171334620135836
4.18263245889559
-2.1264459868946153
-1.3772229607612927
-11.000270658635328
-6.557543766511702
-2.583386311894939
1.7397963916911459
4.005547291397551
4.680927145346061
3.3059927845276054
-5.749921429614253
-2.92440753559328
4.231809572980695
-0.8166503961807754
-12.047179623227086
4.592818001201252
-6.1902985624974525
-3.4297103203437027
-2.9967699572663786
-9.472768281849737
-13.161368225044452
4.692794966911592
-24.42162033721856
-21.837169320918782
5.316944217897238
8.61055785463268
-16.375844536966945
-16.768790371341463
-20.6752456863418
-1.0478016939325805
-31.745239753808544
-14.766398897592738
-18.003058509069614
1.35144350698105
-29.106494581161225
-15.315957083161953
-23.6040546359608
-6.793241924189688
-16.31156401890329
-26.785079261284075
-14.042865491201754
-8.66191360548859
-24.527842813177614
2.118722777039084
-14.38491490807317
-26.69458015782705
-19.92840222473926
-5.047234371287464
-6.358898881119476
-5.343074939274575
4.113886167210664
-3.4972037502058964
-7.173728177422973
-4.997822497373308
3.636724569959161
3.4014617339158986
3.6988858701359892
-14.30801464650752
-2.1690486205520547
-3.686862406967828
-6.498244904632607
-3.5101474309787744
1.306368629680371
4.104305816508635
3.5969163056307716
-7.81000132046877
-2.0388097847940614
-2.753875769676846
-8.394312075798984
-4.047095643809122
2.9179912704178155
-17.31269678798177
-4.859708246608728
-18.67372028386884
-9.836696654447056
3.5592689749356143
-4.033894928216654
-12.156560830371973
4.828920616276382
-10.396078528696426
-0.9482452071536889
-16.960862340646187
4.237521832024971
-18.645329561301377
-0.46949088196055255
-5.1053008211529125
4.676225908932612
2.4810956561138258
3.301646306262155
-22.720403234909828
-2.133887558993723
-4.664810438647487
0.5489809778874379
-4.531482644718005
-2.817425572980307
3.7825829998961016
3.715882974292831
-6.535174771740951
-3.744228292069082
3.233029524070194
-21.119391348735846
1.5019048484844744
-4.5634487300525475
1.0984777961839114
4.466185810877672
-7.4180950928271745
-15.12255127084614
-3.2285771859702592
-4.703091848448303
2.1645961072525317
-10.70180263899851
-17.469863252488377
3.0567039965716263
3.0193354351546455
-2.213155944740061
2.159198010634145
-2.150899761209078
-4.188593712969238
-23.07032677576285
-0.8948315822267641
-1.0250557404373652
3.67910676711333
4.7828797584958105
-3.5810372620549966
-3.831080261674873
-3.8910869732774542
6.577608199680609
-2.8857292444099056
-7.551107649658474
-9.251088218722364
2.5805147843445395
-5.46103932252665
1.9969599140123218
-10.431802268684072
-5.081956279336534
-7.512960910441019
2.1285928793222575
-4.616146398717439
5.59465177981349
5.296970462634204
8.741404713603036
-0.11945963064324983
7.256379441586241
-3.556335164616545
2.351561180618079
-13.930417959910256
0.40691746606032875
9.12008997425292
-1.0086930694210734
-2.8146121897840093
1.8077860714305625
2.605354025922978
-0.3119556892084072
-7.356089118877301
-6.325277155794207
-1.9223497342745253
8.993539555387557
-2.6760145952130667
1.8038066304083782
-3.0199258327707534
0.5946509475950786
6.26850208953657
-16.68949134984186
-5.249956530716817
-1.2221828268143764
-9.980286177250502
-0.20433826124946597
-9.08698675984533
-6.429815089789343
-2.8459867517765383
5.493874289089485
0.30360722742343493
-9.731612229849949
14.696318044974714
-6.40643370853002
-13.920427726667654
-2.1939277214369413
-21.81583568812627
-3.6657188311714712
2.6554454941711
-7.563774166368093
10.92146647124292
1.3486119067464317
7.373080186653597
10.59329034539688
11.34038728152788
3.7720543970389246
3.155386949382506
-8.772633807558092
-26.28621401985107
-7.5505723150210144
2.2073336239095673
-11.93968698305286
3.850138499654804
1.7477607880319534
-10.397892136320696
2.8632836323758566
3.3386673696019384
0.030682747482630557
3.1923150309564416
-6.134254660723389
-3.522353121987869
0.41192249352844046
3.108315276435798
-13.76661754094718
-9.966450337141767
-9.63137628071224
1.4098184218062326
0.03590990570712882
-8.614412816768242
-7.709787631859392
4.805461340501898
-6.4530752584012525
-9.218691307988614
-26.97356686843815
3.7436542536526787
5.265149403012254
1.3917728399330223
-13.117416451778922
2.3535645491354535
5.914804719610851
0.8206285504560924
-2.7266298712655628
7.38752459571372
2.169139770946415
3.007511914928798
-1.1977941855211864
-14.475831152644366
-1.5285683705742867
-6.909189547819558
5.3302853839691595
-10.278382435955407
0.004658061507222255
2.1854838479593246
0.0010358511289334515
1.79881951293181
8.270971124869265
0.9909629850074184
-4.607028306925198
-19.488181595249184
-0.19800078984995384
6.270699944389197
-18.914681965160746
-13.962297984369087
10.170680501961357
-12.557112249952361
-14.971567272319152
22.310233368419375
2.5474777404934406
-0.5038105262584801
-3.6703310654246675
10.61815161160395
5.655569421338579
11.620165914567714
3.842344898022581
8.552612572796296
-18.83100123023949
-12.253271639540912
2.5423856945086682
-1.5266376314718597
3.5523841514565224
-4.846062727725437
-4.493613288440457
-7.768105807710051
6.969923265780395
25.057130450217013
7.036288299387774
2.597491951961196
5.619783518016832
5.098969864806308
6.043412911314394
1.9408395206657187
-3.568034170109466
-5.486241624049335
0.699854895413007
-4.267476951001863
-18.015504359872427
7.732461958514545
1.0181735595517338
-5.477320959334026
-27.77731031989777
-4.402395909043481
10.760728820652329
-21.337435374550257
-5.4150908130083995
-4.447246411231678
9.350590030407288
-17.68194233084186
-7.473649368713591
-6.715195563329064
12.579220069444096
12.631912149496914
-17.570944333020947
-6.867989916923151
8.318429253259355
8.458647693835735
0.607898639161478
-0.6606799557277965
-11.541073790617837
-6.501570307384982
7.89112664163446
6.9837929622176995
-7.315729313456781
8.579512603104547
5.760553933193523
-0.665601924996406
2.4679533580328448
9.51784569255368
-3.9494805856355923
5.339221610884556
5.6905732973576635
9.334744941795353
-1.5658632878489986
15.350013820807664
-29.815827919781537
10.288246492714684
2.5125138644353284
14.7533721761848
9.504000054577144
6.4442019044349195
20.47261383349885
-6.2588258116808
-0.5585067674781262
10.456752947629852
16.120794905976645
-11.810390415353387
25.682990612723557
-6.163878047619791
8.787864719808907
23.038934273856324
5.556398870485123
0.5128432835370932
-7.352305461625031
-4.942105750255726
-8.048824049515549
-10.450493325509445
3.715786648698052
-4.851039513422778
1.6850752513289555
4.778963922292341
-7.1371180631685025
5.612854478849523
-10.289640831304443
-6.658831789267975
4.0752165456333245
-0.15291644497409132
-7.773799780762721
-10.437617334341061
-8.706978317556779
-10.344740970117858
4.362371669296392
4.005547530877341
4.086184141025269
-6.974128387141831
-12.811149084225516
0.05779746445230005
3.192809659966109
3.4395646214080036
5.451022512329866
6.196238955382
-0.5576336210203718
-1.1580672359202207
3.8692389080438296
-8.19969179566135
5.37430148558847
6.6950339217394275
-7.264154220428052
-3.175987602815566
-6.2694296786580805
6.260419933508286
6.143851533693981
1.1763331011745017
-1.2653791464681121
2.1832071040335164
12.960194192869226
19.130113055677256
2.2879858600634417
-2.6469635420595132
-11.223048772494764
-3.864733433604566
-2.5293057438400663
-10.909029043649971
-4.38754127148353
32.09256280398627
22.90475714634582
8.66268711245559
3.7750670210016293
-5.680159258587413
9.99457637063698
-0.6486290976531981
3.513294955061501
1.433506023661654
5.464641240587545
3.70535939403064
18.003504918262994
5.030478040340766
-3.0858276991028086
-6.682489886593548
24.64118372577191
20.171296913946637
8.93423396104408
1.1465358683191245
-11.500547872019984
10.432135339174035
11.659185311668018
-11.257575483792158
-3.701896268934092
8.336390850001493
3.9603446431332388
4.439127100750527
-3.087603266554135
-2.625603161632977
-12.324806701840352
10.679022942072331
2.5455400858946433
0.031177898833655293
12.42576256710812
2.9966244734130565
3.956875955118011
4.130197476675092
21.34446934217216
15.075816666118731
21.340499671495124
0.030484232414129182
5.643678974966716
8.911906347738718
6.352654922152594
-4.286590197705706
3.3909798347432254
6.345905277203141
13.842353075297071
8.027578782451936
9.208036755028145
0.8824106687206732
15.766169098946955
-5.422977143687369
3.187422008957247
-2.309031900361899
8.711229631541164
6.548803216161275
16.152103591620968
-11.23491517879392
17.624889412503773
20.626031380282285
2.4433383028075655
11.08316271543327
8.156360949984002
0.736213497991021
13.917640476984765
-0.3373621160125584
15.196755353522049
8.400459813605952
12.812143073866709
29.932888561561136
15.023444535840184
2.356263447388226
12.983104436232274
6.23793064368868
5.879251124281885
0.6190534418031896
13.088242962300317
11.010462894495713
2.888125067224019
2.266343756635167
8.677002794846242
-6.519012136636315
-19.639203445456342
-22.3932891497621
-3.545359364194203
-15.623327537757692
-9.031816235120218
-17.902768729273916
-13.628122597171567
9.232804670775879
9.453861137807133
-2.260778567976313
5.167415449059325
-0.2566503618493663
-7.519541396545482
1.610100020805179
10.880867908034606
13.751338627580282
-1.4967468408304647
-17.14950389561437
36.05718491339131
9.663291263380986
8.520488681540591
-7.234145286504984
2.7084189951682855
4.602662946784347
-3.1301644807811244
6.946011535302874
-0.672999126919257
9.787913633148388
9.908564951178185
12.470854581460308
29.02017403462508
7.685003372120946
10.63215233436073
5.27145815188822
12.953791941096146
2.080612851477758
18.106348021999725
6.669427781046508
6.150945810069943
10.48534582488378
5.030931989455791
12.666432628816022
1.90338861532805
18.38851848414917
16.138238464398388
12.248325575817876
-6.986322070841262
-3.1842838307572
-1.5620907685927938
18.40476618176212
21.23480540862213
10.21069816152432
12.08121898141245
5.1100577854239555
2.25620731982923
1.5663597463358414
37.45767656117722
53.50274183445909
12.110570488381944
10.862325660817184
5.1879597711056205
-9.033627565816714
8.97250455366341
22.69661699298292
9.441884139879193
3.692524179850055
2.309323218163455
6.801960842515882
1.1931240245012837
40.45229677733402
5.153761805628978
24.837591791897314
20.531136719447353
16.520075555186523
-14.221707966543839
10.408000021290489
1.430383839341428
12.590882862901728
19.117875200082796
-8.27886612147372
7.776501811008554
9.923385328592918
6.112679846371685
13.535276699354732
9.134172886399462
13.791615823633588
4.288477179888218
3.7930336184015077
2.3595434663241943
14.554733121027475
3.3311085795154827
7.702195702237097
8.967212035798552
7.102819710466475
0.8855712065443196
5.119668316755323
6.537573468378995
6.702933934336876
-5.828054182397125
15.25835313900197
1.8585633256180265
5.2124398339926366
-8.358297809998982
6.209477635351783
1.532952136532683
0.7139387088318414
10.875587817446512
2.837096280618363
9.372604900455183
-6.374411529635235
-0.007133766012603182
2.1346702704209166
11.589778728117606
-1.397724941725363
-0.166044163197975
12.090874370988946
25.367461833809905
3.8391203942178667
5.843097882642272
12.538852460377285
7.6092373195070095
-4.319636670761578
12.229248271829032
-2.9527505235716998
-8.703166943420577
10.798194226951646
23.197482812396157
-4.093015657108731
1.6986545086460425
12.614340858878192
-12.438805358625256
0.8534589184120285
21.877939253482012
-16.792309642170192
2.5859713469592736
-2.196251792467087
13.493545941126362
8.716791427732126
8.70348760335327
21.044518068292223
-22.345855639855948
9.214334203385707
8.172424243733898
4.847753853899968
6.128022185544005
6.487940396345724
13.721707691016721
9.322123953500437
18.349667574023186
7.0941910397908
7.162182455533392
9.609629255667924
7.503676817643585
10.87553300192663
17.97537467689361
3.238646350190514
16.99650934902017
4.26369271327704
13.08372013231292
-10.31382215753608
19.6510637807383
12.570447740381217
19.28289534614329
34.39809855991554
5.771907826768315
12.045005030870712
14.569176384587157
13.374981183348705
8.878826633361935
11.801426798994644
22.554994333550006
32.822361446665326
19.6779634329709
11.342815307562079
11.691753425662615
6.646006138531813
13.27525862770341
14.12791430393251
10.90372090224469
15.269641087369283
0.1961953969477523
14.183483733714787
6.98318406973517
2.7967117424448507
27.16818995917411
-8.87379306481423
-2.4794278995402017
4.001164280970283
-2.4584665319600667
4.7993127157405695
6.936926530229019
3.8098456395018365
-2.8720668155165825
5.640077334542061
2.6925559141444193
7.541605216501198
4.818171053811069
7.165655207479317
-13.298221494200334
-4.308602622527161
0.6923803963866917
-5.431196553792165
19.41963273206845
3.2309249436734486
-1.0864532144766859
-14.55133149599273
4.287156622486567
-0.20909963406853382
-0.7368188949391086
-20.259042601224827
8.43972669136231
-13.725706651123392
-0.034380999687848815
-6.148680755701587
-16.000788959805824
-9.398411339336684
9.395701751688879
-12.906456839038603
-6.8353532143519296
-1.2262544446882564
6.378338522957527
-0.11372013878251774
6.851504337029169
-14.932708805143779
1.273921935521713
-3.3850207543452973
1.785900302580105
1.9613520727118834
-6.738455447318501
-9.106374404113238
2.9854911213283892
1.746366249952573
2.95475782815099
2.4624930826561053
0.6512882624842358
-14.169225014262645
1.4319972825156424
2.1518970488933364
4.397672946529548
-0.2110117387667252
-1.5070315622308557
-9.612119897589587
2.379474570755618
-0.5702950762902232
-1.7409885816322448
-4.879156239824782
3.3967672640958155
-10.726784254259481
-3.640700613077384
-8.066462205483347
7.249841720845298
8.289535938556785
4.908910155399182
6.173727061339838
22.832679341073554
13.879842920543602
1.5520123931990033
13.725155667773247
-2.0555162534089466
-0.26005513705932315
1.2549372912732455
5.081530710373196
2.614675125500969
4.016386228627116
18.249797604725934
13.719196255338012
10.499629797592597
10.858580376259557
9.395794655338674
7.046108578727496
8.21485712562585
15.810713783989396
-8.515820888423805
0.2062122155782193
10.640363489616188
14.159164194669458
18.686680715629798
9.096320590990507
14.157057104620883
8.923072131406284
6.416362765417899
23.612250908571774
28.602515037497348
12.823396453022092
12.941747130624456
5.543623232684746
2.9310593008976142
28.538589809866295
0.6255598952791964
12.812069609292587
7.3044690308219655
8.720937469674073
27.93879924714668
7.550498205282295
-0.1103994157601611
6.687926148476617
11.273878149092095
11.008385290589047
5.22054045776963
17.378405853901736
16.517403003696277
4.384994727593332
14.907423467386872
13.366018061603132
1.8728280095986003
10.195820387903906
17.968261557142977
17.323806157281776
13.116059096772466
3.1911301989813374
6.4143394786148855
12.2337127916278
18.66904536782625
2.105292514869132
-3.1250073981605184
20.210277707442692
18.289742356523263
19.24903215525318
8.292322615188354
5.067267533768168
4.4127359239021855
8.44754690968591
5.916935849590925
4.4127359239021855
8.44754690968591
5.916935849590925
13.175873867066759
13.637724562683669
14.569066962465286
-3.401354744216482
8.399618916859268
2.221801055081987
7.674204327410294
8.66699861635469
11.522269327181487
18.23810345834922
8.731443549433978
-8.027521931270757
21.76988921052965
41.09513422424756
9.323247845595189
4.471234468911016
5.631864132878523
20.01432142191258
17.863152002004302
11.605322804462084
1.875279594183646
-0.8386547703869528
20.055976880788002
6.76111870069894
4.9435991610946
11.315158639180874
10.460195518263365
7.918448449692073
9.520703439670788
11.355019453053629
40.91753904190877
15.914108757705662
21.830764594462025
10.447607962576363
49.489863934734196
1.48488713605249
12.418639492007772
8.722225368570204
34.05961592590686
1.9477862765378227
12.294292299665555
9.62266144808599
25.699479186187794
28.04811198209339
-0.7812379109228184
16.145081260870835
14.101920307889555
14.051319056817315
-2.9730194689414073
7.223492865949379
27.08716012528018
19.51028196694707
18.413225387735284
10.508465478932337
10.251708753429929
3.917021380847284
6.908505078412008
22.274334402725415
2.5650737327946618
13.092665270919332
21.62756655868849
25.189322277133552
-11.827502874165743
18.22670977373138
55.24408656703855
7.821725827018659
6.414401884158302
23.131253642052226
6.960602224520684
12.738289259638625
23.21667601341754
11.74254234272649
3.3683238884739697
73.07178691073436
33.2769266084238
11.510365439827645
11.253034265273618
19.304126877228416
9.69822238750753
5.790681642128848
9.69822238750753
5.790681642128848
11.89868623878817
22.623645249901802
6.206087798523225
10.548738752374813
25.77009346649064
21.382986084065948
30.54068216261461
-8.961594416833409
-11.973630832436989
21.0334193023709
23.990627452143155
-0.129234027395552
25.31211131712321
13.95300230178243
19.205524719289237
32.45132872954856
11.42438331540269
-3.648627376936715
5.21147084277951
3.8331994268792506
9.05956403864362
16.942599273891933
12.225136137688327
9.32767662208465
6.641925850104868
11.098015285336315
2.587778793746436
8.407920718272972
5.995337660641267
-3.504873617427573
7.6175526612817075
-0.22062114797367882
5.583564327588556
10.667177468359057
-8.087856009668071
0.10900942511221579
-5.056347909348389
-3.5232254836297363
-7.823579433525273
7.040436254708465
-3.9140770217880623
-3.709716374435563
8.424218793320673
3.991957468864008
-2.8292600804809886
-24.270945817173793
-6.8272809557524115
-9.058341036810727
-1.1164949896131122
-9.429295691900693
-10.092067765071304
-8.473193653002825
-8.887280858271618
-0.3265140771882753
3.903383763576424
0.5406542831236703
5.458778213586532
-2.1168931816647145
2.0167645323690007
11.8988416516851
-18.066621517360062
18.933326097902007
20.561899090811764
11.767985794831183
-1.6241342333840978
-27.866966036923568
8.28640694302668
2.418626200090049
-12.001215248593518
-6.297687406654439
-2.7397419404628187
-11.839761689197703
7.652825497643757
0.27673430243052455
10.489620377691011
3.8407199313693208
21.461983792335065
-7.0293262201814155
7.03871125026941
-5.504000567338235
-13.656538723798592
6.178110266262066
2.5358730986981195
19.303670158916333
12.898305404458082
27.391812741027238
11.717738079458469
-4.033220862948669
4.882298242173235
10.55417243263351
-4.319177229643273
-1.32794917759884
-0.013979282993451959
1.194802388470628
13.309805850477
10.3138716713489
-25.730558488136445
-28.182342353529872
-22.280493953358647
-1.0537036779298972
5.287594883049256
-10.45483389512145
-10.188263567258794
7.284046911198627
-21.362930001623216
2.1314731752613296
-15.692944077409345
7.698098188125442
0.621619789754105
-10.347553588206958
-11.373037159500266
6.293260867067513
10.591431369890252
-9.541700709075263
1.0470690321827552
-3.4942684517911524
-12.57985544629793
4.473313500897313
13.448954755332991
-1.4416150303682709
12.372025638367397
0.14705431465837737
8.57551361616368
6.171485983066008
-6.345332951620861
-5.283703260045105
-10.432786565701784
1.375156643963869
-10.799173607030221
-7.226991878650503
-7.9693043772136
2.7550778275574905
-9.927685642893293
-9.970856268052259
-1.7508754287614152
-2.7207829192579123
5.288651262545949
-8.400248655062649
-2.911048667525826
-1.7877119193569946
-5.4884782558807865
2.485023993821232
-3.9836428427935573
9.519606188920932
4.420129275391054
-7.871994828248632
-16.332129731449097
8.468314649448716
7.887031468793188
5.888350684899665
-4.449709273245127
3.7285208507243626
1.1968366694238286
-28.463034885466737
1.1853692133430125
20.866632784671896
5.405069836835681
9.013425658448883
5.219707823713682
10.241129061332272
1.6555600748131467
2.0050679308622588
-4.699875836818527
0.49530505100483313
2.994982485575274
12.155992494419563
6.693404155787274
6.1111967692912
6.360322010300317
9.313314579637856
4.201068860066021
9.453562663963043
-4.511068874787255
11.950435324443193
1.303874516147768
-8.192031275170205
-10.599787982381883
6.236446573372338
2.12583118864195
-3.756460007986396
0.3004170996451665
3.035257925736567
13.757904701239575
-1.6308014526071348
7.577956007345646
-11.0231587296658
2.842313832686262
8.066499146434259
9.16673689645203
-8.086183294091828
2.7510723996659574
-0.8719333891500103
-3.0914635923978167
17.965424029575058
6.675714062979265
2.6194615621208692
13.466763122052795
-12.134218127683132
4.483079605260588
0.4776587481897683
2.4088435090845137
-0.798590473209891
21.989832590339475
-0.49935758618192755
-4.271287098562813
11.984885500450599
-1.1363143371668498
8.821503495811262
15.268549231731598
3.130005216596519
1.4603991314480764
7.009377598437993
-1.6108069903696673
3.369578413249307
1.848613840191497
20.614590696866838
2.488048209777203
1.0835487095691718
